<?xml version="1.0"?>
<opencv_storage>
<opencv_ml_svm>
  <format>3</format>
  <svmType>C_SVC</svmType>
  <kernel>
    <type>RBF</type>
    <gamma>5.0000000000000000e-01</gamma></kernel>
  <C>4.</C>
  <term_criteria><iterations>10000000</iterations></term_criteria>
  <var_count>324</var_count>
  <class_count>2</class_count>
  <class_labels type_id="opencv-matrix">
    <rows>2</rows>
    <cols>1</cols>
    <dt>i</dt>
    <data>
      -1 1</data></class_labels>
  <sv_total>710</sv_total>
  <support_vectors>
    <_>
      1.93366364e-01 2.23541662e-01 2.23541662e-01 1.44451588e-01
      8.91634971e-02 4.66445051e-02 2.64117811e-02 5.75936921e-02
      1.07692711e-01 2.23541662e-01 2.23541662e-01 1.96196526e-01
      1.51298374e-01 1.37399942e-01 9.22314152e-02 6.59598261e-02
      1.01026192e-01 1.95209086e-01 1.92296922e-01 2.07739294e-01
      2.01502174e-01 1.70820996e-01 1.41596004e-01 8.62174854e-02
      4.70575579e-02 8.55978131e-02 1.08590476e-01 2.23541662e-01
      2.23541662e-01 2.23541662e-01 2.23541662e-01 2.13329807e-01
      1.71363130e-01 1.42989188e-01 1.89562038e-01 2.06356630e-01
      2.21469477e-01 1.73358783e-01 1.30801201e-01 1.09343104e-01
      1.74316406e-01 1.15433551e-01 9.21045765e-02 9.15750489e-02
      1.59692645e-01 2.21469477e-01 2.05793187e-01 1.16223209e-01
      1.53908804e-01 2.21469477e-01 1.72072813e-01 1.71317831e-01
      1.46518543e-01 2.21469477e-01 2.15305910e-01 2.20235392e-01
      1.90453991e-01 1.32232860e-01 1.31417617e-01 1.44127503e-01
      1.24217145e-01 1.65696442e-01 1.74724206e-01 2.21469477e-01
      2.07634673e-01 1.21315546e-01 1.03812538e-01 1.20612301e-01
      1.47007897e-01 1.31165758e-01 1.49261579e-01 2.07473099e-01
      2.31575131e-01 1.28943607e-01 7.14259073e-02 1.50995314e-01
      2.08365068e-01 1.93490773e-01 2.31575131e-01 2.14443892e-01
      2.31575131e-01 1.64738789e-01 7.49290511e-02 5.63948639e-02
      1.24300487e-01 1.53282225e-01 1.47731513e-01 2.31575131e-01
      1.76507056e-01 1.52949721e-01 1.78768069e-01 9.99082029e-02
      5.64387366e-02 1.08842574e-01 1.54662564e-01 2.13287994e-01
      2.31575131e-01 1.71922341e-01 1.61907062e-01 8.35144743e-02
      4.97488454e-02 5.06366454e-02 1.14347339e-01 1.88026458e-01
      2.31575131e-01 2.31575131e-01 2.07836106e-01 1.17818326e-01
      1.29501194e-01 1.60226792e-01 1.44732326e-01 1.42261431e-01
      1.33568376e-01 1.02442533e-01 6.84354901e-02 8.53964090e-02
      9.28882584e-02 2.11220309e-01 2.11220309e-01 2.11220309e-01
      2.11220309e-01 2.11220309e-01 1.96758196e-01 2.06412911e-01
      2.11220309e-01 2.08172217e-01 1.44788727e-01 1.23554073e-01
      9.79200453e-02 1.34506106e-01 1.63003772e-01 1.58877820e-01
      1.23261012e-01 1.92802891e-01 1.50463000e-01 1.76868856e-01
      1.44025415e-01 1.32826298e-01 1.96233332e-01 1.94356754e-01
      1.76784277e-01 1.71888456e-01 2.08416373e-01 1.79073110e-01
      1.83076307e-01 1.99717462e-01 2.03368768e-01 2.03368768e-01
      1.61220387e-01 1.78358018e-01 1.81105182e-01 2.03368768e-01
      1.84270054e-01 1.93083704e-01 2.03368768e-01 1.89585149e-01
      1.46230429e-01 1.20189562e-01 1.67258516e-01 1.19100787e-01
      1.92856029e-01 1.82901472e-01 1.23844229e-01 1.10560872e-01
      1.22132875e-01 1.49457753e-01 1.42345279e-01 1.39445826e-01
      1.36218041e-01 1.73429281e-01 1.33978605e-01 1.63277969e-01
      1.85804218e-01 2.03368768e-01 1.66420892e-01 1.45384341e-01
      1.49318784e-01 1.23179398e-01 1.66718930e-01 1.58005640e-01
      1.73000947e-01 1.42997846e-01 1.29064485e-01 1.42771289e-01
      1.44435734e-01 2.17839509e-01 2.17839509e-01 1.71647131e-01
      1.61162585e-01 1.05626017e-01 7.34225363e-02 6.82734251e-02
      1.21355608e-01 2.12689385e-01 2.17839509e-01 2.17839509e-01
      2.17839509e-01 1.54701054e-01 1.98269114e-01 1.79587588e-01
      2.17839509e-01 1.79096028e-01 1.49742991e-01 1.31638020e-01
      1.26512006e-01 1.71412066e-01 1.70791954e-01 1.50416568e-01
      1.09106578e-01 1.20437928e-01 1.44482926e-01 1.54114589e-01
      1.70668855e-01 1.77985683e-01 2.05686584e-01 1.71914861e-01
      1.90314367e-01 1.78246453e-01 1.30303770e-01 1.54569179e-01
      1.54252678e-01 2.07638308e-01 1.80556804e-01 2.23562643e-01
      2.07749218e-01 1.32878006e-01 1.71564639e-01 1.44481719e-01
      1.31972805e-01 1.49626791e-01 1.50875553e-01 1.39762327e-01
      1.88467786e-01 1.52508467e-01 2.23562643e-01 1.62674963e-01
      1.06142618e-01 1.09924003e-01 1.09725393e-01 1.64679840e-01
      2.23562643e-01 2.23562643e-01 2.23562643e-01 1.54114142e-01
      1.69015676e-01 1.49485305e-01 1.15398616e-01 1.12901852e-01
      9.44658518e-02 1.58441216e-01 1.60931662e-01 1.94581658e-01
      1.36373803e-01 1.81122780e-01 1.72322989e-01 1.67275041e-01
      1.91248745e-01 1.63124621e-01 1.48625433e-01 2.02336937e-01
      1.47152722e-01 2.12636903e-01 2.12636903e-01 2.12636903e-01
      2.12636903e-01 2.12636903e-01 1.88232377e-01 1.62352353e-01
      1.90002963e-01 1.94792569e-01 1.24283008e-01 1.68273807e-01
      1.77235454e-01 1.47690311e-01 1.24682337e-01 1.07180968e-01
      1.11833654e-01 1.39753729e-01 1.23460971e-01 1.57484829e-01
      1.36625126e-01 1.76384911e-01 1.76089108e-01 1.56882450e-01
      1.08090661e-01 1.51721850e-01 1.60106435e-01 1.31077394e-01
      2.08157569e-01 2.04274654e-01 2.08157569e-01 2.08157569e-01
      2.08157569e-01 1.43682986e-01 1.41554639e-01 1.97905988e-01
      2.08157569e-01 1.89446747e-01 1.65157586e-01 1.90861285e-01
      1.91646099e-01 2.02510431e-01 1.66756660e-01 1.70693532e-01
      1.94653302e-01 2.08157569e-01 1.40739590e-01 1.21689327e-01
      1.21661074e-01 1.23800993e-01 1.45511955e-01 8.61006156e-02
      1.38923302e-01 1.72177836e-01 1.16386414e-01 1.51471823e-01
      1.47897273e-01 1.25241369e-01 1.24144137e-01 1.56027123e-01
      1.15100667e-01 1.36969790e-01 1.79413110e-01 1.54654801e-01</_>
    <_>
      1.91410258e-01 1.61704421e-01 1.71128169e-01 1.96320653e-01
      2.16112837e-01 1.35824427e-01 5.41443937e-02 1.49290860e-01
      1.71970367e-01 2.16112837e-01 2.16112837e-01 2.16112837e-01
      2.16112837e-01 2.16112837e-01 1.44720599e-01 6.76758960e-02
      1.04304984e-01 1.59844756e-01 1.18716769e-01 1.50554597e-01
      1.59270674e-01 2.03549370e-01 1.77563280e-01 1.08025856e-01
      6.88212290e-02 1.36790320e-01 1.48602545e-01 1.47138998e-01
      1.71158329e-01 1.48360610e-01 2.16112837e-01 1.94484547e-01
      1.77140251e-01 1.39003262e-01 1.57873616e-01 1.62495613e-01
      1.94653556e-01 1.62188962e-01 2.03806818e-01 2.06002623e-01
      2.06002623e-01 1.27845690e-01 1.30216405e-01 1.13950029e-01
      1.65362611e-01 1.92402959e-01 1.32579476e-01 1.30824849e-01
      1.98749468e-01 2.06002623e-01 1.39199540e-01 1.61807388e-01
      1.30844101e-01 1.93477228e-01 1.27569377e-01 1.47005677e-01
      1.14126466e-01 1.86489478e-01 1.86529815e-01 1.78077847e-01
      2.04216257e-01 1.64882690e-01 1.60698310e-01 1.32613599e-01
      1.50626987e-01 1.24028020e-01 1.61062270e-01 2.03069925e-01
      1.54326349e-01 2.03033507e-01 1.54734194e-01 1.45661160e-01
      1.47665784e-01 1.34124815e-01 1.32762417e-01 1.51543126e-01
      2.13079095e-01 1.40437365e-01 7.95528665e-02 8.87885094e-02
      1.65356651e-01 1.77100748e-01 2.13079095e-01 1.87428176e-01
      1.82807475e-01 2.13079095e-01 1.67811081e-01 8.26337039e-02
      1.37353376e-01 2.13079095e-01 1.52134657e-01 1.67439193e-01
      1.47011399e-01 1.53162941e-01 1.85838073e-01 9.18009877e-02
      8.93371403e-02 9.75836217e-02 1.48082495e-01 2.13079095e-01
      2.13079095e-01 1.92920312e-01 2.06502616e-01 2.13079095e-01
      1.85984313e-01 1.42494038e-01 1.60667747e-01 2.13079095e-01
      1.02530301e-01 1.01399571e-01 1.13451719e-01 1.58278182e-01
      2.08273813e-01 1.42097205e-01 9.86608043e-02 1.13121964e-01
      1.15554772e-01 1.58277452e-01 1.32370859e-01 1.17648698e-01
      1.91523120e-01 2.04346985e-01 1.75875127e-01 1.34992525e-01
      1.71822697e-01 1.80237532e-01 1.64265230e-01 1.04277506e-01
      8.91422257e-02 1.14467263e-01 2.00900599e-01 1.76832169e-01
      2.07248852e-01 2.08273813e-01 1.87958747e-01 2.08273813e-01
      1.78176805e-01 1.67651042e-01 1.87717989e-01 2.08273813e-01
      2.04872742e-01 1.90414399e-01 1.95137456e-01 2.08273813e-01
      1.34673327e-01 1.33156523e-01 8.88516530e-02 1.23810604e-01
      1.68822899e-01 2.12794095e-01 1.72124654e-01 2.07379103e-01
      1.76046416e-01 1.02699727e-01 1.10657766e-01 8.40672329e-02
      8.98534954e-02 1.50584072e-01 1.85455605e-01 1.57417789e-01
      1.58664584e-01 1.23226523e-01 2.12794095e-01 1.79257721e-01
      1.70348257e-01 1.48057118e-01 1.97499514e-01 2.12794095e-01
      1.86227679e-01 1.86511114e-01 2.12794095e-01 1.88916579e-01
      1.40236005e-01 1.55362919e-01 1.43678218e-01 1.69975668e-01
      2.12794095e-01 1.52946770e-01 1.75664678e-01 2.12794095e-01
      1.51109383e-01 1.64189503e-01 1.40942097e-01 1.12962127e-01
      1.45928264e-01 9.92089286e-02 8.99296626e-02 1.02627888e-01
      1.33110672e-01 2.03086808e-01 2.09358484e-01 1.51889473e-01
      1.65998325e-01 2.09358484e-01 1.36822894e-01 1.39569268e-01
      1.32772505e-01 1.88448176e-01 2.09358484e-01 2.09358484e-01
      2.09358484e-01 1.61127910e-01 1.75492913e-01 1.70009419e-01
      1.01937920e-01 1.42702848e-01 1.96320325e-01 2.09358484e-01
      2.09358484e-01 1.57874346e-01 1.98779672e-01 2.09358484e-01
      1.46431223e-01 1.03369132e-01 1.48092732e-01 2.01738685e-01
      1.70464650e-01 9.81700718e-02 6.20904528e-02 7.08178729e-02
      8.86413530e-02 1.29166603e-01 2.35048011e-01 2.35048011e-01
      2.15231121e-01 2.35048011e-01 1.63245425e-01 1.47461951e-01
      1.19270734e-01 1.54326797e-01 1.67447284e-01 2.35048011e-01
      2.35048011e-01 2.35048011e-01 5.49466684e-02 3.66347432e-02
      3.19196694e-02 4.72566746e-02 9.13797766e-02 1.34032190e-01
      2.35048011e-01 2.06012070e-01 6.40525222e-02 1.66692927e-01
      7.42782280e-02 6.29981682e-02 1.14738904e-01 2.35048011e-01
      2.06040829e-01 2.35048011e-01 2.21337542e-01 2.12517098e-01
      2.11199149e-01 1.78417161e-01 1.65447250e-01 9.74544808e-02
      1.47309065e-01 1.82370991e-01 1.55876487e-01 1.62238970e-01
      2.11199149e-01 2.11199149e-01 1.49495408e-01 1.71447828e-01
      1.45258933e-01 2.11199149e-01 2.03611434e-01 1.47015348e-01
      1.83132008e-01 2.11199149e-01 1.68358415e-01 9.19824690e-02
      8.31620619e-02 1.30881563e-01 2.01991394e-01 1.66323498e-01
      1.96751341e-01 1.38306782e-01 1.96363896e-01 1.37960285e-01
      8.64628702e-02 1.22395769e-01 1.51601255e-01 2.11199149e-01
      2.11199149e-01 1.29490674e-01 1.20571464e-01 1.42930269e-01
      2.09845215e-01 1.66077197e-01 1.63296148e-01 1.62977472e-01
      2.11458310e-01 1.84632421e-01 1.06770054e-01 1.45579070e-01
      2.11458310e-01 2.11458310e-01 1.55051291e-01 1.12949111e-01
      1.88187778e-01 2.11458310e-01 1.41977564e-01 7.49947205e-02
      1.18866019e-01 2.06636503e-01 1.87683329e-01 9.78025571e-02
      1.29631579e-01 1.57778576e-01 2.11458310e-01 2.06853822e-01
      1.03253581e-01 9.21260118e-02 1.78845406e-01 2.11353257e-01
      1.49672493e-01 2.11458310e-01 1.97792798e-01 2.11458310e-01
      1.07659496e-01 5.50067313e-02 6.77666664e-02 1.80890366e-01</_>
    <_>
      3.02291363e-01 3.02291363e-01 3.02291363e-01 3.20864171e-02
      3.39132100e-02 5.22861630e-02 5.29355854e-02 8.95603150e-02
      2.65999943e-01 3.02291363e-01 3.02291363e-01 2.08897576e-01
      7.39713758e-02 1.36593118e-01 1.04016766e-01 8.74167234e-02
      1.65495306e-01 3.02291363e-01 1.67907313e-01 2.37342834e-01
      1.16726577e-01 8.30693394e-02 4.55065109e-02 4.24646810e-02
      3.38974334e-02 4.72836830e-02 8.79063234e-02 1.65890098e-01
      2.01719865e-01 1.18632264e-01 1.08783528e-01 7.08392039e-02
      6.76030517e-02 6.35686964e-02 6.78913966e-02 1.27263144e-01
      2.69384056e-01 1.89437851e-01 1.64348423e-01 1.17198378e-01
      2.38275617e-01 1.40234292e-01 1.08330108e-01 1.99124902e-01
      2.69384056e-01 2.69384056e-01 2.24159539e-01 2.00536877e-01
      1.00214630e-01 2.69384056e-01 1.47469163e-01 1.06390327e-01
      1.17322654e-01 2.69384056e-01 1.59541026e-01 1.63368285e-01
      9.47127566e-02 7.32787475e-02 7.98995569e-02 6.61319494e-02
      5.63926362e-02 8.23305100e-02 1.48085684e-01 2.26225898e-01
      1.69070140e-01 1.02149792e-01 8.12060609e-02 1.30123526e-01
      7.84098357e-02 8.64851028e-02 8.98100808e-02 1.95262983e-01
      2.82649189e-01 2.50734240e-01 1.46489084e-01 8.34157392e-02
      2.72355855e-01 1.62443936e-01 1.01099305e-01 7.92894214e-02
      2.82649189e-01 2.82649189e-01 1.35909244e-01 6.80433512e-02
      3.34066972e-02 4.39213403e-02 4.30590250e-02 6.27699718e-02
      7.62664750e-02 2.82649189e-01 2.82649189e-01 2.06544980e-01
      1.32480279e-01 1.12953648e-01 1.69397593e-01 1.02311283e-01
      1.22436225e-01 1.01260044e-01 2.43637443e-01 1.89011514e-01
      1.49817854e-01 1.10675424e-01 7.31846243e-02 8.57888460e-02
      7.86938667e-02 8.98501500e-02 1.06156737e-01 2.14941174e-01
      1.98402807e-01 2.26654097e-01 1.49718136e-01 1.30240753e-01
      6.94609061e-02 4.81506214e-02 3.60461101e-02 6.65706396e-02
      1.02320753e-01 2.26654097e-01 2.26654097e-01 2.26654097e-01
      2.26654097e-01 1.48332596e-01 9.46591645e-02 8.75933692e-02
      8.34440365e-02 1.82227284e-01 2.26654097e-01 1.60365298e-01
      1.35628253e-01 1.80858940e-01 1.50843456e-01 6.32059202e-02
      9.03470069e-02 1.06208466e-01 1.40195027e-01 2.26654097e-01
      2.23537564e-01 2.26654097e-01 2.26654097e-01 2.26654097e-01
      1.35177806e-01 1.55887514e-01 1.28606617e-01 2.26654097e-01
      1.65753245e-01 1.50080949e-01 1.42971084e-01 1.25030994e-01
      1.25490680e-01 6.29236549e-02 7.61485100e-02 7.54713267e-02
      1.36638820e-01 2.27884606e-01 2.22355008e-01 1.61927864e-01
      1.47841036e-01 1.07680283e-01 5.68858497e-02 7.13510662e-02
      7.44462311e-02 1.33333772e-01 1.99651986e-01 1.74678966e-01
      2.27884606e-01 2.27884606e-01 2.27884606e-01 1.37051463e-01
      1.43649146e-01 1.51386365e-01 1.93379253e-01 2.27884606e-01
      2.27884606e-01 2.27884606e-01 2.27884606e-01 2.27884606e-01
      1.24156065e-01 1.05929174e-01 1.41003117e-01 1.92384392e-01
      2.48547554e-01 2.48547554e-01 2.25769714e-01 1.93524942e-01
      1.04034208e-01 6.79062903e-02 6.88146651e-02 6.07183538e-02
      1.38068110e-01 2.15929747e-01 1.71616212e-01 1.14738405e-01
      8.59112591e-02 1.14574887e-01 6.48237988e-02 6.05819561e-02
      8.47972780e-02 1.84263259e-01 2.48547554e-01 2.48547554e-01
      2.48547554e-01 2.48547554e-01 1.41134217e-01 9.51032639e-02
      5.58499806e-02 8.41870978e-02 1.69827431e-01 2.48547554e-01
      2.48547554e-01 2.03457803e-01 9.59981754e-02 1.19459130e-01
      9.87697989e-02 6.73411712e-02 1.29169941e-01 2.22106144e-01
      1.77653462e-01 7.19756261e-02 5.11009023e-02 7.96396881e-02
      8.51164609e-02 4.25812043e-02 8.26878473e-02 9.61638317e-02
      1.50903344e-01 2.76288480e-01 1.11945502e-01 9.84836295e-02
      1.39981806e-01 1.20698348e-01 5.41495681e-02 7.61551112e-02
      8.65311474e-02 2.34392062e-01 2.76288480e-01 1.61022663e-01
      6.56879470e-02 6.33518919e-02 6.97370693e-02 1.13193825e-01
      2.76288480e-01 2.76288480e-01 2.76288480e-01 2.76288480e-01
      1.71364725e-01 8.69293809e-02 4.54701968e-02 1.06777251e-01
      1.27710536e-01 2.16240048e-01 2.76288480e-01 2.76288480e-01
      1.90829903e-01 1.28443077e-01 1.56877816e-01 1.60741687e-01
      1.28902182e-01 8.23368952e-02 6.69624582e-02 1.06622607e-01
      1.72749817e-01 2.45415136e-01 2.45415136e-01 2.45415136e-01
      2.06333667e-01 1.70222878e-01 9.66050699e-02 6.78411797e-02
      1.23699091e-01 1.83103547e-01 2.45415136e-01 1.74488112e-01
      1.18792988e-01 5.28040342e-02 6.26209006e-02 6.38170689e-02
      8.37639496e-02 2.13838935e-01 2.45415136e-01 2.45415136e-01
      2.45415136e-01 2.02982128e-01 1.15849800e-01 1.04302205e-01
      7.08476976e-02 6.82456568e-02 1.60285145e-01 2.45415136e-01
      2.32095703e-01 2.32095703e-01 1.91771016e-01 9.95923653e-02
      8.15637633e-02 6.99694380e-02 4.36664261e-02 9.32729021e-02
      1.67922273e-01 2.32095703e-01 2.32095703e-01 2.27195367e-01
      6.57263100e-02 8.53516906e-02 9.21156630e-02 5.54005653e-02
      1.22774638e-01 1.71688333e-01 2.32095703e-01 2.32095703e-01
      1.59125879e-01 1.10704750e-01 1.26511484e-01 9.88958329e-02
      9.48002189e-02 1.75593138e-01 2.32095703e-01 2.32095703e-01
      2.27989346e-01 1.71698019e-01 1.20886818e-01 1.39155522e-01
      1.35418713e-01 1.06113419e-01 2.19708309e-01 2.32095703e-01</_>
    <_>
      2.40797982e-01 1.87583134e-01 1.25824898e-01 5.33128195e-02
      8.43468830e-02 4.00192924e-02 5.93072474e-02 7.89533779e-02
      1.47663459e-01 2.64793932e-01 2.64793932e-01 2.64793932e-01
      1.26977518e-01 2.64793932e-01 1.55674607e-01 1.14506103e-01
      1.21862337e-01 2.64793932e-01 2.13055789e-01 2.37174839e-01
      1.90076917e-01 1.05866902e-01 3.89659218e-02 6.11064769e-02
      5.82860298e-02 1.06943958e-01 1.62070751e-01 2.64793932e-01
      2.64793932e-01 2.15946794e-01 9.49210152e-02 4.22392972e-02
      4.23167720e-02 3.73083800e-02 7.49948248e-02 1.56643480e-01
      2.35922530e-01 2.35922530e-01 2.35922530e-01 1.11472160e-01
      2.32450083e-01 1.26874581e-01 7.51978010e-02 8.32325220e-02
      2.35922530e-01 1.99823871e-01 1.95736572e-01 1.76907048e-01
      9.79897976e-02 1.82716191e-01 1.16635911e-01 7.37267807e-02
      1.08208328e-01 1.72931448e-01 2.15908691e-01 2.15065375e-01
      2.07415566e-01 7.76629895e-02 7.61148334e-02 5.78913018e-02
      2.64528766e-02 6.05708621e-02 1.08770423e-01 2.35922530e-01
      1.77714065e-01 1.98478162e-01 1.68211088e-01 2.35922530e-01
      1.38350666e-01 5.81435859e-02 1.03191577e-01 2.35922530e-01
      2.11733505e-01 9.22115147e-02 7.68832639e-02 9.55296829e-02
      1.77748337e-01 1.08662948e-01 9.24654454e-02 1.08834460e-01
      1.83829501e-01 2.36109018e-01 1.01590812e-01 9.12895203e-02
      1.44992962e-01 2.36109018e-01 1.40860707e-01 1.70603067e-01
      1.30463704e-01 2.04348132e-01 2.36109018e-01 8.85433555e-02
      1.15838587e-01 1.58352301e-01 2.36109018e-01 1.39157206e-01
      8.79086554e-02 9.30032581e-02 2.17954561e-01 2.36109018e-01
      1.23673014e-01 1.61734730e-01 2.36109018e-01 2.36109018e-01
      1.95583522e-01 1.45894393e-01 8.78881812e-02 2.36109018e-01
      1.06946953e-01 1.34109363e-01 1.22726277e-01 8.86384398e-02
      6.33129403e-02 7.49646351e-02 6.97095841e-02 1.27581835e-01
      1.23907514e-01 2.37632677e-01 2.02322781e-01 2.32008755e-01
      1.53955758e-01 1.91051409e-01 1.39891461e-01 8.58639851e-02
      1.23005629e-01 1.87319458e-01 1.06031209e-01 7.39048049e-02
      5.67665249e-02 3.85644026e-02 1.40509307e-01 1.10123076e-01
      1.27007693e-01 1.37688324e-01 1.84150442e-01 2.37632677e-01
      2.24281266e-01 2.37632677e-01 2.06634581e-01 2.37632677e-01
      2.37632677e-01 2.37632677e-01 2.37632677e-01 2.37632677e-01
      1.83337480e-01 1.12756208e-01 1.13167509e-01 1.07161693e-01
      1.71309829e-01 1.38321087e-01 4.59720939e-02 1.19117074e-01
      1.65724084e-01 2.32220769e-01 9.75959077e-02 9.08679664e-02
      1.43572539e-01 2.32220769e-01 1.60666436e-01 4.58161235e-02
      1.28507376e-01 2.32220769e-01 2.32220769e-01 1.28617212e-01
      1.13089137e-01 1.56954229e-01 2.32220769e-01 1.86082467e-01
      1.19639210e-01 1.67931691e-01 2.32220769e-01 2.32220769e-01
      1.37762755e-01 7.60185495e-02 1.70781538e-01 2.32220769e-01
      2.09341913e-01 1.05705470e-01 1.63175628e-01 2.32220769e-01
      1.98258549e-01 7.23304078e-02 9.98136327e-02 1.38330087e-01
      2.18043327e-01 8.65335464e-02 5.29754013e-02 6.82597682e-02
      1.68878585e-01 2.18043327e-01 1.12666368e-01 1.82203189e-01
      2.05597907e-01 2.18043327e-01 1.25251427e-01 1.39628679e-01
      9.78959724e-02 2.18043327e-01 2.18043327e-01 1.49593517e-01
      1.21786296e-01 1.45215794e-01 2.18043327e-01 1.26703113e-01
      9.68404710e-02 1.02456950e-01 1.94091976e-01 2.00949460e-01
      1.59037650e-01 2.18043327e-01 1.82130277e-01 2.18043327e-01
      1.51355341e-01 1.99339435e-01 1.96343914e-01 1.88409954e-01
      1.70677736e-01 1.15755558e-01 6.65803701e-02 3.08743529e-02
      2.31469944e-01 1.93003252e-01 1.75537616e-01 2.14078575e-01
      2.31469944e-01 1.80028886e-01 1.22020371e-01 1.21642403e-01
      9.25131217e-02 2.28155389e-01 2.00146586e-01 2.31469944e-01
      1.72640681e-01 2.31469944e-01 2.04311103e-01 1.16629370e-01
      5.99818751e-02 2.95811649e-02 2.31469944e-01 1.44364282e-01
      1.85940906e-01 2.31469944e-01 2.31469944e-01 1.57695487e-01
      1.01965562e-01 1.12156101e-01 9.93492603e-02 1.56707823e-01
      1.05793148e-01 1.07416973e-01 1.11622967e-01 1.88573882e-01
      1.77819803e-01 9.93316174e-02 8.74541476e-02 1.07661836e-01
      1.79538846e-01 1.65907681e-01 2.05354869e-01 1.51907846e-01
      1.69762507e-01 2.46983051e-01 2.24320054e-01 1.26083940e-01
      1.65135041e-01 2.46983051e-01 1.79524943e-01 1.72512084e-01
      1.60079837e-01 2.46983051e-01 2.11505547e-01 1.25742838e-01
      1.21752888e-01 1.00730434e-01 9.58687663e-02 1.06335446e-01
      1.13420092e-01 7.21942335e-02 1.05449036e-01 2.46983051e-01
      2.46983051e-01 2.29803130e-01 1.01895936e-01 1.19011439e-01
      9.43562239e-02 9.94722694e-02 8.42796937e-02 2.41679102e-01
      2.28338435e-01 2.28338435e-01 2.25545481e-01 1.57303169e-01
      2.28338435e-01 1.21033445e-01 9.45798159e-02 9.21104252e-02
      1.88101217e-01 1.73577160e-01 2.28338435e-01 2.28338435e-01
      1.96663901e-01 2.28338435e-01 1.31319031e-01 1.32162198e-01
      1.54443502e-01 1.50608778e-01 2.28338435e-01 2.28338435e-01
      2.28338435e-01 8.32943320e-02 6.77178577e-02 5.68962842e-02
      5.60430363e-02 6.34731650e-02 1.94115594e-01 2.00131163e-01
      1.94282636e-01 1.72189072e-01 7.63773248e-02 8.19621533e-02
      6.82638660e-02 7.30457157e-02 9.39443037e-02 1.92124814e-01</_>
    <_>
      1.62065625e-01 1.56689927e-01 1.54682845e-01 1.63757384e-01
      1.43711254e-01 1.33887738e-01 1.42061442e-01 1.34424120e-01
      1.21690229e-01 1.63334429e-01 1.77802756e-01 1.65936127e-01
      2.03145817e-01 2.03145817e-01 1.43051878e-01 1.32184073e-01
      1.24705181e-01 1.26082122e-01 1.95215449e-01 2.03145817e-01
      1.72702253e-01 2.03145817e-01 1.67475402e-01 1.82168826e-01
      1.50763869e-01 1.71219140e-01 1.23052411e-01 1.93296477e-01
      1.77303791e-01 1.52415827e-01 2.03145817e-01 1.90565839e-01
      2.01170534e-01 1.68454453e-01 1.71358317e-01 1.42497778e-01
      1.10658810e-01 1.27357468e-01 1.37734145e-01 1.42194152e-01
      1.49856821e-01 1.00712284e-01 9.23964381e-02 9.08415392e-02
      9.18454304e-02 2.32377633e-01 2.32978269e-01 2.32978269e-01
      2.32978269e-01 2.32978269e-01 1.51884943e-01 1.15100123e-01
      1.13881469e-01 1.41637638e-01 1.10216968e-01 1.26989231e-01
      1.49469629e-01 1.71321392e-01 1.82172328e-01 1.35147572e-01
      1.26423046e-01 9.35329795e-02 9.53885838e-02 2.32978269e-01
      2.32978269e-01 2.32978269e-01 2.32978269e-01 2.32978269e-01
      1.85859919e-01 1.49004996e-01 1.21943295e-01 1.53200448e-01
      1.99193373e-01 2.06966802e-01 2.06966802e-01 2.06966802e-01
      1.92371532e-01 1.17053807e-01 8.87577981e-02 8.26592669e-02
      1.07573695e-01 1.59228295e-01 1.53489396e-01 1.64990112e-01
      1.78214714e-01 1.90932155e-01 1.89909533e-01 1.91505894e-01
      1.45680040e-01 1.49958104e-01 1.82501927e-01 1.85328662e-01
      1.96370631e-01 2.06966802e-01 1.80279374e-01 1.39208734e-01
      1.01356044e-01 1.14227399e-01 1.16332978e-01 1.29657999e-01
      1.44621029e-01 1.65066019e-01 1.70365319e-01 1.79096401e-01
      2.06966802e-01 2.06966802e-01 1.62422836e-01 1.26678020e-01
      1.58397332e-01 1.78881168e-01 1.17508389e-01 1.81186870e-01
      1.52646929e-01 1.68218255e-01 1.04621954e-01 1.10206738e-01
      1.22616947e-01 1.70932934e-01 1.44123912e-01 1.23858400e-01
      1.66347802e-01 1.73027456e-01 1.84357122e-01 1.34927899e-01
      1.34411648e-01 1.40989810e-01 1.80624083e-01 1.67850494e-01
      1.35885224e-01 2.09838226e-01 1.99680761e-01 2.09838226e-01
      1.25864923e-01 1.04625404e-01 1.76277295e-01 2.09838226e-01
      1.83610335e-01 1.73226818e-01 2.09838226e-01 2.09838226e-01
      2.09838226e-01 1.49716780e-01 1.41479015e-01 2.09838226e-01
      1.21195838e-01 1.24048822e-01 1.32292688e-01 1.76816374e-01
      1.60926849e-01 1.46970138e-01 1.21453330e-01 9.40898284e-02
      1.13869652e-01 1.71188086e-01 2.07316026e-01 2.07316026e-01
      2.07316026e-01 2.07316026e-01 1.51940376e-01 1.47422478e-01
      1.17019705e-01 1.44922346e-01 1.95098519e-01 1.81441322e-01
      1.68429270e-01 1.73576787e-01 1.87880203e-01 1.80453211e-01
      1.35036543e-01 1.20681673e-01 1.74774081e-01 1.84953555e-01
      2.01368436e-01 1.72760114e-01 2.07316026e-01 1.91467062e-01
      1.66226685e-01 1.67220414e-01 1.54654741e-01 1.72725692e-01
      1.30844772e-01 1.49113640e-01 1.41223922e-01 1.71048731e-01
      1.75970614e-01 1.41428947e-01 1.14786237e-01 1.63967609e-01
      1.28147408e-01 1.14528403e-01 1.40929744e-01 1.56255037e-01
      1.74354628e-01 2.07621977e-01 2.07621977e-01 1.73576787e-01
      1.82997853e-01 1.41817555e-01 1.53167933e-01 1.29100636e-01
      1.38418600e-01 1.88099980e-01 2.07621977e-01 1.54304549e-01
      1.42845348e-01 1.79414898e-01 1.50925279e-01 1.84908643e-01
      1.55431196e-01 1.87406003e-01 2.07621977e-01 2.07621977e-01
      1.69428036e-01 1.77957878e-01 1.79679483e-01 1.86756477e-01
      1.39874786e-01 1.25863746e-01 1.61013260e-01 2.03700945e-01
      1.81838363e-01 1.86652526e-01 1.41504914e-01 1.03245653e-01
      1.78505778e-01 1.80845946e-01 1.70418009e-01 1.80191696e-01
      1.90433517e-01 1.99125007e-01 2.03700945e-01 1.45114422e-01
      1.10659778e-01 1.79668978e-01 1.11437082e-01 1.38903663e-01
      1.51918128e-01 1.70014054e-01 1.72612563e-01 1.48402601e-01
      1.83285221e-01 1.02300845e-01 1.63468152e-01 1.89403966e-01
      1.76511958e-01 1.83548748e-01 2.03700945e-01 2.03700945e-01
      1.74934655e-01 1.70276463e-01 1.11194357e-01 1.59719706e-01
      1.88261896e-01 1.98173448e-01 1.60366088e-01 1.61683738e-01
      1.53795600e-01 1.44242391e-01 1.43283129e-01 1.25057027e-01
      1.61294475e-01 1.73403442e-01 1.76954508e-01 1.33635297e-01
      1.80496216e-01 1.53777719e-01 1.45040229e-01 1.61133036e-01
      1.53798163e-01 1.71756104e-01 1.86118558e-01 1.89458668e-01
      1.77311435e-01 1.87635645e-01 1.87102735e-01 1.52923182e-01
      1.44530118e-01 1.28197491e-01 1.83568463e-01 1.35278583e-01
      1.93726957e-01 1.48328245e-01 1.65136427e-01 1.88727140e-01
      1.93167821e-01 1.47457302e-01 1.49224013e-01 2.01268226e-01
      1.56255454e-01 1.41844764e-01 1.61542505e-01 1.88806042e-01
      1.88620418e-01 1.40940353e-01 1.43765017e-01 1.25052422e-01
      1.41618341e-01 1.77527845e-01 1.93158925e-01 2.20048338e-01
      2.20048338e-01 2.20048338e-01 1.52362511e-01 1.83262855e-01
      1.44913942e-01 1.65327400e-01 9.43014175e-02 1.25672832e-01
      2.03988686e-01 2.08697617e-01 2.10198939e-01 1.52380824e-01
      1.21453963e-01 9.37985256e-02 1.25678420e-01 9.86300483e-02
      1.52915061e-01 2.20048338e-01 2.20048338e-01 2.20048338e-01
      1.47849545e-01 1.47139892e-01 9.49361250e-02 1.14002831e-01</_>
    <_>
      1.21844582e-01 7.67665952e-02 1.35806799e-01 1.24607392e-01
      2.30345517e-01 1.66215762e-01 8.98289904e-02 9.11349058e-02
      1.36824504e-01 1.22117661e-01 3.33757609e-01 3.33757609e-01
      1.07757084e-01 1.91557616e-01 1.00766130e-01 5.05864769e-02
      6.14715442e-02 9.47796926e-02 1.11852847e-01 1.46281108e-01
      3.33757609e-01 1.84197351e-01 1.27384245e-01 7.29422793e-02
      5.20910844e-02 6.05941676e-02 9.35411453e-02 7.75442719e-02
      3.33757609e-01 3.33757609e-01 2.55789667e-01 5.24469502e-02
      1.91846862e-02 2.01765932e-02 1.63889732e-02 2.74393316e-02
      1.39786333e-01 3.25777501e-01 3.25777501e-01 6.27300888e-02
      6.65351376e-02 2.19118837e-02 1.59828514e-02 2.87454519e-02
      5.19494191e-02 3.03530782e-01 3.25777501e-01 3.25777501e-01
      6.46063685e-02 5.80592342e-02 3.44880372e-02 2.50468291e-02
      3.83400545e-02 8.86972845e-02 9.47477371e-02 3.25777501e-01
      3.25777501e-01 1.35100931e-01 2.03288570e-02 4.35905019e-03
      2.96637346e-03 8.09302088e-03 2.34882962e-02 1.69763446e-01
      3.25777501e-01 1.95121631e-01 9.12511945e-02 5.06890155e-02
      1.16858203e-02 1.23087196e-02 2.73452289e-02 6.10230677e-02
      2.82112479e-01 2.82112479e-01 2.57406145e-01 5.60075045e-02
      4.65919226e-02 3.31150480e-02 3.02065108e-02 4.59081531e-02
      2.05007836e-01 2.82112479e-01 2.82112479e-01 1.64506242e-01
      2.60893647e-02 2.47724149e-02 1.39639806e-02 2.17808578e-02
      4.57385108e-02 2.54137069e-01 2.57932782e-01 2.82112479e-01
      1.49798885e-01 1.03244729e-01 7.24322125e-02 3.20813358e-02
      3.12833078e-02 6.07535467e-02 1.36621371e-01 2.82112479e-01
      2.82112479e-01 1.44317612e-01 6.42150119e-02 3.70684005e-02
      3.35842818e-02 3.96093689e-02 7.57990330e-02 2.50295609e-01
      7.62044340e-02 1.32355615e-01 3.12033802e-01 3.12033802e-01
      9.68442783e-02 3.32737789e-02 1.68358088e-02 3.42048742e-02
      5.51855005e-02 4.68420833e-02 1.88014567e-01 3.12033802e-01
      3.12033802e-01 4.98118885e-02 6.46394677e-03 3.88076343e-03
      3.30072083e-03 5.68122789e-03 6.67345598e-02 9.37091410e-02
      3.12033802e-01 3.12033802e-01 3.12033802e-01 6.40525296e-02
      1.66766793e-02 3.18750553e-02 7.65497759e-02 2.27772724e-02
      8.26609731e-02 3.01071256e-01 3.12033802e-01 1.26835197e-01
      2.90420000e-02 5.67724975e-03 6.79575186e-03 5.51829487e-03
      1.59494489e-01 2.79508233e-01 2.79508233e-01 2.79508233e-01
      1.08574405e-01 2.68362295e-02 1.36712119e-02 2.00134721e-02
      5.21813184e-02 2.20947713e-01 2.79508233e-01 2.79508233e-01
      2.43875340e-01 1.46687090e-01 5.00496924e-02 4.65097800e-02
      8.74694288e-02 1.34626448e-01 8.66610110e-02 1.77964360e-01
      2.79508233e-01 2.79508233e-01 2.32439980e-01 8.29002559e-02
      4.92138304e-02 5.17816059e-02 5.34332804e-02 1.13295026e-01
      1.41525045e-01 1.73524827e-01 1.55757084e-01 1.45020157e-01
      9.36860517e-02 9.42738876e-02 8.78703520e-02 8.44305158e-02
      2.36663222e-01 2.36663222e-01 1.74318179e-01 1.74700618e-01
      1.61754474e-01 9.98623446e-02 6.23169243e-02 1.13184653e-01
      1.71229213e-01 2.36663222e-01 2.36663222e-01 2.36663222e-01
      1.42827079e-01 1.43480584e-01 1.05140120e-01 1.10871077e-01
      1.48539439e-01 2.36663222e-01 1.52875334e-01 1.74820676e-01
      1.45893201e-01 1.23833828e-01 1.53021067e-01 9.87289101e-02
      7.58414641e-02 9.82167944e-02 1.00529291e-01 2.11813942e-01
      2.36663222e-01 2.36663222e-01 1.69976145e-01 2.04187989e-01
      1.02332465e-01 1.09100707e-01 1.23466477e-01 1.33474052e-01
      4.90945242e-02 5.27689271e-02 2.02801049e-01 2.95955181e-01
      2.95955181e-01 2.95955181e-01 1.00224838e-01 4.04623449e-02
      5.64938858e-02 2.09876709e-02 4.72628996e-02 1.40858546e-01
      2.27763832e-01 1.98688641e-01 1.14209995e-01 5.55521324e-02
      4.39851023e-02 2.54824348e-02 2.15503778e-02 3.56858112e-02
      2.19005242e-01 2.36488268e-01 2.95955181e-01 2.95955181e-01
      2.81935036e-01 4.08734903e-02 1.94397811e-02 6.32817224e-02
      2.32987814e-02 6.20079003e-02 9.21758786e-02 1.77399024e-01
      2.54053473e-01 1.98267192e-01 1.20991394e-01 1.06303632e-01
      9.27533358e-02 1.07491501e-01 1.79822877e-01 2.00473219e-01
      2.16925621e-01 1.26734123e-01 1.30265221e-01 1.41675681e-01
      9.44251865e-02 1.38344228e-01 1.37006804e-01 1.42204896e-01
      1.32747442e-01 1.46964386e-01 1.20461799e-01 1.70431122e-01
      1.64919630e-01 1.01583183e-01 2.16925621e-01 1.09564438e-01
      1.46463990e-01 1.11309618e-01 1.33430257e-01 1.44449696e-01
      2.16925621e-01 2.16925621e-01 2.16925621e-01 2.16925621e-01
      2.16925621e-01 2.16925621e-01 1.51632816e-01 1.32344916e-01
      1.51117235e-01 2.16925621e-01 2.16925621e-01 2.15116560e-01
      1.94156453e-01 2.05632254e-01 1.67160466e-01 1.06602855e-01
      9.92213562e-02 6.63216636e-02 1.12265736e-01 1.25983492e-01
      1.00149527e-01 2.25217253e-01 2.72689551e-01 2.59852171e-01
      1.33147404e-01 1.19207330e-01 6.50932416e-02 8.38214159e-02
      9.32472497e-02 1.14580862e-01 2.72689551e-01 2.72689551e-01
      2.21796378e-01 1.02387562e-01 1.00457005e-01 8.62904564e-02
      1.15029000e-01 1.51303202e-01 1.64252773e-01 2.72689551e-01
      2.72689551e-01 2.72689551e-01 8.33825693e-02 8.56473967e-02
      6.22599572e-02 6.83422163e-02 1.05322495e-01 1.46844685e-01</_>
    <_>
      1.95155859e-01 1.29413590e-01 1.02751061e-01 1.10148929e-01
      1.86641574e-01 1.08111918e-01 1.28566384e-01 1.34877786e-01
      1.65312886e-01 1.77904963e-01 1.04833007e-01 9.68043506e-02
      1.29536882e-01 2.08943918e-01 1.14974067e-01 1.17399238e-01
      1.23048529e-01 1.87194049e-01 2.23309159e-01 1.31126866e-01
      1.67094618e-01 1.35060757e-01 2.23309159e-01 2.05579028e-01
      1.83097675e-01 1.65441170e-01 2.23309159e-01 2.23309159e-01
      8.75458717e-02 9.42009166e-02 1.45944938e-01 2.23309159e-01
      2.15518951e-01 2.04923287e-01 1.73325792e-01 2.23309159e-01
      1.59429178e-01 1.28268108e-01 1.01613738e-01 1.35806933e-01
      1.40609533e-01 9.48680267e-02 9.37702507e-02 8.19136202e-02
      1.43653363e-01 2.14714587e-01 1.51593655e-01 1.18863083e-01
      1.47728994e-01 1.50567368e-01 1.51233599e-01 1.57748058e-01
      1.06362231e-01 2.24583104e-01 2.15086147e-01 1.09381497e-01
      8.91746953e-02 1.58748478e-01 2.24583104e-01 1.98471069e-01
      1.67988598e-01 1.55933723e-01 2.24583104e-01 2.24583104e-01
      1.42510712e-01 1.28178671e-01 1.61261857e-01 2.24583104e-01
      2.12974563e-01 2.14448705e-01 1.88173518e-01 2.24583104e-01
      2.14295149e-01 1.37703031e-01 9.63311046e-02 1.33660197e-01
      1.77293435e-01 1.67077124e-01 1.85128704e-01 1.33492485e-01
      2.14295149e-01 2.14295149e-01 1.20949142e-01 8.24743062e-02
      8.00931007e-02 1.25622809e-01 1.57961339e-01 1.93900481e-01
      1.83516115e-01 2.14295149e-01 2.14295149e-01 1.37575656e-01
      1.54521137e-01 1.53729752e-01 2.14295149e-01 1.97098598e-01
      2.04372302e-01 1.79305255e-01 2.14295149e-01 1.66204363e-01
      9.79295373e-02 1.11468799e-01 1.11976147e-01 1.41059697e-01
      1.92735612e-01 1.66102394e-01 1.76421985e-01 1.47848710e-01
      1.93582371e-01 1.08621694e-01 1.28669456e-01 1.24980256e-01
      2.20433161e-01 1.73558354e-01 1.19500034e-01 1.12865970e-01
      2.15085298e-01 2.20433161e-01 9.83500779e-02 8.87964889e-02
      1.02062218e-01 2.20433161e-01 1.62966326e-01 1.38166219e-01
      1.33293048e-01 2.20433161e-01 2.20433161e-01 1.32949889e-01
      1.25006825e-01 2.12198988e-01 2.20433161e-01 1.72343299e-01
      1.14802502e-01 1.56368360e-01 2.20433161e-01 2.20433161e-01
      1.33287102e-01 1.02383323e-01 1.10567123e-01 2.20433161e-01
      1.03987589e-01 1.37231827e-01 1.40944272e-01 2.20433161e-01
      2.32345447e-01 1.22921951e-01 7.81348050e-02 1.09640360e-01
      2.32345447e-01 1.65848985e-01 9.99837965e-02 1.27743974e-01
      2.32345447e-01 2.32345447e-01 1.22221649e-01 1.10067040e-01
      1.27073750e-01 2.32345447e-01 1.42008230e-01 8.86858180e-02
      1.22309431e-01 2.32345447e-01 2.32345447e-01 1.39413431e-01
      9.05032828e-02 1.10112824e-01 2.32345447e-01 1.18547365e-01
      1.37562558e-01 1.22013815e-01 2.32345447e-01 2.32345447e-01
      1.36460975e-01 1.21144801e-01 1.28527969e-01 2.32345447e-01
      1.40588999e-01 8.62502232e-02 1.09447919e-01 2.32345447e-01
      1.99939355e-01 1.12148516e-01 1.60721511e-01 1.36117324e-01
      2.21995711e-01 1.40799552e-01 9.80639905e-02 1.35814533e-01
      2.21995711e-01 1.65616870e-01 1.24802306e-01 1.47498563e-01
      1.31605342e-01 2.08465442e-01 1.55238166e-01 9.69883949e-02
      1.19774975e-01 1.74000680e-01 2.16265202e-01 1.51329637e-01
      1.38722897e-01 1.54933169e-01 2.21995711e-01 1.38132632e-01
      8.80774409e-02 1.42745614e-01 2.21995711e-01 2.21995711e-01
      1.71149999e-01 1.53065801e-01 1.95110306e-01 2.21995711e-01
      1.54499933e-01 1.30728230e-01 1.35267243e-01 2.08429024e-01
      2.18272522e-01 1.26824647e-01 1.10116951e-01 2.18272522e-01
      2.18272522e-01 1.93372801e-01 1.73527539e-01 2.18272522e-01
      2.18272522e-01 2.18272522e-01 1.33730367e-01 1.22271910e-01
      1.69682309e-01 2.18272522e-01 1.21478796e-01 1.63686737e-01
      1.78567007e-01 2.18272522e-01 1.17673047e-01 6.78083897e-02
      7.52577186e-02 9.45549458e-02 1.14773914e-01 1.31180450e-01
      1.78949550e-01 1.85900018e-01 1.82108879e-01 1.97296128e-01
      1.01849198e-01 1.02857180e-01 1.30602986e-01 1.40033126e-01
      1.12114720e-01 1.77271992e-01 1.85844481e-01 2.18272522e-01
      2.33663678e-01 1.52027920e-01 1.41049966e-01 1.63139716e-01
      2.33663678e-01 1.16782501e-01 1.83348268e-01 1.38059974e-01
      2.33663678e-01 2.33663678e-01 1.92309305e-01 1.83260292e-01
      1.26592517e-01 2.33663678e-01 1.32901698e-01 1.30342796e-01
      1.29170477e-01 2.33663678e-01 2.04324573e-01 1.19805090e-01
      9.56608355e-02 1.04303196e-01 1.56203553e-01 6.94756582e-02
      1.17082871e-01 1.46271765e-01 2.07407638e-01 2.33663678e-01
      1.36021346e-01 9.76855978e-02 5.19877747e-02 1.81319520e-01
      6.05543777e-02 9.09859240e-02 1.67207852e-01 2.33663678e-01
      2.28683561e-01 1.66398078e-01 1.29617080e-01 1.08577564e-01
      2.37906560e-01 1.12968057e-01 7.43669495e-02 1.37326509e-01
      2.37906560e-01 2.09164411e-01 2.02802584e-01 2.37906560e-01
      1.48659527e-01 2.37906560e-01 1.46180421e-01 1.31069914e-01
      1.25378907e-01 1.99549511e-01 2.37906560e-01 2.04920188e-01
      1.43916085e-01 5.05470522e-02 1.20980814e-01 5.33305965e-02
      6.56551197e-02 1.16773009e-01 2.14325175e-01 1.99056566e-01
      2.37906560e-01 2.37906560e-01 7.66070560e-02 1.17376231e-01
      7.88870826e-02 1.45053312e-01 8.70453343e-02 1.17911279e-01</_>
    <_>
      7.46987760e-02 1.29007041e-01 2.46559426e-01 2.46559426e-01
      1.40342042e-01 3.06498930e-02 2.10444313e-02 2.23065149e-02
      2.92041339e-02 2.46559426e-01 1.37650430e-01 2.10043609e-01
      2.46559426e-01 2.46559426e-01 1.71839461e-01 1.59748271e-01
      1.06502287e-01 1.83303744e-01 7.52217546e-02 6.53876439e-02
      2.25363806e-01 2.35280558e-01 2.46559426e-01 1.20344482e-01
      6.14451617e-02 3.56060378e-02 5.31328171e-02 2.21712053e-01
      1.10822976e-01 2.23694697e-01 1.82078823e-01 2.46559426e-01
      1.25260532e-01 1.50433496e-01 9.90467519e-02 1.81925386e-01
      2.29369760e-01 7.65497163e-02 1.19199648e-01 1.95478454e-01
      2.29369760e-01 2.08086416e-01 2.00156748e-01 1.32977530e-01
      2.29369760e-01 2.29369760e-01 9.76783857e-02 9.84945297e-02
      1.42883703e-01 2.29369760e-01 1.24791764e-01 1.57142386e-01
      1.11145362e-01 2.29369760e-01 2.29369760e-01 8.80061686e-02
      1.84161127e-01 1.18745446e-01 2.29369760e-01 1.21177606e-01
      1.48434162e-01 1.13332763e-01 2.26384178e-01 1.66099414e-01
      9.52464342e-02 1.18965797e-01 1.01339228e-01 2.29321986e-01
      8.79419297e-02 1.11452825e-01 8.41862634e-02 1.66532919e-01
      2.15824753e-01 1.86378747e-01 1.42921790e-01 2.00717077e-01
      2.15824753e-01 1.44361809e-01 1.54644459e-01 1.29410326e-01
      2.15824753e-01 1.48022681e-01 1.38318777e-01 1.18788153e-01
      1.23653062e-01 1.90204605e-01 1.83519244e-01 1.89080968e-01
      1.70476660e-01 2.15824753e-01 1.28245175e-01 1.26274273e-01
      1.31302357e-01 1.39800623e-01 2.15824753e-01 1.25236124e-01
      1.19696900e-01 9.66302231e-02 1.79486945e-01 1.16286524e-01
      1.17287673e-01 1.23242974e-01 1.22074693e-01 2.15824753e-01
      2.15824753e-01 2.06925377e-01 1.83065310e-01 1.87805146e-01
      1.22026563e-01 4.90246527e-02 1.08048119e-01 1.81320682e-01
      2.51318216e-01 2.51318216e-01 2.23441184e-01 6.54419586e-02
      9.21490565e-02 2.51318216e-01 1.00404143e-01 1.94932789e-01
      2.10478097e-01 2.51318216e-01 1.89211592e-01 1.48484886e-01
      9.23588797e-02 2.12145209e-01 6.53741285e-02 2.21867058e-02
      2.31179297e-02 4.13098186e-02 1.47085801e-01 2.51318216e-01
      2.51318216e-01 1.97069004e-01 9.05948579e-02 9.71550196e-02
      4.03273590e-02 3.74227501e-02 5.64401373e-02 1.74421072e-01
      1.66541398e-01 2.49126211e-01 2.40170792e-01 1.44815624e-01
      2.48758823e-01 1.11803085e-01 1.77285761e-01 1.36552677e-01
      2.48758823e-01 1.41110480e-01 1.25861481e-01 1.07127227e-01
      2.48758823e-01 1.42529666e-01 1.15356773e-01 1.22006379e-01
      9.22892243e-02 1.65191159e-01 8.93369168e-02 1.01063333e-01
      8.97467285e-02 1.53753355e-01 1.25356331e-01 5.41734397e-02
      5.01973666e-02 4.64950688e-02 1.68433145e-01 1.84314474e-01
      2.48758823e-01 2.48758823e-01 2.12391302e-01 1.78465292e-01
      7.59033263e-02 8.37641582e-02 4.84536998e-02 1.37183025e-01
      2.48758823e-01 2.48758823e-01 2.48758823e-01 2.48758823e-01
      9.28996578e-02 9.73064899e-02 1.16863273e-01 9.77309346e-02
      1.23273149e-01 8.90714377e-02 9.41943154e-02 8.83905888e-02
      1.19097598e-01 1.40612841e-01 1.06678613e-01 1.62598535e-01
      1.40138090e-01 2.28487238e-01 2.21010119e-01 2.10550025e-01
      1.94974035e-01 1.66859135e-01 1.28334627e-01 8.44599605e-02
      9.75767970e-02 8.08622092e-02 1.09801345e-01 2.28487238e-01
      2.28487238e-01 2.28487238e-01 2.13400081e-01 2.19657779e-01
      1.78462580e-01 2.28487238e-01 1.69401228e-01 2.28487238e-01
      1.95416763e-01 8.45049247e-02 2.22077683e-01 2.28487238e-01
      9.49612558e-02 3.79236490e-02 2.22352315e-02 2.76943091e-02
      6.19845837e-02 1.57477289e-01 2.49706194e-01 2.49706194e-01
      1.62358731e-01 9.79701579e-02 5.03585078e-02 3.21560241e-02
      3.91101725e-02 8.94144401e-02 1.69622824e-01 2.49706194e-01
      2.49706194e-01 2.06464082e-01 2.39081129e-01 9.12870765e-02
      8.59550014e-02 8.28913301e-02 2.49706194e-01 1.51196226e-01
      1.87828660e-01 2.10189298e-01 2.49706194e-01 2.01277092e-01
      1.03843033e-01 6.94048777e-02 9.32947397e-02 1.43610045e-01
      1.58415094e-01 2.12744981e-01 2.49706194e-01 2.49706194e-01
      8.28657672e-02 3.76011133e-02 3.51572596e-02 2.87079681e-02
      1.06106013e-01 1.79198265e-01 2.59962857e-01 2.59962857e-01
      2.12401852e-01 1.46618202e-01 4.31812815e-02 4.72742468e-02
      2.86329053e-02 1.02979019e-01 2.59962857e-01 2.59962857e-01
      2.59962857e-01 2.59962857e-01 9.53970030e-02 6.99453875e-02
      5.64199574e-02 8.79583433e-02 1.06991842e-01 1.89445212e-01
      2.00552583e-01 2.59962857e-01 2.04086438e-01 8.60001296e-02
      4.14837264e-02 3.82955112e-02 5.56155816e-02 7.78725445e-02
      1.87595114e-01 2.46824056e-01 2.59962857e-01 2.25682989e-01
      1.91915274e-01 9.70987678e-02 8.09335709e-02 7.17250034e-02
      1.15339927e-01 2.49785289e-01 2.49785289e-01 2.49785289e-01
      2.49785289e-01 2.17640162e-01 2.13459224e-01 2.24185541e-01
      1.54053032e-01 2.49785289e-01 1.40410036e-01 5.98636456e-02
      1.50794983e-01 2.32863337e-01 1.75816193e-01 1.11345612e-01
      7.27241188e-02 4.21150625e-02 5.38047552e-02 1.24605365e-01
      2.02106565e-01 2.49785289e-01 2.49785289e-01 1.34085357e-01
      1.70169279e-01 1.52731791e-01 5.86263426e-02 8.08916986e-02
      4.77079637e-02 6.33601621e-02 9.71392095e-02 1.29228368e-01</_>
    <_>
      2.28610635e-01 2.28610635e-01 2.08207548e-01 1.24711961e-01
      2.28610635e-01 1.17237680e-01 1.01637341e-01 7.66403899e-02
      2.28610635e-01 2.28610635e-01 1.75881907e-01 1.51666746e-01
      1.44777760e-01 2.28610635e-01 1.69711694e-01 1.51571110e-01
      1.24715701e-01 2.28610635e-01 2.12259665e-01 1.90676764e-01
      1.41801000e-01 1.07631050e-01 2.08921134e-01 1.33773938e-01
      4.70447727e-02 4.85760830e-02 1.36068702e-01 2.28610635e-01
      1.39212608e-01 1.08095109e-01 1.24258302e-01 2.28610635e-01
      7.94385225e-02 4.52698991e-02 4.92350906e-02 2.03092411e-01
      2.43739083e-01 1.55887544e-01 1.35970876e-01 1.31218538e-01
      2.43739083e-01 1.45125374e-01 1.04305014e-01 1.00421384e-01
      2.04425380e-01 2.43739083e-01 1.64431810e-01 7.50713721e-02
      9.06146094e-02 2.03742474e-01 7.17354715e-02 4.28624116e-02
      6.96001500e-02 2.43739083e-01 2.43739083e-01 1.30428553e-01
      8.80341306e-02 1.42360955e-01 2.43739083e-01 1.05782442e-01
      4.85077053e-02 1.33794233e-01 2.43739083e-01 2.43739083e-01
      1.34790942e-01 9.78079438e-02 1.46087810e-01 1.78545281e-01
      1.05049253e-01 8.76769423e-02 2.20659018e-01 2.43739083e-01
      2.29630977e-01 1.33991644e-01 6.23230636e-02 9.46644992e-02
      2.16439188e-01 7.70944729e-02 6.51560649e-02 1.18523352e-01
      2.29630977e-01 2.29630977e-01 9.76012424e-02 6.84575066e-02
      1.31055325e-01 2.10289925e-01 2.10182890e-01 2.29630977e-01
      2.29630977e-01 2.29630977e-01 2.29630977e-01 9.56473872e-02
      1.15122095e-01 1.15831591e-01 1.50114149e-01 1.03108421e-01
      1.16824470e-01 1.66950598e-01 2.29630977e-01 2.07078159e-01
      8.67482573e-02 1.11791447e-01 1.02615342e-01 1.95440754e-01
      1.24474220e-01 1.53978750e-01 2.00310409e-01 2.29630977e-01
      2.40527272e-01 2.40527272e-01 2.40527272e-01 1.46939412e-01
      2.40527272e-01 2.14681625e-01 6.75681680e-02 7.96648413e-02
      2.26266503e-01 2.40527272e-01 2.40527272e-01 1.37625545e-01
      1.76559031e-01 2.40527272e-01 1.12975687e-01 6.21170811e-02
      8.17244500e-02 2.40527272e-01 1.62847832e-01 1.47611961e-01
      1.47672161e-01 8.85987207e-02 1.23042151e-01 8.10456797e-02
      7.07245544e-02 9.62837487e-02 1.49133459e-01 1.72934100e-01
      1.46910489e-01 1.54041156e-01 1.85614422e-01 2.30308712e-01
      1.03683859e-01 5.39613441e-02 6.98085576e-02 1.18878864e-01
      2.54181951e-01 1.19287655e-01 7.23979771e-02 9.77827981e-02
      1.73124596e-01 7.69079700e-02 4.59422842e-02 1.52823627e-01
      2.54181951e-01 2.54181951e-01 1.23445548e-01 9.18979719e-02
      9.34324339e-02 1.40670523e-01 1.22612238e-01 1.83347136e-01
      2.54181951e-01 2.54181951e-01 1.61867693e-01 9.98810530e-02
      1.03491217e-01 9.37556177e-02 1.66285545e-01 9.47733000e-02
      5.18698543e-02 9.03460905e-02 1.67442232e-01 2.45111391e-01
      2.16693670e-01 1.87311351e-01 7.17555583e-02 2.37549126e-01
      1.88324794e-01 1.30796313e-01 1.76345974e-01 2.54181951e-01
      2.16497928e-01 1.21219642e-01 1.02703378e-01 7.38598108e-02
      1.39483675e-01 1.06917150e-01 2.16497928e-01 2.16497928e-01
      2.16497928e-01 2.16497928e-01 1.02222137e-01 8.77624527e-02
      9.27157700e-02 1.61800027e-01 9.36004221e-02 1.48388818e-01
      2.16497928e-01 2.16497928e-01 2.03061536e-01 2.16497928e-01
      2.00415060e-01 7.10525736e-02 1.60300717e-01 1.12089984e-01
      1.62385046e-01 1.84412718e-01 2.16497928e-01 2.16497928e-01
      1.84704661e-01 1.47512719e-01 1.02904461e-01 1.51592091e-01
      7.70883933e-02 1.29744947e-01 2.02175140e-01 2.13654518e-01
      1.47260517e-01 1.18017085e-01 1.45561934e-01 8.73030946e-02
      1.30439848e-01 1.04856260e-01 8.41121003e-02 1.14156328e-01
      1.60979256e-01 2.32561290e-01 1.91843316e-01 2.03868702e-01
      1.66007414e-01 1.96793377e-01 1.03337869e-01 8.74439031e-02
      1.01815052e-01 2.18015060e-01 1.55888364e-01 1.40706629e-01
      1.54425189e-01 1.05555899e-01 1.49768576e-01 1.17820449e-01
      2.30270952e-01 1.46238357e-01 1.78926632e-01 2.37478644e-01
      2.37478644e-01 2.34579206e-01 1.79746598e-01 1.38383716e-01
      9.23824236e-02 1.70622721e-01 2.21508786e-01 2.37478644e-01
      1.97749913e-01 1.71681210e-01 1.58052415e-01 9.98398960e-02
      1.87499285e-01 1.04500122e-01 5.50397076e-02 7.77495280e-02
      2.01536417e-01 1.89786285e-01 2.15947926e-01 2.19431385e-01
      9.72069725e-02 2.16508299e-01 1.48630083e-01 4.51655425e-02
      9.31247920e-02 2.19431385e-01 2.19431385e-01 2.19431385e-01
      2.19431385e-01 1.25793532e-01 1.35538876e-01 9.40027684e-02
      1.12606511e-01 1.36247292e-01 2.19431385e-01 2.08664641e-01
      2.17078596e-01 2.19431385e-01 1.19614117e-01 1.64235756e-01
      1.48059502e-01 9.67333615e-02 1.17234163e-01 1.96054623e-01
      1.77441448e-01 2.14522511e-01 2.11967275e-01 9.76601690e-02
      1.82007536e-01 1.19328991e-01 5.75118959e-02 7.72244036e-02
      1.90632105e-01 2.14522511e-01 2.04287365e-01 2.14522511e-01
      1.55964851e-01 2.14522511e-01 1.16362274e-01 1.18397340e-01
      1.40851498e-01 1.86107218e-01 2.01718673e-01 1.72137216e-01
      1.49720430e-01 1.31474853e-01 1.96620241e-01 1.41318589e-01
      9.62538719e-02 1.30114138e-01 2.05248326e-01 2.14522511e-01
      2.14522511e-01 2.14522511e-01 1.37919262e-01 1.73209593e-01
      8.83840099e-02 9.67841744e-02 1.32750630e-01 1.67014301e-01</_>
    <_>
      1.24012962e-01 1.15290098e-01 1.10617600e-01 1.35639757e-01
      1.21787675e-01 7.47804195e-02 8.25098827e-02 7.59983733e-02
      1.15227818e-01 2.17808634e-01 1.74981892e-01 1.35699242e-01
      1.48748800e-01 1.82979852e-01 1.58979446e-01 9.67403799e-02
      1.65679887e-01 2.17808634e-01 1.70173243e-01 1.47127524e-01
      1.29455104e-01 1.76452056e-01 1.90443218e-01 1.61671907e-01
      2.17808634e-01 1.58658952e-01 1.72176942e-01 2.17808634e-01
      1.72472343e-01 1.76569417e-01 2.01156586e-01 2.17808634e-01
      2.17808634e-01 1.69920221e-01 2.17808634e-01 2.17808634e-01
      2.01338440e-01 9.64685753e-02 6.36827275e-02 1.02256618e-01
      1.67652905e-01 1.60635874e-01 8.63709971e-02 1.41433179e-01
      2.13843271e-01 1.45525232e-01 6.62787408e-02 5.64715676e-02
      1.06732652e-01 1.38353407e-01 1.72294259e-01 2.02991977e-01
      1.82491094e-01 1.66936159e-01 2.13843271e-01 1.19286045e-01
      1.22702800e-01 1.83774769e-01 2.13843271e-01 2.13843271e-01
      1.21651866e-01 1.91146851e-01 2.13843271e-01 2.11398616e-01
      1.55594900e-01 1.29199073e-01 1.78024024e-01 2.13843271e-01
      2.08792999e-01 1.61186785e-01 1.98547065e-01 2.13843271e-01
      5.93783744e-02 4.63477671e-02 6.04551584e-02 9.01391134e-02
      1.39399499e-01 2.57354647e-01 2.57354647e-01 2.55390257e-01
      9.72748846e-02 3.28079574e-02 2.07154583e-02 2.90200710e-02
      3.23346630e-02 7.95258880e-02 2.26672664e-01 2.57354647e-01
      1.81550726e-01 5.70939854e-02 1.22054294e-01 1.39906332e-01
      1.63684145e-01 1.69186950e-01 2.16455773e-01 2.57354647e-01
      2.57354647e-01 2.44434938e-01 1.85468435e-01 4.65709679e-02
      4.49203923e-02 6.75551370e-02 7.02383518e-02 2.04329625e-01
      2.57354647e-01 2.57354647e-01 1.77997708e-01 8.31381381e-02
      1.73755601e-01 1.35041147e-01 1.28337920e-01 1.01166293e-01
      1.43325731e-01 9.59263071e-02 1.65235475e-01 1.66514978e-01
      1.72985628e-01 2.05103949e-01 1.48632079e-01 1.49777517e-01
      1.47340521e-01 2.07726985e-01 1.56579360e-01 1.74148604e-01
      2.07726985e-01 2.07726985e-01 1.95628718e-01 1.26108348e-01
      1.52264431e-01 1.29219174e-01 1.97822392e-01 1.05739623e-01
      1.09467931e-01 1.50679529e-01 2.07726985e-01 2.07726985e-01
      1.61495984e-01 1.78313509e-01 1.60591841e-01 2.07726985e-01
      1.10127307e-01 1.57766819e-01 2.07726985e-01 2.07726985e-01
      2.11723164e-01 1.13023855e-01 1.40741691e-01 1.91535234e-01
      2.11723164e-01 1.70678139e-01 1.29992604e-01 1.66960403e-01
      1.89940184e-01 2.11723164e-01 1.70152932e-01 1.61121011e-01
      2.01715171e-01 2.11723164e-01 1.71368927e-01 1.22958116e-01
      1.64721891e-01 2.11723164e-01 1.60720035e-01 1.00603946e-01
      1.31245837e-01 1.31439909e-01 1.66270301e-01 1.03102751e-01
      1.15232609e-01 1.26152411e-01 1.38052493e-01 2.11723164e-01
      1.29594922e-01 1.49377733e-01 1.67298675e-01 2.11723164e-01
      1.64138719e-01 1.36217818e-01 1.52393654e-01 2.11723164e-01
      1.78859562e-01 1.60370350e-01 1.72759891e-01 1.72485143e-01
      2.18267873e-01 1.72507927e-01 1.65008202e-01 1.60858437e-01
      1.98457852e-01 6.38795719e-02 6.96203411e-02 9.12851244e-02
      1.01789251e-01 2.18267873e-01 2.18267873e-01 2.18033567e-01
      1.23529062e-01 1.06862724e-01 2.11133242e-01 1.67166770e-01
      1.85972646e-01 1.78045034e-01 2.18267873e-01 1.72722444e-01
      1.87738001e-01 1.57618001e-01 2.05606729e-01 8.00389946e-02
      1.00919195e-01 1.44308373e-01 1.66488007e-01 2.18267873e-01
      2.18267873e-01 1.37369215e-01 8.21753964e-02 9.39074159e-02
      1.75412714e-01 9.71559584e-02 1.57583371e-01 1.79212749e-01
      2.09156975e-01 2.09156975e-01 1.17066257e-01 1.42557055e-01
      2.09156975e-01 1.54872194e-01 1.46880105e-01 1.97223276e-01
      1.37993306e-01 1.81336924e-01 1.08739078e-01 1.02687001e-01
      1.46418855e-01 2.09156975e-01 1.41729414e-01 1.03663608e-01
      1.74701691e-01 1.77775174e-01 1.90607056e-01 1.96771994e-01
      1.23515382e-01 1.63665086e-01 2.09156975e-01 1.12949453e-01
      1.18393838e-01 1.74707368e-01 1.29880548e-01 1.53206870e-01
      1.97713301e-01 2.09156975e-01 1.83108926e-01 2.09156975e-01
      1.34273276e-01 1.79717124e-01 2.05929115e-01 1.27243757e-01
      1.45548761e-01 1.00575499e-01 1.22400820e-01 1.40524924e-01
      1.47854626e-01 1.79793045e-01 1.75336778e-01 1.95939064e-01
      1.83931306e-01 2.05929115e-01 1.67233646e-01 1.68190122e-01
      1.85825482e-01 2.05929115e-01 1.23965450e-01 1.54872984e-01
      1.57961890e-01 9.35422257e-02 1.19740896e-01 1.33731738e-01
      2.05929115e-01 2.05929115e-01 2.05929115e-01 2.04572991e-01
      2.05929115e-01 1.54812977e-01 1.38585344e-01 1.05443306e-01
      1.09648690e-01 1.49509549e-01 2.05929115e-01 2.05929115e-01
      1.84541106e-01 1.66441932e-01 1.91047460e-01 1.83002427e-01
      2.12771446e-01 1.93056345e-01 1.75908074e-01 1.58174887e-01
      1.88103765e-01 9.74194705e-02 1.19852535e-01 2.08251238e-01
      2.12771446e-01 2.12771446e-01 2.06468537e-01 1.15649030e-01
      6.91797063e-02 8.67278650e-02 2.12771446e-01 2.12771446e-01
      1.75136149e-01 1.37444839e-01 1.35725483e-01 1.38663173e-01
      1.38371691e-01 1.65190756e-01 1.89476609e-01 1.55064300e-01
      1.47202015e-01 1.97462827e-01 1.77962303e-01 2.09204808e-01
      1.38778895e-01 1.00858539e-01 8.83282870e-02 9.32242423e-02</_>
    <_>
      2.17569515e-01 1.27075851e-01 7.69666210e-02 6.07827269e-02
      5.48999794e-02 4.56882045e-02 9.36086029e-02 1.52796239e-01
      2.26381049e-01 1.53120041e-01 1.46338135e-01 9.39881429e-02
      6.95988610e-02 6.83928207e-02 8.27011690e-02 1.58249170e-01
      1.51195571e-01 1.34052604e-01 2.51022458e-01 2.11860344e-01
      1.11574329e-01 8.61584172e-02 8.40312541e-02 8.91813263e-02
      2.22284630e-01 2.51022458e-01 2.51022458e-01 2.51022458e-01
      2.25857139e-01 1.37615174e-01 9.66263190e-02 1.31015420e-01
      1.82432711e-01 2.51022458e-01 2.51022458e-01 2.51022458e-01
      1.78787380e-01 1.58396617e-01 1.07581303e-01 7.59217069e-02
      8.53497311e-02 1.17067896e-01 2.01448649e-01 2.06920072e-01
      1.72743365e-01 9.92113054e-02 7.95179904e-02 6.26268685e-02
      3.86748612e-02 5.75060509e-02 6.76379949e-02 1.57828659e-01
      2.12275386e-01 1.76680207e-01 2.54193246e-01 2.54193246e-01
      2.01693431e-01 1.44662991e-01 2.01940507e-01 2.54193246e-01
      2.54193246e-01 2.54193246e-01 2.54193246e-01 1.12210959e-01
      1.09922238e-01 8.47559497e-02 9.20608044e-02 1.32010773e-01
      1.50444910e-01 1.77051678e-01 1.99229017e-01 1.29158914e-01
      7.49497339e-02 5.84293418e-02 5.36567308e-02 5.64982407e-02
      9.54296961e-02 1.59161687e-01 2.73843974e-01 2.73843974e-01
      1.78427026e-01 5.52817658e-02 4.45794985e-02 4.90917712e-02
      6.56572580e-02 1.59599423e-01 2.73843974e-01 2.73843974e-01
      1.94852948e-01 7.91807100e-02 8.04058537e-02 8.31648037e-02
      6.59195259e-02 1.10470831e-01 1.51734397e-01 2.55337507e-01
      2.73843974e-01 2.24837244e-01 1.22742154e-01 5.84456995e-02
      5.73184602e-02 5.22157215e-02 8.54446292e-02 2.73843974e-01
      2.73843974e-01 2.73843974e-01 1.64964631e-01 8.23236778e-02
      2.47751102e-01 1.92443252e-01 1.18239284e-01 9.50106233e-02
      8.79198834e-02 8.49976614e-02 1.82336450e-01 1.93206355e-01
      2.47751102e-01 2.47751102e-01 2.47751102e-01 2.45114580e-01
      1.82000980e-01 2.13762030e-01 1.66976079e-01 2.47751102e-01
      2.47751102e-01 2.47751102e-01 6.94900155e-02 9.79571193e-02
      1.06517471e-01 9.07436237e-02 8.49102214e-02 7.45992884e-02
      1.06024526e-01 7.95119181e-02 8.12950581e-02 1.77002713e-01
      1.82056114e-01 1.71634868e-01 1.25613660e-01 1.27163514e-01
      7.86918029e-02 1.13549456e-01 1.47296250e-01 1.33757740e-01
      2.41643712e-01 2.41643712e-01 2.41643712e-01 2.00360775e-01
      2.41643712e-01 1.99352279e-01 2.41643712e-01 2.41643712e-01
      2.41643712e-01 1.29122138e-01 1.36659533e-01 1.35613769e-01
      1.35866404e-01 1.78221196e-01 1.58672854e-01 1.43325493e-01
      1.58158198e-01 1.19964652e-01 2.11692005e-01 1.84117004e-01
      1.43534482e-01 1.25056878e-01 1.43551797e-01 1.05299756e-01
      1.26853958e-01 1.71808690e-01 1.59770086e-01 1.00918233e-01
      1.16552211e-01 1.33472487e-01 1.26076505e-01 1.11220516e-01
      9.22937691e-02 8.48358423e-02 9.87523198e-02 8.22724327e-02
      7.37572014e-02 9.81158838e-02 1.37962088e-01 1.55873045e-01
      1.58136681e-01 1.90302402e-01 1.88681990e-01 1.43887550e-01
      7.55816251e-02 7.35424981e-02 8.03884268e-02 1.32605776e-01
      2.38671124e-01 2.79550880e-01 2.79550880e-01 2.10679114e-01
      9.84052569e-02 6.28147721e-02 1.00165829e-01 1.84068546e-01
      2.79550880e-01 2.06332102e-01 1.12150513e-01 9.06573161e-02
      1.23908438e-01 9.13530067e-02 6.16514012e-02 8.02764520e-02
      1.90116554e-01 2.79550880e-01 2.79550880e-01 2.79550880e-01
      1.15995057e-01 8.12218860e-02 5.20780608e-02 4.59152162e-02
      1.49506733e-01 1.49534121e-01 1.62842125e-01 1.37789488e-01
      1.72343820e-01 1.36957049e-01 2.09766105e-01 2.05199897e-01
      1.91898704e-01 1.95656240e-01 1.72001988e-01 1.60033569e-01
      1.25941247e-01 1.48233458e-01 1.48337007e-01 2.04177618e-01
      2.09766105e-01 2.09766105e-01 1.95543438e-01 1.63689792e-01
      1.46367386e-01 1.01030447e-01 1.20825641e-01 7.81783313e-02
      1.45264536e-01 1.43959224e-01 2.06777319e-01 2.09766105e-01
      2.09766105e-01 1.96879879e-01 1.21218674e-01 1.13769062e-01
      1.21534958e-01 1.61332071e-01 1.61843762e-01 1.73019841e-01
      1.83333278e-01 1.73061475e-01 1.15179613e-01 1.02539316e-01
      9.08348560e-02 1.20055467e-01 1.28186032e-01 1.86549515e-01
      1.80568054e-01 1.83160990e-01 2.65433729e-01 2.08909243e-01
      1.47192970e-01 1.05366610e-01 1.23831049e-01 1.17715500e-01
      1.47671819e-01 1.25996187e-01 2.41695747e-01 2.65433729e-01
      2.28957385e-01 1.27762660e-01 6.99745193e-02 8.35453048e-02
      9.43911076e-02 1.14016868e-01 1.65940449e-01 2.65433729e-01
      2.65433729e-01 2.65433729e-01 1.57426298e-01 8.73980522e-02
      8.89608115e-02 1.21096373e-01 1.06671698e-01 1.39765158e-01
      1.16430156e-01 3.03699791e-01 3.03699791e-01 1.45174503e-01
      6.68631792e-02 4.97600846e-02 5.59094287e-02 6.28906712e-02
      4.61402759e-02 6.83807433e-02 3.03699791e-01 3.03699791e-01
      3.03699791e-01 9.68599319e-02 4.37510610e-02 3.37715000e-02
      1.83778517e-02 3.13661247e-02 1.50196224e-01 3.03699791e-01
      3.03699791e-01 1.06316015e-01 6.25949726e-02 4.09169532e-02
      6.44022599e-02 5.02039753e-02 6.41713738e-02 9.16233137e-02
      3.03699791e-01 3.03699791e-01 1.58109933e-01 7.03221932e-02
      5.61006665e-02 5.02867997e-02 2.55808774e-02 5.22598177e-02</_>
    <_>
      2.48097777e-01 1.42544672e-01 1.12796314e-01 1.39135361e-01
      2.48097777e-01 2.01194346e-01 1.27997920e-01 1.01506859e-01
      2.48097777e-01 2.48097777e-01 1.32165790e-01 1.06373101e-01
      1.50052279e-01 2.48097777e-01 1.67874962e-01 9.42839459e-02
      8.01726803e-02 2.48097777e-01 2.14940608e-01 5.93091697e-02
      5.22903614e-02 9.50396359e-02 2.48097777e-01 1.09144151e-01
      5.69659658e-02 6.49043545e-02 1.70714051e-01 2.15157315e-01
      1.24341182e-01 2.11284235e-01 1.44258514e-01 2.48097777e-01
      1.29407674e-01 4.57435511e-02 5.14273234e-02 1.79024890e-01
      1.80317864e-01 1.58949584e-01 2.59346426e-01 2.07814246e-01
      2.59346426e-01 1.31637573e-01 6.01718388e-02 4.92218956e-02
      1.47786930e-01 6.40727058e-02 1.10045604e-01 2.59346426e-01
      1.93227351e-01 2.59346426e-01 1.04891308e-01 8.68679211e-02
      5.90490177e-02 5.97455055e-02 2.00908870e-01 2.05335438e-01
      2.59346426e-01 2.33576626e-01 2.59346426e-01 1.71570912e-01
      6.12480156e-02 4.72963043e-02 1.67427361e-01 8.46698508e-02
      7.77671412e-02 1.74764931e-01 1.34124979e-01 2.50676095e-01
      1.31100670e-01 1.06437944e-01 7.50786364e-02 9.60546806e-02
      8.66055638e-02 8.23737532e-02 1.74702227e-01 1.55034170e-01
      2.25132659e-01 1.61361784e-01 2.25132659e-01 1.89355686e-01
      1.26112521e-01 7.45508596e-02 6.24992885e-02 7.79610574e-02
      1.45163164e-01 2.25132659e-01 2.25132659e-01 2.25132659e-01
      1.85177043e-01 9.53653604e-02 1.48176014e-01 7.19416663e-02
      1.27451435e-01 1.41149879e-01 1.79209486e-01 2.25132659e-01
      2.25132659e-01 2.07269087e-01 1.77340761e-01 6.82679936e-02
      6.47463575e-02 7.27814510e-02 1.50040358e-01 2.25132659e-01
      2.25132659e-01 2.25132659e-01 2.25132659e-01 8.42120275e-02
      2.71780133e-01 5.15929833e-02 2.82199271e-02 4.92126979e-02
      9.33911502e-02 4.64080833e-02 6.07769713e-02 8.06645900e-02
      2.47328758e-01 1.49350584e-01 9.52682123e-02 1.85516998e-01
      1.65768921e-01 2.65591264e-01 1.69923753e-01 1.16379753e-01
      1.15300775e-01 1.46055430e-01 2.71780133e-01 7.54197240e-02
      2.33765431e-02 1.95865147e-02 3.29914242e-02 4.52202335e-02
      2.25400731e-01 2.71780133e-01 2.71780133e-01 1.91201478e-01
      5.67876846e-02 5.49992658e-02 1.02941677e-01 1.20558560e-01
      1.50824130e-01 2.71780133e-01 2.71780133e-01 2.71780133e-01
      6.43368363e-02 1.15050018e-01 2.21198753e-01 1.90207347e-01
      2.21198753e-01 2.11856917e-01 1.13673396e-01 8.57019201e-02
      8.45186263e-02 1.11125909e-01 6.99479207e-02 1.19550802e-01
      1.47477373e-01 2.21198753e-01 1.93311915e-01 1.87939897e-01
      1.45208836e-01 1.45321220e-01 4.93935607e-02 4.44601327e-02
      7.71284625e-02 1.43892437e-01 1.94046274e-01 1.85923353e-01
      2.21198753e-01 2.21198753e-01 1.50978118e-01 1.83140039e-01
      1.34034872e-01 9.85639468e-02 1.89274579e-01 2.21198753e-01
      2.21198753e-01 2.21198753e-01 2.10884348e-01 2.11490512e-01
      1.01219513e-01 5.59950471e-02 8.46622884e-02 1.06921263e-01
      1.50915012e-01 1.60322860e-01 1.49719089e-01 1.16974279e-01
      1.16667375e-01 6.78861067e-02 3.88977528e-02 6.11787252e-02
      8.47585648e-02 1.45135060e-01 1.42658621e-01 1.15344726e-01
      7.97207355e-02 5.82877733e-02 2.24436387e-01 2.24436387e-01
      1.92412525e-01 2.24436387e-01 2.24436387e-01 2.15350032e-01
      2.08756000e-01 1.72390983e-01 2.24436387e-01 2.24436387e-01
      2.24436387e-01 2.24436387e-01 2.24436387e-01 2.12578252e-01
      1.43975794e-01 2.01508671e-01 1.48364723e-01 2.17918441e-01
      1.75545707e-01 3.04059833e-02 1.32143125e-02 1.39664104e-02
      2.79873852e-02 8.42771977e-02 2.85586864e-01 2.85586864e-01
      2.85586864e-01 6.22167028e-02 2.15571318e-02 2.74181459e-02
      3.93389761e-02 6.76899776e-02 1.29405215e-01 2.85586864e-01
      2.85586864e-01 2.06751198e-01 3.69143859e-02 1.14119127e-02
      1.18437046e-02 2.23000739e-02 1.06690094e-01 1.83497638e-01
      2.85586864e-01 2.85586864e-01 1.17790245e-01 2.99754441e-02
      1.73537172e-02 4.01533134e-02 8.03739354e-02 1.82961717e-01
      2.66904533e-01 2.85586864e-01 2.09286600e-01 1.22951157e-01
      4.29117791e-02 2.70503759e-02 5.05769588e-02 8.73530358e-02
      1.19029887e-01 1.81378633e-01 2.29138896e-01 2.29138896e-01
      1.37677521e-01 1.78284094e-01 1.32091179e-01 1.08722560e-01
      1.46992356e-01 2.29138896e-01 1.63810894e-01 2.12310612e-01
      2.05917537e-01 2.08043188e-01 2.29309779e-02 1.80932526e-02
      6.90677390e-02 1.53102189e-01 2.29138896e-01 2.29138896e-01
      2.29138896e-01 2.29138896e-01 9.01201814e-02 1.13667376e-01
      9.13306847e-02 1.62012786e-01 1.88930571e-01 2.29138896e-01
      2.17207238e-01 2.04299733e-01 1.87572777e-01 1.18930198e-01
      2.27610633e-01 2.27610633e-01 2.00780064e-01 1.90211847e-01
      2.27610633e-01 1.25109524e-01 1.19505063e-01 1.42977342e-01
      2.27610633e-01 2.27610633e-01 2.27610633e-01 2.27610633e-01
      1.67051584e-01 1.23717554e-01 8.08095261e-02 1.30538896e-01
      1.35108992e-01 2.23700002e-01 2.15307489e-01 1.61529571e-01
      2.01176107e-01 1.36048868e-01 1.92696273e-01 1.28793895e-01
      7.25082979e-02 1.14711992e-01 1.33292720e-01 1.41951397e-01
      2.20787644e-01 2.27610633e-01 9.76004601e-02 9.06845629e-02
      5.03502935e-02 2.62117293e-02 4.79072183e-02 8.84661376e-02</_>
    <_>
      1.68911621e-01 8.38916376e-02 5.67222461e-02 4.71956655e-02
      1.02638759e-01 1.50744617e-01 1.60406351e-01 1.94768667e-01
      1.78731352e-01 1.37924358e-01 9.27474871e-02 7.22728893e-02
      6.18495978e-02 1.15192369e-01 1.31343693e-01 1.62640944e-01
      2.41475657e-01 1.73246518e-01 2.41475657e-01 1.91115692e-01
      8.12732801e-02 7.23993704e-02 1.00679934e-01 1.86754242e-01
      2.41475657e-01 2.41475657e-01 2.41475657e-01 2.41475657e-01
      2.02698842e-01 1.17026538e-01 9.33651254e-02 9.25207436e-02
      1.17490858e-01 2.41475657e-01 2.41475657e-01 2.41475657e-01
      1.55566245e-01 1.50914103e-01 1.05788231e-01 9.98290405e-02
      9.25696269e-02 7.26123229e-02 1.22288086e-01 1.73631281e-01
      1.47085130e-01 2.18148619e-01 2.08722487e-01 2.18148619e-01
      1.90736115e-01 2.08357826e-01 1.60542548e-01 8.06218162e-02
      6.97614551e-02 1.57963187e-01 2.10217327e-01 2.18148619e-01
      1.44685581e-01 1.09853789e-01 8.24374408e-02 8.20629448e-02
      1.33171931e-01 2.18148619e-01 2.18148619e-01 1.80033058e-01
      1.98823765e-01 1.92084044e-01 1.57710299e-01 2.08044514e-01
      2.18148619e-01 2.18148619e-01 1.37321576e-01 1.61945775e-01
      1.46206528e-01 1.52274877e-01 2.23657921e-01 1.82476923e-01
      2.20271066e-01 1.74230397e-01 7.18272328e-02 5.28312661e-02
      1.06665179e-01 1.54978096e-01 1.55388072e-01 2.23657921e-01
      1.60882503e-01 1.97673380e-01 1.26437888e-01 1.05016015e-01
      1.12146214e-01 1.23662516e-01 9.11863893e-02 8.18545893e-02
      1.17287271e-01 1.34146243e-01 2.23657921e-01 2.23657921e-01
      2.23657921e-01 1.38011947e-01 8.69642794e-02 1.82583272e-01
      1.46818742e-01 1.43997893e-01 2.03428864e-01 2.23657921e-01
      2.16500610e-01 2.23657921e-01 1.98769912e-01 1.63596824e-01
      2.22096920e-01 1.80455655e-01 1.35209471e-01 5.77356890e-02
      7.17085451e-02 1.23486243e-01 1.70500681e-01 2.18430206e-01
      2.22096920e-01 2.22096920e-01 1.57882616e-01 1.01669498e-01
      6.02146015e-02 4.07908112e-02 6.96905479e-02 1.59677535e-01
      2.22096920e-01 2.22096920e-01 2.22096920e-01 2.22096920e-01
      2.22096920e-01 1.67346492e-01 1.38840869e-01 1.15037635e-01
      1.01782739e-01 1.38294742e-01 1.90606728e-01 2.22096920e-01
      1.87750265e-01 1.58230975e-01 1.13801375e-01 1.32347688e-01
      9.48883593e-02 1.01739146e-01 2.14034170e-01 2.22096920e-01
      2.04999283e-01 1.33412048e-01 9.42655578e-02 5.44355921e-02
      4.71817516e-02 8.88059437e-02 1.44042104e-01 2.40416437e-01
      2.40416437e-01 1.28821790e-01 1.05472177e-01 7.71686956e-02
      6.67954087e-02 7.19549581e-02 1.71301380e-01 2.40416437e-01
      2.40416437e-01 1.90696910e-01 2.40416437e-01 1.42485887e-01
      1.14195205e-01 8.46194625e-02 1.14582233e-01 1.25595197e-01
      1.58567086e-01 2.40416437e-01 2.40416437e-01 1.51332915e-01
      1.09764025e-01 9.31860954e-02 1.00372575e-01 1.21913157e-01
      2.11941242e-01 2.40416437e-01 2.40416437e-01 2.40416437e-01
      8.89911875e-02 6.98020235e-02 6.08011410e-02 7.15974644e-02
      1.18398309e-01 2.30379775e-01 2.30379775e-01 2.30379775e-01
      1.14679620e-01 1.74874187e-01 1.43007159e-01 7.64462277e-02
      1.04732566e-01 1.47338286e-01 1.81888163e-01 2.30379775e-01
      2.30379775e-01 2.30379775e-01 1.24009520e-01 8.21004137e-02
      9.29376334e-02 1.35928839e-01 1.63171858e-01 2.17688724e-01
      2.30379775e-01 2.30379775e-01 1.80953652e-01 1.79821998e-01
      1.21408910e-01 9.13803577e-02 1.26635671e-01 1.49560556e-01
      1.46875754e-01 1.85071006e-01 2.07260892e-01 2.30379775e-01
      1.73655495e-01 1.55380413e-01 2.10862100e-01 1.95932314e-01
      2.10436270e-01 1.26840174e-01 1.23502828e-01 1.05174914e-01
      1.26680151e-01 2.22644925e-01 1.65562853e-01 1.46726951e-01
      1.84512004e-01 2.22644925e-01 1.11566655e-01 5.48082404e-02
      1.14541404e-01 2.07724169e-01 1.57369345e-01 9.74396467e-02
      9.65814069e-02 1.26686648e-01 1.85972452e-01 1.39398888e-01
      2.06474930e-01 1.80325344e-01 1.90263316e-01 2.22644925e-01
      1.63668141e-01 1.46258965e-01 1.98175654e-01 2.22644925e-01
      1.31998196e-01 8.35184678e-02 1.35922149e-01 2.22644925e-01
      2.21871480e-01 1.13145523e-01 8.55729505e-02 1.31169185e-01
      2.02854022e-01 1.03485011e-01 6.14372529e-02 9.23935771e-02
      1.68735951e-01 1.35998234e-01 1.01680577e-01 8.84941816e-02
      1.31434098e-01 1.68407023e-01 1.73110470e-01 1.46677196e-01
      1.46581724e-01 1.77320763e-01 2.30218515e-01 1.47523418e-01
      1.05706841e-01 1.54557675e-01 2.30218515e-01 1.96375027e-01
      7.33625516e-02 1.19279727e-01 2.30218515e-01 2.30218515e-01
      1.95226744e-01 2.30218515e-01 1.80237740e-01 2.30218515e-01
      2.18983203e-01 9.67578515e-02 1.33685410e-01 2.30218515e-01
      1.50110468e-01 1.09436445e-01 1.16892688e-01 2.05560178e-01
      2.24734381e-01 2.29951024e-01 1.96839735e-01 2.03853011e-01
      2.29951024e-01 1.44963101e-01 1.15851320e-01 1.10406823e-01
      1.34995997e-01 1.22508019e-01 1.24192551e-01 9.18081626e-02
      1.13781273e-01 1.97802439e-01 2.26641729e-01 2.00463071e-01
      2.29951024e-01 2.23894790e-01 2.29951024e-01 1.82793155e-01
      1.14939287e-01 1.30286679e-01 2.29951024e-01 8.96382779e-02
      2.29951024e-01 2.29951024e-01 9.07163098e-02 9.14177001e-02
      6.21192977e-02 4.67960723e-02 6.42382503e-02 1.02297269e-01</_>
    <_>
      9.24918652e-02 1.70049787e-01 2.11817071e-01 2.11817071e-01
      2.11817071e-01 1.93068147e-01 1.39611572e-01 1.09745614e-01
      9.69083607e-02 1.14541151e-01 1.99140623e-01 2.11817071e-01
      2.01012030e-01 1.65921822e-01 1.48322091e-01 1.90004081e-01
      1.35855466e-01 8.33824798e-02 1.00102991e-01 1.38304800e-01
      1.90803990e-01 1.96281001e-01 2.11817071e-01 2.01947093e-01
      1.03197604e-01 1.17226027e-01 1.25600055e-01 1.10952683e-01
      1.74829647e-01 2.11817071e-01 2.11817071e-01 2.11817071e-01
      1.85671940e-01 1.60667270e-01 1.26787245e-01 1.21592291e-01
      1.20576143e-01 2.26952821e-01 2.26952821e-01 1.94698289e-01
      1.10726990e-01 8.48370120e-02 1.34408802e-01 8.92586261e-02
      4.48713526e-02 2.03864813e-01 2.26952821e-01 2.26952821e-01
      1.91238314e-01 1.03882104e-01 7.96763524e-02 1.18161827e-01
      1.06464639e-01 9.26043764e-02 1.01525187e-01 1.90462127e-01
      2.26952821e-01 2.26952821e-01 1.65626019e-01 1.15126975e-01
      1.18300766e-01 8.25245008e-02 5.94094545e-02 2.26952821e-01
      2.26952821e-01 2.26952821e-01 2.13263497e-01 1.85796246e-01
      1.12204082e-01 2.14011863e-01 1.72881797e-01 1.58692926e-01
      1.38171226e-01 1.42405584e-01 1.60595521e-01 9.19511393e-02
      9.50418487e-02 9.21059027e-02 1.71481922e-01 1.40981913e-01
      1.26162484e-01 9.84162465e-02 1.06641583e-01 8.33107010e-02
      8.45701694e-02 1.18551455e-01 1.89007655e-01 2.18863279e-01
      2.18863279e-01 1.10615715e-01 2.18863279e-01 1.53725460e-01
      1.78919777e-01 1.51933342e-01 2.18863279e-01 1.52995467e-01
      2.18863279e-01 2.18863279e-01 2.12916434e-01 1.75875545e-01
      1.41728401e-01 1.39044121e-01 2.03263119e-01 2.18863279e-01
      2.18863279e-01 2.18863279e-01 1.69461966e-01 1.59219876e-01
      9.25260037e-02 1.21239170e-01 1.40712082e-01 1.43879488e-01
      1.75473943e-01 1.26495659e-01 6.47255853e-02 9.39068794e-02
      1.93432435e-01 1.22131541e-01 1.68194309e-01 1.81045905e-01
      1.89402208e-01 1.59509152e-01 1.75644219e-01 1.38117135e-01
      8.76032487e-02 1.53580293e-01 1.43824369e-01 2.07381248e-01
      2.20569998e-01 2.17556536e-01 2.08010718e-01 1.13950484e-01
      6.60253167e-02 1.05130576e-01 2.20569998e-01 2.20569998e-01
      2.20569998e-01 2.20569998e-01 1.91987127e-01 1.91473365e-01
      1.77704230e-01 1.45896301e-01 1.31717935e-01 2.20569998e-01
      9.55571532e-02 1.11793593e-01 1.37137651e-01 1.78627640e-01
      1.54276863e-01 1.62396923e-01 1.32492498e-01 6.57819211e-02
      7.27683902e-02 1.87298000e-01 1.95797503e-01 2.03352496e-01
      1.75623536e-01 1.87586278e-01 1.14314377e-01 1.64608479e-01
      1.55603409e-01 1.44452468e-01 2.03352496e-01 2.03352496e-01
      1.83744326e-01 1.71422288e-01 1.59093812e-01 2.03352496e-01
      1.62811026e-01 1.49263248e-01 2.03352496e-01 1.79113522e-01
      2.00725406e-01 1.87611610e-01 1.68538317e-01 1.37675256e-01
      1.62728488e-01 1.70735881e-01 1.95597351e-01 1.75370097e-01
      2.06509084e-01 1.85284898e-01 2.08545685e-01 1.72235996e-01
      2.08545685e-01 1.27410501e-01 2.07541138e-01 2.01287732e-01
      1.65147603e-01 1.34708896e-01 1.40418261e-01 2.08545685e-01
      2.08545685e-01 2.08545685e-01 1.46204278e-01 1.18490502e-01
      9.93293077e-02 1.08268589e-01 1.63307071e-01 1.82332546e-01
      1.86830565e-01 1.60027266e-01 1.30171821e-01 1.02170214e-01
      1.38071716e-01 1.50727868e-01 1.35958567e-01 1.63104564e-01
      2.02387229e-01 2.08545685e-01 2.08545685e-01 1.91342935e-01
      1.07681006e-01 9.62970853e-02 1.11302063e-01 1.39131993e-01
      1.28576413e-01 1.43872410e-01 1.96522385e-01 2.11203486e-01
      1.97698548e-01 9.28025320e-02 7.46124387e-02 9.34711769e-02
      1.25487685e-01 2.11203486e-01 2.11203486e-01 1.87422872e-01
      1.96910486e-01 2.01652691e-01 1.45857811e-01 1.43125102e-01
      1.48483261e-01 2.11203486e-01 1.48682550e-01 8.17037970e-02
      1.10787362e-01 1.66159704e-01 1.51996493e-01 1.57612830e-01
      1.83297127e-01 2.11203486e-01 1.58310890e-01 2.11203486e-01
      1.20001540e-01 9.26660523e-02 1.42577887e-01 1.49506345e-01
      1.54843494e-01 2.10113555e-01 2.11203486e-01 2.11203486e-01
      2.06867144e-01 2.06867144e-01 1.71191558e-01 1.91769615e-01
      1.69698134e-01 1.92129940e-01 1.91273257e-01 1.94789708e-01
      2.06867144e-01 1.31644547e-01 1.40967667e-01 1.48769498e-01
      1.61035031e-01 1.09223396e-01 1.44323513e-01 1.39092490e-01
      1.76950812e-01 1.54918432e-01 2.06867144e-01 1.52978241e-01
      1.12039424e-01 1.38463542e-01 1.49674430e-01 1.54392570e-01
      1.85556769e-01 1.87458605e-01 2.06867144e-01 1.63054720e-01
      1.63199425e-01 1.92616686e-01 1.60315424e-01 1.51716292e-01
      1.34793371e-01 9.87130031e-02 1.32061586e-01 1.72113031e-01
      1.08136371e-01 9.19272229e-02 1.06280997e-01 1.44614071e-01
      1.03012666e-01 8.77577737e-02 7.51376972e-02 7.28271157e-02
      1.05159312e-01 1.84844956e-01 1.82474777e-01 1.60724282e-01
      2.38292739e-01 2.38292739e-01 1.85448602e-01 1.53111264e-01
      1.13728717e-01 1.74714223e-01 1.00616351e-01 1.14457846e-01
      1.45411283e-01 1.74284860e-01 1.52032480e-01 1.09446742e-01
      7.91435912e-02 6.49141446e-02 1.24616966e-01 2.38292739e-01
      2.38292739e-01 2.38292739e-01 2.38292739e-01 2.38292739e-01
      2.38292739e-01 2.09477082e-01 1.39926001e-01 2.38292739e-01</_>
    <_>
      8.55110660e-02 1.22529492e-01 1.16608731e-01 1.03392087e-01
      1.39170498e-01 7.74999335e-02 5.27284928e-02 6.31491840e-02
      6.27390891e-02 7.16140643e-02 1.09309137e-01 1.50930092e-01
      1.38868347e-01 2.38252208e-01 1.85737297e-01 1.29579201e-01
      9.83334109e-02 7.43899569e-02 2.38252208e-01 2.38252208e-01
      2.38252208e-01 2.07170352e-01 2.10987762e-01 1.34310544e-01
      1.15319647e-01 1.09475128e-01 1.92341253e-01 2.38252208e-01
      2.38252208e-01 2.38252208e-01 2.38252208e-01 2.38252208e-01
      1.79551601e-01 1.46174505e-01 1.21558681e-01 2.05621675e-01
      6.13683052e-02 7.78240263e-02 1.46280944e-01 1.43767670e-01
      2.25865006e-01 2.25865006e-01 2.25865006e-01 1.23356394e-01
      9.19157565e-02 1.21847138e-01 9.10427496e-02 8.99932534e-02
      8.78715441e-02 1.41645521e-01 2.25865006e-01 2.25865006e-01
      1.64496437e-01 1.78223401e-01 1.23802230e-01 1.37425378e-01
      2.25865006e-01 2.12133840e-01 2.06327140e-01 2.12692916e-01
      1.99719056e-01 1.08320147e-01 1.27550468e-01 1.53953657e-01
      1.04254015e-01 1.59679845e-01 1.36165917e-01 1.68653235e-01
      2.25865006e-01 2.25865006e-01 1.21986553e-01 1.98440641e-01
      2.19216987e-01 1.18133925e-01 8.06541145e-02 8.54115337e-02
      9.37583521e-02 1.07294224e-01 1.89108521e-01 2.19216987e-01
      2.19216987e-01 1.81398302e-01 8.40726420e-02 6.95125610e-02
      9.12078917e-02 1.19946793e-01 2.19216987e-01 2.19216987e-01
      2.19216987e-01 2.04519376e-01 2.03186095e-01 1.31290600e-01
      9.19802859e-02 8.03925470e-02 1.41891360e-01 1.16104551e-01
      1.57985821e-01 1.89212948e-01 2.19216987e-01 1.67709157e-01
      1.42791271e-01 8.42161626e-02 1.28614500e-01 2.19216987e-01
      2.14634702e-01 1.95064917e-01 2.19216987e-01 2.19216987e-01
      2.11857989e-01 1.86028883e-01 2.11857989e-01 2.11857989e-01
      2.08003744e-01 1.42644286e-01 1.12409763e-01 7.86075667e-02
      1.90355599e-01 2.11857989e-01 1.51511207e-01 1.37367815e-01
      1.69443235e-01 2.11857989e-01 1.69267505e-01 1.39567330e-01
      8.17064717e-02 2.11857989e-01 2.01215178e-01 1.10830002e-01
      1.80668846e-01 1.98956281e-01 2.11857989e-01 1.72887251e-01
      1.15676142e-01 7.20590428e-02 1.86790243e-01 1.92890629e-01
      7.56544769e-02 9.09837559e-02 1.46130353e-01 2.11857989e-01
      1.31525010e-01 1.14987202e-01 6.23057000e-02 2.11857989e-01
      8.75240043e-02 6.16053827e-02 1.23886965e-01 9.86684635e-02
      1.30994380e-01 1.28506079e-01 1.04111239e-01 6.61777407e-02
      1.00606941e-01 1.08129457e-01 6.51293471e-02 1.49764046e-01
      9.56113115e-02 1.20779313e-01 1.14374526e-01 1.05849199e-01
      7.44776875e-02 9.51098278e-02 1.62851259e-01 9.13926065e-02
      1.72024995e-01 1.38621300e-01 2.29311943e-01 1.67341530e-01
      1.48565322e-01 1.15363859e-01 1.90809101e-01 2.61642545e-01
      2.21479937e-01 2.61642545e-01 1.91189289e-01 2.61642545e-01
      2.61642545e-01 2.61642545e-01 2.61642545e-01 2.61642545e-01
      1.24115095e-01 8.56892467e-02 9.75775123e-02 8.23294148e-02
      1.32996008e-01 1.07062280e-01 1.28108710e-01 1.26359969e-01
      1.37192830e-01 8.30146447e-02 8.39348584e-02 6.06071018e-02
      1.14378341e-01 1.98131382e-01 1.63027540e-01 1.24150574e-01
      1.10057212e-01 1.41481668e-01 2.65601903e-01 1.97631583e-01
      2.65601903e-01 1.81637377e-01 2.65601903e-01 2.65601903e-01
      2.65601903e-01 2.65601903e-01 2.65601903e-01 6.35299459e-02
      4.44413088e-02 9.31264088e-02 2.23747626e-01 2.18302548e-01
      1.60941184e-01 1.40158460e-01 7.75447637e-02 6.36853650e-02
      1.30544573e-01 9.79537144e-02 1.36144146e-01 1.59407958e-01
      2.50479728e-01 2.50479728e-01 2.50479728e-01 2.18553483e-01
      1.68058485e-01 1.49389088e-01 1.32236406e-01 1.48790449e-01
      1.41829088e-01 2.34992832e-01 1.39798760e-01 1.54339194e-01
      1.19430088e-01 1.73540547e-01 6.34951219e-02 5.03871068e-02
      7.60519058e-02 6.13631457e-02 1.82411909e-01 2.50479728e-01
      2.50479728e-01 2.50479728e-01 1.00135021e-01 8.29559714e-02
      1.11733258e-01 1.16459824e-01 9.00803059e-02 1.51108906e-01
      1.83157429e-01 2.14413315e-01 1.86974481e-01 1.07996099e-01
      1.10575572e-01 9.31010470e-02 9.68426988e-02 1.02971770e-01
      1.57280207e-01 1.00935571e-01 9.51768756e-02 1.28651157e-01
      1.81149602e-01 2.80522823e-01 2.22315893e-01 1.89507499e-01
      1.75155625e-01 2.80522823e-01 2.56806463e-01 2.80522823e-01
      2.80522823e-01 2.80522823e-01 4.49725427e-02 5.08750752e-02
      4.11806367e-02 4.63121571e-02 7.29006156e-02 6.48733899e-02
      5.81494123e-02 8.54632184e-02 8.72475207e-02 1.41324684e-01
      8.35721418e-02 6.08250126e-02 8.67293328e-02 1.32795140e-01
      9.19819847e-02 1.87424958e-01 2.70502239e-01 2.80522823e-01
      2.72356480e-01 1.70610547e-01 1.73497587e-01 1.83069557e-01
      2.72356480e-01 2.67637402e-01 2.72356480e-01 2.72356480e-01
      2.72356480e-01 4.22076359e-02 4.74860854e-02 1.25976175e-01
      2.24796802e-01 1.85735926e-01 8.23998004e-02 7.03334585e-02
      3.86200808e-02 3.75301763e-02 1.56639442e-01 1.06294282e-01
      1.24314316e-01 1.32701382e-01 1.78622350e-01 9.24671814e-02
      2.00585544e-01 2.21588522e-01 2.68830180e-01 5.60747758e-02
      8.44492689e-02 1.40948221e-01 1.52041957e-01 1.06472857e-01
      4.23390232e-02 4.81474288e-02 4.20051292e-02 3.20799612e-02</_>
    <_>
      1.64558619e-01 2.45124847e-01 1.60692319e-01 2.87176631e-02
      9.83192101e-02 3.61647718e-02 1.93051565e-02 3.31550688e-02
      1.24267809e-01 1.92991033e-01 2.19040081e-01 2.01483250e-01
      9.02933702e-02 2.16013178e-01 8.38767663e-02 4.15030681e-02
      9.92617160e-02 2.03584790e-01 2.45124847e-01 2.45124847e-01
      1.52718514e-01 5.28427400e-02 2.45124847e-01 9.01121348e-02
      3.75796668e-02 6.62994161e-02 2.26033926e-01 2.45124847e-01
      2.45124847e-01 2.35853553e-01 1.24453478e-01 2.45124847e-01
      1.63344353e-01 3.91978733e-02 6.39193952e-02 2.45124847e-01
      1.02211893e-01 1.60599291e-01 2.32353643e-01 2.32353643e-01
      2.32353643e-01 9.20405611e-02 6.05744831e-02 1.08097143e-01
      1.45649299e-01 1.44852430e-01 1.96873710e-01 2.32353643e-01
      1.91640869e-01 2.32353643e-01 6.65403977e-02 6.70226365e-02
      8.47675428e-02 1.64546087e-01 1.69956371e-01 2.32353643e-01
      2.32353643e-01 2.32353643e-01 2.32353643e-01 1.75146118e-01
      5.57572097e-02 4.40952554e-02 7.88896307e-02 1.51367411e-01
      1.60650074e-01 1.77525237e-01 2.03584224e-01 2.32353643e-01
      1.23365693e-01 7.31804818e-02 7.34012425e-02 1.35594174e-01
      2.77574480e-01 8.49921331e-02 4.93693575e-02 7.33690634e-02
      2.86029518e-01 8.10784549e-02 8.75738114e-02 1.17694341e-01
      2.86029518e-01 2.86029518e-01 3.22401077e-02 1.51110636e-02
      4.40094620e-02 2.86029518e-01 5.83778322e-02 6.73710033e-02
      8.50344524e-02 2.86029518e-01 2.41003498e-01 9.84300971e-02
      6.89604282e-02 8.43221471e-02 1.87179983e-01 7.36084357e-02
      9.18198153e-02 1.28042758e-01 2.65070260e-01 2.86029518e-01
      7.34399930e-02 7.57432058e-02 9.08849090e-02 1.17747128e-01
      8.99080709e-02 1.12733506e-01 1.29058272e-01 2.86029518e-01
      2.83946395e-01 2.83946395e-01 1.44162476e-01 4.46510874e-02
      1.42327562e-01 4.07801606e-02 2.79749893e-02 7.28218555e-02
      2.05062434e-01 2.83946395e-01 2.83946395e-01 2.53281325e-01
      9.34990793e-02 2.22913027e-01 7.09818304e-02 3.32922786e-02
      4.77393866e-02 1.68626919e-01 2.83850402e-01 2.83946395e-01
      1.67285904e-01 9.66875851e-02 4.26864438e-02 3.87199447e-02
      3.54854204e-02 7.82571286e-02 1.07165016e-01 2.47658715e-01
      2.83946395e-01 1.53185844e-01 9.76006836e-02 8.00888091e-02
      5.41771837e-02 6.98454604e-02 6.71616495e-02 8.92934054e-02
      2.17784688e-01 2.17784688e-01 2.08595544e-01 1.78514868e-01
      2.17784688e-01 1.14224680e-01 7.72997141e-02 9.30152163e-02
      1.12126693e-01 2.17784688e-01 1.91299468e-01 1.50566936e-01
      2.17784688e-01 2.17784688e-01 1.88193172e-01 1.30192295e-01
      1.42386258e-01 1.76589519e-01 2.05454737e-01 1.94002926e-01
      1.00560732e-01 1.01223506e-01 1.23803839e-01 9.09080505e-02
      1.03678286e-01 1.07890971e-01 1.25356272e-01 1.89967647e-01
      1.68222860e-01 1.16958886e-01 1.62343994e-01 2.17784688e-01
      1.85924456e-01 1.70696840e-01 1.69402480e-01 1.68429539e-01
      2.12078437e-01 1.24817528e-01 1.02370836e-01 1.44102335e-01
      2.12078437e-01 1.31553814e-01 1.21333987e-01 1.16115026e-01
      1.93581209e-01 1.69251546e-01 1.27116889e-01 1.53710827e-01
      1.71743602e-01 2.12078437e-01 1.12771839e-01 1.06412709e-01
      1.06370561e-01 1.75782427e-01 1.92103595e-01 1.26228467e-01
      1.32193327e-01 1.58439204e-01 2.12078437e-01 1.75079063e-01
      2.12078437e-01 1.17641747e-01 1.57410860e-01 2.07470745e-01
      1.45401612e-01 1.93706602e-01 2.12078437e-01 2.12078437e-01
      1.79592922e-01 1.89052761e-01 1.20954879e-01 2.00071320e-01
      1.43722385e-01 1.33622602e-01 1.16842233e-01 1.22745946e-01
      9.06208530e-02 1.05215922e-01 1.23146005e-01 2.85319418e-01
      1.78130373e-01 1.84294686e-01 1.36173353e-01 1.39648050e-01
      1.25711352e-01 1.31485358e-01 1.25219226e-01 1.59228474e-01
      1.82112470e-01 1.79475814e-01 9.15626064e-02 1.38733368e-02
      1.14511633e-02 1.62730832e-02 4.10926193e-02 4.28962633e-02
      3.04867595e-01 3.09439272e-01 3.09439272e-01 1.56000674e-01
      4.44733724e-02 4.56331447e-02 3.30415592e-02 7.30227306e-02
      8.93124193e-02 1.98315918e-01 3.09439272e-01 3.09439272e-01
      1.71464533e-01 1.25834599e-01 1.06747679e-01 1.16609760e-01
      1.58952534e-01 1.15099788e-01 1.60949424e-01 1.37723878e-01
      1.37989998e-01 2.26121962e-01 1.68721110e-01 1.37864158e-01
      1.56296447e-01 2.19850108e-01 1.33627087e-01 1.97010443e-01
      2.00182334e-01 1.82525247e-01 2.36350104e-01 9.61820483e-02
      7.06998110e-02 7.39918202e-02 1.05814353e-01 7.71574900e-02
      1.72819063e-01 2.36350104e-01 2.36350104e-01 2.36350104e-01
      2.36350104e-01 1.87179103e-01 1.37744769e-01 1.54777423e-01
      5.24199568e-02 1.30971313e-01 1.54214576e-01 2.36350104e-01
      1.96751773e-01 1.63101897e-01 1.51131943e-01 1.27480924e-01
      1.81183219e-01 1.24703422e-01 2.00998589e-01 1.08747140e-01
      1.27067029e-01 2.35668540e-01 2.10443228e-01 2.39377409e-01
      2.12614521e-01 2.39377409e-01 1.54638916e-01 1.68988213e-01
      8.92524719e-02 1.54617608e-01 2.39377409e-01 2.39377409e-01
      1.80089802e-01 7.97654092e-02 7.94382170e-02 3.60083245e-02
      5.05456738e-02 4.92466800e-02 9.87912416e-02 2.39377409e-01
      2.39377409e-01 2.39377409e-01 1.34864703e-01 1.98658928e-01
      5.63602746e-02 3.07861213e-02 3.38448249e-02 1.47990599e-01</_>
    <_>
      2.72408098e-01 2.72408098e-01 1.48611873e-01 1.60434749e-02
      5.76532399e-03 7.27116223e-03 1.41830714e-02 5.04946671e-02
      2.72408098e-01 2.72408098e-01 2.26167545e-01 1.40857458e-01
      5.31307608e-02 6.30782247e-02 5.64971119e-02 8.11752751e-02
      1.31495714e-01 2.72408098e-01 2.72408098e-01 2.46288061e-01
      9.73182097e-02 5.92492186e-02 3.50246690e-02 4.03747000e-02
      4.55764532e-02 7.83884451e-02 2.72408098e-01 2.72408098e-01
      1.78711548e-01 7.24148229e-02 7.59009123e-02 1.39316455e-01
      8.85304585e-02 9.28745046e-02 1.89321578e-01 2.72408098e-01
      2.39676163e-01 1.74127445e-01 1.36040077e-01 1.07878849e-01
      9.85543653e-02 8.66085142e-02 8.34098533e-02 1.20457448e-01
      2.39676163e-01 2.39676163e-01 1.91590399e-01 1.69148222e-01
      1.23734184e-01 1.10460244e-01 9.47165787e-02 1.38720244e-01
      1.51741862e-01 2.39676163e-01 2.39676163e-01 1.47446975e-01
      9.43268314e-02 7.99221694e-02 1.45340249e-01 1.04468383e-01
      1.07769281e-01 1.97485700e-01 2.39676163e-01 2.39676163e-01
      1.55829519e-01 1.31044596e-01 8.21455047e-02 1.26236618e-01
      1.15125388e-01 2.00787976e-01 2.39676163e-01 2.39676163e-01
      2.25133181e-01 1.52061656e-01 1.51318952e-01 9.40048620e-02
      1.53578475e-01 1.01925954e-01 1.78872451e-01 1.64106980e-01
      2.25133181e-01 2.25133181e-01 1.61628306e-01 1.23701155e-01
      1.23551838e-01 2.25133181e-01 1.87898427e-01 1.66899666e-01
      1.58230871e-01 2.25133181e-01 2.06846312e-01 1.10536277e-01
      1.21682331e-01 6.74575344e-02 1.24242701e-01 1.14391297e-01
      2.25133181e-01 2.25133181e-01 2.25133181e-01 1.60683319e-01
      7.94787556e-02 8.68513137e-02 5.77933751e-02 1.30042613e-01
      1.27519250e-01 1.70843855e-01 2.04929680e-01 2.22181976e-01
      1.82675466e-01 1.55000687e-01 1.01851471e-01 9.29319412e-02
      7.95395076e-02 9.50136185e-02 9.38277394e-02 1.32473618e-01
      1.96872786e-01 2.34177113e-01 1.56361550e-01 1.21412560e-01
      1.38786703e-01 2.34177113e-01 1.73661873e-01 1.17361456e-01
      2.18260482e-01 2.34177113e-01 2.22856805e-01 1.33026049e-01
      1.25028610e-01 1.02641188e-01 1.36217549e-01 9.91318151e-02
      8.54781717e-02 1.39382988e-01 2.34177113e-01 2.34177113e-01
      1.88753605e-01 1.56711668e-01 1.39553368e-01 2.34177113e-01
      1.71990559e-01 1.25801191e-01 1.82155788e-01 2.34177113e-01
      2.31659889e-01 1.41969576e-01 1.39327064e-01 1.01055913e-01
      2.31659889e-01 1.57110661e-01 1.22596838e-01 1.95378587e-01
      2.31659889e-01 1.91079661e-01 1.34540141e-01 1.29025862e-01
      7.15779066e-02 1.22163378e-01 1.36866048e-01 1.49948105e-01
      1.89530343e-01 2.22159982e-01 2.31659889e-01 1.82184458e-01
      1.35861844e-01 9.24354866e-02 1.50505081e-01 1.15410246e-01
      9.66113433e-02 1.72249570e-01 2.31659889e-01 2.31659889e-01
      1.79241478e-01 1.30498037e-01 8.61602724e-02 7.05141276e-02
      8.22356194e-02 1.39292270e-01 2.31659889e-01 2.31659889e-01
      1.38661683e-01 1.19759582e-01 1.01379596e-01 7.87322223e-02
      8.88815969e-02 1.12487614e-01 1.70516387e-01 2.07714796e-01
      2.12404281e-01 1.35692552e-01 9.73054394e-02 1.06078118e-01
      9.77240056e-02 1.53248996e-01 1.55128121e-01 1.84045449e-01
      2.28566900e-01 1.84760660e-01 2.42451817e-01 1.64233148e-01
      9.44066271e-02 8.17634836e-02 6.07131161e-02 8.24853554e-02
      2.10104525e-01 2.45403990e-01 2.45403990e-01 2.07878754e-01
      1.30483806e-01 1.31501704e-01 1.57623947e-01 1.27505720e-01
      1.31863028e-01 2.45403990e-01 2.45403990e-01 2.45403990e-01
      1.52139321e-01 1.13058776e-01 8.38474333e-02 8.74605030e-02
      1.03367053e-01 8.30225274e-02 8.10782611e-02 1.71946347e-01
      2.20020309e-01 2.04952180e-01 1.25449061e-01 9.81876701e-02
      1.07243218e-01 1.62539616e-01 1.39526471e-01 1.53549731e-01
      1.64523348e-01 2.31517807e-01 2.44730100e-01 1.48472697e-01
      5.11238687e-02 6.43464029e-02 8.76457691e-02 1.18378580e-01
      2.17019007e-01 2.44730100e-01 2.44730100e-01 2.44730100e-01
      1.40026540e-01 4.75779623e-02 8.79065990e-02 1.55823544e-01
      2.12326124e-01 2.44730100e-01 2.44730100e-01 2.44730100e-01
      2.09014893e-01 1.38171077e-01 1.10326342e-01 1.01667263e-01
      1.16059154e-01 1.29972115e-01 1.34099051e-01 1.35775387e-01
      1.77066490e-01 2.08536193e-01 1.67907625e-01 1.58510506e-01
      1.19424887e-01 8.31927508e-02 1.00937434e-01 1.19604073e-01
      2.23004207e-01 2.23004207e-01 1.90291554e-01 1.11103013e-01
      7.07320422e-02 8.90907720e-02 1.40062064e-01 2.23004207e-01
      2.23004207e-01 2.23004207e-01 2.23004207e-01 1.88907385e-01
      1.11454256e-01 1.28871173e-01 1.14277095e-01 1.53577626e-01
      2.04494193e-01 2.23004207e-01 2.23004207e-01 2.23004207e-01
      2.33341083e-01 1.58744365e-01 1.05743915e-01 8.08555186e-02
      6.75448924e-02 1.01933978e-01 1.89192533e-01 2.33341083e-01
      2.33341083e-01 1.65761247e-01 1.09328642e-01 8.97984728e-02
      1.11694589e-01 1.03960387e-01 1.08570211e-01 2.33341083e-01
      2.33341083e-01 2.33341083e-01 2.33341083e-01 1.58269227e-01
      1.48310900e-01 1.30980730e-01 1.51423350e-01 1.64333746e-01
      1.62537113e-01 1.93009838e-01 2.33341083e-01 1.63397804e-01
      1.53067142e-01 1.68449208e-01 1.55248970e-01 1.58579096e-01
      1.19285762e-01 1.40227735e-01 1.57413691e-01 1.47042185e-01</_>
    <_>
      1.02865510e-01 1.14222266e-01 1.42820477e-01 1.55459374e-01
      7.85991699e-02 6.04057610e-02 9.57779214e-02 1.13107316e-01
      9.71227810e-02 1.70835108e-01 1.69673130e-01 1.42946765e-01
      1.42880738e-01 1.45192757e-01 1.16448723e-01 1.57748967e-01
      1.82031333e-01 1.50269568e-01 1.45693511e-01 1.50398329e-01
      1.75953522e-01 1.58421814e-01 2.11975962e-01 1.91461459e-01
      1.96779341e-01 2.11975962e-01 2.11975962e-01 2.11975962e-01
      2.11975962e-01 2.05513269e-01 1.55753672e-01 2.04004496e-01
      1.93181902e-01 1.97852850e-01 2.11975962e-01 2.11975962e-01
      1.19679622e-01 1.08981252e-01 6.33384511e-02 8.97540525e-02
      1.35222018e-01 1.05091251e-01 1.29049450e-01 1.33810356e-01
      1.26969889e-01 8.16067159e-02 1.02345914e-01 7.50803873e-02
      9.33129936e-02 1.44017354e-01 1.52599588e-01 2.01228425e-01
      1.77646086e-01 1.46477774e-01 1.72602937e-01 1.52048588e-01
      1.26444966e-01 1.38758183e-01 2.37098321e-01 2.07450449e-01
      2.32906476e-01 1.60592616e-01 2.21946597e-01 1.51819348e-01
      1.49744287e-01 1.49917319e-01 2.11221948e-01 2.37098321e-01
      2.37098321e-01 2.37098321e-01 2.37098321e-01 2.37098321e-01
      8.84895995e-02 1.18930370e-01 1.13515988e-01 1.31918460e-01
      1.80046141e-01 1.91163734e-01 2.29454070e-01 2.21798107e-01
      1.56454995e-01 1.23389073e-01 8.43187049e-02 1.18334465e-01
      1.02237210e-01 1.64068624e-01 1.57899529e-01 1.70643613e-01
      1.84361219e-01 1.44686282e-01 1.97128519e-01 1.86988592e-01
      2.10834533e-01 2.29454070e-01 2.29454070e-01 2.29454070e-01
      2.29454070e-01 2.29454070e-01 2.29454070e-01 8.09668750e-02
      1.06659107e-01 1.04779325e-01 1.16012596e-01 1.39088765e-01
      1.61054760e-01 1.29708305e-01 1.18974902e-01 1.21139772e-01
      1.90246165e-01 1.05626173e-01 1.09204464e-01 1.28770068e-01
      2.29804620e-01 2.21286640e-01 2.29804620e-01 2.29804620e-01
      2.29804620e-01 2.09986076e-01 1.36611298e-01 1.39887303e-01
      1.18959598e-01 1.92826748e-01 1.41768530e-01 1.49078459e-01
      1.96739346e-01 2.29804620e-01 2.09477484e-01 7.30586797e-02
      7.25835785e-02 1.14694722e-01 2.29804620e-01 1.65389940e-01
      2.29804620e-01 2.29804620e-01 2.29804620e-01 1.19854234e-01
      6.82360604e-02 7.16936812e-02 7.69682229e-02 1.18619628e-01
      7.28559121e-02 8.67928863e-02 1.09217577e-01 1.37759030e-01
      2.14347973e-01 1.48609966e-01 1.59592897e-01 1.58203542e-01
      2.33594894e-01 1.96326450e-01 2.05688328e-01 1.69389933e-01
      2.33594894e-01 2.33594894e-01 1.43505648e-01 1.60861537e-01
      2.17226326e-01 2.33594894e-01 2.33594894e-01 2.33594894e-01
      2.32714862e-01 2.33594894e-01 1.00113764e-01 5.23759574e-02
      6.52659535e-02 6.17828779e-02 9.04406309e-02 7.83853382e-02
      6.32901192e-02 9.28956121e-02 1.14638202e-01 1.64380088e-01
      7.45519474e-02 6.51946366e-02 8.20377097e-02 1.68333426e-01
      1.83354750e-01 9.65067670e-02 1.65403366e-01 1.91527113e-01
      2.31884629e-01 1.58185586e-01 1.94431633e-01 2.09035829e-01
      2.31884629e-01 2.31884629e-01 2.31884629e-01 2.31884629e-01
      2.31884629e-01 9.47476849e-02 1.18817806e-01 1.20771885e-01
      1.33651420e-01 1.55319333e-01 1.49420097e-01 1.00420594e-01
      1.14607960e-01 1.26165077e-01 2.09446043e-01 1.19561523e-01
      1.14346504e-01 1.14790194e-01 1.98271781e-01 2.31884629e-01
      1.38728693e-01 2.07640007e-01 2.31884629e-01 1.17710069e-01
      1.32983476e-01 1.62242875e-01 1.28408670e-01 1.15682676e-01
      1.19459651e-01 8.51816013e-02 1.07712187e-01 1.13652170e-01
      1.49638414e-01 6.62112236e-02 6.18454143e-02 7.01988935e-02
      1.84801653e-01 1.46804124e-01 1.18382446e-01 1.35930836e-01
      2.06925973e-01 1.06056601e-01 7.56707415e-02 6.97257742e-02
      6.15331419e-02 1.05973333e-01 9.86578390e-02 9.40228850e-02
      1.16145127e-01 1.30821064e-01 2.49127090e-01 9.64785591e-02
      5.72711118e-02 9.44115892e-02 2.56830990e-01 2.05805480e-01
      2.56830990e-01 2.56830990e-01 2.56830990e-01 1.93238020e-01
      1.11646742e-01 7.49225691e-02 7.89278746e-02 2.56830990e-01
      1.72029108e-01 2.56830990e-01 2.56830990e-01 2.56830990e-01
      1.61309615e-01 8.46164525e-02 7.86796138e-02 8.08127895e-02
      1.21450700e-01 1.21307045e-01 1.53899565e-01 1.58747897e-01
      1.51136234e-01 2.30234265e-01 1.46005198e-01 1.02406636e-01
      1.02702945e-01 1.49483651e-01 1.74061000e-01 1.57575369e-01
      1.94894403e-01 2.30234265e-01 1.99931085e-01 1.21909112e-01
      8.87750536e-02 1.01338223e-01 2.01463953e-01 1.23597786e-01
      2.10264444e-01 2.30234265e-01 2.30234265e-01 2.30234265e-01
      2.30234265e-01 1.53027907e-01 1.64299309e-01 2.10725948e-01
      1.24440968e-01 1.22419834e-01 1.52938619e-01 2.30234265e-01
      2.08464041e-01 1.90158501e-01 1.79795757e-01 1.23621866e-01
      1.19925931e-01 1.52232096e-01 1.03642426e-01 1.30118072e-01
      2.14511380e-01 1.61790341e-01 2.15681553e-01 2.15681553e-01
      1.79874867e-01 1.24957077e-01 1.01031587e-01 9.74915475e-02
      1.11394450e-01 1.25160858e-01 2.15681553e-01 2.15681553e-01
      2.15681553e-01 1.84409067e-01 2.05992743e-01 1.47224128e-01
      9.37276781e-02 1.33399352e-01 2.15681553e-01 1.55159011e-01
      2.10267171e-01 2.15681553e-01 1.86961010e-01 1.70716852e-01
      1.21755451e-01 8.87133777e-02 1.01103693e-01 1.47701800e-01</_>
    <_>
      1.84251875e-01 2.35883951e-01 2.35883951e-01 2.35883951e-01
      2.10449234e-01 1.64023489e-01 1.08007677e-01 8.81819054e-02
      1.91308394e-01 2.03357995e-01 1.64356634e-01 1.10183381e-01
      7.69565254e-02 1.48309082e-01 1.08889729e-01 1.66871056e-01
      2.33913004e-01 2.35883951e-01 1.06517635e-01 1.17642827e-01
      1.06945142e-01 2.35883951e-01 2.35883951e-01 2.35883951e-01
      1.73926830e-01 1.18622594e-01 1.34568304e-01 1.32456005e-01
      1.36749089e-01 8.83987471e-02 8.90669152e-02 1.45150498e-01
      1.34378627e-01 1.23813093e-01 1.33493990e-01 1.44241184e-01
      1.49324492e-01 8.18356127e-02 1.06427327e-01 7.77069256e-02
      2.21852615e-01 1.70350835e-01 2.31237561e-01 2.31237561e-01
      2.31237561e-01 2.31237561e-01 1.26799807e-01 1.15903839e-01
      1.12208702e-01 2.10023373e-01 1.60968527e-01 1.97394595e-01
      2.31237561e-01 2.31237561e-01 1.18060388e-01 1.18300825e-01
      1.25905320e-01 1.25168890e-01 1.14251159e-01 1.09828472e-01
      1.45753250e-01 1.32040992e-01 1.19465366e-01 1.92607984e-01
      1.72030121e-01 1.90224290e-01 1.48662403e-01 1.62336886e-01
      1.43935278e-01 1.79071844e-01 1.68763697e-01 1.76245183e-01
      2.57077456e-01 1.20785743e-01 1.01255864e-01 9.06616896e-02
      1.45225331e-01 1.06497541e-01 1.45359024e-01 2.63858855e-01
      2.63858855e-01 1.61107257e-01 6.31698743e-02 4.33866307e-02
      6.50420487e-02 1.37119740e-01 1.08466238e-01 2.63858855e-01
      2.63858855e-01 2.63858855e-01 1.91530183e-01 1.50705755e-01
      1.24208815e-01 8.15177113e-02 1.05679199e-01 1.01334698e-01
      1.11926436e-01 1.65076122e-01 1.97503597e-01 1.50071084e-01
      9.08308327e-02 5.46892434e-02 6.34092987e-02 1.13780759e-01
      1.44896895e-01 2.63858855e-01 2.63858855e-01 1.93028539e-01
      9.92185250e-02 8.98977667e-02 5.74471094e-02 1.93797499e-01
      2.46888429e-01 2.46888429e-01 1.86768115e-01 1.33439183e-01
      1.18218124e-01 1.44399092e-01 1.55369490e-01 1.11428089e-01
      1.06203616e-01 1.36475146e-01 1.33158967e-01 1.00815184e-01
      1.19399458e-01 1.41191244e-01 1.25987381e-01 7.79089928e-02
      4.56007011e-02 1.36791393e-01 2.46888429e-01 2.46888429e-01
      2.46888429e-01 2.32331663e-01 1.18566804e-01 2.03334942e-01
      2.17652291e-01 2.19843730e-01 1.68236464e-01 1.49748087e-01
      1.66588753e-01 1.93975255e-01 1.67960137e-01 1.60568058e-01
      1.64596677e-01 1.83641359e-01 2.17085823e-01 2.17085823e-01
      1.37439132e-01 1.16372995e-01 9.55003202e-02 1.01263903e-01
      1.31811753e-01 1.79417610e-01 1.42712966e-01 2.17085823e-01
      2.17085823e-01 1.81178063e-01 1.63306579e-01 1.52258173e-01
      1.46914020e-01 1.64355427e-01 1.69938698e-01 2.17085823e-01
      2.17085823e-01 2.17085823e-01 1.85274050e-01 1.31096333e-01
      9.88799483e-02 9.19595659e-02 1.20578006e-01 1.59694955e-01
      1.29268199e-01 1.96810409e-01 2.12737843e-01 1.71548218e-01
      1.68974355e-01 1.19641632e-01 1.30894050e-01 1.59123570e-01
      1.83764830e-01 1.37728378e-01 1.23113990e-01 1.33813649e-01
