<?xml version="1.0"?>
<opencv_storage>
<opencv_ml_svm>
  <format>3</format>
  <svmType>C_SVC</svmType>
  <kernel>
    <type>RBF</type>
    <gamma>5.0000000000000000e-01</gamma></kernel>
  <C>4.</C>
  <term_criteria><epsilon>1.1920928955078125e-07</epsilon>
    <iterations>1000</iterations></term_criteria>
  <var_count>324</var_count>
  <class_count>2</class_count>
  <class_labels type_id="opencv-matrix">
    <rows>2</rows>
    <cols>1</cols>
    <dt>i</dt>
    <data>
      -1 1</data></class_labels>
  <sv_total>503</sv_total>
  <support_vectors>
    <_>
      1.25134051e-01 1.63459584e-01 2.18204811e-01 2.18204811e-01
      1.87643155e-01 1.30795717e-01 9.15524736e-02 8.50938931e-02
      1.08165823e-01 1.85790330e-01 1.75627932e-01 2.18204811e-01
      1.89885899e-01 1.72145054e-01 1.31697580e-01 1.39665410e-01
      1.09671161e-01 1.08363204e-01 1.44293621e-01 1.86847284e-01
      2.18204811e-01 2.18204811e-01 1.94147646e-01 1.31581306e-01
      9.23191756e-02 1.14570893e-01 1.38984412e-01 2.18204811e-01
      2.15556353e-01 2.18204811e-01 2.18204811e-01 1.79967850e-01
      1.52439654e-01 1.37606561e-01 1.13652870e-01 1.32555217e-01
      2.05322936e-01 1.57654539e-01 2.02817112e-01 1.59518138e-01
      1.77363306e-01 1.40457794e-01 1.49538100e-01 1.42282709e-01
      1.95670485e-01 1.45962819e-01 1.12270944e-01 9.48922634e-02
      1.15108021e-01 1.58303946e-01 1.62129521e-01 1.23294964e-01
      1.19410872e-01 2.04626977e-01 2.07966328e-01 2.07966328e-01
      2.07966328e-01 2.05052435e-01 2.07966328e-01 1.58595279e-01
      1.37765676e-01 1.31489083e-01 2.07966328e-01 2.07966328e-01
      1.71084613e-01 1.34168580e-01 1.45225003e-01 1.92779869e-01
      1.43993586e-01 9.03884247e-02 1.12953238e-01 2.07966328e-01
      1.48955882e-01 1.26469672e-01 1.16054103e-01 1.30974978e-01
      1.84585363e-01 2.15103507e-01 1.83726236e-01 1.48064256e-01
      1.57104671e-01 8.82419348e-02 8.93387645e-02 1.27862051e-01
      1.96505666e-01 2.15103507e-01 2.15103507e-01 2.15103507e-01
      1.54491752e-01 8.31020251e-02 2.15103507e-01 1.85631543e-01
      1.59538642e-01 1.58901334e-01 1.71936393e-01 1.75795212e-01
      1.25387236e-01 1.34650916e-01 2.15103507e-01 1.33371517e-01
      1.27129465e-01 1.63898915e-01 2.15103507e-01 2.15103507e-01
      2.15103507e-01 1.60125092e-01 1.21319175e-01 1.26612529e-01
      2.02607840e-01 1.97108939e-01 1.91522598e-01 1.94029912e-01
      1.77291647e-01 1.13123253e-01 1.10201128e-01 1.59512892e-01
      1.64823756e-01 2.12011218e-01 2.12011218e-01 2.12011218e-01
      2.05459252e-01 1.72625780e-01 1.37112975e-01 1.30762756e-01
      1.52956396e-01 1.73558503e-01 1.89182714e-01 1.57559037e-01
      1.43072456e-01 1.20789863e-01 1.62494823e-01 9.94409993e-02
      1.17073327e-01 1.59546390e-01 1.45374164e-01 2.12011218e-01
      2.12011218e-01 1.75778642e-01 1.83892116e-01 1.61240220e-01
      1.15102634e-01 1.14869043e-01 1.36879265e-01 1.42607108e-01
      2.07867250e-01 2.07867250e-01 2.07867250e-01 2.07867250e-01
      1.87347412e-01 1.28352121e-01 1.22392043e-01 1.19327590e-01
      1.75546765e-01 2.07867250e-01 2.07867250e-01 1.89690500e-01
      2.07867250e-01 1.80770114e-01 1.19423956e-01 1.09378479e-01
      1.15818821e-01 1.81591794e-01 1.86577618e-01 2.07867250e-01
      1.79916456e-01 2.03395307e-01 1.66272655e-01 1.31208703e-01
      1.06286272e-01 1.20020770e-01 1.25825375e-01 1.55664280e-01
      1.73858225e-01 1.83908895e-01 2.03766927e-01 1.65227398e-01
      1.14904881e-01 1.05905443e-01 9.66078416e-02 1.16477557e-01
      2.07718953e-01 1.97741821e-01 1.63990915e-01 1.78279325e-01
      1.30933091e-01 1.38342395e-01 1.22736342e-01 1.23898305e-01
      1.99985951e-01 1.34172887e-01 1.77288353e-01 1.80939749e-01
      2.07718953e-01 2.07718953e-01 2.07718953e-01 1.26404107e-01
      1.26329333e-01 1.63119704e-01 1.67312548e-01 2.03685924e-01
      1.74262077e-01 1.90039888e-01 1.41901568e-01 1.12118728e-01
      1.15588583e-01 1.13746904e-01 1.44890562e-01 1.44584447e-01
      2.07718953e-01 1.79947883e-01 2.07718953e-01 2.07718953e-01
      1.56635687e-01 1.12569913e-01 1.30859390e-01 1.64700568e-01
      2.08874941e-01 1.54072359e-01 1.28428191e-01 1.02128267e-01
      1.40270308e-01 1.01836041e-01 1.26855358e-01 1.88704222e-01
      1.97364017e-01 2.19641805e-01 2.17905998e-01 1.66066498e-01
      1.72390461e-01 1.69781312e-01 1.33531928e-01 1.24628492e-01
      1.53819293e-01 2.02336878e-01 2.19641805e-01 2.19641805e-01
      1.59101695e-01 8.50406736e-02 1.06275961e-01 9.27125663e-02
      1.26920715e-01 1.72186017e-01 2.00692490e-01 2.19641805e-01
      2.19641805e-01 1.98929742e-01 1.18165672e-01 1.37710810e-01
      1.00080654e-01 8.59161988e-02 1.82814464e-01 2.19641805e-01
      2.05204830e-01 2.13130027e-01 1.65628627e-01 1.73304588e-01
      1.61198914e-01 1.36112496e-01 1.06699258e-01 1.37122571e-01
      1.70716196e-01 1.80225506e-01 1.90651208e-01 1.84864834e-01
      1.71861589e-01 1.72560513e-01 1.15644045e-01 9.96935442e-02
      1.11070693e-01 1.40070826e-01 2.26522639e-01 2.26522639e-01
      1.75449252e-01 9.68486890e-02 1.23846211e-01 8.24464634e-02
      8.94578472e-02 1.69140711e-01 2.26522639e-01 2.26522639e-01
      2.26522639e-01 1.54644936e-01 1.39010176e-01 1.50751397e-01
      8.95330533e-02 1.29159987e-01 1.88153148e-01 2.23090619e-01
      1.75250471e-01 1.85400531e-01 1.85956702e-01 1.86145753e-01
      1.72995180e-01 1.09459117e-01 9.20697749e-02 1.17210269e-01
      1.33490324e-01 1.87155396e-01 1.76317945e-01 1.72254041e-01
      1.99324220e-01 1.90862417e-01 1.41161025e-01 9.78919491e-02
      1.39907643e-01 1.58099845e-01 2.12662205e-01 2.12662205e-01
      1.78446397e-01 1.77532360e-01 1.64354488e-01 9.96231362e-02
      1.20603472e-01 1.85291797e-01 1.94052711e-01 2.12662205e-01
      2.12662205e-01 2.12662205e-01 1.62495196e-01 1.56939074e-01
      1.14745215e-01 8.80417973e-02 1.43492699e-01 1.73462793e-01</_>
    <_>
      1.91410258e-01 1.61704421e-01 1.71128169e-01 1.96320653e-01
      2.16112837e-01 1.35824427e-01 5.41443937e-02 1.49290860e-01
      1.71970367e-01 2.16112837e-01 2.16112837e-01 2.16112837e-01
      2.16112837e-01 2.16112837e-01 1.44720599e-01 6.76758960e-02
      1.04304984e-01 1.59844756e-01 1.18716769e-01 1.50554597e-01
      1.59270674e-01 2.03549370e-01 1.77563280e-01 1.08025856e-01
      6.88212290e-02 1.36790320e-01 1.48602545e-01 1.47138998e-01
      1.71158329e-01 1.48360610e-01 2.16112837e-01 1.94484547e-01
      1.77140251e-01 1.39003262e-01 1.57873616e-01 1.62495613e-01
      1.94653556e-01 1.62188962e-01 2.03806818e-01 2.06002623e-01
      2.06002623e-01 1.27845690e-01 1.30216405e-01 1.13950029e-01
      1.65362611e-01 1.92402959e-01 1.32579476e-01 1.30824849e-01
      1.98749468e-01 2.06002623e-01 1.39199540e-01 1.61807388e-01
      1.30844101e-01 1.93477228e-01 1.27569377e-01 1.47005677e-01
      1.14126466e-01 1.86489478e-01 1.86529815e-01 1.78077847e-01
      2.04216257e-01 1.64882690e-01 1.60698310e-01 1.32613599e-01
      1.50626987e-01 1.24028020e-01 1.61062270e-01 2.03069925e-01
      1.54326349e-01 2.03033507e-01 1.54734194e-01 1.45661160e-01
      1.47665784e-01 1.34124815e-01 1.32762417e-01 1.51543126e-01
      2.13079095e-01 1.40437365e-01 7.95528665e-02 8.87885094e-02
      1.65356651e-01 1.77100748e-01 2.13079095e-01 1.87428176e-01
      1.82807475e-01 2.13079095e-01 1.67811081e-01 8.26337039e-02
      1.37353376e-01 2.13079095e-01 1.52134657e-01 1.67439193e-01
      1.47011399e-01 1.53162941e-01 1.85838073e-01 9.18009877e-02
      8.93371403e-02 9.75836217e-02 1.48082495e-01 2.13079095e-01
      2.13079095e-01 1.92920312e-01 2.06502616e-01 2.13079095e-01
      1.85984313e-01 1.42494038e-01 1.60667747e-01 2.13079095e-01
      1.02530301e-01 1.01399571e-01 1.13451719e-01 1.58278182e-01
      2.08273813e-01 1.42097205e-01 9.86608043e-02 1.13121964e-01
      1.15554772e-01 1.58277452e-01 1.32370859e-01 1.17648698e-01
      1.91523120e-01 2.04346985e-01 1.75875127e-01 1.34992525e-01
      1.71822697e-01 1.80237532e-01 1.64265230e-01 1.04277506e-01
      8.91422257e-02 1.14467263e-01 2.00900599e-01 1.76832169e-01
      2.07248852e-01 2.08273813e-01 1.87958747e-01 2.08273813e-01
      1.78176805e-01 1.67651042e-01 1.87717989e-01 2.08273813e-01
      2.04872742e-01 1.90414399e-01 1.95137456e-01 2.08273813e-01
      1.34673327e-01 1.33156523e-01 8.88516530e-02 1.23810604e-01
      1.68822899e-01 2.12794095e-01 1.72124654e-01 2.07379103e-01
      1.76046416e-01 1.02699727e-01 1.10657766e-01 8.40672329e-02
      8.98534954e-02 1.50584072e-01 1.85455605e-01 1.57417789e-01
      1.58664584e-01 1.23226523e-01 2.12794095e-01 1.79257721e-01
      1.70348257e-01 1.48057118e-01 1.97499514e-01 2.12794095e-01
      1.86227679e-01 1.86511114e-01 2.12794095e-01 1.88916579e-01
      1.40236005e-01 1.55362919e-01 1.43678218e-01 1.69975668e-01
      2.12794095e-01 1.52946770e-01 1.75664678e-01 2.12794095e-01
      1.51109383e-01 1.64189503e-01 1.40942097e-01 1.12962127e-01
      1.45928264e-01 9.92089286e-02 8.99296626e-02 1.02627888e-01
      1.33110672e-01 2.03086808e-01 2.09358484e-01 1.51889473e-01
      1.65998325e-01 2.09358484e-01 1.36822894e-01 1.39569268e-01
      1.32772505e-01 1.88448176e-01 2.09358484e-01 2.09358484e-01
      2.09358484e-01 1.61127910e-01 1.75492913e-01 1.70009419e-01
      1.01937920e-01 1.42702848e-01 1.96320325e-01 2.09358484e-01
      2.09358484e-01 1.57874346e-01 1.98779672e-01 2.09358484e-01
      1.46431223e-01 1.03369132e-01 1.48092732e-01 2.01738685e-01
      1.70464650e-01 9.81700718e-02 6.20904528e-02 7.08178729e-02
      8.86413530e-02 1.29166603e-01 2.35048011e-01 2.35048011e-01
      2.15231121e-01 2.35048011e-01 1.63245425e-01 1.47461951e-01
      1.19270734e-01 1.54326797e-01 1.67447284e-01 2.35048011e-01
      2.35048011e-01 2.35048011e-01 5.49466684e-02 3.66347432e-02
      3.19196694e-02 4.72566746e-02 9.13797766e-02 1.34032190e-01
      2.35048011e-01 2.06012070e-01 6.40525222e-02 1.66692927e-01
      7.42782280e-02 6.29981682e-02 1.14738904e-01 2.35048011e-01
      2.06040829e-01 2.35048011e-01 2.21337542e-01 2.12517098e-01
      2.11199149e-01 1.78417161e-01 1.65447250e-01 9.74544808e-02
      1.47309065e-01 1.82370991e-01 1.55876487e-01 1.62238970e-01
      2.11199149e-01 2.11199149e-01 1.49495408e-01 1.71447828e-01
      1.45258933e-01 2.11199149e-01 2.03611434e-01 1.47015348e-01
      1.83132008e-01 2.11199149e-01 1.68358415e-01 9.19824690e-02
      8.31620619e-02 1.30881563e-01 2.01991394e-01 1.66323498e-01
      1.96751341e-01 1.38306782e-01 1.96363896e-01 1.37960285e-01
      8.64628702e-02 1.22395769e-01 1.51601255e-01 2.11199149e-01
      2.11199149e-01 1.29490674e-01 1.20571464e-01 1.42930269e-01
      2.09845215e-01 1.66077197e-01 1.63296148e-01 1.62977472e-01
      2.11458310e-01 1.84632421e-01 1.06770054e-01 1.45579070e-01
      2.11458310e-01 2.11458310e-01 1.55051291e-01 1.12949111e-01
      1.88187778e-01 2.11458310e-01 1.41977564e-01 7.49947205e-02
      1.18866019e-01 2.06636503e-01 1.87683329e-01 9.78025571e-02
      1.29631579e-01 1.57778576e-01 2.11458310e-01 2.06853822e-01
      1.03253581e-01 9.21260118e-02 1.78845406e-01 2.11353257e-01
      1.49672493e-01 2.11458310e-01 1.97792798e-01 2.11458310e-01
      1.07659496e-01 5.50067313e-02 6.77666664e-02 1.80890366e-01</_>
    <_>
      3.02291363e-01 3.02291363e-01 3.02291363e-01 3.20864171e-02
      3.39132100e-02 5.22861630e-02 5.29355854e-02 8.95603150e-02
      2.65999943e-01 3.02291363e-01 3.02291363e-01 2.08897576e-01
      7.39713758e-02 1.36593118e-01 1.04016766e-01 8.74167234e-02
      1.65495306e-01 3.02291363e-01 1.67907313e-01 2.37342834e-01
      1.16726577e-01 8.30693394e-02 4.55065109e-02 4.24646810e-02
      3.38974334e-02 4.72836830e-02 8.79063234e-02 1.65890098e-01
      2.01719865e-01 1.18632264e-01 1.08783528e-01 7.08392039e-02
      6.76030517e-02 6.35686964e-02 6.78913966e-02 1.27263144e-01
      2.69384056e-01 1.89437851e-01 1.64348423e-01 1.17198378e-01
      2.38275617e-01 1.40234292e-01 1.08330108e-01 1.99124902e-01
      2.69384056e-01 2.69384056e-01 2.24159539e-01 2.00536877e-01
      1.00214630e-01 2.69384056e-01 1.47469163e-01 1.06390327e-01
      1.17322654e-01 2.69384056e-01 1.59541026e-01 1.63368285e-01
      9.47127566e-02 7.32787475e-02 7.98995569e-02 6.61319494e-02
      5.63926362e-02 8.23305100e-02 1.48085684e-01 2.26225898e-01
      1.69070140e-01 1.02149792e-01 8.12060609e-02 1.30123526e-01
      7.84098357e-02 8.64851028e-02 8.98100808e-02 1.95262983e-01
      2.82649189e-01 2.50734240e-01 1.46489084e-01 8.34157392e-02
      2.72355855e-01 1.62443936e-01 1.01099305e-01 7.92894214e-02
      2.82649189e-01 2.82649189e-01 1.35909244e-01 6.80433512e-02
      3.34066972e-02 4.39213403e-02 4.30590250e-02 6.27699718e-02
      7.62664750e-02 2.82649189e-01 2.82649189e-01 2.06544980e-01
      1.32480279e-01 1.12953648e-01 1.69397593e-01 1.02311283e-01
      1.22436225e-01 1.01260044e-01 2.43637443e-01 1.89011514e-01
      1.49817854e-01 1.10675424e-01 7.31846243e-02 8.57888460e-02
      7.86938667e-02 8.98501500e-02 1.06156737e-01 2.14941174e-01
      1.98402807e-01 2.26654097e-01 1.49718136e-01 1.30240753e-01
      6.94609061e-02 4.81506214e-02 3.60461101e-02 6.65706396e-02
      1.02320753e-01 2.26654097e-01 2.26654097e-01 2.26654097e-01
      2.26654097e-01 1.48332596e-01 9.46591645e-02 8.75933692e-02
      8.34440365e-02 1.82227284e-01 2.26654097e-01 1.60365298e-01
      1.35628253e-01 1.80858940e-01 1.50843456e-01 6.32059202e-02
      9.03470069e-02 1.06208466e-01 1.40195027e-01 2.26654097e-01
      2.23537564e-01 2.26654097e-01 2.26654097e-01 2.26654097e-01
      1.35177806e-01 1.55887514e-01 1.28606617e-01 2.26654097e-01
      1.65753245e-01 1.50080949e-01 1.42971084e-01 1.25030994e-01
      1.25490680e-01 6.29236549e-02 7.61485100e-02 7.54713267e-02
      1.36638820e-01 2.27884606e-01 2.22355008e-01 1.61927864e-01
      1.47841036e-01 1.07680283e-01 5.68858497e-02 7.13510662e-02
      7.44462311e-02 1.33333772e-01 1.99651986e-01 1.74678966e-01
      2.27884606e-01 2.27884606e-01 2.27884606e-01 1.37051463e-01
      1.43649146e-01 1.51386365e-01 1.93379253e-01 2.27884606e-01
      2.27884606e-01 2.27884606e-01 2.27884606e-01 2.27884606e-01
      1.24156065e-01 1.05929174e-01 1.41003117e-01 1.92384392e-01
      2.48547554e-01 2.48547554e-01 2.25769714e-01 1.93524942e-01
      1.04034208e-01 6.79062903e-02 6.88146651e-02 6.07183538e-02
      1.38068110e-01 2.15929747e-01 1.71616212e-01 1.14738405e-01
      8.59112591e-02 1.14574887e-01 6.48237988e-02 6.05819561e-02
      8.47972780e-02 1.84263259e-01 2.48547554e-01 2.48547554e-01
      2.48547554e-01 2.48547554e-01 1.41134217e-01 9.51032639e-02
      5.58499806e-02 8.41870978e-02 1.69827431e-01 2.48547554e-01
      2.48547554e-01 2.03457803e-01 9.59981754e-02 1.19459130e-01
      9.87697989e-02 6.73411712e-02 1.29169941e-01 2.22106144e-01
      1.77653462e-01 7.19756261e-02 5.11009023e-02 7.96396881e-02
      8.51164609e-02 4.25812043e-02 8.26878473e-02 9.61638317e-02
      1.50903344e-01 2.76288480e-01 1.11945502e-01 9.84836295e-02
      1.39981806e-01 1.20698348e-01 5.41495681e-02 7.61551112e-02
      8.65311474e-02 2.34392062e-01 2.76288480e-01 1.61022663e-01
      6.56879470e-02 6.33518919e-02 6.97370693e-02 1.13193825e-01
      2.76288480e-01 2.76288480e-01 2.76288480e-01 2.76288480e-01
      1.71364725e-01 8.69293809e-02 4.54701968e-02 1.06777251e-01
      1.27710536e-01 2.16240048e-01 2.76288480e-01 2.76288480e-01
      1.90829903e-01 1.28443077e-01 1.56877816e-01 1.60741687e-01
      1.28902182e-01 8.23368952e-02 6.69624582e-02 1.06622607e-01
      1.72749817e-01 2.45415136e-01 2.45415136e-01 2.45415136e-01
      2.06333667e-01 1.70222878e-01 9.66050699e-02 6.78411797e-02
      1.23699091e-01 1.83103547e-01 2.45415136e-01 1.74488112e-01
      1.18792988e-01 5.28040342e-02 6.26209006e-02 6.38170689e-02
      8.37639496e-02 2.13838935e-01 2.45415136e-01 2.45415136e-01
      2.45415136e-01 2.02982128e-01 1.15849800e-01 1.04302205e-01
      7.08476976e-02 6.82456568e-02 1.60285145e-01 2.45415136e-01
      2.32095703e-01 2.32095703e-01 1.91771016e-01 9.95923653e-02
      8.15637633e-02 6.99694380e-02 4.36664261e-02 9.32729021e-02
      1.67922273e-01 2.32095703e-01 2.32095703e-01 2.27195367e-01
      6.57263100e-02 8.53516906e-02 9.21156630e-02 5.54005653e-02
      1.22774638e-01 1.71688333e-01 2.32095703e-01 2.32095703e-01
      1.59125879e-01 1.10704750e-01 1.26511484e-01 9.88958329e-02
      9.48002189e-02 1.75593138e-01 2.32095703e-01 2.32095703e-01
      2.27989346e-01 1.71698019e-01 1.20886818e-01 1.39155522e-01
      1.35418713e-01 1.06113419e-01 2.19708309e-01 2.32095703e-01</_>
    <_>
      1.62065625e-01 1.56689927e-01 1.54682845e-01 1.63757384e-01
      1.43711254e-01 1.33887738e-01 1.42061442e-01 1.34424120e-01
      1.21690229e-01 1.63334429e-01 1.77802756e-01 1.65936127e-01
      2.03145817e-01 2.03145817e-01 1.43051878e-01 1.32184073e-01
      1.24705181e-01 1.26082122e-01 1.95215449e-01 2.03145817e-01
      1.72702253e-01 2.03145817e-01 1.67475402e-01 1.82168826e-01
      1.50763869e-01 1.71219140e-01 1.23052411e-01 1.93296477e-01
      1.77303791e-01 1.52415827e-01 2.03145817e-01 1.90565839e-01
      2.01170534e-01 1.68454453e-01 1.71358317e-01 1.42497778e-01
      1.10658810e-01 1.27357468e-01 1.37734145e-01 1.42194152e-01
      1.49856821e-01 1.00712284e-01 9.23964381e-02 9.08415392e-02
      9.18454304e-02 2.32377633e-01 2.32978269e-01 2.32978269e-01
      2.32978269e-01 2.32978269e-01 1.51884943e-01 1.15100123e-01
      1.13881469e-01 1.41637638e-01 1.10216968e-01 1.26989231e-01
      1.49469629e-01 1.71321392e-01 1.82172328e-01 1.35147572e-01
      1.26423046e-01 9.35329795e-02 9.53885838e-02 2.32978269e-01
      2.32978269e-01 2.32978269e-01 2.32978269e-01 2.32978269e-01
      1.85859919e-01 1.49004996e-01 1.21943295e-01 1.53200448e-01
      1.99193373e-01 2.06966802e-01 2.06966802e-01 2.06966802e-01
      1.92371532e-01 1.17053807e-01 8.87577981e-02 8.26592669e-02
      1.07573695e-01 1.59228295e-01 1.53489396e-01 1.64990112e-01
      1.78214714e-01 1.90932155e-01 1.89909533e-01 1.91505894e-01
      1.45680040e-01 1.49958104e-01 1.82501927e-01 1.85328662e-01
      1.96370631e-01 2.06966802e-01 1.80279374e-01 1.39208734e-01
      1.01356044e-01 1.14227399e-01 1.16332978e-01 1.29657999e-01
      1.44621029e-01 1.65066019e-01 1.70365319e-01 1.79096401e-01
      2.06966802e-01 2.06966802e-01 1.62422836e-01 1.26678020e-01
      1.58397332e-01 1.78881168e-01 1.17508389e-01 1.81186870e-01
      1.52646929e-01 1.68218255e-01 1.04621954e-01 1.10206738e-01
      1.22616947e-01 1.70932934e-01 1.44123912e-01 1.23858400e-01
      1.66347802e-01 1.73027456e-01 1.84357122e-01 1.34927899e-01
      1.34411648e-01 1.40989810e-01 1.80624083e-01 1.67850494e-01
      1.35885224e-01 2.09838226e-01 1.99680761e-01 2.09838226e-01
      1.25864923e-01 1.04625404e-01 1.76277295e-01 2.09838226e-01
      1.83610335e-01 1.73226818e-01 2.09838226e-01 2.09838226e-01
      2.09838226e-01 1.49716780e-01 1.41479015e-01 2.09838226e-01
      1.21195838e-01 1.24048822e-01 1.32292688e-01 1.76816374e-01
      1.60926849e-01 1.46970138e-01 1.21453330e-01 9.40898284e-02
      1.13869652e-01 1.71188086e-01 2.07316026e-01 2.07316026e-01
      2.07316026e-01 2.07316026e-01 1.51940376e-01 1.47422478e-01
      1.17019705e-01 1.44922346e-01 1.95098519e-01 1.81441322e-01
      1.68429270e-01 1.73576787e-01 1.87880203e-01 1.80453211e-01
      1.35036543e-01 1.20681673e-01 1.74774081e-01 1.84953555e-01
      2.01368436e-01 1.72760114e-01 2.07316026e-01 1.91467062e-01
      1.66226685e-01 1.67220414e-01 1.54654741e-01 1.72725692e-01
      1.30844772e-01 1.49113640e-01 1.41223922e-01 1.71048731e-01
      1.75970614e-01 1.41428947e-01 1.14786237e-01 1.63967609e-01
      1.28147408e-01 1.14528403e-01 1.40929744e-01 1.56255037e-01
      1.74354628e-01 2.07621977e-01 2.07621977e-01 1.73576787e-01
      1.82997853e-01 1.41817555e-01 1.53167933e-01 1.29100636e-01
      1.38418600e-01 1.88099980e-01 2.07621977e-01 1.54304549e-01
      1.42845348e-01 1.79414898e-01 1.50925279e-01 1.84908643e-01
      1.55431196e-01 1.87406003e-01 2.07621977e-01 2.07621977e-01
      1.69428036e-01 1.77957878e-01 1.79679483e-01 1.86756477e-01
      1.39874786e-01 1.25863746e-01 1.61013260e-01 2.03700945e-01
      1.81838363e-01 1.86652526e-01 1.41504914e-01 1.03245653e-01
      1.78505778e-01 1.80845946e-01 1.70418009e-01 1.80191696e-01
      1.90433517e-01 1.99125007e-01 2.03700945e-01 1.45114422e-01
      1.10659778e-01 1.79668978e-01 1.11437082e-01 1.38903663e-01
      1.51918128e-01 1.70014054e-01 1.72612563e-01 1.48402601e-01
      1.83285221e-01 1.02300845e-01 1.63468152e-01 1.89403966e-01
      1.76511958e-01 1.83548748e-01 2.03700945e-01 2.03700945e-01
      1.74934655e-01 1.70276463e-01 1.11194357e-01 1.59719706e-01
      1.88261896e-01 1.98173448e-01 1.60366088e-01 1.61683738e-01
      1.53795600e-01 1.44242391e-01 1.43283129e-01 1.25057027e-01
      1.61294475e-01 1.73403442e-01 1.76954508e-01 1.33635297e-01
      1.80496216e-01 1.53777719e-01 1.45040229e-01 1.61133036e-01
      1.53798163e-01 1.71756104e-01 1.86118558e-01 1.89458668e-01
      1.77311435e-01 1.87635645e-01 1.87102735e-01 1.52923182e-01
      1.44530118e-01 1.28197491e-01 1.83568463e-01 1.35278583e-01
      1.93726957e-01 1.48328245e-01 1.65136427e-01 1.88727140e-01
      1.93167821e-01 1.47457302e-01 1.49224013e-01 2.01268226e-01
      1.56255454e-01 1.41844764e-01 1.61542505e-01 1.88806042e-01
      1.88620418e-01 1.40940353e-01 1.43765017e-01 1.25052422e-01
      1.41618341e-01 1.77527845e-01 1.93158925e-01 2.20048338e-01
      2.20048338e-01 2.20048338e-01 1.52362511e-01 1.83262855e-01
      1.44913942e-01 1.65327400e-01 9.43014175e-02 1.25672832e-01
      2.03988686e-01 2.08697617e-01 2.10198939e-01 1.52380824e-01
      1.21453963e-01 9.37985256e-02 1.25678420e-01 9.86300483e-02
      1.52915061e-01 2.20048338e-01 2.20048338e-01 2.20048338e-01
      1.47849545e-01 1.47139892e-01 9.49361250e-02 1.14002831e-01</_>
    <_>
      1.21844582e-01 7.67665952e-02 1.35806799e-01 1.24607392e-01
      2.30345517e-01 1.66215762e-01 8.98289904e-02 9.11349058e-02
      1.36824504e-01 1.22117661e-01 3.33757609e-01 3.33757609e-01
      1.07757084e-01 1.91557616e-01 1.00766130e-01 5.05864769e-02
      6.14715442e-02 9.47796926e-02 1.11852847e-01 1.46281108e-01
      3.33757609e-01 1.84197351e-01 1.27384245e-01 7.29422793e-02
      5.20910844e-02 6.05941676e-02 9.35411453e-02 7.75442719e-02
      3.33757609e-01 3.33757609e-01 2.55789667e-01 5.24469502e-02
      1.91846862e-02 2.01765932e-02 1.63889732e-02 2.74393316e-02
      1.39786333e-01 3.25777501e-01 3.25777501e-01 6.27300888e-02
      6.65351376e-02 2.19118837e-02 1.59828514e-02 2.87454519e-02
      5.19494191e-02 3.03530782e-01 3.25777501e-01 3.25777501e-01
      6.46063685e-02 5.80592342e-02 3.44880372e-02 2.50468291e-02
      3.83400545e-02 8.86972845e-02 9.47477371e-02 3.25777501e-01
      3.25777501e-01 1.35100931e-01 2.03288570e-02 4.35905019e-03
      2.96637346e-03 8.09302088e-03 2.34882962e-02 1.69763446e-01
      3.25777501e-01 1.95121631e-01 9.12511945e-02 5.06890155e-02
      1.16858203e-02 1.23087196e-02 2.73452289e-02 6.10230677e-02
      2.82112479e-01 2.82112479e-01 2.57406145e-01 5.60075045e-02
      4.65919226e-02 3.31150480e-02 3.02065108e-02 4.59081531e-02
      2.05007836e-01 2.82112479e-01 2.82112479e-01 1.64506242e-01
      2.60893647e-02 2.47724149e-02 1.39639806e-02 2.17808578e-02
      4.57385108e-02 2.54137069e-01 2.57932782e-01 2.82112479e-01
      1.49798885e-01 1.03244729e-01 7.24322125e-02 3.20813358e-02
      3.12833078e-02 6.07535467e-02 1.36621371e-01 2.82112479e-01
      2.82112479e-01 1.44317612e-01 6.42150119e-02 3.70684005e-02
      3.35842818e-02 3.96093689e-02 7.57990330e-02 2.50295609e-01
      7.62044340e-02 1.32355615e-01 3.12033802e-01 3.12033802e-01
      9.68442783e-02 3.32737789e-02 1.68358088e-02 3.42048742e-02
      5.51855005e-02 4.68420833e-02 1.88014567e-01 3.12033802e-01
      3.12033802e-01 4.98118885e-02 6.46394677e-03 3.88076343e-03
      3.30072083e-03 5.68122789e-03 6.67345598e-02 9.37091410e-02
      3.12033802e-01 3.12033802e-01 3.12033802e-01 6.40525296e-02
      1.66766793e-02 3.18750553e-02 7.65497759e-02 2.27772724e-02
      8.26609731e-02 3.01071256e-01 3.12033802e-01 1.26835197e-01
      2.90420000e-02 5.67724975e-03 6.79575186e-03 5.51829487e-03
      1.59494489e-01 2.79508233e-01 2.79508233e-01 2.79508233e-01
      1.08574405e-01 2.68362295e-02 1.36712119e-02 2.00134721e-02
      5.21813184e-02 2.20947713e-01 2.79508233e-01 2.79508233e-01
      2.43875340e-01 1.46687090e-01 5.00496924e-02 4.65097800e-02
      8.74694288e-02 1.34626448e-01 8.66610110e-02 1.77964360e-01
      2.79508233e-01 2.79508233e-01 2.32439980e-01 8.29002559e-02
      4.92138304e-02 5.17816059e-02 5.34332804e-02 1.13295026e-01
      1.41525045e-01 1.73524827e-01 1.55757084e-01 1.45020157e-01
      9.36860517e-02 9.42738876e-02 8.78703520e-02 8.44305158e-02
      2.36663222e-01 2.36663222e-01 1.74318179e-01 1.74700618e-01
      1.61754474e-01 9.98623446e-02 6.23169243e-02 1.13184653e-01
      1.71229213e-01 2.36663222e-01 2.36663222e-01 2.36663222e-01
      1.42827079e-01 1.43480584e-01 1.05140120e-01 1.10871077e-01
      1.48539439e-01 2.36663222e-01 1.52875334e-01 1.74820676e-01
      1.45893201e-01 1.23833828e-01 1.53021067e-01 9.87289101e-02
      7.58414641e-02 9.82167944e-02 1.00529291e-01 2.11813942e-01
      2.36663222e-01 2.36663222e-01 1.69976145e-01 2.04187989e-01
      1.02332465e-01 1.09100707e-01 1.23466477e-01 1.33474052e-01
      4.90945242e-02 5.27689271e-02 2.02801049e-01 2.95955181e-01
      2.95955181e-01 2.95955181e-01 1.00224838e-01 4.04623449e-02
      5.64938858e-02 2.09876709e-02 4.72628996e-02 1.40858546e-01
      2.27763832e-01 1.98688641e-01 1.14209995e-01 5.55521324e-02
      4.39851023e-02 2.54824348e-02 2.15503778e-02 3.56858112e-02
      2.19005242e-01 2.36488268e-01 2.95955181e-01 2.95955181e-01
      2.81935036e-01 4.08734903e-02 1.94397811e-02 6.32817224e-02
      2.32987814e-02 6.20079003e-02 9.21758786e-02 1.77399024e-01
      2.54053473e-01 1.98267192e-01 1.20991394e-01 1.06303632e-01
      9.27533358e-02 1.07491501e-01 1.79822877e-01 2.00473219e-01
      2.16925621e-01 1.26734123e-01 1.30265221e-01 1.41675681e-01
      9.44251865e-02 1.38344228e-01 1.37006804e-01 1.42204896e-01
      1.32747442e-01 1.46964386e-01 1.20461799e-01 1.70431122e-01
      1.64919630e-01 1.01583183e-01 2.16925621e-01 1.09564438e-01
      1.46463990e-01 1.11309618e-01 1.33430257e-01 1.44449696e-01
      2.16925621e-01 2.16925621e-01 2.16925621e-01 2.16925621e-01
      2.16925621e-01 2.16925621e-01 1.51632816e-01 1.32344916e-01
      1.51117235e-01 2.16925621e-01 2.16925621e-01 2.15116560e-01
      1.94156453e-01 2.05632254e-01 1.67160466e-01 1.06602855e-01
      9.92213562e-02 6.63216636e-02 1.12265736e-01 1.25983492e-01
      1.00149527e-01 2.25217253e-01 2.72689551e-01 2.59852171e-01
      1.33147404e-01 1.19207330e-01 6.50932416e-02 8.38214159e-02
      9.32472497e-02 1.14580862e-01 2.72689551e-01 2.72689551e-01
      2.21796378e-01 1.02387562e-01 1.00457005e-01 8.62904564e-02
      1.15029000e-01 1.51303202e-01 1.64252773e-01 2.72689551e-01
      2.72689551e-01 2.72689551e-01 8.33825693e-02 8.56473967e-02
      6.22599572e-02 6.83422163e-02 1.05322495e-01 1.46844685e-01</_>
    <_>
      1.71383217e-01 2.48237357e-01 1.83104813e-01 9.80039015e-02
      1.33622259e-01 1.69458523e-01 1.23802900e-01 1.22488894e-01
      1.40718579e-01 2.48237357e-01 2.44544178e-01 1.40947521e-01
      1.31644741e-01 9.86491442e-02 9.63360518e-02 1.05072618e-01
      1.56211317e-01 2.24828333e-01 9.47293565e-02 1.13794349e-01
      1.17582403e-01 7.76080266e-02 2.48237357e-01 2.48237357e-01
      2.48237357e-01 8.80628228e-02 9.93194133e-02 1.35390893e-01
      1.79807156e-01 1.93708554e-01 1.41889825e-01 1.89972907e-01
      2.48237357e-01 1.31012291e-01 1.40920892e-01 1.25537023e-01
      2.05142632e-01 1.11325443e-01 6.14583045e-02 6.85979128e-02
      6.75875843e-02 5.62329888e-02 6.61575720e-02 1.32801458e-01
      2.26479352e-01 1.30448669e-01 7.72568509e-02 4.64267097e-02
      5.29836304e-02 9.56633464e-02 1.35113627e-01 1.88087016e-01
      2.60889620e-01 2.44368091e-01 2.25037813e-01 1.55342132e-01
      1.24322414e-01 1.08187407e-01 1.00670211e-01 1.05144650e-01
      1.05533421e-01 2.37009868e-01 2.60889620e-01 2.60889620e-01
      2.60889620e-01 1.28115863e-01 8.35360661e-02 1.26855507e-01
      1.61775768e-01 1.96159244e-01 2.60889620e-01 2.60889620e-01
      8.97210389e-02 5.06548956e-02 2.97890548e-02 4.24148776e-02
      1.18100949e-01 2.32785225e-01 2.32785225e-01 2.32785225e-01
      1.97337568e-01 7.22234994e-02 3.70239355e-02 2.34604720e-02
      2.27010604e-02 1.12922408e-01 2.05007806e-01 2.28678674e-01
      1.81025535e-01 1.69162348e-01 2.32785225e-01 2.32785225e-01
      1.15079738e-01 8.35632607e-02 2.11994275e-01 2.32785225e-01
      2.32785225e-01 2.32785225e-01 2.32785225e-01 6.78844973e-02
      5.31559289e-02 3.77021879e-02 4.86170799e-02 1.83251664e-01
      2.32785225e-01 2.32785225e-01 2.00172752e-01 9.61937159e-02
      3.52582969e-02 2.62750909e-02 3.55976038e-02 4.41996232e-02
      1.89073861e-01 3.03840727e-01 3.03840727e-01 8.21484998e-02
      6.29424453e-02 7.13139623e-02 8.21285471e-02 8.46244842e-02
      8.67909938e-02 1.69525787e-01 2.96258390e-01 1.43371850e-01
      1.45312890e-01 1.23436101e-01 3.50135863e-02 2.68959459e-02
      3.37200463e-02 3.34895924e-02 1.19422011e-01 3.03840727e-01
      3.03840727e-01 2.07646966e-01 7.35388324e-02 4.79721427e-02
      3.77817340e-02 3.10981367e-02 4.52838801e-02 8.97352695e-02
      2.66958177e-01 3.03840727e-01 3.03840727e-01 1.96047336e-01
      1.85133681e-01 1.32425234e-01 9.37556475e-02 1.02257617e-01
      1.21278696e-01 1.38444573e-01 1.25438049e-01 2.67908424e-01
      2.67908424e-01 2.67908424e-01 2.67908424e-01 1.24738537e-01
      8.57932791e-02 1.04537487e-01 9.96354595e-02 1.21203959e-01
      2.67908424e-01 2.67908424e-01 6.38789982e-02 7.84466937e-02
      4.82053161e-02 6.03038110e-02 7.88234323e-02 1.37242898e-01
      2.29844928e-01 2.67908424e-01 1.97520137e-01 1.37187332e-01
      1.44948930e-01 8.56810063e-02 6.44416958e-02 9.48542133e-02
      1.02662012e-01 1.63345978e-01 1.84767023e-01 2.25823343e-01
      2.27810904e-01 2.27810904e-01 1.71192333e-01 1.16864428e-01
      2.22877592e-01 2.09011197e-01 1.87409192e-01 1.94663659e-01
      2.27810904e-01 8.63595903e-02 9.01778042e-02 7.83025250e-02
      7.82953352e-02 2.22368822e-01 2.27810904e-01 2.27810904e-01
      1.84263542e-01 9.06307548e-02 1.54868558e-01 1.88288629e-01
      1.80618137e-01 1.13054402e-01 1.58745512e-01 1.57714427e-01
      1.05105549e-01 1.08146474e-01 1.59309283e-01 9.46414024e-02
      1.32132009e-01 1.70329466e-01 8.55418369e-02 1.24272242e-01
      1.59090817e-01 1.71534985e-01 2.27810904e-01 1.46864265e-01
      4.66576777e-02 3.76319624e-02 3.10673192e-02 3.36286388e-02
      9.97709259e-02 2.80208915e-01 3.38028550e-01 3.25056911e-01
      7.55933225e-02 5.73732965e-02 3.46087813e-02 2.56138612e-02
      2.83342395e-02 6.75277486e-02 1.91765815e-01 3.38028550e-01
      3.38028550e-01 2.71593779e-01 4.82950695e-02 3.95453461e-02
      3.59541401e-02 3.83272842e-02 1.25127286e-01 1.51054069e-01
      1.38977602e-01 1.63150311e-01 6.15479127e-02 6.19330704e-02
      4.87238429e-02 3.71722542e-02 3.29599716e-02 1.06332503e-01
      1.13089591e-01 2.30272532e-01 3.38028550e-01 1.79818571e-01
      4.36213762e-02 3.29057649e-02 1.64059829e-02 1.55943213e-02
      2.39688307e-02 1.02892853e-01 2.52134681e-01 3.19387525e-01
      2.59318948e-01 1.11304894e-01 5.84832802e-02 3.55165154e-02
      2.36384701e-02 4.18429747e-02 7.80627355e-02 1.73182532e-01
      3.19387525e-01 3.19387525e-01 6.62473515e-02 4.34109122e-02
      2.27059629e-02 1.18119372e-02 4.88197692e-02 6.61298633e-02
      1.68465063e-01 3.19387525e-01 3.12338322e-01 1.48354635e-01
      5.02182916e-02 2.89805252e-02 1.17439851e-02 4.52249721e-02
      4.76656556e-02 1.19866334e-01 3.19387525e-01 3.19387525e-01
      1.86786070e-01 1.48639113e-01 1.77959397e-01 1.51202992e-01
      8.35138336e-02 7.20076561e-02 7.56889284e-02 1.59733459e-01
      2.66190737e-01 1.10820137e-01 1.32693723e-01 1.98899046e-01
      1.66099161e-01 6.68259338e-02 7.54350349e-02 1.52688980e-01
      2.22051576e-01 1.66704267e-01 2.66190737e-01 1.49947271e-01
      9.35069099e-02 1.05074249e-01 5.67895733e-02 5.14811538e-02
      8.57888386e-02 2.66190737e-01 2.66190737e-01 1.92135498e-01
      1.30180165e-01 9.82819647e-02 1.48988277e-01 6.16126321e-02
      1.10140517e-01 2.29174554e-01 2.66190737e-01 2.66190737e-01</_>
    <_>
      1.68740034e-01 1.78801015e-01 1.77036554e-01 1.55374601e-01
      2.03386933e-01 1.55899689e-01 1.03383064e-01 7.92547986e-02
      1.33178577e-01 1.41340539e-01 1.59575477e-01 1.48300126e-01
      1.56011909e-01 2.26350740e-01 2.26350740e-01 2.17932656e-01
      1.39338449e-01 1.45899266e-01 9.65840369e-02 1.09191462e-01
      1.50323689e-01 1.69775903e-01 1.94439903e-01 2.07696021e-01
      1.54319674e-01 1.02441542e-01 1.23214245e-01 1.00885443e-01
      9.39603522e-02 1.07616656e-01 1.47597089e-01 2.26350740e-01
      2.26350740e-01 2.26350740e-01 2.26350740e-01 1.96408167e-01
      9.41376984e-02 7.63038769e-02 8.28658938e-02 7.51720145e-02
      1.08285770e-01 1.24737710e-01 1.41447619e-01 1.19396895e-01
      1.09004952e-01 1.14980891e-01 6.77791014e-02 7.81895369e-02
      1.84524238e-01 2.33987913e-01 1.74635366e-01 2.07319811e-01
      1.71051860e-01 1.77472875e-01 1.41372859e-01 9.45322067e-02
      1.35005414e-01 1.12787969e-01 1.63027570e-01 1.67802572e-01
      2.33987913e-01 2.33987913e-01 1.69593185e-01 2.03807175e-01
      1.01858951e-01 2.11649850e-01 2.33987913e-01 2.33987913e-01
      1.85607523e-01 2.33987913e-01 2.33987913e-01 2.16884807e-01
      7.08855540e-02 4.30859551e-02 5.10117561e-02 2.64912605e-01
      3.42153877e-01 2.06291512e-01 1.65083632e-01 1.17508039e-01
      1.35440663e-01 1.55708578e-03 9.73842863e-04 1.27382821e-03
      3.00303679e-02 2.45474204e-01 1.70620363e-02 6.17821608e-03
      3.66585096e-03 3.84202134e-03 1.96027696e-01 9.81153920e-02
      1.67058587e-01 3.07333946e-01 3.42153877e-01 1.87065050e-01
      2.27018103e-01 2.01742187e-01 2.27566525e-01 2.11416230e-01
      6.85860217e-02 4.02505584e-02 6.81756660e-02 2.24367753e-01
      2.40926705e-02 2.07329392e-02 3.39534022e-02 2.48378322e-01
      8.33035856e-02 1.04298130e-01 1.24544539e-01 1.24422714e-01
      1.23854697e-01 1.70466736e-01 1.63573682e-01 1.13707073e-01
      1.20598592e-01 1.69541344e-01 1.63783818e-01 1.27003267e-01
      1.21239111e-01 1.61317870e-01 1.63732350e-01 2.17595577e-01
      2.17595577e-01 2.17595577e-01 1.27023101e-01 1.74496874e-01
      1.45839304e-01 6.47382438e-02 9.42526013e-02 1.53604925e-01
      2.17595577e-01 2.15361446e-01 1.59763217e-01 2.17595577e-01
      2.17595577e-01 2.17595577e-01 1.51794806e-01 1.52096599e-01
      1.45877168e-01 2.02839836e-01 2.17595577e-01 2.17595577e-01
      1.48249060e-01 1.11882225e-01 1.19805276e-01 1.19830757e-01
      1.56031311e-01 1.34492278e-01 2.09218174e-01 2.09218174e-01
      1.54318154e-01 2.09218174e-01 1.45910949e-01 2.09218174e-01
      2.09218174e-01 2.09218174e-01 1.23274028e-01 2.09218174e-01
      2.09218174e-01 1.93018258e-01 1.38086706e-01 1.42709181e-01
      1.13844492e-01 1.20544285e-01 1.26983225e-01 1.24427862e-01
      1.69371948e-01 1.58086017e-01 1.29785702e-01 1.77098572e-01
      1.64200574e-01 2.09218174e-01 1.51572928e-01 1.69304699e-01
      1.20910399e-01 2.09218174e-01 1.93242371e-01 1.61266252e-01
      1.98099807e-01 1.65112421e-01 1.69949830e-01 1.79103553e-01
      2.12609455e-01 5.91654405e-02 1.45620957e-01 1.38712689e-01
      1.83603048e-01 2.12609455e-01 1.54533252e-01 1.13575846e-01
      1.34252101e-01 1.28351793e-01 4.41578440e-02 5.90103008e-02
      7.61057138e-02 2.12609455e-01 1.93630368e-01 1.93865195e-01
      1.80235788e-01 1.51714057e-01 1.48550957e-01 9.62431058e-02
      2.01358214e-01 1.79641306e-01 1.82594582e-01 2.12609455e-01
      2.12609455e-01 1.75198331e-01 2.12609455e-01 1.71396002e-01
      1.56426817e-01 1.46181449e-01 1.40906006e-01 2.12609455e-01
      1.09157063e-01 1.36842191e-01 1.11868091e-01 7.15592802e-02
      8.24595243e-02 1.91599727e-01 2.42183134e-01 2.42183134e-01
      1.61107004e-01 2.11786553e-01 2.42183134e-01 2.08301395e-01
      1.70352161e-01 1.68964639e-01 2.07236379e-01 2.42183134e-01
      2.42183134e-01 2.42183134e-01 5.18953428e-02 5.05675897e-02
      6.32216036e-02 5.31022213e-02 5.65405414e-02 1.59393176e-01
      2.42183134e-01 1.98175237e-01 1.06007315e-01 7.33407363e-02
      6.41431361e-02 6.29948676e-02 5.53794578e-02 7.72164539e-02
      1.63037643e-01 2.42183134e-01 2.42183134e-01 1.51498705e-01
      1.16149992e-01 1.40962869e-01 1.34607777e-01 1.35903299e-01
      1.38306499e-01 1.49631932e-01 2.29868159e-01 2.29868159e-01
      1.42165765e-01 1.75562471e-01 1.98357493e-01 2.29868159e-01
      1.53398573e-01 1.92758158e-01 1.98086679e-01 2.29868159e-01
      2.29868159e-01 1.76860616e-01 5.53926937e-02 6.32765368e-02
      5.25238551e-02 5.17470427e-02 7.34617338e-02 1.11515336e-01
      2.29868159e-01 2.29868159e-01 1.10884048e-01 1.44207612e-01
      1.29458487e-01 1.51392624e-01 9.84933078e-02 1.27021596e-01
      1.91285849e-01 2.29868159e-01 2.29868159e-01 1.53488472e-01
      1.96575344e-01 1.77182272e-01 1.79397121e-01 1.24667004e-01
      1.57256082e-01 1.75990254e-01 2.09336549e-01 2.09336549e-01
      1.88970014e-01 2.09336549e-01 2.09336549e-01 1.52688429e-01
      1.77214295e-01 1.66431010e-01 1.97459862e-01 2.09336549e-01
      1.70375511e-01 1.54729769e-01 1.81412548e-01 1.29689604e-01
      1.13242939e-01 9.00931209e-02 1.30894914e-01 1.69277593e-01
      2.09336549e-01 1.97476119e-01 1.56350553e-01 1.65010884e-01
      1.44802943e-01 9.59565789e-02 1.11790091e-01 1.55362144e-01
      1.31873518e-01 1.81097791e-01 1.18841313e-01 1.14791304e-01</_>
    <_>
      1.87571079e-01 2.50888139e-01 2.50888139e-01 5.29079214e-02
      1.92860682e-02 1.11393975e-02 8.54831468e-03 1.22211147e-02
      4.60620038e-02 2.50888139e-01 2.50888139e-01 1.74149618e-01
      1.33390352e-01 2.50888139e-01 1.06096692e-01 9.02978182e-02
      1.59280896e-01 1.99978054e-01 2.50888139e-01 2.50888139e-01
      2.50888139e-01 1.27398640e-01 5.02535403e-02 3.47783901e-02
      3.93185094e-02 6.17409907e-02 1.58159360e-01 2.50888139e-01
      2.44743317e-01 1.32971272e-01 8.01544711e-02 6.91676438e-02
      6.97640479e-02 1.04982145e-01 1.98275968e-01 2.50888139e-01
      2.34713510e-01 1.89862207e-01 1.19894579e-01 1.41182989e-01
      2.34713510e-01 1.95381761e-01 1.41197652e-01 2.13727593e-01
      2.34713510e-01 2.34713510e-01 1.50757939e-01 1.43694818e-01
      1.23680830e-01 2.34713510e-01 1.64057702e-01 1.01720639e-01
      1.59373656e-01 2.34713510e-01 2.34713510e-01 1.32919252e-01
      5.47914393e-02 4.02091295e-02 6.04216270e-02 5.34441881e-02
      8.85669664e-02 2.07617730e-01 2.34713510e-01 2.00007528e-01
      1.04902543e-01 5.41398898e-02 3.48479860e-02 6.22109696e-02
      4.67882752e-02 1.14714712e-01 2.31818572e-01 2.31508106e-01
      2.34132633e-01 1.33464813e-01 9.88454074e-02 1.28119737e-01
      2.34132633e-01 1.13355398e-01 9.08934623e-02 1.75017715e-01
      2.34132633e-01 2.34132633e-01 1.84589505e-01 1.52749836e-01
      1.93208322e-01 2.34132633e-01 2.15067282e-01 1.92701951e-01
      2.14165106e-01 2.34132633e-01 1.39973104e-01 9.70678627e-02
      5.02880327e-02 4.22900245e-02 7.61504918e-02 7.06107616e-02
      1.53411776e-01 2.34132633e-01 1.89033419e-01 2.28954539e-01
      1.41990274e-01 1.08663522e-01 1.02012970e-01 8.40105116e-02
      6.30733073e-02 9.67341289e-02 1.65621907e-01 2.19540030e-01
      2.27116451e-01 2.27116451e-01 2.27116451e-01 1.55102387e-01
      1.16947666e-01 9.07691047e-02 8.88679773e-02 8.74956474e-02
      2.03460455e-01 2.27116451e-01 2.23538533e-01 1.61208898e-01
      1.35484934e-01 1.07463777e-01 1.19070083e-01 1.38473511e-01
      2.10440233e-01 2.27116451e-01 1.60924479e-01 1.02812186e-01
      6.97658136e-02 8.93711448e-02 1.18499137e-01 1.27214208e-01
      1.64613783e-01 1.41555503e-01 1.92284331e-01 1.84151351e-01
      8.54804888e-02 8.01861510e-02 1.32840306e-01 1.81194946e-01
      1.98239595e-01 2.27116451e-01 2.21706092e-01 2.27116451e-01
      2.51999408e-01 1.64925843e-01 7.98334852e-02 7.89524540e-02
      6.43916503e-02 7.30021670e-02 1.20197795e-01 2.51999408e-01
      2.51999408e-01 2.10787788e-01 1.31860405e-01 5.81871383e-02
      5.54787256e-02 5.73469624e-02 6.67051002e-02 2.51999408e-01
      2.51999408e-01 2.51999408e-01 1.70661062e-01 1.06206872e-01
      7.71035552e-02 1.03459008e-01 1.23355776e-01 1.17558330e-01
      1.50247619e-01 2.25305378e-01 2.42152244e-01 1.77774295e-01
      1.40143812e-01 9.05849338e-02 1.08128265e-01 1.06924601e-01
      1.25872150e-01 1.87887847e-01 2.51999408e-01 2.47830361e-01
      1.04307145e-01 9.35889781e-02 5.71862236e-02 5.68749532e-02
      6.57934025e-02 1.04151063e-01 2.44832203e-01 2.44832203e-01
      2.32829943e-01 1.85668766e-01 1.88964039e-01 1.36527210e-01
      1.16625249e-01 6.45302460e-02 8.26607272e-02 1.60840482e-01
      1.57702804e-01 1.73272029e-01 1.60213649e-01 1.17942609e-01
      1.18105464e-01 1.09271914e-01 1.32724270e-01 2.26970047e-01
      2.44832203e-01 2.44832203e-01 1.92250177e-01 1.32401481e-01
      1.45696744e-01 1.35816246e-01 1.15680724e-01 1.59029916e-01
      2.44832203e-01 2.44832203e-01 2.44832203e-01 1.44244954e-01
      1.86115146e-01 7.91762397e-02 3.56792510e-02 3.86512913e-02
      4.41356041e-02 7.36826733e-02 1.37962952e-01 1.56892046e-01
      2.11058795e-01 1.53833359e-01 5.98244742e-02 4.28961962e-02
      6.34900406e-02 1.01405710e-01 1.36167288e-01 2.52894729e-01
      2.22613692e-01 2.21494123e-01 2.71364212e-01 1.51199356e-01
      1.02873072e-01 1.52481452e-01 1.07341819e-01 8.18696693e-02
      2.71364212e-01 2.71364212e-01 2.71364212e-01 2.71364212e-01
      1.49402112e-01 6.55054525e-02 6.20966703e-02 7.37022609e-02
      7.66599402e-02 1.42496273e-01 2.33874649e-01 2.71364212e-01
      1.54231921e-01 9.98197198e-02 6.36242405e-02 8.47860277e-02
      1.15753010e-01 1.22695938e-01 1.82186633e-01 2.31111094e-01
      2.18356639e-01 2.48903885e-01 1.61743551e-01 9.49019492e-02
      1.04657963e-01 9.76899937e-02 1.08092345e-01 1.13185555e-01
      2.19010204e-01 2.45994255e-01 2.51250207e-01 2.17232436e-01
      9.50440913e-02 7.46444836e-02 1.14720158e-01 9.90416855e-02
      1.19802661e-01 1.77808523e-01 2.51250207e-01 2.51250207e-01
      2.51250207e-01 1.98139608e-01 1.08171485e-01 1.13790214e-01
      7.42062181e-02 6.65416420e-02 1.37707323e-01 2.51250207e-01
      2.14651927e-01 1.47796258e-01 1.21488966e-01 8.74234810e-02
      8.58534425e-02 1.22722439e-01 1.36907414e-01 1.54885501e-01
      1.81223094e-01 1.89623386e-01 1.67634398e-01 1.45256922e-01
      1.00637108e-01 1.65683389e-01 2.35663652e-01 2.42005780e-01
      2.15855658e-01 1.71881378e-01 2.42005780e-01 2.42005780e-01
      1.78102776e-01 7.48623908e-02 5.07367477e-02 3.15362625e-02
      3.91475707e-02 1.14211567e-01 2.36704692e-01 2.42005780e-01
      2.42005780e-01 2.42005780e-01 1.12128980e-01 8.82987082e-02
      7.75743574e-02 1.04126036e-01 1.33080065e-01 1.92359239e-01</_>
    <_>
      6.55785203e-02 7.49809295e-02 1.17391944e-01 1.59393758e-01
      2.26766691e-01 2.26766691e-01 1.70951128e-01 6.63167238e-02
      7.90802017e-02 1.67586327e-01 2.26766691e-01 2.26766691e-01
      1.71829000e-01 2.21083269e-01 2.26766691e-01 1.60643175e-01
      8.86584893e-02 8.11499730e-02 6.27690852e-02 6.08939677e-02
      1.24589488e-01 2.26766691e-01 2.26766691e-01 2.26766691e-01
      1.46461070e-01 6.23183288e-02 7.18102083e-02 1.33921236e-01
      1.78406924e-01 2.26766691e-01 2.26766691e-01 2.26766691e-01
      2.26766691e-01 1.35937184e-01 1.04731180e-01 1.09804474e-01
      2.23510340e-01 2.23510340e-01 1.70356765e-01 7.77576491e-02
      8.05789083e-02 1.53429344e-01 1.23132184e-01 8.73924494e-02
      9.73889157e-02 2.23510340e-01 2.23510340e-01 1.78192809e-01
      7.91514367e-02 9.00100395e-02 9.40331444e-02 8.80656615e-02
      1.12416573e-01 1.39301091e-01 1.73460901e-01 2.23510340e-01
      1.92595989e-01 1.33191824e-01 1.23806238e-01 1.41055435e-01
      1.53744042e-01 1.58116758e-01 1.50595099e-01 2.23510340e-01
      2.23510340e-01 2.18884990e-01 1.70620710e-01 1.80291310e-01
      1.58540025e-01 2.23510340e-01 2.23510340e-01 1.72870964e-01
      1.99150994e-01 1.78786084e-01 1.29789263e-01 7.13701621e-02
      7.29639232e-02 6.57637119e-02 7.25692287e-02 1.21082023e-01
      1.55400306e-01 1.40432969e-01 1.38702095e-01 1.67476714e-01
      1.00252271e-01 8.36210921e-02 9.00315568e-02 1.14029735e-01
      1.52545765e-01 1.88761204e-01 1.92346126e-01 2.08946541e-01
      2.15341210e-01 1.79727063e-01 1.43379584e-01 1.24166973e-01
      1.78938657e-01 1.79355100e-01 1.20942734e-01 2.15341210e-01
      2.15341210e-01 2.15341210e-01 2.15341210e-01 2.09835574e-01
      2.09152862e-01 2.15341210e-01 2.15341210e-01 2.15341210e-01
      6.85819983e-02 1.25936270e-01 1.65876165e-01 1.59032375e-01
      2.18321711e-01 2.18321711e-01 1.21451534e-01 5.43429106e-02
      5.64287715e-02 8.86780396e-02 9.52337533e-02 1.64623559e-01
      1.98621318e-01 2.18321711e-01 2.18321711e-01 1.75077125e-01
      1.22981571e-01 1.00105792e-01 1.12314224e-01 2.18321711e-01
      2.18321711e-01 2.02206030e-01 1.93523437e-01 2.15662673e-01
      1.14240110e-01 7.30876923e-02 8.72581750e-02 1.61946386e-01
      1.71897128e-01 1.87876582e-01 1.73966661e-01 2.18321711e-01
      2.18321711e-01 1.68650135e-01 1.92197785e-01 1.81033298e-01
      9.44020599e-02 1.33588001e-01 1.35042831e-01 1.15283147e-01
      1.35602936e-01 1.18063547e-01 1.63981810e-01 1.58060580e-01
      1.29990637e-01 1.82879001e-01 2.14721516e-01 2.14721516e-01
      1.99590638e-01 1.54871881e-01 9.91706178e-02 1.90723702e-01
      2.14721516e-01 1.51889756e-01 1.49406031e-01 1.81242615e-01
      1.71909213e-01 1.46576598e-01 1.33615404e-01 1.29871443e-01
      1.35078996e-01 1.76269934e-01 1.92572579e-01 2.14721516e-01
      2.14721516e-01 2.14721516e-01 2.02496380e-01 1.14840396e-01
      7.92431608e-02 1.47966817e-01 1.98722288e-01 2.14721516e-01
      1.84867293e-01 1.80881128e-01 2.05265686e-01 1.44151986e-01
      8.30874145e-02 6.63860738e-02 1.08955152e-01 1.33868113e-01
      9.58310813e-02 2.09110707e-01 2.08572611e-01 2.10161313e-01
      1.98980331e-01 1.66880950e-01 1.45856589e-01 1.48338571e-01
      1.53601423e-01 1.57912195e-01 2.10161313e-01 2.10161313e-01
      2.04819530e-01 1.50983378e-01 7.85778910e-02 7.88289532e-02
      1.13838933e-01 1.27962038e-01 1.35249406e-01 2.10161313e-01
      2.10161313e-01 2.10161313e-01 2.10161313e-01 1.51229680e-01
      1.72031760e-01 1.84319183e-01 1.48866430e-01 1.69674054e-01
      9.83471274e-02 1.27887860e-01 1.62085727e-01 1.10572897e-01
      9.96724442e-02 1.59374014e-01 1.36344850e-01 9.66055393e-02
      9.69878063e-02 1.61351889e-01 1.42017379e-01 1.61677077e-01
      1.41483933e-01 1.44371897e-01 1.57558367e-01 1.09217457e-01
      1.49694368e-01 1.46037489e-01 2.12289438e-01 1.65271282e-01
      1.56268165e-01 1.05885595e-01 1.43015355e-01 1.93828404e-01
      2.12289438e-01 2.12289438e-01 2.12289438e-01 2.12289438e-01
      1.95091948e-01 2.12289438e-01 1.57653615e-01 1.80122495e-01
      2.12289438e-01 2.12289438e-01 2.12289438e-01 2.12289438e-01
      1.76619753e-01 1.76207528e-01 1.84450850e-01 1.79967493e-01
      1.45480841e-01 1.28849864e-01 1.25301406e-01 1.63020566e-01
      1.75739855e-01 2.03609839e-01 1.64333880e-01 1.85263768e-01
      1.61648020e-01 1.08291656e-01 8.57974365e-02 1.29411623e-01
      2.01000661e-01 2.07744747e-01 2.06767917e-01 1.66771248e-01
      1.98268369e-01 1.78094372e-01 1.68988645e-01 1.54084668e-01
      1.46712780e-01 1.91870078e-01 2.07744747e-01 2.07744747e-01
      1.26410082e-01 1.40276939e-01 1.58971772e-01 1.59246206e-01
      1.14771806e-01 9.67136100e-02 1.39685154e-01 2.07744747e-01
      2.03180477e-01 1.99765041e-01 1.75394341e-01 1.27660990e-01
      7.98376650e-02 6.85132518e-02 1.20780706e-01 1.39517292e-01
      1.81160823e-01 2.20822126e-01 2.20822126e-01 2.20822126e-01
      2.20822126e-01 1.12704225e-01 1.33322716e-01 1.97654217e-01
      1.37975290e-01 2.20822126e-01 2.20822126e-01 1.51672289e-01
      1.35919943e-01 1.37251928e-01 1.39389008e-01 7.41693825e-02
      1.01092421e-01 1.54883593e-01 2.20822126e-01 2.20822126e-01
      2.02020317e-01 1.63374573e-01 1.34632811e-01 9.91521850e-02
      7.43020028e-02 1.32805154e-01 1.61511675e-01 2.20822126e-01</_>
    <_>
      2.28610635e-01 2.28610635e-01 2.08207548e-01 1.24711961e-01
      2.28610635e-01 1.17237680e-01 1.01637341e-01 7.66403899e-02
      2.28610635e-01 2.28610635e-01 1.75881907e-01 1.51666746e-01
      1.44777760e-01 2.28610635e-01 1.69711694e-01 1.51571110e-01
      1.24715701e-01 2.28610635e-01 2.12259665e-01 1.90676764e-01
      1.41801000e-01 1.07631050e-01 2.08921134e-01 1.33773938e-01
      4.70447727e-02 4.85760830e-02 1.36068702e-01 2.28610635e-01
      1.39212608e-01 1.08095109e-01 1.24258302e-01 2.28610635e-01
      7.94385225e-02 4.52698991e-02 4.92350906e-02 2.03092411e-01
      2.43739083e-01 1.55887544e-01 1.35970876e-01 1.31218538e-01
      2.43739083e-01 1.45125374e-01 1.04305014e-01 1.00421384e-01
      2.04425380e-01 2.43739083e-01 1.64431810e-01 7.50713721e-02
      9.06146094e-02 2.03742474e-01 7.17354715e-02 4.28624116e-02
      6.96001500e-02 2.43739083e-01 2.43739083e-01 1.30428553e-01
      8.80341306e-02 1.42360955e-01 2.43739083e-01 1.05782442e-01
      4.85077053e-02 1.33794233e-01 2.43739083e-01 2.43739083e-01
      1.34790942e-01 9.78079438e-02 1.46087810e-01 1.78545281e-01
      1.05049253e-01 8.76769423e-02 2.20659018e-01 2.43739083e-01
      2.29630977e-01 1.33991644e-01 6.23230636e-02 9.46644992e-02
      2.16439188e-01 7.70944729e-02 6.51560649e-02 1.18523352e-01
      2.29630977e-01 2.29630977e-01 9.76012424e-02 6.84575066e-02
      1.31055325e-01 2.10289925e-01 2.10182890e-01 2.29630977e-01
      2.29630977e-01 2.29630977e-01 2.29630977e-01 9.56473872e-02
      1.15122095e-01 1.15831591e-01 1.50114149e-01 1.03108421e-01
      1.16824470e-01 1.66950598e-01 2.29630977e-01 2.07078159e-01
      8.67482573e-02 1.11791447e-01 1.02615342e-01 1.95440754e-01
      1.24474220e-01 1.53978750e-01 2.00310409e-01 2.29630977e-01
      2.40527272e-01 2.40527272e-01 2.40527272e-01 1.46939412e-01
      2.40527272e-01 2.14681625e-01 6.75681680e-02 7.96648413e-02
      2.26266503e-01 2.40527272e-01 2.40527272e-01 1.37625545e-01
      1.76559031e-01 2.40527272e-01 1.12975687e-01 6.21170811e-02
      8.17244500e-02 2.40527272e-01 1.62847832e-01 1.47611961e-01
      1.47672161e-01 8.85987207e-02 1.23042151e-01 8.10456797e-02
      7.07245544e-02 9.62837487e-02 1.49133459e-01 1.72934100e-01
      1.46910489e-01 1.54041156e-01 1.85614422e-01 2.30308712e-01
      1.03683859e-01 5.39613441e-02 6.98085576e-02 1.18878864e-01
      2.54181951e-01 1.19287655e-01 7.23979771e-02 9.77827981e-02
      1.73124596e-01 7.69079700e-02 4.59422842e-02 1.52823627e-01
      2.54181951e-01 2.54181951e-01 1.23445548e-01 9.18979719e-02
      9.34324339e-02 1.40670523e-01 1.22612238e-01 1.83347136e-01
      2.54181951e-01 2.54181951e-01 1.61867693e-01 9.98810530e-02
      1.03491217e-01 9.37556177e-02 1.66285545e-01 9.47733000e-02
      5.18698543e-02 9.03460905e-02 1.67442232e-01 2.45111391e-01
      2.16693670e-01 1.87311351e-01 7.17555583e-02 2.37549126e-01
      1.88324794e-01 1.30796313e-01 1.76345974e-01 2.54181951e-01
      2.16497928e-01 1.21219642e-01 1.02703378e-01 7.38598108e-02
      1.39483675e-01 1.06917150e-01 2.16497928e-01 2.16497928e-01
      2.16497928e-01 2.16497928e-01 1.02222137e-01 8.77624527e-02
      9.27157700e-02 1.61800027e-01 9.36004221e-02 1.48388818e-01
      2.16497928e-01 2.16497928e-01 2.03061536e-01 2.16497928e-01
      2.00415060e-01 7.10525736e-02 1.60300717e-01 1.12089984e-01
      1.62385046e-01 1.84412718e-01 2.16497928e-01 2.16497928e-01
      1.84704661e-01 1.47512719e-01 1.02904461e-01 1.51592091e-01
      7.70883933e-02 1.29744947e-01 2.02175140e-01 2.13654518e-01
      1.47260517e-01 1.18017085e-01 1.45561934e-01 8.73030946e-02
      1.30439848e-01 1.04856260e-01 8.41121003e-02 1.14156328e-01
      1.60979256e-01 2.32561290e-01 1.91843316e-01 2.03868702e-01
      1.66007414e-01 1.96793377e-01 1.03337869e-01 8.74439031e-02
      1.01815052e-01 2.18015060e-01 1.55888364e-01 1.40706629e-01
      1.54425189e-01 1.05555899e-01 1.49768576e-01 1.17820449e-01
      2.30270952e-01 1.46238357e-01 1.78926632e-01 2.37478644e-01
      2.37478644e-01 2.34579206e-01 1.79746598e-01 1.38383716e-01
      9.23824236e-02 1.70622721e-01 2.21508786e-01 2.37478644e-01
      1.97749913e-01 1.71681210e-01 1.58052415e-01 9.98398960e-02
      1.87499285e-01 1.04500122e-01 5.50397076e-02 7.77495280e-02
      2.01536417e-01 1.89786285e-01 2.15947926e-01 2.19431385e-01
      9.72069725e-02 2.16508299e-01 1.48630083e-01 4.51655425e-02
      9.31247920e-02 2.19431385e-01 2.19431385e-01 2.19431385e-01
      2.19431385e-01 1.25793532e-01 1.35538876e-01 9.40027684e-02
      1.12606511e-01 1.36247292e-01 2.19431385e-01 2.08664641e-01
      2.17078596e-01 2.19431385e-01 1.19614117e-01 1.64235756e-01
      1.48059502e-01 9.67333615e-02 1.17234163e-01 1.96054623e-01
      1.77441448e-01 2.14522511e-01 2.11967275e-01 9.76601690e-02
      1.82007536e-01 1.19328991e-01 5.75118959e-02 7.72244036e-02
      1.90632105e-01 2.14522511e-01 2.04287365e-01 2.14522511e-01
      1.55964851e-01 2.14522511e-01 1.16362274e-01 1.18397340e-01
      1.40851498e-01 1.86107218e-01 2.01718673e-01 1.72137216e-01
      1.49720430e-01 1.31474853e-01 1.96620241e-01 1.41318589e-01
      9.62538719e-02 1.30114138e-01 2.05248326e-01 2.14522511e-01
      2.14522511e-01 2.14522511e-01 1.37919262e-01 1.73209593e-01
      8.83840099e-02 9.67841744e-02 1.32750630e-01 1.67014301e-01</_>
    <_>
      1.52091324e-01 1.76971316e-01 2.19331250e-01 3.29499058e-02
      1.68610625e-02 1.17234159e-02 6.06513619e-02 9.61256251e-02
      1.29214138e-01 2.27490649e-01 1.70822233e-01 2.08688751e-01
      1.33023202e-01 1.64191246e-01 5.01109324e-02 8.98096636e-02
      8.52142870e-02 1.44852147e-01 2.41188630e-01 2.41188630e-01
      2.41188630e-01 1.04982011e-01 1.48640335e-01 9.78405774e-02
      2.02629685e-01 2.41188630e-01 2.41188630e-01 1.97170466e-01
      1.14939533e-01 1.15359530e-01 1.27766162e-01 1.30276754e-01
      9.02162269e-02 2.41188630e-01 2.41188630e-01 2.41188630e-01
      1.55896530e-01 8.21310580e-02 1.75864130e-01 1.38312638e-01
      2.49194965e-01 5.33860847e-02 6.34481013e-02 3.51708233e-02
      1.18249997e-01 1.12559170e-01 1.33559495e-01 2.75554538e-01
      2.75554538e-01 2.75554538e-01 1.73236877e-01 2.00039878e-01
      4.61385362e-02 1.21814020e-01 5.03339618e-02 7.24912360e-02
      2.75554538e-01 2.75554538e-01 1.41878515e-01 5.17933518e-02
      1.14663310e-01 1.20441429e-01 9.75082591e-02 6.01424761e-02
      1.35507330e-01 2.75554538e-01 2.75554538e-01 2.75554538e-01
      1.11007862e-01 3.66172343e-02 2.52863988e-02 5.43643981e-02
      1.41670018e-01 1.30369917e-01 2.51317084e-01 2.51317084e-01
      2.51317084e-01 1.86858431e-01 1.33036286e-01 3.34363617e-02
      1.22668512e-01 1.41605005e-01 1.38235092e-01 1.54194579e-01
      2.51317084e-01 2.51317084e-01 2.06676081e-01 8.64487961e-02
      5.20633757e-02 1.31881922e-01 1.60919100e-01 1.49861351e-01
      2.51317084e-01 2.51317084e-01 2.51317084e-01 1.27597779e-01
      6.20539784e-02 3.21280286e-02 1.26146778e-01 1.33384854e-01
      1.10607430e-01 1.14165381e-01 1.74721673e-01 2.51317084e-01
      1.07560217e-01 7.58392438e-02 4.96107675e-02 1.05692059e-01
      2.20409364e-01 9.41759869e-02 7.43687674e-02 9.08479989e-02
      2.22289667e-01 1.37034550e-01 1.21326648e-01 1.66811392e-01
      2.22289667e-01 2.21525699e-01 1.37308061e-01 1.35422766e-01
      1.75915882e-01 2.22289667e-01 9.69292298e-02 2.22289667e-01
      2.22289667e-01 2.22289667e-01 1.57352775e-01 7.41131455e-02
      5.61721697e-02 7.22451285e-02 1.80863112e-01 1.04882434e-01
      8.25452358e-02 1.67629465e-01 2.22289667e-01 2.04440817e-01
      1.73779070e-01 1.81008130e-01 2.22289667e-01 2.22289667e-01
      1.06809475e-01 5.76870032e-02 8.79620984e-02 2.22289667e-01
      1.21177882e-01 1.87324747e-01 2.50554293e-01 2.50554293e-01
      2.34149158e-01 6.09832406e-02 1.36949509e-01 1.88383102e-01
      1.86724260e-01 7.38917962e-02 1.18953779e-01 2.50554293e-01
      2.50554293e-01 2.50554293e-01 1.24363132e-01 7.26574957e-02
      5.68622462e-02 8.06075931e-02 1.48320451e-01 1.96562305e-01
      2.50554293e-01 2.50554293e-01 2.42191359e-01 7.77279809e-02
      5.35127483e-02 6.98387548e-02 1.29340023e-01 1.14152506e-01
      9.65157896e-02 1.55576244e-01 1.96227059e-01 1.85058340e-01
      1.20874964e-01 7.73598477e-02 7.72221610e-02 1.21962078e-01
      1.51843369e-01 1.25690848e-01 1.62432417e-01 2.29520246e-01
      2.29520246e-01 1.41547695e-01 1.08716838e-01 6.20158613e-02
      1.77793473e-01 1.69993922e-01 1.44191727e-01 1.16799593e-01
      2.01780140e-01 2.29520246e-01 1.10895321e-01 8.57738927e-02
      5.76601513e-02 1.74867719e-01 1.88221559e-01 1.09497733e-01
      1.13303430e-01 1.39278159e-01 2.29520246e-01 1.35860309e-01
      8.21258351e-02 7.88384899e-02 2.15633929e-01 2.29520246e-01
      2.29520246e-01 2.29520246e-01 1.87003151e-01 2.29520246e-01
      1.84846222e-01 5.88829145e-02 5.70965186e-02 2.29520246e-01
      1.49767727e-01 1.98674604e-01 1.88844770e-01 1.67061955e-01
      1.26578957e-01 1.20955653e-01 1.11428894e-01 2.23941237e-01
      2.23941237e-01 1.74041957e-01 1.50001839e-01 1.81535497e-01
      2.23941237e-01 2.23941237e-01 1.41938284e-01 7.59326220e-02
      1.19096667e-01 1.75939709e-01 1.21942393e-01 2.23941237e-01
      2.23941237e-01 2.23941237e-01 1.66528746e-01 1.17564544e-01
      1.11405544e-01 1.27616137e-01 1.12416439e-01 1.28481179e-01
      1.34124622e-01 1.75163329e-01 2.23941237e-01 2.23941237e-01
      1.14989050e-01 1.07242979e-01 1.19362712e-01 1.38444304e-01
      2.28760362e-01 1.24422781e-01 1.31703645e-01 1.81963682e-01
      2.28760362e-01 1.15518019e-01 6.60824925e-02 6.79479167e-02
      1.98127955e-01 2.28760362e-01 1.35206610e-01 9.97317880e-02
      1.79337293e-01 2.28760362e-01 1.80172816e-01 9.27843899e-02
      8.56211856e-02 2.28760362e-01 2.07841411e-01 1.02169819e-01
      1.10297866e-01 1.48365870e-01 2.28760362e-01 9.68057141e-02
      9.89210084e-02 6.94002137e-02 1.70568347e-01 2.28760362e-01
      1.92296401e-01 1.80122674e-01 2.09743038e-01 2.28760362e-01
      1.46037906e-01 1.04233362e-01 6.27109483e-02 2.28760362e-01
      2.20889792e-01 1.27685353e-01 1.05689600e-01 1.32431030e-01
      2.20889792e-01 1.35381013e-01 6.57428652e-02 7.28908256e-02
      2.20889792e-01 2.20889792e-01 2.20889792e-01 2.20889792e-01
      1.24767035e-01 2.20889792e-01 1.86154604e-01 6.62835687e-02
      7.49681219e-02 2.20889792e-01 2.13031843e-01 1.96975052e-01
      1.76209584e-01 1.43768966e-01 1.72646016e-01 9.40301940e-02
      5.94034344e-02 7.44076669e-02 1.96209446e-01 2.20889792e-01
      2.20889792e-01 2.10586891e-01 1.04925081e-01 1.38064802e-01
      1.39201418e-01 6.49096668e-02 1.24002017e-01 2.02885717e-01</_>
    <_>
      1.89202160e-01 2.74368137e-01 2.74368137e-01 8.20172280e-02
      9.37132612e-02 1.49003705e-02 2.02346258e-02 3.03406436e-02
      7.36885667e-02 2.70208776e-01 2.74368137e-01 2.74368137e-01
      1.46938279e-01 1.32111996e-01 3.42070609e-02 3.72307673e-02
      4.47889306e-02 1.27502069e-01 9.22300667e-02 2.74368137e-01
      2.74368137e-01 2.12691769e-01 1.22630998e-01 5.62761649e-02
      3.87698039e-02 3.92779410e-02 5.88754714e-02 9.93826687e-02
      2.74368137e-01 2.74368137e-01 2.56535113e-01 1.51611373e-01
      1.06358059e-01 8.33551139e-02 5.83138466e-02 7.12377876e-02
      2.22993255e-01 2.71492124e-01 2.71492124e-01 1.99230313e-01
      8.56376216e-02 5.08043915e-02 5.22807352e-02 4.80900183e-02
      1.13754474e-01 2.28011385e-01 2.71492124e-01 2.71492124e-01
      1.77654952e-01 1.11221798e-01 6.89771548e-02 6.44014254e-02
      7.16640875e-02 1.30230069e-01 6.95796534e-02 1.87111318e-01
      2.71492124e-01 2.71492124e-01 1.48599461e-01 1.53136164e-01
      1.66943401e-01 8.23145881e-02 5.74600138e-02 8.52501690e-02
      1.61347076e-01 2.71492124e-01 1.69519484e-01 1.18389316e-01
      1.07377835e-01 1.26829624e-01 7.03324303e-02 7.17075169e-02
      2.62126684e-01 2.62126684e-01 2.62126684e-01 2.17388004e-01
      2.62126684e-01 2.01061934e-01 9.15670246e-02 1.26276463e-01
      2.16389909e-01 1.68572575e-01 4.70434017e-02 8.06669518e-02
      1.98119804e-01 2.62126684e-01 2.16079414e-01 6.85255527e-02
      7.42060542e-02 1.42097786e-01 1.64282039e-01 1.27749652e-01
      1.28394812e-01 1.11237913e-01 1.95267946e-01 8.00729021e-02
      7.64905065e-02 6.88211843e-02 1.34004802e-01 2.10456505e-01
      7.48195276e-02 4.97587882e-02 9.80311334e-02 2.62126684e-01
      7.39657208e-02 7.51057714e-02 7.11734816e-02 2.22261488e-01
      1.21150248e-01 2.16437891e-01 2.16437891e-01 2.16437891e-01
      1.90490246e-01 1.29333362e-01 8.37860554e-02 7.81899318e-02
      1.08228944e-01 1.09929807e-01 1.92582950e-01 2.09186777e-01
      2.16437891e-01 2.16437891e-01 2.04961106e-01 1.36407197e-01
      9.46049243e-02 1.19781107e-01 1.55612290e-01 1.63635403e-01
      1.72013983e-01 1.75900757e-01 1.75681576e-01 1.76734090e-01
      1.11349709e-01 1.12841547e-01 1.62795141e-01 1.37149394e-01
      1.90410316e-01 1.81369558e-01 1.73258603e-01 2.16437891e-01
      2.08114415e-01 1.36253655e-01 1.19209081e-01 1.67508632e-01
      8.35247785e-02 1.36389211e-01 1.97865993e-01 1.90567821e-01
      2.03857809e-01 2.11578354e-01 2.10848406e-01 1.03364401e-01
      1.12266667e-01 1.59363836e-01 1.40439883e-01 1.86889812e-01
      1.12060517e-01 1.25362337e-01 1.71943769e-01 2.11578354e-01
      1.55291438e-01 2.11578354e-01 1.33565873e-01 1.77082688e-01
      1.85642242e-01 1.47577301e-01 1.73629984e-01 1.52833045e-01
      1.06601454e-01 9.61966738e-02 1.51314721e-01 2.11578354e-01
      1.39691845e-01 1.42262131e-01 1.23966277e-01 1.57658845e-01
      1.91570893e-01 2.11578354e-01 1.94443122e-01 2.11578354e-01
      2.14287356e-01 1.45665810e-01 1.21207289e-01 7.96910450e-02
      9.48277712e-02 1.20415844e-01 2.49799043e-01 1.56631112e-01
      2.28085473e-01 1.90223768e-01 1.14806481e-01 7.40172565e-02
      8.34379941e-02 1.00209534e-01 7.79586136e-02 1.23582765e-01
      9.65830088e-02 1.90073043e-01 1.98115543e-01 1.17532179e-01
      1.04141451e-01 1.10584207e-01 2.08647668e-01 2.49799043e-01
      2.49799043e-01 2.49799043e-01 2.49799043e-01 1.53437153e-01
      1.10127337e-01 8.99766013e-02 8.48683640e-02 1.31370232e-01
      1.77272841e-01 2.49799043e-01 2.33084485e-01 1.50234938e-01
      1.70221820e-01 1.13436081e-01 1.23287432e-01 1.32048652e-01
      1.44231573e-01 1.66142792e-01 1.46271646e-01 1.36968523e-01
      2.00737536e-01 1.28606662e-01 1.64554626e-01 1.62660092e-01
      1.45447165e-01 1.44532382e-01 1.36896819e-01 1.65945262e-01
      1.66327745e-01 2.18177035e-01 2.31945261e-01 9.13682804e-02
      9.65694040e-02 1.03852525e-01 1.00886032e-01 1.58239961e-01
      2.42355824e-01 2.42355824e-01 2.42355824e-01 2.42355824e-01
      1.19203858e-01 9.20124128e-02 1.17303513e-01 1.23857446e-01
      9.28983465e-02 1.73996583e-01 2.42355824e-01 2.42355824e-01
      1.20265342e-01 1.55018985e-01 1.41208708e-01 1.26360580e-01
      1.34913206e-01 1.14675798e-01 1.26188651e-01 1.44000709e-01
      1.67995080e-01 2.04644844e-01 1.21518381e-01 9.67628211e-02
      1.47171631e-01 2.11036831e-01 2.11036831e-01 2.11036831e-01
      1.94363892e-01 2.11036831e-01 1.81164578e-01 1.15904517e-01
      9.91224796e-02 1.28056258e-01 1.24512665e-01 1.01647906e-01
      1.04732186e-01 1.72285885e-01 2.11036831e-01 2.11036831e-01
      1.60421610e-01 1.19797915e-01 1.81259811e-01 2.11036831e-01
      2.11036831e-01 2.11036831e-01 2.11036831e-01 2.11036831e-01
      1.16387911e-01 6.56994134e-02 4.97345924e-02 9.00726244e-02
      1.51279807e-01 1.94828823e-01 2.20950037e-01 1.90280497e-01
      1.54247358e-01 1.54658243e-01 6.67916834e-02 5.13442978e-02
      5.06915711e-02 8.81674886e-02 1.32890642e-01 2.20950037e-01
      2.20950037e-01 1.85426578e-01 2.20950037e-01 1.39440566e-01
      8.88036340e-02 1.38743311e-01 1.73773989e-01 1.70974404e-01
      2.08103433e-01 2.20950037e-01 2.20950037e-01 2.20950037e-01
      1.54780939e-01 1.87308893e-01 1.20827712e-01 1.53539762e-01
      1.42745689e-01 2.20950037e-01 2.20950037e-01 2.20950037e-01</_>
    <_>
      1.68911621e-01 8.38916376e-02 5.67222461e-02 4.71956655e-02
      1.02638759e-01 1.50744617e-01 1.60406351e-01 1.94768667e-01
      1.78731352e-01 1.37924358e-01 9.27474871e-02 7.22728893e-02
      6.18495978e-02 1.15192369e-01 1.31343693e-01 1.62640944e-01
      2.41475657e-01 1.73246518e-01 2.41475657e-01 1.91115692e-01
      8.12732801e-02 7.23993704e-02 1.00679934e-01 1.86754242e-01
      2.41475657e-01 2.41475657e-01 2.41475657e-01 2.41475657e-01
      2.02698842e-01 1.17026538e-01 9.33651254e-02 9.25207436e-02
      1.17490858e-01 2.41475657e-01 2.41475657e-01 2.41475657e-01
      1.55566245e-01 1.50914103e-01 1.05788231e-01 9.98290405e-02
      9.25696269e-02 7.26123229e-02 1.22288086e-01 1.73631281e-01
      1.47085130e-01 2.18148619e-01 2.08722487e-01 2.18148619e-01
      1.90736115e-01 2.08357826e-01 1.60542548e-01 8.06218162e-02
      6.97614551e-02 1.57963187e-01 2.10217327e-01 2.18148619e-01
      1.44685581e-01 1.09853789e-01 8.24374408e-02 8.20629448e-02
      1.33171931e-01 2.18148619e-01 2.18148619e-01 1.80033058e-01
      1.98823765e-01 1.92084044e-01 1.57710299e-01 2.08044514e-01
      2.18148619e-01 2.18148619e-01 1.37321576e-01 1.61945775e-01
      1.46206528e-01 1.52274877e-01 2.23657921e-01 1.82476923e-01
      2.20271066e-01 1.74230397e-01 7.18272328e-02 5.28312661e-02
      1.06665179e-01 1.54978096e-01 1.55388072e-01 2.23657921e-01
      1.60882503e-01 1.97673380e-01 1.26437888e-01 1.05016015e-01
      1.12146214e-01 1.23662516e-01 9.11863893e-02 8.18545893e-02
      1.17287271e-01 1.34146243e-01 2.23657921e-01 2.23657921e-01
      2.23657921e-01 1.38011947e-01 8.69642794e-02 1.82583272e-01
      1.46818742e-01 1.43997893e-01 2.03428864e-01 2.23657921e-01
      2.16500610e-01 2.23657921e-01 1.98769912e-01 1.63596824e-01
      2.22096920e-01 1.80455655e-01 1.35209471e-01 5.77356890e-02
      7.17085451e-02 1.23486243e-01 1.70500681e-01 2.18430206e-01
      2.22096920e-01 2.22096920e-01 1.57882616e-01 1.01669498e-01
      6.02146015e-02 4.07908112e-02 6.96905479e-02 1.59677535e-01
      2.22096920e-01 2.22096920e-01 2.22096920e-01 2.22096920e-01
      2.22096920e-01 1.67346492e-01 1.38840869e-01 1.15037635e-01
      1.01782739e-01 1.38294742e-01 1.90606728e-01 2.22096920e-01
      1.87750265e-01 1.58230975e-01 1.13801375e-01 1.32347688e-01
      9.48883593e-02 1.01739146e-01 2.14034170e-01 2.22096920e-01
      2.04999283e-01 1.33412048e-01 9.42655578e-02 5.44355921e-02
      4.71817516e-02 8.88059437e-02 1.44042104e-01 2.40416437e-01
      2.40416437e-01 1.28821790e-01 1.05472177e-01 7.71686956e-02
      6.67954087e-02 7.19549581e-02 1.71301380e-01 2.40416437e-01
      2.40416437e-01 1.90696910e-01 2.40416437e-01 1.42485887e-01
      1.14195205e-01 8.46194625e-02 1.14582233e-01 1.25595197e-01
      1.58567086e-01 2.40416437e-01 2.40416437e-01 1.51332915e-01
      1.09764025e-01 9.31860954e-02 1.00372575e-01 1.21913157e-01
      2.11941242e-01 2.40416437e-01 2.40416437e-01 2.40416437e-01
      8.89911875e-02 6.98020235e-02 6.08011410e-02 7.15974644e-02
      1.18398309e-01 2.30379775e-01 2.30379775e-01 2.30379775e-01
      1.14679620e-01 1.74874187e-01 1.43007159e-01 7.64462277e-02
      1.04732566e-01 1.47338286e-01 1.81888163e-01 2.30379775e-01
      2.30379775e-01 2.30379775e-01 1.24009520e-01 8.21004137e-02
      9.29376334e-02 1.35928839e-01 1.63171858e-01 2.17688724e-01
      2.30379775e-01 2.30379775e-01 1.80953652e-01 1.79821998e-01
      1.21408910e-01 9.13803577e-02 1.26635671e-01 1.49560556e-01
      1.46875754e-01 1.85071006e-01 2.07260892e-01 2.30379775e-01
      1.73655495e-01 1.55380413e-01 2.10862100e-01 1.95932314e-01
      2.10436270e-01 1.26840174e-01 1.23502828e-01 1.05174914e-01
      1.26680151e-01 2.22644925e-01 1.65562853e-01 1.46726951e-01
      1.84512004e-01 2.22644925e-01 1.11566655e-01 5.48082404e-02
      1.14541404e-01 2.07724169e-01 1.57369345e-01 9.74396467e-02
      9.65814069e-02 1.26686648e-01 1.85972452e-01 1.39398888e-01
      2.06474930e-01 1.80325344e-01 1.90263316e-01 2.22644925e-01
      1.63668141e-01 1.46258965e-01 1.98175654e-01 2.22644925e-01
      1.31998196e-01 8.35184678e-02 1.35922149e-01 2.22644925e-01
      2.21871480e-01 1.13145523e-01 8.55729505e-02 1.31169185e-01
      2.02854022e-01 1.03485011e-01 6.14372529e-02 9.23935771e-02
      1.68735951e-01 1.35998234e-01 1.01680577e-01 8.84941816e-02
      1.31434098e-01 1.68407023e-01 1.73110470e-01 1.46677196e-01
      1.46581724e-01 1.77320763e-01 2.30218515e-01 1.47523418e-01
      1.05706841e-01 1.54557675e-01 2.30218515e-01 1.96375027e-01
      7.33625516e-02 1.19279727e-01 2.30218515e-01 2.30218515e-01
      1.95226744e-01 2.30218515e-01 1.80237740e-01 2.30218515e-01
      2.18983203e-01 9.67578515e-02 1.33685410e-01 2.30218515e-01
      1.50110468e-01 1.09436445e-01 1.16892688e-01 2.05560178e-01
      2.24734381e-01 2.29951024e-01 1.96839735e-01 2.03853011e-01
      2.29951024e-01 1.44963101e-01 1.15851320e-01 1.10406823e-01
      1.34995997e-01 1.22508019e-01 1.24192551e-01 9.18081626e-02
      1.13781273e-01 1.97802439e-01 2.26641729e-01 2.00463071e-01
      2.29951024e-01 2.23894790e-01 2.29951024e-01 1.82793155e-01
      1.14939287e-01 1.30286679e-01 2.29951024e-01 8.96382779e-02
      2.29951024e-01 2.29951024e-01 9.07163098e-02 9.14177001e-02
      6.21192977e-02 4.67960723e-02 6.42382503e-02 1.02297269e-01</_>
    <_>
      9.49619263e-02 6.68856204e-02 7.62836784e-02 1.12063423e-01
      1.17105179e-01 5.98973706e-02 1.51691660e-01 3.54419470e-01
      3.54419470e-01 1.33655608e-01 6.46070018e-02 3.32249105e-02
      4.63337973e-02 5.75564653e-02 3.79756242e-02 1.43078059e-01
      3.54419470e-01 3.54419470e-01 5.26823029e-02 7.38405436e-02
      9.89883095e-02 1.36108994e-01 1.36489034e-01 8.37118253e-02
      5.68147302e-02 1.29832774e-01 1.02186918e-01 1.03205882e-01
      5.03421873e-02 5.67291789e-02 6.03525601e-02 6.87522888e-02
      4.61705178e-02 1.14937089e-01 3.54419470e-01 3.35956275e-01
      8.88361260e-02 3.86423357e-02 1.66319329e-02 2.99794376e-02
      3.67878303e-02 3.79199535e-02 1.45516947e-01 2.78264552e-01
      2.78264552e-01 2.07650736e-01 5.65449111e-02 5.42042665e-02
      1.10709079e-01 2.19510242e-01 1.35207981e-01 2.78264552e-01
      2.78264552e-01 2.78264552e-01 8.50739777e-02 2.99201254e-02
      2.23296825e-02 2.24981774e-02 2.26582196e-02 2.90358271e-02
      1.72617182e-01 2.78264552e-01 2.78264552e-01 1.03051312e-01
      3.92966606e-02 3.63907181e-02 5.21174259e-02 7.68098235e-02
      1.19931482e-01 2.78264552e-01 2.78264552e-01 2.47097209e-01
      2.58006573e-01 1.16502494e-01 1.35248184e-01 1.91076279e-01
      2.58006573e-01 1.32440209e-01 2.09652439e-01 1.92142695e-01
      2.02521399e-01 1.23629071e-01 1.21303357e-01 1.53667927e-01
      1.61580577e-01 1.67760700e-01 1.34482697e-01 1.33719429e-01
      1.15781389e-01 1.61674693e-01 1.16327599e-01 8.04298297e-02
      8.65220875e-02 8.85513425e-02 1.18794411e-01 2.06228331e-01
      2.58006573e-01 2.58006573e-01 1.40415028e-01 1.38416976e-01
      1.13901466e-01 1.44767046e-01 1.59233093e-01 1.14265986e-01
      1.57543629e-01 2.58006573e-01 1.29301026e-01 1.69346735e-01
      1.03200875e-01 1.82410970e-01 2.09070757e-01 2.09070757e-01
      2.09070757e-01 1.46538466e-01 8.94082263e-02 7.43791834e-02
      1.04355156e-01 2.00057194e-01 1.45344108e-01 2.03548953e-01
      1.48256645e-01 1.27072707e-01 7.66328946e-02 1.37264997e-01
      1.64992824e-01 2.09070757e-01 1.59130916e-01 2.09070757e-01
      1.61202863e-01 1.57977223e-01 1.76270947e-01 1.83883786e-01
      2.09070757e-01 2.09070757e-01 2.04499260e-01 1.97279394e-01
      1.56523868e-01 1.69528008e-01 9.80218425e-02 8.24665576e-02
      8.10779631e-02 1.61188319e-01 2.04142213e-01 2.09070757e-01
      1.69662878e-01 9.72053707e-02 8.80294815e-02 6.91649765e-02
      7.41818622e-02 6.78997487e-02 1.93510145e-01 2.39811018e-01
      2.09017277e-01 1.61746949e-01 9.55142826e-02 6.41391575e-02
      8.67832229e-02 1.40873045e-01 2.87273437e-01 2.87273437e-01
      2.87273437e-01 1.92547083e-01 1.20180398e-01 6.46588504e-02
      7.95781612e-02 4.93095666e-02 6.64455593e-02 7.72523656e-02
      1.33528292e-01 1.68167770e-01 1.59518793e-01 1.41174242e-01
      8.25976282e-02 7.96566308e-02 8.91220346e-02 1.99010015e-01
      2.87273437e-01 2.87273437e-01 2.41961777e-01 1.80572554e-01
      4.94099557e-02 2.89897099e-02 2.65175384e-02 4.01474684e-02
      1.22553490e-01 2.82083839e-01 2.82083839e-01 2.07068250e-01
      5.11247739e-02 1.14945225e-01 5.34873083e-02 7.30808750e-02
      1.38406932e-01 1.81046337e-01 2.82083839e-01 2.82083839e-01
      1.17760986e-01 1.04019105e-01 3.62869650e-02 2.39263438e-02
      3.30222696e-02 6.49272501e-02 2.33836159e-01 2.82083839e-01
      2.82083839e-01 7.44845718e-02 3.98418494e-02 6.43269420e-02
      4.25593853e-02 6.15832843e-02 1.68616191e-01 2.82083839e-01
      2.82083839e-01 2.82083839e-01 7.89694041e-02 5.89676350e-02
      9.72650647e-02 7.58326054e-02 4.91121188e-02 5.73979840e-02
      8.30583796e-02 1.34788901e-01 2.59604752e-01 2.59604752e-01
      1.95176259e-01 9.81441960e-02 6.18138947e-02 5.65387718e-02
      5.81781939e-02 5.62728196e-02 1.11089535e-01 2.59604752e-01
      2.59604752e-01 1.80746391e-01 1.62795946e-01 1.11925550e-01
      4.50938568e-02 3.96841243e-02 7.84612000e-02 1.65186420e-01
      2.59604752e-01 2.59604752e-01 2.59604752e-01 1.85280278e-01
      1.17896736e-01 6.38339892e-02 7.06813708e-02 7.75422156e-02
      1.78261802e-01 2.59604752e-01 2.59604752e-01 2.59604752e-01
      1.25033543e-01 7.14975223e-02 6.94293231e-02 5.33422716e-02
      5.89575022e-02 1.04347199e-01 2.23001257e-01 2.33572409e-01
      2.11971059e-01 1.41009524e-01 1.05181277e-01 1.11535318e-01
      7.58823827e-02 1.53024450e-01 2.09642768e-01 2.09370390e-01
      1.84509188e-01 1.90115318e-01 2.47455597e-01 1.50350690e-01
      7.75256902e-02 8.32683221e-02 7.34092519e-02 1.25706822e-01
      2.47455597e-01 2.47455597e-01 2.47455597e-01 2.47455597e-01
      2.32811734e-01 1.22202128e-01 8.77852887e-02 9.57210362e-02
      1.14821084e-01 1.18141577e-01 1.94186568e-01 2.47455597e-01
      4.56117578e-02 4.41930555e-02 5.72186299e-02 6.82984069e-02
      2.29780465e-01 2.93677539e-01 2.42055133e-01 6.46734014e-02
      4.49902415e-02 3.81268635e-02 3.75975743e-02 5.92696965e-02
      1.76444486e-01 2.93677539e-01 2.93677539e-01 2.93677539e-01
      1.34564936e-01 4.29541990e-02 1.90354407e-01 1.58071160e-01
      1.30801901e-01 6.61275089e-02 9.69549343e-02 1.46089762e-01
      9.84713510e-02 4.22056615e-02 1.06668882e-01 9.28659141e-02
      1.64961025e-01 1.87017709e-01 1.36931151e-01 2.07872733e-01
      2.93677539e-01 2.93677539e-01 1.49043173e-01 3.55435237e-02</_>
    <_>
      9.24918652e-02 1.70049787e-01 2.11817071e-01 2.11817071e-01
      2.11817071e-01 1.93068147e-01 1.39611572e-01 1.09745614e-01
      9.69083607e-02 1.14541151e-01 1.99140623e-01 2.11817071e-01
      2.01012030e-01 1.65921822e-01 1.48322091e-01 1.90004081e-01
      1.35855466e-01 8.33824798e-02 1.00102991e-01 1.38304800e-01
      1.90803990e-01 1.96281001e-01 2.11817071e-01 2.01947093e-01
      1.03197604e-01 1.17226027e-01 1.25600055e-01 1.10952683e-01
      1.74829647e-01 2.11817071e-01 2.11817071e-01 2.11817071e-01
      1.85671940e-01 1.60667270e-01 1.26787245e-01 1.21592291e-01
      1.20576143e-01 2.26952821e-01 2.26952821e-01 1.94698289e-01
      1.10726990e-01 8.48370120e-02 1.34408802e-01 8.92586261e-02
      4.48713526e-02 2.03864813e-01 2.26952821e-01 2.26952821e-01
      1.91238314e-01 1.03882104e-01 7.96763524e-02 1.18161827e-01
      1.06464639e-01 9.26043764e-02 1.01525187e-01 1.90462127e-01
      2.26952821e-01 2.26952821e-01 1.65626019e-01 1.15126975e-01
      1.18300766e-01 8.25245008e-02 5.94094545e-02 2.26952821e-01
      2.26952821e-01 2.26952821e-01 2.13263497e-01 1.85796246e-01
      1.12204082e-01 2.14011863e-01 1.72881797e-01 1.58692926e-01
      1.38171226e-01 1.42405584e-01 1.60595521e-01 9.19511393e-02
      9.50418487e-02 9.21059027e-02 1.71481922e-01 1.40981913e-01
      1.26162484e-01 9.84162465e-02 1.06641583e-01 8.33107010e-02
      8.45701694e-02 1.18551455e-01 1.89007655e-01 2.18863279e-01
      2.18863279e-01 1.10615715e-01 2.18863279e-01 1.53725460e-01
      1.78919777e-01 1.51933342e-01 2.18863279e-01 1.52995467e-01
      2.18863279e-01 2.18863279e-01 2.12916434e-01 1.75875545e-01
      1.41728401e-01 1.39044121e-01 2.03263119e-01 2.18863279e-01
      2.18863279e-01 2.18863279e-01 1.69461966e-01 1.59219876e-01
      9.25260037e-02 1.21239170e-01 1.40712082e-01 1.43879488e-01
      1.75473943e-01 1.26495659e-01 6.47255853e-02 9.39068794e-02
      1.93432435e-01 1.22131541e-01 1.68194309e-01 1.81045905e-01
      1.89402208e-01 1.59509152e-01 1.75644219e-01 1.38117135e-01
      8.76032487e-02 1.53580293e-01 1.43824369e-01 2.07381248e-01
      2.20569998e-01 2.17556536e-01 2.08010718e-01 1.13950484e-01
      6.60253167e-02 1.05130576e-01 2.20569998e-01 2.20569998e-01
      2.20569998e-01 2.20569998e-01 1.91987127e-01 1.91473365e-01
      1.77704230e-01 1.45896301e-01 1.31717935e-01 2.20569998e-01
      9.55571532e-02 1.11793593e-01 1.37137651e-01 1.78627640e-01
      1.54276863e-01 1.62396923e-01 1.32492498e-01 6.57819211e-02
      7.27683902e-02 1.87298000e-01 1.95797503e-01 2.03352496e-01
      1.75623536e-01 1.87586278e-01 1.14314377e-01 1.64608479e-01
      1.55603409e-01 1.44452468e-01 2.03352496e-01 2.03352496e-01
      1.83744326e-01 1.71422288e-01 1.59093812e-01 2.03352496e-01
      1.62811026e-01 1.49263248e-01 2.03352496e-01 1.79113522e-01
      2.00725406e-01 1.87611610e-01 1.68538317e-01 1.37675256e-01
      1.62728488e-01 1.70735881e-01 1.95597351e-01 1.75370097e-01
      2.06509084e-01 1.85284898e-01 2.08545685e-01 1.72235996e-01
      2.08545685e-01 1.27410501e-01 2.07541138e-01 2.01287732e-01
      1.65147603e-01 1.34708896e-01 1.40418261e-01 2.08545685e-01
      2.08545685e-01 2.08545685e-01 1.46204278e-01 1.18490502e-01
      9.93293077e-02 1.08268589e-01 1.63307071e-01 1.82332546e-01
      1.86830565e-01 1.60027266e-01 1.30171821e-01 1.02170214e-01
      1.38071716e-01 1.50727868e-01 1.35958567e-01 1.63104564e-01
      2.02387229e-01 2.08545685e-01 2.08545685e-01 1.91342935e-01
      1.07681006e-01 9.62970853e-02 1.11302063e-01 1.39131993e-01
      1.28576413e-01 1.43872410e-01 1.96522385e-01 2.11203486e-01
      1.97698548e-01 9.28025320e-02 7.46124387e-02 9.34711769e-02
      1.25487685e-01 2.11203486e-01 2.11203486e-01 1.87422872e-01
      1.96910486e-01 2.01652691e-01 1.45857811e-01 1.43125102e-01
      1.48483261e-01 2.11203486e-01 1.48682550e-01 8.17037970e-02
      1.10787362e-01 1.66159704e-01 1.51996493e-01 1.57612830e-01
      1.83297127e-01 2.11203486e-01 1.58310890e-01 2.11203486e-01
      1.20001540e-01 9.26660523e-02 1.42577887e-01 1.49506345e-01
      1.54843494e-01 2.10113555e-01 2.11203486e-01 2.11203486e-01
      2.06867144e-01 2.06867144e-01 1.71191558e-01 1.91769615e-01
      1.69698134e-01 1.92129940e-01 1.91273257e-01 1.94789708e-01
      2.06867144e-01 1.31644547e-01 1.40967667e-01 1.48769498e-01
      1.61035031e-01 1.09223396e-01 1.44323513e-01 1.39092490e-01
      1.76950812e-01 1.54918432e-01 2.06867144e-01 1.52978241e-01
      1.12039424e-01 1.38463542e-01 1.49674430e-01 1.54392570e-01
      1.85556769e-01 1.87458605e-01 2.06867144e-01 1.63054720e-01
      1.63199425e-01 1.92616686e-01 1.60315424e-01 1.51716292e-01
      1.34793371e-01 9.87130031e-02 1.32061586e-01 1.72113031e-01
      1.08136371e-01 9.19272229e-02 1.06280997e-01 1.44614071e-01
      1.03012666e-01 8.77577737e-02 7.51376972e-02 7.28271157e-02
      1.05159312e-01 1.84844956e-01 1.82474777e-01 1.60724282e-01
      2.38292739e-01 2.38292739e-01 1.85448602e-01 1.53111264e-01
      1.13728717e-01 1.74714223e-01 1.00616351e-01 1.14457846e-01
      1.45411283e-01 1.74284860e-01 1.52032480e-01 1.09446742e-01
      7.91435912e-02 6.49141446e-02 1.24616966e-01 2.38292739e-01
      2.38292739e-01 2.38292739e-01 2.38292739e-01 2.38292739e-01
      2.38292739e-01 2.09477082e-01 1.39926001e-01 2.38292739e-01</_>
    <_>
      2.07312524e-01 1.49561077e-01 1.00417152e-01 9.57581997e-02
      1.03547372e-01 1.49876565e-01 1.89057395e-01 1.77796394e-01
      1.89509287e-01 2.33922049e-01 2.07513914e-01 1.41552314e-01
      1.12487338e-01 1.11634828e-01 1.44266218e-01 1.68194860e-01
      1.78960174e-01 2.02209026e-01 1.73383862e-01 1.74173445e-01
      1.31049469e-01 1.13934241e-01 1.15716614e-01 1.57737568e-01
      2.19298825e-01 1.53511092e-01 1.27901867e-01 2.14321554e-01
      2.33922049e-01 2.33922049e-01 2.33922049e-01 1.21729821e-01
      1.36474535e-01 1.46419734e-01 1.17518418e-01 1.26611829e-01
      1.06864408e-01 1.65094122e-01 2.72693396e-01 1.00166775e-01
      7.41430596e-02 5.28409220e-02 5.10943346e-02 5.76113090e-02
      7.60854632e-02 2.06156418e-01 2.96567798e-01 2.96567798e-01
      1.62967637e-01 1.06297947e-01 3.96443941e-02 3.61328609e-02
      3.44748721e-02 6.89317435e-02 8.38183165e-02 2.16686189e-01
      2.96567798e-01 2.73148924e-01 1.30097568e-01 7.46077672e-02
      3.84874009e-02 4.99712266e-02 5.48882261e-02 1.41888291e-01
      2.96567798e-01 2.96567798e-01 2.71682352e-01 1.74308926e-01
      6.99117929e-02 1.02671973e-01 1.32136777e-01 9.86474752e-02
      2.60148555e-01 2.60148555e-01 2.60148555e-01 1.20338291e-01
      8.61466229e-02 3.81791256e-02 3.71806473e-02 5.49451932e-02
      1.26866370e-01 2.60148555e-01 2.60148555e-01 1.55488312e-01
      1.23406000e-01 1.23316102e-01 8.99388865e-02 7.90401176e-02
      1.31802797e-01 2.60148555e-01 1.69225410e-01 2.22866327e-01
      2.46084616e-01 1.39308527e-01 9.54315066e-02 5.08028828e-02
      1.27353057e-01 1.77686229e-01 1.45837322e-01 1.02556199e-01
      1.42565846e-01 2.53249794e-01 2.58599639e-01 1.64297968e-01
      9.03129131e-02 8.60507935e-02 9.85753611e-02 8.95315260e-02
      9.77711529e-02 1.90216914e-01 1.93507835e-01 6.91998824e-02
      6.77746311e-02 7.38898069e-02 1.12270311e-01 1.09918006e-01
      8.68170783e-02 1.19210966e-01 3.36590976e-01 3.36590976e-01
      1.76705658e-01 5.66423312e-02 5.16978167e-02 4.56738062e-02
      4.24148105e-02 5.41879795e-02 1.07904166e-01 3.36590976e-01
      3.36590976e-01 1.14272133e-01 7.12124109e-02 7.29041174e-02
      9.61371586e-02 1.06939457e-01 8.36580545e-02 1.39703944e-01
      3.36590976e-01 3.36590976e-01 1.80745617e-01 7.85995126e-02
      3.99523266e-02 2.88287755e-02 3.90010215e-02 5.83765842e-02
      9.43186283e-02 2.87341118e-01 2.87341118e-01 2.87341118e-01
      1.18721426e-01 6.69037476e-02 2.48517375e-02 5.17918989e-02
      8.35982487e-02 1.57989383e-01 2.32385159e-01 2.87341118e-01
      2.13623792e-01 1.57773599e-01 8.28397349e-02 1.15644023e-01
      1.60825327e-01 1.76035106e-01 9.00847316e-02 2.87341118e-01
      2.87341118e-01 2.15513945e-01 1.01279505e-01 4.96053249e-02
      3.07134818e-02 3.88628133e-02 7.74246752e-02 1.10611871e-01
      1.86597362e-01 2.18331307e-01 1.48500711e-01 1.03624992e-01
      6.43306002e-02 6.71318248e-02 8.19797665e-02 1.37101695e-01
      1.64244771e-01 1.59466729e-01 1.84590191e-01 1.33256376e-01
      1.27525717e-01 9.43298936e-02 1.95742071e-01 2.30682209e-01
      2.25510955e-01 9.72942635e-02 1.47940606e-01 2.30682209e-01
      2.30682209e-01 2.30682209e-01 1.24619663e-01 1.24107175e-01
      1.46243200e-01 1.25240028e-01 1.06743582e-01 1.93687022e-01
      2.30682209e-01 2.21077025e-01 1.52016819e-01 1.10126413e-01
      1.06612206e-01 1.18799567e-01 1.37309238e-01 8.88431445e-02
      1.79030299e-01 2.30682209e-01 2.30682209e-01 2.30682209e-01
      1.25717923e-01 8.32538977e-02 8.54561776e-02 8.19571242e-02
      9.10936743e-02 2.68416643e-01 2.68416643e-01 2.41289943e-01
      1.52482837e-01 1.17702089e-01 9.61699933e-02 6.60139918e-02
      5.68810590e-02 1.14558548e-01 2.68416643e-01 2.68416643e-01
      1.44079983e-01 1.35082781e-01 9.55557451e-02 6.66442513e-02
      5.36994971e-02 7.68378451e-02 8.93430188e-02 1.23368330e-01
      1.87017232e-01 1.72289118e-01 2.01565772e-01 1.79014772e-01
      2.68416643e-01 2.68416643e-01 1.31341055e-01 1.74533606e-01
      1.79853052e-01 1.21539868e-01 8.56183469e-02 1.18719429e-01
      1.05977684e-01 1.26274213e-01 1.79247916e-01 1.84332341e-01
      1.05437383e-01 1.74446389e-01 1.65934220e-01 1.50533751e-01
      1.42153427e-01 8.85839611e-02 7.34216049e-02 6.32054210e-02
      8.80280584e-02 1.30885258e-01 2.60387272e-01 2.60387272e-01
      1.82198212e-01 1.17350772e-01 5.44113405e-02 7.52887279e-02
      9.26182121e-02 1.07670940e-01 2.60387272e-01 2.60387272e-01
      2.08398268e-01 1.06112286e-01 1.06697261e-01 9.19050351e-02
      1.12935729e-01 1.51202396e-01 2.31016427e-01 2.60387272e-01
      2.60387272e-01 2.60387272e-01 2.40947857e-01 1.06607184e-01
      6.37000278e-02 1.06542446e-01 1.16294868e-01 1.76340625e-01
      8.52872878e-02 2.78646976e-01 2.78646976e-01 2.32362792e-01
      9.50903371e-02 5.34598418e-02 4.45531383e-02 6.31633252e-02
      7.75375068e-02 9.95473415e-02 2.55300373e-01 2.78646976e-01
      2.46387795e-01 1.15801379e-01 6.23893999e-02 3.92039530e-02
      6.33601472e-02 8.56626183e-02 1.61912292e-01 2.78646976e-01
      2.78646976e-01 2.01588094e-01 8.22085366e-02 4.28560711e-02
      4.68941703e-02 5.97797669e-02 8.21439326e-02 2.22262546e-01
      2.78646976e-01 2.78646976e-01 1.72989056e-01 7.93742687e-02
      4.58502173e-02 5.20216823e-02 7.82603323e-02 1.34307474e-01</_>
    <_>
      8.55110660e-02 1.22529492e-01 1.16608731e-01 1.03392087e-01
      1.39170498e-01 7.74999335e-02 5.27284928e-02 6.31491840e-02
      6.27390891e-02 7.16140643e-02 1.09309137e-01 1.50930092e-01
      1.38868347e-01 2.38252208e-01 1.85737297e-01 1.29579201e-01
      9.83334109e-02 7.43899569e-02 2.38252208e-01 2.38252208e-01
      2.38252208e-01 2.07170352e-01 2.10987762e-01 1.34310544e-01
      1.15319647e-01 1.09475128e-01 1.92341253e-01 2.38252208e-01
      2.38252208e-01 2.38252208e-01 2.38252208e-01 2.38252208e-01
      1.79551601e-01 1.46174505e-01 1.21558681e-01 2.05621675e-01
      6.13683052e-02 7.78240263e-02 1.46280944e-01 1.43767670e-01
      2.25865006e-01 2.25865006e-01 2.25865006e-01 1.23356394e-01
      9.19157565e-02 1.21847138e-01 9.10427496e-02 8.99932534e-02
      8.78715441e-02 1.41645521e-01 2.25865006e-01 2.25865006e-01
      1.64496437e-01 1.78223401e-01 1.23802230e-01 1.37425378e-01
      2.25865006e-01 2.12133840e-01 2.06327140e-01 2.12692916e-01
      1.99719056e-01 1.08320147e-01 1.27550468e-01 1.53953657e-01
      1.04254015e-01 1.59679845e-01 1.36165917e-01 1.68653235e-01
      2.25865006e-01 2.25865006e-01 1.21986553e-01 1.98440641e-01
      2.19216987e-01 1.18133925e-01 8.06541145e-02 8.54115337e-02
      9.37583521e-02 1.07294224e-01 1.89108521e-01 2.19216987e-01
      2.19216987e-01 1.81398302e-01 8.40726420e-02 6.95125610e-02
      9.12078917e-02 1.19946793e-01 2.19216987e-01 2.19216987e-01
      2.19216987e-01 2.04519376e-01 2.03186095e-01 1.31290600e-01
      9.19802859e-02 8.03925470e-02 1.41891360e-01 1.16104551e-01
      1.57985821e-01 1.89212948e-01 2.19216987e-01 1.67709157e-01
      1.42791271e-01 8.42161626e-02 1.28614500e-01 2.19216987e-01
      2.14634702e-01 1.95064917e-01 2.19216987e-01 2.19216987e-01
      2.11857989e-01 1.86028883e-01 2.11857989e-01 2.11857989e-01
      2.08003744e-01 1.42644286e-01 1.12409763e-01 7.86075667e-02
      1.90355599e-01 2.11857989e-01 1.51511207e-01 1.37367815e-01
      1.69443235e-01 2.11857989e-01 1.69267505e-01 1.39567330e-01
      8.17064717e-02 2.11857989e-01 2.01215178e-01 1.10830002e-01
      1.80668846e-01 1.98956281e-01 2.11857989e-01 1.72887251e-01
      1.15676142e-01 7.20590428e-02 1.86790243e-01 1.92890629e-01
      7.56544769e-02 9.09837559e-02 1.46130353e-01 2.11857989e-01
      1.31525010e-01 1.14987202e-01 6.23057000e-02 2.11857989e-01
      8.75240043e-02 6.16053827e-02 1.23886965e-01 9.86684635e-02
      1.30994380e-01 1.28506079e-01 1.04111239e-01 6.61777407e-02
      1.00606941e-01 1.08129457e-01 6.51293471e-02 1.49764046e-01
      9.56113115e-02 1.20779313e-01 1.14374526e-01 1.05849199e-01
      7.44776875e-02 9.51098278e-02 1.62851259e-01 9.13926065e-02
      1.72024995e-01 1.38621300e-01 2.29311943e-01 1.67341530e-01
      1.48565322e-01 1.15363859e-01 1.90809101e-01 2.61642545e-01
      2.21479937e-01 2.61642545e-01 1.91189289e-01 2.61642545e-01
      2.61642545e-01 2.61642545e-01 2.61642545e-01 2.61642545e-01
      1.24115095e-01 8.56892467e-02 9.75775123e-02 8.23294148e-02
      1.32996008e-01 1.07062280e-01 1.28108710e-01 1.26359969e-01
      1.37192830e-01 8.30146447e-02 8.39348584e-02 6.06071018e-02
      1.14378341e-01 1.98131382e-01 1.63027540e-01 1.24150574e-01
      1.10057212e-01 1.41481668e-01 2.65601903e-01 1.97631583e-01
      2.65601903e-01 1.81637377e-01 2.65601903e-01 2.65601903e-01
      2.65601903e-01 2.65601903e-01 2.65601903e-01 6.35299459e-02
      4.44413088e-02 9.31264088e-02 2.23747626e-01 2.18302548e-01
      1.60941184e-01 1.40158460e-01 7.75447637e-02 6.36853650e-02
      1.30544573e-01 9.79537144e-02 1.36144146e-01 1.59407958e-01
      2.50479728e-01 2.50479728e-01 2.50479728e-01 2.18553483e-01
      1.68058485e-01 1.49389088e-01 1.32236406e-01 1.48790449e-01
      1.41829088e-01 2.34992832e-01 1.39798760e-01 1.54339194e-01
      1.19430088e-01 1.73540547e-01 6.34951219e-02 5.03871068e-02
      7.60519058e-02 6.13631457e-02 1.82411909e-01 2.50479728e-01
      2.50479728e-01 2.50479728e-01 1.00135021e-01 8.29559714e-02
      1.11733258e-01 1.16459824e-01 9.00803059e-02 1.51108906e-01
      1.83157429e-01 2.14413315e-01 1.86974481e-01 1.07996099e-01
      1.10575572e-01 9.31010470e-02 9.68426988e-02 1.02971770e-01
      1.57280207e-01 1.00935571e-01 9.51768756e-02 1.28651157e-01
      1.81149602e-01 2.80522823e-01 2.22315893e-01 1.89507499e-01
      1.75155625e-01 2.80522823e-01 2.56806463e-01 2.80522823e-01
      2.80522823e-01 2.80522823e-01 4.49725427e-02 5.08750752e-02
      4.11806367e-02 4.63121571e-02 7.29006156e-02 6.48733899e-02
      5.81494123e-02 8.54632184e-02 8.72475207e-02 1.41324684e-01
      8.35721418e-02 6.08250126e-02 8.67293328e-02 1.32795140e-01
      9.19819847e-02 1.87424958e-01 2.70502239e-01 2.80522823e-01
      2.72356480e-01 1.70610547e-01 1.73497587e-01 1.83069557e-01
      2.72356480e-01 2.67637402e-01 2.72356480e-01 2.72356480e-01
      2.72356480e-01 4.22076359e-02 4.74860854e-02 1.25976175e-01
      2.24796802e-01 1.85735926e-01 8.23998004e-02 7.03334585e-02
      3.86200808e-02 3.75301763e-02 1.56639442e-01 1.06294282e-01
      1.24314316e-01 1.32701382e-01 1.78622350e-01 9.24671814e-02
      2.00585544e-01 2.21588522e-01 2.68830180e-01 5.60747758e-02
      8.44492689e-02 1.40948221e-01 1.52041957e-01 1.06472857e-01
      4.23390232e-02 4.81474288e-02 4.20051292e-02 3.20799612e-02</_>
    <_>
      9.85066742e-02 1.70671362e-02 2.57572830e-02 2.58332808e-02
      9.66532230e-02 2.61464924e-01 2.61464924e-01 2.61464924e-01
      2.09272400e-01 7.72039294e-02 3.44439670e-02 6.01396188e-02
      4.86083739e-02 1.40501127e-01 2.56247073e-01 2.47376442e-01
      1.16451479e-01 1.16749905e-01 1.22034803e-01 5.15716076e-02
      3.94580178e-02 2.89076027e-02 1.04775496e-01 2.61464924e-01
      2.61464924e-01 2.61464924e-01 2.23842621e-01 1.08691365e-01
      1.06660783e-01 1.05502702e-01 5.88353202e-02 1.80123419e-01
      2.61464924e-01 2.61464924e-01 1.63270846e-01 1.45549104e-01
      2.02400520e-01 1.29772902e-01 1.50089815e-01 1.23826869e-01
      2.22220317e-01 2.44196773e-01 1.82619661e-01 1.30540609e-01
      1.70670569e-01 1.79738402e-01 1.07882835e-01 1.06572308e-01
      8.86735916e-02 1.18895531e-01 8.25469196e-02 9.52190012e-02
      1.04886129e-01 1.58403873e-01 2.44196773e-01 2.17480227e-01
      2.19107509e-01 1.69624269e-01 2.44196773e-01 2.44196773e-01
      2.44196773e-01 2.09591657e-01 2.22015083e-01 1.31891847e-01
      9.00416970e-02 9.61832628e-02 9.26510096e-02 1.53517216e-01
      1.53295085e-01 1.14364795e-01 9.57048982e-02 1.24958582e-01
      1.26254916e-01 8.65535662e-02 9.51717496e-02 6.85142949e-02
      1.43819243e-01 1.39096826e-01 2.17490673e-01 2.12323979e-01
      2.01888487e-01 9.60117355e-02 7.90805072e-02 7.17113391e-02
      8.32098722e-02 2.30707869e-01 2.44973108e-01 2.44973108e-01
      2.44973108e-01 2.18185455e-01 1.00861073e-01 9.85968485e-02
      1.21741757e-01 9.69410688e-02 1.93481863e-01 1.45663396e-01
      1.50577754e-01 1.30400300e-01 1.27379313e-01 9.84256342e-02
      1.24238864e-01 1.83644399e-01 2.44973108e-01 2.44973108e-01
      2.44973108e-01 2.17816666e-01 1.36085927e-01 1.23581097e-01
      1.34990737e-01 1.10694282e-01 9.79822353e-02 7.15133399e-02
      1.24488063e-01 2.48462155e-01 2.48462155e-01 2.39409909e-01
      1.78211302e-01 2.48462155e-01 2.48462155e-01 2.48462155e-01
      1.36794358e-01 2.48462155e-01 2.48462155e-01 2.48462155e-01
      2.48462155e-01 2.47698471e-01 6.51947111e-02 7.22074658e-02
      7.02443048e-02 1.22497536e-01 1.23927064e-01 7.83348605e-02
      8.51561129e-02 6.77149445e-02 5.71466684e-02 1.32727444e-01
      1.49651170e-01 1.26522660e-01 1.07715443e-01 1.35549814e-01
      1.10880330e-01 1.67530805e-01 1.08520746e-01 8.91606137e-02
      2.35058069e-01 2.35058069e-01 2.35058069e-01 2.08915919e-01
      2.35058069e-01 2.35058069e-01 2.35058069e-01 2.12695673e-01
      2.35058069e-01 9.00214538e-02 8.08310881e-02 8.07568431e-02
      1.10287346e-01 1.39083773e-01 1.17808871e-01 1.04076937e-01
      7.75562972e-02 9.04854015e-02 1.83452457e-01 2.25200847e-01
      2.04136908e-01 1.83525488e-01 1.89251557e-01 1.70621008e-01
      1.97681025e-01 1.13290213e-01 1.30874142e-01 8.86520371e-02
      1.31528392e-01 1.37102112e-01 1.43746480e-01 1.64204985e-01
      1.45340502e-01 1.02509923e-01 6.90935925e-02 9.34817195e-02
      7.94966444e-02 1.15914352e-01 1.40106112e-01 1.44766018e-01
      2.12044194e-01 1.16500251e-01 1.28564537e-01 9.70951170e-02
      9.05108452e-02 9.22302306e-02 1.59288943e-01 2.34066293e-01
      2.34066293e-01 2.34066293e-01 1.25294119e-01 9.86249000e-02
      6.63776994e-02 6.93599805e-02 1.11072466e-01 2.10952982e-01
      2.30150312e-01 2.34066293e-01 2.24291503e-01 1.59193903e-01
      1.42847225e-01 9.74201560e-02 1.09627210e-01 2.13222086e-01
      2.34066293e-01 2.34066293e-01 2.34066293e-01 2.34066293e-01
      1.29296467e-01 1.18592449e-01 1.10633127e-01 1.48190498e-01
      7.94080272e-02 7.84685537e-02 9.84579325e-02 1.95657074e-01
      1.99211672e-01 2.19672143e-01 2.52601027e-01 1.80181503e-01
      9.56584960e-02 1.05397128e-01 9.58142281e-02 1.27251968e-01
      1.52598515e-01 1.78063095e-01 1.61123484e-01 1.91392988e-01
      1.14716128e-01 9.22075212e-02 8.76631513e-02 6.12970032e-02
      8.50348100e-02 9.95751768e-02 1.28867298e-01 2.52601027e-01
      2.52601027e-01 2.52601027e-01 1.77157074e-01 1.74715638e-01
      8.66134614e-02 9.08815414e-02 1.21974804e-01 1.34878203e-01
      1.70773357e-01 2.52601027e-01 2.52601027e-01 2.52601027e-01
      1.32400513e-01 1.41993642e-01 1.79978430e-01 1.76737443e-01
      1.63106695e-01 1.49035126e-01 1.46775708e-01 7.91164786e-02
      1.13532342e-01 1.47908196e-01 2.28516459e-01 2.28516459e-01
      2.16330007e-01 1.62323371e-01 1.49723977e-01 1.04236141e-01
      7.79599920e-02 1.06404819e-01 2.28516459e-01 2.10547835e-01
      1.62523568e-01 1.49177894e-01 1.31672636e-01 1.01431824e-01
      1.32442191e-01 1.78021282e-01 2.28516459e-01 2.28516459e-01
      2.28516459e-01 2.28516459e-01 2.26315215e-01 1.24870218e-01
      7.91023076e-02 9.09380838e-02 1.09954089e-01 1.79884702e-01
      1.36214331e-01 2.19271496e-01 2.19271496e-01 2.19271496e-01
      1.45462066e-01 1.21189162e-01 1.09315097e-01 8.41256231e-02
      1.04862086e-01 2.16449693e-01 2.10506663e-01 2.19271496e-01
      2.08697543e-01 1.51730374e-01 1.16330765e-01 1.25669450e-01
      1.35373667e-01 2.07958445e-01 1.68641552e-01 2.19271496e-01
      2.19271496e-01 2.13564098e-01 1.30848706e-01 8.79210606e-02
      1.16769798e-01 1.11091115e-01 1.28633112e-01 1.63873479e-01
      1.51912451e-01 1.86819047e-01 1.44857153e-01 1.83696747e-01
      1.13771237e-01 1.49432555e-01 1.50704771e-01 1.93120003e-01</_>
    <_>
      2.72408098e-01 2.72408098e-01 1.48611873e-01 1.60434749e-02
      5.76532399e-03 7.27116223e-03 1.41830714e-02 5.04946671e-02
      2.72408098e-01 2.72408098e-01 2.26167545e-01 1.40857458e-01
      5.31307608e-02 6.30782247e-02 5.64971119e-02 8.11752751e-02
      1.31495714e-01 2.72408098e-01 2.72408098e-01 2.46288061e-01
      9.73182097e-02 5.92492186e-02 3.50246690e-02 4.03747000e-02
      4.55764532e-02 7.83884451e-02 2.72408098e-01 2.72408098e-01
      1.78711548e-01 7.24148229e-02 7.59009123e-02 1.39316455e-01
      8.85304585e-02 9.28745046e-02 1.89321578e-01 2.72408098e-01
      2.39676163e-01 1.74127445e-01 1.36040077e-01 1.07878849e-01
      9.85543653e-02 8.66085142e-02 8.34098533e-02 1.20457448e-01
      2.39676163e-01 2.39676163e-01 1.91590399e-01 1.69148222e-01
      1.23734184e-01 1.10460244e-01 9.47165787e-02 1.38720244e-01
      1.51741862e-01 2.39676163e-01 2.39676163e-01 1.47446975e-01
      9.43268314e-02 7.99221694e-02 1.45340249e-01 1.04468383e-01
      1.07769281e-01 1.97485700e-01 2.39676163e-01 2.39676163e-01
      1.55829519e-01 1.31044596e-01 8.21455047e-02 1.26236618e-01
      1.15125388e-01 2.00787976e-01 2.39676163e-01 2.39676163e-01
      2.25133181e-01 1.52061656e-01 1.51318952e-01 9.40048620e-02
      1.53578475e-01 1.01925954e-01 1.78872451e-01 1.64106980e-01
      2.25133181e-01 2.25133181e-01 1.61628306e-01 1.23701155e-01
      1.23551838e-01 2.25133181e-01 1.87898427e-01 1.66899666e-01
      1.58230871e-01 2.25133181e-01 2.06846312e-01 1.10536277e-01
      1.21682331e-01 6.74575344e-02 1.24242701e-01 1.14391297e-01
      2.25133181e-01 2.25133181e-01 2.25133181e-01 1.60683319e-01
      7.94787556e-02 8.68513137e-02 5.77933751e-02 1.30042613e-01
      1.27519250e-01 1.70843855e-01 2.04929680e-01 2.22181976e-01
      1.82675466e-01 1.55000687e-01 1.01851471e-01 9.29319412e-02
      7.95395076e-02 9.50136185e-02 9.38277394e-02 1.32473618e-01
      1.96872786e-01 2.34177113e-01 1.56361550e-01 1.21412560e-01
      1.38786703e-01 2.34177113e-01 1.73661873e-01 1.17361456e-01
      2.18260482e-01 2.34177113e-01 2.22856805e-01 1.33026049e-01
      1.25028610e-01 1.02641188e-01 1.36217549e-01 9.91318151e-02
      8.54781717e-02 1.39382988e-01 2.34177113e-01 2.34177113e-01
      1.88753605e-01 1.56711668e-01 1.39553368e-01 2.34177113e-01
      1.71990559e-01 1.25801191e-01 1.82155788e-01 2.34177113e-01
      2.31659889e-01 1.41969576e-01 1.39327064e-01 1.01055913e-01
      2.31659889e-01 1.57110661e-01 1.22596838e-01 1.95378587e-01
      2.31659889e-01 1.91079661e-01 1.34540141e-01 1.29025862e-01
      7.15779066e-02 1.22163378e-01 1.36866048e-01 1.49948105e-01
      1.89530343e-01 2.22159982e-01 2.31659889e-01 1.82184458e-01
      1.35861844e-01 9.24354866e-02 1.50505081e-01 1.15410246e-01
      9.66113433e-02 1.72249570e-01 2.31659889e-01 2.31659889e-01
      1.79241478e-01 1.30498037e-01 8.61602724e-02 7.05141276e-02
      8.22356194e-02 1.39292270e-01 2.31659889e-01 2.31659889e-01
