<?xml version="1.0"?>
<opencv_storage>
<opencv_ml_ann_mlp>
  <format>3</format>
  <layer_sizes>
    324 4 2</layer_sizes>
  <activation_function>SIGMOID_SYM</activation_function>
  <f_param1>1.</f_param1>
  <f_param2>1.</f_param2>
  <min_val>-9.4999999999999996e-01</min_val>
  <max_val>9.4999999999999996e-01</max_val>
  <min_val1>-9.7999999999999998e-01</min_val1>
  <max_val1>9.7999999999999998e-01</max_val1>
  <training_params>
    <train_method>BACKPROP</train_method>
    <dw_scale>1.0000000000000000e-03</dw_scale>
    <moment_scale>0.</moment_scale>
    <term_criteria>
      <epsilon>1.0000000000000000e-04</epsilon>
      <iterations>200</iterations></term_criteria></training_params>
  <input_scale>
    9.3333692146262042e+00 -1.5599781341287211e+00
    1.0774954911067070e+01 -1.3559698047083657e+00
    1.0342035724007371e+01 -1.3666887523068316e+00
    1.0970919769116604e+01 -1.3739445428307837e+00
    8.2696713047855113e+00 -1.3834069177683139e+00
    1.1077163826240342e+01 -1.1013456755698039e+00
    1.5643438741894473e+01 -1.0989939175606047e+00
    1.6241809680046597e+01 -1.1452619368347363e+00
    9.2586505158830334e+00 -1.4451482383063126e+00
    1.0107058822686653e+01 -2.0256488268811630e+00
    1.0773050296271826e+01 -1.4816635111016820e+00
    1.1312760865007077e+01 -1.4325575369258130e+00
    1.1120957491729252e+01 -1.4451856465052444e+00
    8.4357041684478187e+00 -1.4291840167756247e+00
    1.1448837054270404e+01 -1.3236595220443979e+00
    1.4738136976404522e+01 -1.2950596809571584e+00
    1.4498545493546713e+01 -1.3797697227457391e+00
    9.9353399641491595e+00 -1.8853845601866794e+00
    8.5191230877314830e+00 -1.4407492027059117e+00
    1.2937597254762931e+01 -1.4688956401443345e+00
    1.1261771656691957e+01 -1.4100078837058194e+00
    1.1128894685264090e+01 -1.5113507457259026e+00
    8.8543725321096840e+00 -1.5790619204562626e+00
    1.0907341523257085e+01 -1.2612070250557816e+00
    1.4397674872337562e+01 -1.2595745734810548e+00
    1.5698659518126165e+01 -1.3294946053660548e+00
    8.4760599542496831e+00 -1.3630432736720688e+00
    9.2832193526523064e+00 -1.8140780467235522e+00
    1.2921364218896187e+01 -1.6176661809676838e+00
    1.2188682101114784e+01 -1.4806000036636122e+00
    1.1794159627430473e+01 -1.5912053769939196e+00
    8.9088186048882214e+00 -1.5861415766244218e+00
    1.1898948753667513e+01 -1.4977413235529291e+00
    1.4500362370739817e+01 -1.4797698860547948e+00
    1.4940505507749421e+01 -1.6031649568835180e+00
    9.1973023407496957e+00 -1.7442130198418091e+00
    1.0373646460748995e+01 -2.0090578913795989e+00
    1.1921155432705747e+01 -1.4512956461209379e+00
    1.3189730067510739e+01 -1.3988206776025836e+00
    1.2263511314343724e+01 -1.3981566908780299e+00
    8.3056892835019518e+00 -1.3525698783680760e+00
    1.2059587700388901e+01 -1.3223033078262632e+00
    1.4772035509405312e+01 -1.3281041995096505e+00
    1.4027115077077601e+01 -1.3969737379061198e+00
    1.0197656215029776e+01 -1.9310297054458443e+00
    9.8577373484803044e+00 -1.8507085606550608e+00
    1.2259628281514473e+01 -1.3651491538426954e+00
    1.3620710940992161e+01 -1.3178284555324284e+00
    1.1723416191247749e+01 -1.3403615739063965e+00
    8.0921336833912676e+00 -1.3516946984427567e+00
    1.1749819347959221e+01 -1.3584847606197068e+00
    1.3117956500462951e+01 -1.3311854924060738e+00
    1.2266768477760280e+01 -1.3720657070427540e+00
    9.9007387871569712e+00 -1.8826151164818665e+00
    9.1548799458685544e+00 -1.7746160543544565e+00
    1.4335119034848825e+01 -1.6554561006718809e+00
    1.3709693626050662e+01 -1.5021567724313494e+00
    1.2411503999123921e+01 -1.5400712473592939e+00
    9.0099589253443906e+00 -1.5122306465890265e+00
    1.2466585305284314e+01 -1.4960039673761125e+00
    1.4582532549287215e+01 -1.5035753227648054e+00
    1.5160535213585630e+01 -1.6597769156975588e+00
    9.1441192526283288e+00 -1.7340917167352334e+00
    8.9394879270833201e+00 -1.7418489657917897e+00
    1.4122871016336552e+01 -1.6281162378848701e+00
    1.3863851921134172e+01 -1.4986154924365889e+00
    1.2073184756265704e+01 -1.5532813437993800e+00
    8.6216595852704021e+00 -1.5440040563728055e+00
    1.2372665273120935e+01 -1.5837939392936726e+00
    1.3518646129784733e+01 -1.5186399143306881e+00
    1.3758915158496102e+01 -1.6375915892005166e+00
    8.9965903221734234e+00 -1.7553043960882255e+00
    9.4337442091013681e+00 -1.6323455814549186e+00
    1.3754608941860067e+01 -1.2362174499642817e+00
    1.4535961674116118e+01 -1.1741481187327127e+00
    1.1819251837968558e+01 -1.2508723670500363e+00
    6.4828810189289321e+00 -1.1927952822642638e+00
    1.1516157053965728e+01 -1.3133837342125194e+00
    1.1851483069756394e+01 -1.2168333058524510e+00
    1.1624542002937375e+01 -1.2643046328837044e+00
    9.4575094157491932e+00 -1.7140293857717586e+00
    8.4519771506816994e+00 -1.3334191264464119e+00
    1.3381371282043711e+01 -1.0244855943659954e+00
    1.3776265344600663e+01 -9.9367785990340951e-01
    1.0358786350505950e+01 -9.9641937758360033e-01
    7.4515194390329338e+00 -1.3225467444625392e+00
    1.0706124596086028e+01 -1.1354103548129841e+00
    1.0153960228562569e+01 -1.0462451926440657e+00
    1.0667004984666509e+01 -1.0932601202187189e+00
    8.4818848794675841e+00 -1.3872484069758284e+00
    8.3680324989214867e+00 -1.5417562104440989e+00
    1.4934936967889747e+01 -1.4905290640957480e+00
    1.4454181367701290e+01 -1.3702699767303450e+00
    1.1855915594717112e+01 -1.4324476222077116e+00
    6.7516651710922675e+00 -1.3104965503458905e+00
    1.2015761620900141e+01 -1.4884728864257923e+00
    1.2811176785386529e+01 -1.3656951431677071e+00
    1.3342112489943490e+01 -1.4804697414800796e+00
    8.4566141812617630e+00 -1.5833292591390919e+00
    7.6799712650853609e+00 -1.3296999358662120e+00
    1.4241864462051385e+01 -1.2481933530331075e+00
    1.2819630481808105e+01 -1.1462977678168478e+00
    1.0258778416893165e+01 -1.1593438295085432e+00
    7.6582921814489158e+00 -1.4666767835130046e+00
    1.0636437788666147e+01 -1.2553851267162366e+00
    1.0787946161806742e+01 -1.1541580369028221e+00
    1.1821121823529664e+01 -1.2705034285456243e+00
    7.7142973600346751e+00 -1.3669878288329822e+00
    9.4967947095243677e+00 -1.5088160112803874e+00
    1.4125355676225224e+01 -1.5402843033680746e+00
    1.2611987024240459e+01 -1.4768791623995403e+00
    1.1668973775280573e+01 -1.5633087990882144e+00
    9.1358599214308231e+00 -1.6743192653429588e+00
    1.0886412090879775e+01 -1.4317790671413781e+00
    1.3908262232469282e+01 -1.4365498049855727e+00
    1.5454835309343025e+01 -1.4923384470122685e+00
    9.4687462480192561e+00 -1.4725447776465794e+00
    1.0278379211891881e+01 -1.8687700269907894e+00
    1.4200959085743674e+01 -1.7648759147847164e+00
    1.3447344100225370e+01 -1.6077244728703699e+00
    1.2482390254471206e+01 -1.6832618285260443e+00
    9.4721859066450520e+00 -1.6890263885791237e+00
    1.2348570062241071e+01 -1.6508903961844488e+00
    1.4582541116184736e+01 -1.6450616791352817e+00
    1.4725230412951507e+01 -1.7458544522874058e+00
    1.0224922375809745e+01 -1.8456310681291721e+00
    9.4732480773409140e+00 -1.5038594418302615e+00
    1.4050451824232475e+01 -1.4950043238701252e+00
    1.3777136262259202e+01 -1.4629658221938930e+00
    1.2217068630345917e+01 -1.5703108700607666e+00
    9.1653596418530210e+00 -1.6959131648981705e+00
    1.0461307015631657e+01 -1.5331466503435900e+00
    1.1939439314366533e+01 -1.5067031948717877e+00
    1.3699932165585109e+01 -1.5711422739246128e+00
    9.6302568715865462e+00 -1.5416837229010407e+00
    1.0283898717288242e+01 -1.8418414587322400e+00
    1.4060917654833784e+01 -1.7501730491397105e+00
    1.4050615534674943e+01 -1.6255704303298837e+00
    1.2639760144262157e+01 -1.6863638221250625e+00
    9.4133786545508666e+00 -1.7062742013112731e+00
    1.1863905258373665e+01 -1.7064076159918324e+00
    1.3191992256276649e+01 -1.6717975620299057e+00
    1.3670839903980482e+01 -1.7950482075687550e+00
    1.0470760451087447e+01 -1.8914318712016562e+00
    1.0420077934634211e+01 -1.8618806713431111e+00
    1.5468860970124108e+01 -1.7970526501382795e+00
    1.4785624382135833e+01 -1.6189277322202433e+00
    1.3146949173058756e+01 -1.6378222143998005e+00
    9.4080180758504444e+00 -1.5846289057101524e+00
    1.3018074833907329e+01 -1.6254897510395363e+00
    1.4916865129053349e+01 -1.6371203655193083e+00
    1.5192514474247787e+01 -1.7825142031895223e+00
    1.0386339103726376e+01 -1.8538307329445316e+00
    1.0349596933118551e+01 -1.9005776154437843e+00
    1.4535362697902400e+01 -1.7800119327143353e+00
    1.4265486082585877e+01 -1.6383345241368723e+00
    1.2591751814545280e+01 -1.6861646156703911e+00
    8.9048682223045024e+00 -1.6229355625173083e+00
    1.2790153057734962e+01 -1.6912696655500301e+00
    1.4192609670561541e+01 -1.6439497931520646e+00
    1.4310675382957962e+01 -1.7850920555137859e+00
    1.0307886965408866e+01 -1.8923017833316325e+00
    1.0500046994228171e+01 -1.8573493152996319e+00
    1.4909945514410531e+01 -1.8184837235917941e+00
    1.4764290016481967e+01 -1.6573422300469234e+00
    1.2875803585176124e+01 -1.6555278391606500e+00
    9.5621624435605650e+00 -1.6241493917043099e+00
    1.2704635406774990e+01 -1.6543996492299005e+00
    1.4341673105460663e+01 -1.6711501064231584e+00
    1.4447530865592805e+01 -1.7950340273278091e+00
    1.0581551161116462e+01 -1.8785424948538865e+00
    1.0481713776891183e+01 -1.9300776804847140e+00
    1.3973747966588041e+01 -1.8188188174051187e+00
    1.3977789428764284e+01 -1.6857871643046873e+00
    1.2452399678347621e+01 -1.7159816013869040e+00
    8.9241912538411174e+00 -1.6540781498406218e+00
    1.2631399078238530e+01 -1.7094278091698587e+00
    1.4109196346628373e+01 -1.6777341031171125e+00
    1.3893514598040039e+01 -1.7927809142173494e+00
    1.0402805523368212e+01 -1.9091262976028962e+00
    9.7639140830893307e+00 -1.6848350249913295e+00
    1.4796669544167919e+01 -1.5767780450138678e+00
    1.4662924300178126e+01 -1.4842754582845901e+00
    1.2512773730749130e+01 -1.5395698497909753e+00
    7.4046677379506489e+00 -1.4119301662307442e+00
    1.3417946712252839e+01 -1.5978028894696923e+00
    1.4202816931911741e+01 -1.4612362702709545e+00
    1.4228781310441651e+01 -1.5690734565818312e+00
    9.6969150569033413e+00 -1.6797057100401931e+00
    8.9407607551578927e+00 -1.4557535739892173e+00
    1.4023127379587862e+01 -1.3724240213272787e+00
    1.2300370618528845e+01 -1.2739609975918473e+00
    1.0184721915119063e+01 -1.2825945191429189e+00
    8.1324601210433762e+00 -1.5878450897547667e+00
    1.1782792997491796e+01 -1.3471203152135309e+00
    1.2359199070246470e+01 -1.2439792341276235e+00
    1.2926184262190008e+01 -1.3420037560192788e+00
    8.9173236699969127e+00 -1.4590808273530524e+00
    1.0064021057873481e+01 -1.7880648755656996e+00
    1.3734693312092066e+01 -1.6359381331651817e+00
    1.3445170683494180e+01 -1.5236206750599450e+00
    1.2092147879294314e+01 -1.5940202060460809e+00
    7.4347392113842936e+00 -1.4394866378425093e+00
    1.3212732924801911e+01 -1.5835890887398223e+00
    1.4520153493477327e+01 -1.4857776151239424e+00
    1.4115112689646661e+01 -1.5798150548721077e+00
    9.8724354886046868e+00 -1.7264776523595657e+00
    9.0965541995671373e+00 -1.5655342877950404e+00
    1.2599558151392651e+01 -1.4878499981793061e+00
    1.1004800750578605e+01 -1.3741268251441463e+00
    1.0031786136018209e+01 -1.3948382039702807e+00
    8.1625785809055742e+00 -1.6190412788457373e+00
    1.2310723663975690e+01 -1.3846735675199797e+00
    1.3294843532484647e+01 -1.2781328601656183e+00
    1.3011583988070191e+01 -1.3463350529701050e+00
    8.9252786532196104e+00 -1.5060463739317311e+00
    9.5574940429062245e+00 -1.4350100137565001e+00
    1.5371593439247205e+01 -1.3497145672664346e+00
    1.4991390939639446e+01 -1.2714661649355179e+00
    1.2541491945355087e+01 -1.3323918434510627e+00
    8.6141957769622497e+00 -1.4988263945392655e+00
    9.9944168863288834e+00 -1.4540909533182156e+00
    1.0680578002853743e+01 -1.4204346859770305e+00
    1.3029856156424200e+01 -1.5137213781486585e+00
    9.5190484656934871e+00 -1.5140078158462680e+00
    1.0100661692278816e+01 -1.7162140921930766e+00
    1.4695324093250933e+01 -1.5737459963874145e+00
    1.4728737938174570e+01 -1.4467513640992946e+00
    1.2594679922483886e+01 -1.4528168527536776e+00
    9.0278943803337448e+00 -1.4853246456960481e+00
    1.1441489355937518e+01 -1.5433993490170133e+00
    1.2089770584833145e+01 -1.4921470806800599e+00
    1.2925262604501690e+01 -1.6346049050857567e+00
    1.0137056926456069e+01 -1.8010130182793405e+00
    8.5130579160942297e+00 -1.4216118083833633e+00
    1.4335605701613447e+01 -1.2370093743130393e+00
    1.5098536983880868e+01 -1.1437076815291718e+00
    1.2445179800021034e+01 -1.1759736013966557e+00
    8.2942538749243440e+00 -1.3743343901587730e+00
    9.7073926458150268e+00 -1.3599090904789717e+00
    1.0035795888756709e+01 -1.4845397784160010e+00
    1.0677463989182927e+01 -1.5159696886226728e+00
    8.7154836658108952e+00 -1.5553478888842101e+00
    9.2888067569226056e+00 -1.7443813279534115e+00
    1.3454452833073901e+01 -1.4675037789408256e+00
    1.4855043971482415e+01 -1.3463546877926118e+00
    1.2401720010572596e+01 -1.2993911897255985e+00
    8.6287807042666103e+00 -1.3874610262599714e+00
    1.0804252446745034e+01 -1.4399083690283725e+00
    1.1224613000117825e+01 -1.5424252342373845e+00
    1.0991844894604030e+01 -1.6436858865301736e+00
    9.4274093602788884e+00 -1.8816423401952156e+00
    1.0552807801764487e+01 -1.8301334684197714e+00
    1.5051029966229532e+01 -1.6841204417231863e+00
    1.4999318497069998e+01 -1.5374145806039770e+00
    1.3002790647088586e+01 -1.5246973236368264e+00
    9.2853644943619607e+00 -1.4693071262832333e+00
    1.2589048041978286e+01 -1.5334211011543710e+00
    1.3814096944598074e+01 -1.5370796299194049e+00
    1.4257989093105047e+01 -1.6879557242335652e+00
    1.0540781878588797e+01 -1.8570777889295211e+00
    1.0459458273665240e+01 -1.9269335363810287e+00
    1.3544125881752242e+01 -1.7063751459177936e+00
    1.3461393624132697e+01 -1.5623177099894794e+00
    1.2179576914855563e+01 -1.5790024167412415e+00
    8.7138368082499937e+00 -1.4808508022773443e+00
    1.2484036184776553e+01 -1.5280421283354395e+00
    1.4083995747092169e+01 -1.5051615242973575e+00
    1.4400060031049964e+01 -1.6777390543353492e+00
    1.0343059816250200e+01 -1.8738282758379918e+00
    9.5450697437128280e+00 -1.8576746244386093e+00
    1.3138995232369833e+01 -1.5818833830458274e+00
    1.4657667337297472e+01 -1.4572615142862606e+00
    1.2419810950343424e+01 -1.3608586387218626e+00
    8.9066236901968079e+00 -1.3593371278466033e+00
    1.2108539038564107e+01 -1.4053803404391629e+00
    1.3041676221056800e+01 -1.5017413426111090e+00
    1.1993475725726785e+01 -1.6193362056495570e+00
    9.6453664838930795e+00 -1.9135810422914290e+00
    9.7690847217082890e+00 -1.9844716739095718e+00
    1.1702654042115341e+01 -1.6679195965154037e+00
    1.2726153841683246e+01 -1.5366688509495470e+00
    1.1545009487524901e+01 -1.4367379782281282e+00
    8.4124942925943333e+00 -1.3661452874448239e+00
    1.2044885268147858e+01 -1.3686810925882431e+00
    1.3832936088861397e+01 -1.4246577642703679e+00
    1.2559359990491206e+01 -1.5639319743760109e+00
    9.5861175257366185e+00 -1.9089048687331496e+00
    9.9935175512215917e+00 -1.7458449202190289e+00
    1.2967342352924243e+01 -1.5247463081611980e+00
    1.2406809567219090e+01 -1.3850128998792661e+00
    1.1956869498695887e+01 -1.4643577359553668e+00
    7.5179593460422458e+00 -1.2925479740892807e+00
    1.3428915944847802e+01 -1.3814240593359404e+00
    1.5334517273983330e+01 -1.3293771108305459e+00
    1.4979979969264559e+01 -1.4454941544040067e+00
    9.7703648923608579e+00 -1.6334206509393705e+00
    9.2542878893391975e+00 -1.5953860889613873e+00
    1.1877170373001498e+01 -1.4522424718735516e+00
    1.0266836332429405e+01 -1.3279188319468582e+00
    9.7851436139262553e+00 -1.3404969148446411e+00
    8.0597224493093176e+00 -1.4559010279334896e+00
    1.3108770961390379e+01 -1.2464269251636391e+00
    1.4828000650499078e+01 -1.1681487271296302e+00
    1.4335248642299069e+01 -1.2532819650970410e+00
    9.0753599132551290e+00 -1.4711661033145504e+00
    9.3183996137968563e+00 -1.8361036575135268e+00
    1.0895747034882390e+01 -1.5453736157057181e+00
    1.1272650003820077e+01 -1.4171967193948312e+00
    1.1291625420373276e+01 -1.3747971428104517e+00
    7.3212309661999768e+00 -1.2250863632325582e+00
    1.3492482026059035e+01 -1.2711258675414618e+00
    1.5620925538754044e+01 -1.2582961647038340e+00
    1.3665309330649816e+01 -1.3445342489888970e+00
    9.0208578746772403e+00 -1.6672870043756647e+00
    8.7185482110605541e+00 -1.6600082185626930e+00
    1.0225957277126708e+01 -1.4799804075058196e+00
    9.9068346910993252e+00 -1.3928026345957192e+00
    9.6766699745111282e+00 -1.2724956125011613e+00
    7.7569785192932699e+00 -1.3323253109611535e+00
    1.2800062814928628e+01 -1.1270879729865990e+00
    1.4988810838923769e+01 -1.0926418223755860e+00
    1.3468107827776644e+01 -1.1777707255403842e+00
    8.4191411516964276e+00 -1.4923913515766383e+00</input_scale>
  <output_scale>
    5.2631578947368418e-01 4.9999999999999994e-01 5.2631578947368418e-01
    4.9999999999999994e-01</output_scale>
  <inv_output_scale>
    1.8999999999999999e+00 -9.4999999999999996e-01
    1.8999999999999999e+00 -9.4999999999999996e-01</inv_output_scale>
  <weights>
    <_>
      2.4760396437632645e-01 -1.2881937159665588e-01
      -2.6950653030657010e-02 -1.4273556211149183e-01
      2.3914856525016209e-02 2.6761028860724301e-01
      -1.5933784425073521e-03 -3.0812024152451789e-01
      -8.7116190016621492e-02 1.9312194849255511e-02
      -2.1943756341420997e-02 3.4454395184300157e-02
      -1.2910265138650964e-01 -1.5130761544970769e-01
      8.2063102551609545e-03 2.1666070393071066e-01
      -1.7161048014149000e-01 -1.2672145947227040e-01
      8.0184072618570516e-03 3.5522756516157344e-01
      -8.7640560281453672e-02 -1.0543293151088985e-01
      6.8809931174442342e-03 2.1521588554812532e-01
      -2.8987793938620643e-03 1.1072913956782050e-01
      2.1103579991002090e-02 -4.6961338411408746e-02
      1.7268846106743566e-01 -1.1791068031968278e-01
      -1.2301807549690761e-02 -1.6462064975174490e-01
      1.7327994466225596e-01 1.2685867828355719e-03
      4.1919402068908240e-04 -1.5972118271828148e-01
      1.6218420409370513e-01 1.5401826651178013e-01
      -3.5211874249420202e-03 -2.4261098361679342e-01
      -1.7552777684850139e-03 2.2674183531849457e-01
      6.1047045032525159e-03 -2.1883792072994643e-01
      -1.0574185203127100e-01 1.6007890330016808e-01
      1.3016418814451453e-02 -9.9314020848227158e-02
      -2.3963551332954061e-01 -2.5481471539034743e-03
      3.0461666574167833e-02 1.3349957698963935e-01
      -1.1798176954747770e-01 1.5990349977577669e-02
      9.6483355740609473e-03 1.9101635239327475e-01
      -1.6622690798765927e-01 2.3475417886816653e-02
      2.0611301976317085e-02 1.5742202470988861e-01
      -1.5732231459589682e-02 -1.4428255872195969e-02
      1.1183127007402876e-02 -5.6546366066685769e-02
      2.8981973573635838e-02 1.3102205338786097e-01
      1.4533683984824922e-02 -1.2667002176443196e-01
      1.3121017214740838e-01 8.4382796877083374e-02
      8.7326907549419182e-04 -9.3499836962021604e-02
      1.2794383925453731e-01 4.4174115157289612e-02
      3.2001543261895764e-03 -1.0422866090188934e-01
      1.4667047150848395e-01 9.1727279925109317e-02
      6.3213038209627868e-03 -3.3998903514901618e-01
      -3.6063208057213893e-02 1.1799234183578838e-01
      1.0990794861271533e-02 -2.1621078103995231e-01
      -3.0759566434510381e-02 1.0990932649458821e-01
      1.3428991256597836e-02 -2.1055337004766447e-01
      -8.9579873762101830e-02 1.6607091837728002e-02
      -2.4755681616472255e-05 2.3007426313497968e-02
      -1.0076846430055314e-01 2.3261986845723004e-01
      3.6019889549040153e-02 -4.8197700697108076e-02
      1.0510905665311111e-01 -6.7582546459315440e-02
      4.9955998626335704e-03 -2.4515421294715199e-02
      2.0308318557012989e-01 -1.9902198896547477e-01
      -4.4100360355858745e-03 -3.8813888428239178e-02
      5.9397179398016108e-02 1.4902365698813816e-01
      2.5621665758220339e-02 -8.4080861719361924e-02
      5.9387157302945796e-02 6.1972978856987895e-02
      1.4482951820975457e-02 -3.5520634790657257e-02
      1.2462761305897524e-01 -9.9270962023991466e-02
      2.3281017108369526e-03 -1.6073227606833612e-01
      -3.0515323849858420e-02 3.7112395836395105e-02
      4.2086362453529220e-03 -1.6968414776962884e-01
      -1.5770885927526601e-01 1.7164889898809471e-01
      1.9152332047586533e-02 -1.2735475712604560e-01
      -5.9114235166442479e-02 -5.4690092408325496e-03
      -2.5738848578226114e-03 5.6277130351761573e-02
      -3.9108106577237484e-02 8.4976716728695764e-02
      1.0021355547635722e-02 -2.5367185182766191e-02
      5.2754802811672032e-02 -6.4071447931976250e-02
      1.9919865678211471e-04 -1.4504891547822463e-01
      6.8402763521148435e-02 1.0735295279556431e-02
      -8.4235288118952954e-03 -1.0335520253568926e-01
      -3.5807801943408941e-02 1.8566014889746524e-01
      2.7037374855145662e-02 9.4772917929568760e-03
      8.3616845335723666e-02 3.2876247910408871e-02
      -3.8110976283751677e-03 -1.7486266340814766e-01
      -1.8289478289991595e-02 9.4249934970639972e-03
      -1.7992889564390734e-02 -9.9724015954618189e-02
      -1.0991513457287978e-01 1.3022016690877061e-01
      6.3958333890772523e-03 -4.3412552361722931e-03
      5.1217485527655666e-03 -3.1226032726145003e-01
      -2.2055393354638794e-02 2.1856069366934150e-01
      1.7422847167908571e-02 -6.5886724308571398e-02
      -1.8677361682941105e-03 1.5216124954327706e-01
      2.2367514116479019e-02 -6.9224062420498153e-02
      4.6506145729184314e-03 1.2265727533824894e-01
      4.8281059305033798e-02 -8.4105112276664754e-04
      5.6405286550040214e-04 -1.5741191977287119e-01
      1.1903530791611733e-01 1.3603460439822648e-01
      3.0865881796830002e-03 -2.0901705875779619e-01
      1.0651799901267336e-01 5.9196648015458563e-02
      -4.9828108452865758e-03 -5.2783619091682873e-02
      7.4112373600440512e-02 1.2182011049878735e-01
      2.4846050133137815e-03 -2.5252957916764684e-01
      1.1380207434270704e-02 6.5874210042867226e-02
      2.8233659715298019e-03 -1.4187770040871900e-01
      -5.7175133848901369e-02 5.8971483578660513e-02
      -3.2819096049472125e-03 -5.1777003745351678e-02
      1.1409763815042907e-01 -1.1381506626475243e-01
      -3.7582719481703184e-03 -2.4223873842151567e-02
      1.6293004207171566e-01 -7.0198005763016380e-03
      -7.4731356743343120e-03 -1.8418528600536172e-03
      9.3017713181455047e-02 -1.2198414046867156e-01
      -1.2728352488556046e-02 -8.4001957075686799e-03
      -3.8716919654002285e-02 4.7977712372980298e-02
      4.3681054233507353e-03 -1.9180261412964100e-01
      7.4420770847029485e-02 5.0023522707830635e-02
      -1.9129148401713356e-02 -1.9653880345793037e-01
      4.0474888567746281e-02 1.7092442457842494e-01
      8.9934321694320786e-03 -1.2396252549087755e-01
      -6.9290533963580869e-02 -8.6709689106084537e-02
      5.7619037520867530e-04 9.0121057115334136e-02
      -1.0960748494635753e-01 -1.3219172585892433e-01
      -6.1242524822411413e-03 -4.3246820166116876e-02
      -1.4187066161999551e-01 -1.2722419521113773e-01
      -2.0475493026127875e-02 -2.2067758993255675e-02
      -1.8330874156719226e-01 1.8875560452141105e-01
      1.5647537164694466e-02 -1.2608619224608886e-01
      -1.4460443423963082e-01 1.5769418421228587e-01
      1.1107898198904042e-02 -5.8699092388331681e-03
      -7.9029055275029250e-02 -1.1552906234215871e-01
      -2.1757298529122400e-02 1.0418715608513848e-01
      -9.0196909091227878e-02 6.0976082758494289e-02
      1.0971975831666880e-02 -1.0346852685997390e-01
      -1.2401048006655373e-01 5.9267092267772201e-02
      2.1990094032743467e-03 -7.0537780287617785e-02
      -6.4389475233326346e-02 -1.0086307557024782e-01
      -8.4836765636654606e-03 1.6851915098679032e-01
      -8.0385900438438046e-02 4.9023465078543143e-03
      4.1043159939691950e-03 -3.2061261728522986e-03
      -1.8613147313079803e-01 1.1477667127365924e-01
      2.3401692223621037e-02 -1.5311702233162830e-01
      -1.6552107769256744e-01 1.5679342742016877e-02
      3.6619526452996714e-04 -1.4165044470115809e-01
      -1.7209119582353057e-02 2.8753122859239100e-01
      3.6908071591878866e-02 -2.9257311185506429e-01
      2.6919138131093919e-02 1.1991323447501448e-03
      -2.0297592863782934e-03 -5.5304340092839854e-02
      -7.7584336403915960e-02 2.7353811261593347e-01
      3.5752779749694305e-02 -1.6248509855499574e-01
      -7.4269496066172683e-02 -8.5589936298074806e-02
      1.0890744342049257e-03 6.1172190464976850e-02
      -8.9849338131460871e-02 -7.1814912703428546e-02
      -8.1587756504231512e-03 6.9746964361260891e-02
      -2.6898599548730421e-02 -2.0197602482003235e-01
      -1.5651985680788853e-02 1.1764282699728383e-01
      9.9514615969253845e-02 -1.4960178987552925e-01
      -2.5993045786567023e-02 -7.0393195313733954e-04
      1.4009881336383812e-01 -3.9289250002111448e-02
      -5.4671619673426694e-03 8.7043997975327914e-02
      6.7475212756285801e-03 -1.8593356179395643e-02
      6.0964567130634521e-03 -3.8864512915004146e-02
      3.1591842890644845e-02 -1.6002362187544267e-01
      -8.9443371208898052e-03 1.5810961538101562e-01
      2.5109778673243564e-02 1.2439921026559590e-01
      1.7739565163246511e-03 2.2952853805885461e-02
      -1.5830853079430188e-01 8.8052404152247243e-02
      8.4381982969884729e-03 3.3473939307903183e-02
      -1.2323728114266011e-01 1.7043108579987021e-01
      7.3005790978968822e-03 -1.7024461343467792e-01
      7.2822954266744483e-02 -1.3273578502781513e-01
      -3.6253183176640918e-02 -1.5705409354674610e-01
      3.2017864515195650e-02 8.2055106426595609e-02
      7.6383678393893983e-03 -9.4014173917809044e-02
      7.7969869661457858e-02 -1.7775242142187733e-01
      -1.7845865459306394e-02 -5.9871242071183823e-03
      9.7442564393273354e-02 1.2916855079570549e-01
      3.5617100959598504e-02 -1.8084084857882254e-01
      -9.5948728572898875e-03 1.7103780714777389e-01
      3.7602200767874634e-02 -6.0031598581141751e-02
      -5.9323118105516465e-02 -1.3277421617328447e-01
      -7.9033676016738788e-03 1.7460778730130377e-01
      -1.3470441457159507e-01 2.1004186807599825e-02
      -7.4922623487816496e-04 1.0476881563745244e-01
      -2.1575542165280773e-01 -1.3735070307224265e-01
      -3.5496204699658738e-03 1.8872390004141645e-01
      -1.4081090595379891e-01 1.2588431188642615e-01
      1.1485905492836367e-02 -1.1500513403199807e-02
      8.4930823032660346e-03 -4.5391258105201192e-02
      -8.4832762396749792e-03 -1.4985051772188795e-01
      5.7806747819129957e-02 1.9103970913544432e-01
      2.1891103209008157e-02 -2.5511008151478520e-01
      -3.1783685111756166e-02 8.5628911798358548e-02
      3.4346676995177308e-03 -2.0310123874125115e-02
      8.3433173811456596e-03 -5.7717709838880915e-02
      -3.0483880503185570e-03 6.6711777918581308e-02
      -5.1151051072287373e-02 7.4764796718760185e-02
      6.1886813688161041e-03 -1.0411396675942915e-01
      3.2925772870334290e-02 -2.6971502186562102e-01
      -2.8961642956010978e-02 1.5665108685742399e-01
      -7.2473765405944759e-02 3.5193983296070719e-01
      3.6286157324945209e-02 -9.1724449530583854e-02
      -1.3396142463220329e-01 4.6783318682212848e-03
      6.9911598455096938e-03 1.0393987866353699e-02
      -5.9412676943893995e-02 -1.6632632341895826e-02
      -1.0027582152361892e-03 3.7510258935886712e-03
      -1.0375873341026470e-01 1.6882070819957076e-01
      1.2991233840703543e-02 -2.0463469723535594e-02
      -6.3728892501893453e-02 7.9271000326155402e-02
      -1.1269049599036361e-03 -5.6093163569465893e-02
      -3.0647096862513906e-02 2.1279046610519442e-01
      2.3968420612846436e-04 -2.1750490712811996e-01
      1.6828073483232667e-01 -2.5619607293037794e-01
      -1.5091752384835606e-02 -1.0966783525405767e-01
      -6.1734548531615953e-03 3.0969393372995729e-02
      1.1260312352772443e-03 -2.5005240726296684e-02
      -8.8194038519547061e-02 1.9831433814983982e-02
      9.1304195289864925e-03 -1.8959402888933066e-02
      -1.3160443750817821e-01 4.0846629393351547e-01
      3.3430351324134459e-02 -1.5867123294953436e-01
      -1.7586804535692882e-01 2.8464541722538796e-03
      6.5390749955008248e-03 9.5641776133586923e-04
      -1.6535564591461122e-01 3.1155958850778742e-01
      3.3802384943477697e-02 -1.4742605986551541e-01
      -1.1480663636149500e-02 1.3869537856628589e-02
      9.5129098488019620e-04 -1.6962483746447257e-01
      -3.6158985933950637e-02 3.3570659664098795e-01
      1.0148979911743447e-02 -3.0756534654102807e-01
      1.4035071530744289e-01 -1.4246245209212655e-01
      -1.9708268648079900e-02 1.1961435969977860e-02
      1.4607123307254824e-01 -1.1943330047853741e-01
      2.1181138095670619e-03 -3.4749878696265196e-02
      -1.2812594275073508e-03 -6.5377008993981647e-02
      9.4605824873966095e-03 -8.9808112649427868e-02
      -9.6847691006870932e-04 -9.2061497623257188e-02
      -1.6838227072968365e-02 -2.4478217311763074e-02
      -7.5234196789896984e-02 1.0317418128976905e-01
      2.2904666985139872e-03 -8.7309839825189348e-02
      -8.8146676651782011e-02 7.4892446238192717e-02
      1.1810760089938085e-02 2.2672106474933212e-02
      -3.1075758439993963e-02 -5.3117758753031463e-03
      1.3635765611936692e-02 5.5179103799385731e-02
      9.9072906589265847e-02 -6.0385246181712135e-02
      1.4348129999949374e-02 -3.0730818997421864e-02
      8.4345076999221238e-02 -6.1097024768251365e-02
      -1.0920542534269178e-02 -4.8087248077470675e-02
      1.1057279537730008e-01 3.1436777583730446e-03
      -2.0370758983849491e-02 -1.6807227889380584e-02
      3.1555254269783437e-02 -1.5182655085528490e-02
      1.6518941853405928e-02 -2.1070231114691969e-02
      -6.2611731524034084e-02 1.1316679174644918e-01
      2.0870737816697873e-02 -3.5234203360532637e-02
      -3.0785365835280579e-02 5.6526213619380615e-02
      -1.0539169296537637e-02 2.1504022773049102e-02
      -1.0519328513840076e-03 -6.0557039352290523e-02
      -1.3762588711984925e-02 -1.7059618856635105e-02
      4.6336839993236598e-03 -8.8959945147404865e-02
      -1.3061334018688180e-02 5.5113070863814485e-02
      2.6857711179375583e-02 3.6413066488733804e-02
      1.8268348497615782e-02 8.9027844378236510e-03
      3.0975106088150663e-02 -7.6159890730492827e-02
      -1.7928125577667715e-02 8.9584430528216602e-02
      7.6370499945548023e-02 -5.1951501791726888e-03
      -1.1953333327345139e-02 1.7571611982970248e-02
      1.1329376738874922e-01 -9.3998437211424840e-02
      -1.1225842665382966e-02 -3.6068828437190843e-02
      -2.2883875959264017e-02 3.7088068960712643e-02
      1.5222337450505746e-02 -6.6060079096186594e-02
      -9.2948537521755539e-02 -4.5436679701300739e-03
      2.0993553774116436e-02 2.0134063103066039e-02
      2.9672925296993203e-03 -1.1259144409279744e-01
      -4.1406024749590480e-03 2.1325512863221398e-02
      -8.9289720626159655e-02 2.9134126312376114e-02
      -2.1521840829108962e-03 4.2620140786325408e-02
      -5.3327311899174307e-02 6.7240087921262612e-02
      1.1500203673148248e-02 -1.7154850329831849e-02
      -7.7056188156229041e-02 -8.5822082867902494e-02
      -1.3760339450387469e-03 7.6421126819361834e-02
      7.4828017853357603e-02 -2.4701966513156445e-01
      -1.5626263914808491e-02 3.8499898740861176e-02
      7.5875803561653937e-02 3.0618364384252899e-02
      -1.2086969362309404e-03 -1.2416347754894454e-01
      9.6403546877619803e-02 -5.1007218706802804e-02
      -3.1005563811540163e-03 -1.0971303822972364e-01
      -8.1738074773306912e-02 -6.1942144409933078e-03
      -1.4156442505955189e-03 1.2933287868921756e-01
      -1.0649446720323248e-01 -7.6477025891692101e-03
      6.0021978401778066e-03 7.2962566820630931e-02
      -5.5587436797436433e-02 6.5106532355411292e-02
      -4.5244619300901729e-03 9.1029557788327387e-02
      -6.2740419099656636e-02 2.8622985800094303e-02
      -3.5526759275515095e-03 -1.9528247850062991e-02
      6.6335665175136765e-03 -1.3764630704730116e-01
      -1.1796509068632938e-02 1.2503817135854067e-01
      1.0155471533581983e-02 -1.6905350784344661e-01
      -1.3005799071536317e-02 1.3861552030147148e-01
      3.6823645157247870e-02 2.8903676945929158e-02
      2.0417079428476880e-02 4.3605017945355391e-03
      1.0936401112649369e-01 3.6739630580599113e-02
      -2.8306523689475222e-03 -1.3144117450536888e-01
      6.9001858111824008e-02 -4.7103967686018974e-02
      -3.5458338760845469e-03 7.0767526972565029e-03
      5.9698541301630680e-02 -1.1751619940596175e-01
      7.2176277794535728e-03 -2.5841380840139296e-02
      -1.0161008597087903e-01 -1.1253454671696589e-02
      -1.6329112794454383e-03 6.5916825855553321e-02
      1.2601825807904183e-02 -1.2772353937829444e-02
      -1.5118479349712699e-02 6.1087652204858130e-02
      5.6773776227669139e-02 -9.1514292155204471e-02
      -1.5274036507518520e-02 -1.5505440711352446e-02
      7.3581439463451359e-02 -8.9924737089665890e-02
      -4.0237207764850253e-03 -2.2794592399466060e-02
      1.2237966124391044e-02 -8.0568229785313070e-02
      -2.6314358060847689e-03 3.6797376359295017e-02
      -6.7512049200449805e-03 1.7796412517112714e-01
      1.5738149259682654e-02 -1.3955411241364934e-02
      9.4598803169591655e-02 -1.4310081358807888e-01
      -5.4890092897229986e-03 7.8470926790163043e-02
      -1.9318013638778067e-02 -4.7758013093717822e-03
      -3.7507243910243683e-03 -7.2086087155552966e-02
      -5.0165512119264753e-02 3.8773988820165833e-02
      5.4375965064960528e-03 -7.9925802758381015e-02
      -9.0670750613986106e-02 -1.1671479742482307e-01
      -1.4335692424403756e-02 5.2585352944078012e-02
      -4.8750861825023951e-02 6.8449331146205675e-02
      2.9064501252814173e-03 -7.6078948799689100e-02
      2.6774325060111546e-02 -1.5742056442152891e-01
      -2.3364910189735910e-02 1.8845638430514657e-02
      3.9542117532536730e-03 1.0825862233226576e-01
      1.8372863351913633e-02 -9.6174888748439935e-02
      9.7232995167977232e-02 -1.5332553423001141e-01
      -6.2321938496090338e-03 3.2285384024575828e-02
      -4.8237743177683397e-03 -7.1563999770888911e-02
      6.2744519681665629e-03 3.4466892045739515e-02
      -2.0229642229332358e-02 -1.4934833089182256e-01
      -1.0028593347205501e-02 1.3036792677650001e-02
      1.1832834805560698e-02 2.3040413529884170e-02
      1.0822739406118420e-02 -1.1190614084923854e-01
      4.6992884693371595e-02 4.4587847494558339e-02
      1.0984712089572317e-02 -3.6747010582431898e-02
      3.2934066399193870e-02 -6.7443073726415795e-02
      -2.7895132716147688e-03 -2.4412316942452206e-03
      3.8070324063553423e-03 -5.2081538085738940e-02
      -9.1115376936978400e-05 1.5504058654507394e-01
      7.0105782140998316e-02 -1.7619047377938624e-01
      -8.4865336937346488e-03 -5.0632388241414306e-02
      2.7604849358575462e-02 4.2327250600563006e-02
      1.3931273092615588e-02 -2.0750020580299403e-02
      -5.9448215203827752e-02 -1.3343002169966786e-01
      -1.8510998202034137e-02 9.4371330485825897e-02
      -2.3319726541417618e-02 -2.8144936768436522e-02
      1.7954075077994062e-03 4.2922826447687350e-02
      7.0401971475050867e-02 -1.7041543254282648e-01
      -1.3973745286741175e-02 -2.6390929083178232e-02
      -1.6295204301156770e-02 -3.3770545574986287e-02
      -8.4453758267174547e-03 -5.4852678630106289e-02
      -6.9350442559525636e-04 -1.0199797034808049e-01
      -9.0907654038181775e-03 7.7763076242152130e-03
      2.3566054251281436e-02 -1.8380798850510882e-01
      -2.0503502654892639e-04 8.6870061955712188e-02
      7.9660076122933972e-03 -9.0786702507031775e-02
      -9.9330603225434634e-04 9.7374944559010163e-02
      7.0551489693357020e-02 -2.0414843961991633e-01
      -1.9500982891360739e-02 4.9535840984365774e-02
      -2.5175402954193182e-02 1.0238268320787852e-01
      7.4926603118476215e-03 -1.3385771215767553e-01
      -7.0968031467790807e-02 -2.9042762429445038e-02
      -1.7795191155829931e-02 -4.6430723747446452e-02
      -1.1375140563951594e-01 1.8561117541861041e-01
      1.3685523542522983e-02 1.1932932812417647e-02
      -6.6529208200589954e-02 -3.6435582361496063e-02
      -1.8043458910572403e-03 -3.4172058963122275e-02
      -2.2408884193114587e-02 2.9414396855948956e-02
      -3.2354789718180175e-03 -1.3895726904161365e-01
      -3.8559218005352669e-02 -6.8962811599482129e-02
      -6.9358344586555772e-03 8.9103948647678677e-02
      -1.2626065543811207e-01 2.0539784171609170e-02
      -2.8895817239518262e-04 1.5010096391783226e-01
      -7.1509202997630375e-02 4.1227095204475338e-02
      2.4123704559574724e-03 7.4462363612502899e-02
      -6.0956536422681611e-02 1.1415533060570453e-01
      5.2329113310528690e-03 6.0889886499971005e-03
      -3.9547722345481789e-02 -2.6580166884649115e-01
      -2.3804803829474315e-02 1.7829011245247472e-01
      -4.0577693437931078e-03 -1.0803086202601793e-01
      1.7268946864521701e-03 4.7155220481138330e-03
      -1.1473739549327744e-01 -1.1956346897332651e-02
      3.4751158792771975e-03 -5.2775377631223428e-04
      -7.1132655398375516e-02 1.1521102501453218e-01
      -3.3787287831000298e-04 -2.0424723359641303e-01
      1.0383556679405592e-01 -1.6056151983553671e-01
      -2.2427626236437334e-02 -6.6108248789205348e-02
      4.9174344894821108e-02 -1.0439017373754024e-01
      -4.0622182259291610e-03 -2.6526967714733778e-02
      -9.0536808055339035e-02 6.1532443839602312e-03
      -2.0932077109645866e-02 -6.7538454167434536e-02
      -1.5337480098992934e-01 1.1750598462468952e-01
      -2.5172785251964527e-03 -6.3580443758956301e-02
      -2.6208445252630535e-02 -3.0188499208527380e-02
      -2.2159264469189126e-02 6.2576909550090473e-02
      -4.6431725879369175e-02 -2.1868267324173901e-01
      -1.8650447106010801e-02 1.1750046525883953e-01
      -7.6137423928415895e-02 1.6789746547626268e-02
      5.1830657997721770e-03 2.9971647615511482e-03
      4.0209452981894760e-02 -2.4268285715464866e-01
      -1.3903275426487028e-02 -5.6535792016072402e-02
      4.6797805168179205e-02 -1.0422546447846144e-01
      -1.3161429654275606e-02 -1.0810635952540248e-01
      -2.2599270796300159e-02 -3.3189225078935812e-02
      1.7345435362359884e-03 -3.8272210817865464e-02
      -4.1033456736042202e-02 3.0390939815541838e-02
      7.8578283060439999e-04 5.2348781104957116e-02
      -8.2107937759853269e-02 4.8365270447285419e-02
      1.6929900777273261e-02 4.6241529073610961e-02
      -9.9350356173396520e-02 -3.6302966257471436e-03
      5.4382676372617825e-03 6.5436976083175238e-02
      3.3451429681036590e-03 -1.0036897024045036e-01
      -2.1447051104138831e-03 1.2331164067573809e-01
      -5.5758324928910773e-02 2.4485868157451164e-02
      2.5126460218477939e-03 -2.5531175459810599e-02
      -1.0000173891994768e-01 8.5487518329890350e-02
      5.9081139821787138e-03 -3.0838945863707522e-02
      -5.6047575820394969e-02 -1.1576220585280787e-01
      -1.7969137068212262e-02 6.7539153527173892e-02
      -3.8838332254703317e-02 -6.0973887582335511e-03
      -8.9795735696387286e-04 -6.8443310648987427e-02
      7.4679348276799812e-02 -6.7761113924449529e-02
      -1.2536662519410868e-03 -3.2290905777801741e-02
      -3.2723606871560798e-02 1.9635809591543468e-02
      5.6571945064750164e-03 -7.5454517308390534e-02
      -1.4970010672828477e-01 8.3692863640673451e-02
      -1.2560953275249977e-02 -1.5099698916174326e-01
      -1.1857299412553178e-01 3.9892437317718334e-02
      -1.4852073810023457e-02 -2.4364061540622550e-02
      -4.8008602621546888e-02 -4.4336412603933322e-03
      6.7829147819855676e-03 1.2807203905668971e-01
      -1.6377471101388780e-03 -7.8964230040388619e-02
      -9.7258661992490857e-03 -2.5737089977167206e-02
      1.2995825113771840e-02 5.0980648447705668e-02
      -1.5743180842303260e-03 -3.7807343377685172e-03
      6.1412623706776012e-02 1.2959956371818654e-01
      1.2809985191758170e-02 -1.3539331848517494e-01
      8.0638430558132940e-02 -3.6348501205045361e-02
      6.1568389183063116e-03 -1.2789972646895567e-01
      5.2212212671380535e-02 3.2852904252630420e-03
      -4.3707522534683048e-03 -3.2943626348535239e-02
      -1.6642046063737950e-02 -1.2541481617810821e-01
      -1.0578372568405317e-02 -4.9193557882896866e-02
      -4.4489091492729380e-02 -1.3156925563435706e-01
      -3.5841842123445120e-03 -1.5679662381120708e-02
      2.0331957652875914e-02 9.8655020986810657e-02
      2.5376154479710086e-02 -1.1165770599280297e-01
      -9.7711655919544949e-02 -2.1360487274389733e-01
      -1.4950271396116973e-03 1.4172954183897288e-01
      -8.9428232961076604e-02 2.5032376895492353e-01
      3.3621165776454125e-02 -1.6041926863268260e-01
      -1.9049176449440688e-01 1.9460813896031609e-01
      1.9817239110106289e-02 -1.1160879736632062e-01
      9.1474230220972272e-02 8.7585131600983718e-02
      -5.3478400907998776e-03 -1.4168329844966432e-01
      1.2721639395599776e-01 9.8786366216742763e-02
      4.5092469404722207e-03 -1.4089837870014102e-01
      -2.7403929920449772e-02 8.1248135824194948e-02
      7.9625582386257526e-03 -9.6214165194379239e-02
      -1.0920541021797031e-01 4.1281435274283670e-02
      -5.7669660888782625e-03 -3.2679524869982088e-02
      -1.4097754899507811e-01 -6.5747276221413450e-02
      -1.9962290235439637e-02 1.1362759894049473e-02
      -7.3840769597972311e-02 3.2510773879570985e-02
      -9.8418715261817382e-04 -2.6738068906004747e-02
      -1.3993783607149590e-01 2.1700082582548932e-01
      2.5398537719130455e-02 -1.7748123687201220e-01
      -1.3123695752171536e-02 -4.7240842023151569e-02
      -1.4014236952080636e-02 -9.1265167026679930e-02
      -1.7481781869351701e-01 4.0639238426506047e-01
      2.1118756868602789e-02 -2.4878789820271091e-01
      8.5691668932373136e-02 -9.3581844557810642e-02
      -2.0103112498847935e-02 -2.3574110419210443e-02
      1.0184770758867323e-01 -1.9952086087130668e-02
      -5.3827955631940367e-03 -1.0274939765938707e-01
      2.6967711851502896e-01 -2.4918759681369912e-01
      -2.6291487759804302e-02 6.8143672210567371e-02
      5.9792288624667254e-02 2.2375829982599982e-01
      1.5095194490215305e-02 -1.6428822318503683e-01
      -2.4872830007152510e-02 2.0760971624333779e-01
      2.1504631920389219e-02 -1.1472707896473397e-01
      -5.2121962090583548e-02 1.8529755823261335e-01
      4.9604134115080113e-02 8.1395973008469708e-02
      -1.1879669819342258e-01 -1.5788832284328277e-01
      1.3391440401162148e-02 3.0122341210631365e-01
      -1.3270004897221538e-01 -9.0994514223904296e-02
      9.5078933293043736e-03 1.9564429860242283e-01
      -1.6640445212321339e-01 1.4178113186422001e-01
      1.0143359274369728e-02 6.6560586552153111e-03
      7.1602312308056804e-02 2.3447865491206787e-01
      1.8146590468440026e-03 -1.4081498234926434e-01
      2.0650446278906118e-01 6.3426548929468904e-02
      2.7006666146892982e-03 -1.1155086178425301e-01
      1.2196395681048454e-01 1.0579059054160473e-03
      -3.8190785767648248e-03 -1.2510612039991081e-01
      4.5963814990598414e-02 1.3130792667284186e-01
      9.4086886591452463e-04 -1.8317737127946165e-01
      -1.2071212859823260e-01 1.1747273382200343e-02
      -5.9712735613671195e-03 -3.4664172737143430e-02
      -1.3305930586511550e-01 2.3471482461335399e-02
      2.5182022211739957e-02 6.3450607335307010e-02
      -1.6630669140213966e-01 1.4117885321081508e-01
      2.7915240285994472e-02 -6.5102599369356834e-02
      -1.3576793383275859e-01 2.9610825927104006e-01
      2.6098025057386762e-02 -1.9106978821412166e-01
      -1.6511457871165039e-01 2.8315481624746114e-01
      3.7343962480315524e-03 -1.4567155603379650e-01
      7.1729386106539686e-02 -6.5722395977553172e-03
      -2.3787912721797078e-02 -4.5036522508996736e-02
      6.3045326029970886e-02 3.0040223692480222e-01
      2.4895473711178947e-02 -2.0573175144684078e-01
      -9.9206354223528068e-02 -1.4858025803533131e-01
      6.1525722118631863e-04 1.0288656567412864e-01
      -7.7229626041692367e-02 -2.4268103628793187e-02
      -8.0062554847907252e-03 -7.1080115076238917e-03
      -2.8546234182187727e-02 1.6237132401299070e-01
      1.4684501410390497e-02 -1.6312366872825723e-01
      -7.6938393975808927e-02 -1.8994447986782050e-02
      9.3595576870084424e-03 5.0368089070801737e-02
      -1.6009871334105533e-01 2.7926189433366749e-01
      3.9759218764999223e-02 -1.7846053976810539e-01
      -8.7222692308853936e-03 -3.0973095899455627e-02
      -8.5230133841632822e-03 3.8849036645676641e-02
      -1.0138772752187909e-01 1.9178705511440999e-01
      1.2939019192257118e-02 -2.9726681054737889e-02
      -6.0983627506845967e-02 5.1841303400974861e-03
      1.9668505477253287e-03 9.8235236042983023e-02
      -2.4379745481746918e-02 -7.8044330642529719e-02
      1.3626149756484323e-03 2.2634737968483948e-02
      7.1769715482003546e-02 -1.9848648722072740e-01
      -1.3303473371615126e-02 9.5230997059675054e-02
      5.4263333143484291e-02 -8.1464390380449128e-02
      -9.6108191839619963e-03 1.8310189027990177e-02
      1.3582427623110360e-02 3.4138047003160261e-02
      3.0532744019815304e-03 -2.7998300956360980e-02
      -7.0685187484779205e-03 -7.2829124200103956e-02
      -3.5215939839638327e-03 1.1807043380407836e-01
      -6.4527839929970160e-02 -1.7266587571874534e-03
      -1.1203789618172194e-03 2.9717295685465772e-02
      -6.0161150591106979e-02 1.8519949047463437e-02
      -6.0190322608756289e-03 8.1386128251826877e-03
      -8.8149631490243754e-02 -8.5685732198953479e-04
      -5.0144445908530373e-03 3.3476765300224642e-02
      -7.8987728175875349e-02 -1.4614653296109024e-02
      -7.5274358521750890e-03 8.6155475448512597e-02
      -6.5378253198825051e-02 4.6338355566396254e-02
      4.7333604539170349e-03 2.1169913866108721e-02
      7.4758305168329209e-02 -8.3723331563993031e-02
      -1.7941298995945057e-02 -1.2579093061721175e-01
      3.4200627043367682e-02 1.1744910355094347e-01
      -4.3860035654277518e-03 -1.8665521902629917e-01
      -8.3297157656112161e-02 1.5647880785748067e-01
      5.8276896709515674e-03 -1.1562186763248349e-01
      -4.8489871888936003e-03 -2.6118189097523176e-01
      -1.0201103845274156e-02 1.5269513214292871e-01
      -1.0523434032791586e-01 -1.7065232477791548e-01
      -3.1721448038171921e-03 4.3832843598297921e-02
      -3.7361871140494211e-02 -2.0916716118031636e-01
      -4.6693817495614496e-03 1.7138819153631990e-01
      4.2010363321951752e-02 -9.9033616351303977e-02
      -1.6706433566120418e-02 -1.7796829415241775e-02
      1.6290047468901167e-01 -7.7582918503773579e-02
      -3.8018773667788438e-03 -1.1019738143137799e-01
      3.4206206627522627e-02 1.8105515402597819e-01
      1.8119750818915994e-02 -2.4674528734410328e-01
      2.0039218668167026e-02 8.5285483803650003e-02
      9.5812299551203458e-03 -2.1246980138563923e-01
      -2.2920286970780218e-02 -1.7006320677882242e-02
      3.7505479522707470e-03 -1.0487937421420356e-01
      -6.9991566947131004e-02 -1.0224059681268119e-02
      -9.4612033678476270e-03 3.5325064926694953e-02
      -2.9054797900774643e-02 -1.1196621224413679e-01
      -9.6754965691074578e-03 1.8316751561945335e-01
      -7.1091819302126283e-02 -8.8187885118659187e-02
      -1.2090726456756292e-02 1.1973746849952903e-01
      -9.9317076576551241e-02 -3.7510426411240097e-04
      7.3039593417351710e-03 4.4246462602238447e-02
      6.3253874293437165e-02 -6.4941112270376508e-02
      8.0968827010327541e-03 -8.2970489261369226e-02
      7.7747723702390484e-02 1.1167084033098411e-01
      1.5577278452184444e-02 -2.9043173371449094e-01
      -1.0666659962136065e-03 5.5586673299657358e-02
      1.8757399385974709e-04 -1.4376334073779309e-01
      4.5333123613616792e-02 1.7309885877686265e-01
      2.6511294806060012e-02 -1.0217992388708522e-01
      5.3668625956614271e-02 7.0652166006704056e-02
      1.3926707133398719e-04 -1.4954753004418495e-01
      -8.1234599233419538e-02 2.3581548684182194e-01
      1.6820423187812305e-02 -2.0244612614400750e-01
      -8.9658699232486858e-02 1.9187002885376683e-01
      2.9666161427201680e-02 -1.3058215003595924e-01
      -3.1033892979638780e-02 8.5504692428620549e-03
      8.1418966418996576e-03 3.0413179878555300e-02
      -6.6756427469569987e-02 4.5822172843864854e-02
      1.2181787508453955e-02 1.4702182200951175e-02
      -2.7419044895659030e-02 -7.1800935505136757e-03
      9.0241182991615142e-04 -9.0871589836329699e-03
      -7.9069471727886611e-03 -1.0696494841623190e-02
      1.6648099124665651e-03 -7.9464760159489112e-02
      3.4426888141018672e-02 2.6228243226715325e-02
      6.0063373947543694e-03 -5.7909180097892352e-02
      2.0679766180425796e-01 -2.6998258299146632e-01
      -3.3164966310257414e-02 3.8326578467261389e-02
      7.0738864819185801e-02 6.0216958799022710e-02
      -1.1184033803628647e-02 -1.5938895292473648e-01
      -8.4073887001779590e-02 -7.2538768325524444e-02
      -2.9033860277585810e-02 -3.6868242587430357e-02
      -1.8311762510459162e-01 2.8065357408016622e-01
      2.9542210770307942e-02 -1.2519602914546263e-01
      -1.0096536746471090e-01 2.1788805152824522e-02
      1.3915570513570797e-02 7.9429429700940371e-02
      -6.1072512018103889e-02 2.6302099617141500e-01
      1.9277013653626864e-02 -2.0178888193666863e-01
      7.0794419149524113e-02 2.0643264534463461e-02
      -1.6548819679355738e-02 2.8663046920703846e-03
      1.5124634540588672e-01 -1.2854979266931676e-01
      -2.2968385518563908e-02 -1.1208377472481641e-01
      7.4561942082162436e-02 1.0080066973411254e-01
      2.3324341857009569e-02 -1.4630533360294906e-01
      3.6625453896257321e-02 3.6895111512721213e-01
      3.4353401224906981e-02 -4.4319802060799635e-01
      3.0325400989161810e-02 7.9488972057400603e-03
      -1.2894532087389247e-02 -2.4846339516267291e-01
      -1.4218857869053697e-01 3.6361209261891458e-03
      -2.8744920010009760e-03 -6.5793877220244004e-02
      -1.4692303786698790e-01 9.6513355369207160e-02
      1.8685939628432707e-02 5.6058651313425099e-02
      -1.1438031314057405e-01 4.2668217629034055e-02
      1.9053173750462626e-02 1.3564686141103902e-01
      -1.9003970987928390e-01 1.4265248924720503e-01
      3.5547674265145671e-02 5.6093441665980466e-02
      -1.0226315714222559e-01 1.1749811208297678e-01
      1.5387892949765745e-02 -8.4099748511190744e-02
      -4.2926166879621856e-02 -2.8992507136861492e-02
      3.5191540295375326e-03 -1.8439083937759584e-01
      9.7888268131319706e-02 1.2039770786428917e-02
      6.1926582941455302e-03 -1.9594014290858422e-01
      7.9004635973898535e-02 1.9737612201242474e-01
      -6.9243563869676467e-04 -3.2823335786110458e-01
      -1.4100755920540942e-01 5.2108667275437870e-01
      3.8709398929869972e-02 -3.4112789174619063e-01
      -2.3228204720764867e-01 4.0855570173172201e-01
      2.7863308506339855e-02 -1.6380289441026036e-01
      -1.7685980086726588e-01 -1.6964332762840852e-03
      2.3475163306556877e-03 2.8597956675948771e-01
      -1.4137788635096948e-01 -2.5425607455395072e-01
      -1.1513709187515372e-02 4.5633964701500479e-01
      -1.6277133940415431e-01 -1.1158778400949926e-03
      1.1777947480871844e-02 8.7390418711236137e-02
      -9.6485781354424552e-02 2.5376834729984138e-01
      7.5403685102294832e-03 -1.4390220267631140e-01
      -2.4637325471278726e-02 2.3824292154580287e-01
      1.9628646674981383e-02 -2.9121764140769890e-01
      1.5213827792345450e-01 -3.3637295307414028e-01
      -4.7247275834736778e-02 -9.8460267566876994e-02
      8.7053646166728033e-02 -2.2991277303658957e+00
      -5.1860585327613851e-01 8.4684065722933022e-01</_>
    <_>
      1.4492743653722049e+00 -1.7371851967472913e+00
      -2.7421600920744598e+00 2.5922180402790773e+00
      -1.1284243375991303e+00 -4.4202066380284183e-01
      1.9800306744998664e+00 -1.9814518510409331e+00
      1.0656471702393333e+00 -1.4866793855325140e+00</_></weights></opencv_ml_ann_mlp>
</opencv_storage>
