<?xml version="1.0"?>
<opencv_storage>
<opencv_ml_svm>
  <format>3</format>
  <svmType>C_SVC</svmType>
  <kernel>
    <type>RBF</type>
    <gamma>5.0000000000000000e-01</gamma></kernel>
  <C>4.</C>
  <term_criteria><iterations>10000000</iterations></term_criteria>
  <var_count>324</var_count>
  <class_count>2</class_count>
  <class_labels type_id="opencv-matrix">
    <rows>2</rows>
    <cols>1</cols>
    <dt>i</dt>
    <data>
      -1 1</data></class_labels>
  <sv_total>685</sv_total>
  <support_vectors>
    <_>
      7.00649098e-02 1.77506745e-01 2.21598625e-01 2.02799618e-01
      1.34396955e-01 1.42776728e-01 8.76188949e-02 5.55876866e-02
      4.67282496e-02 1.23101480e-01 1.76595107e-01 1.94910526e-01
      1.87054664e-01 1.28390059e-01 1.06189005e-01 9.69482735e-02
      9.98982415e-02 1.09011024e-01 1.84880242e-01 2.21598625e-01
      2.21598625e-01 2.21598625e-01 2.03255698e-01 1.49039105e-01
      1.21439166e-01 1.19345270e-01 1.64676324e-01 2.21598625e-01
      2.21598625e-01 2.21598625e-01 1.55455530e-01 1.83885992e-01
      1.96329251e-01 1.55130714e-01 1.52465507e-01 2.21598625e-01
      1.23589590e-01 1.24857336e-01 1.02945320e-01 1.18821464e-01
      1.53308600e-01 1.54169172e-01 1.52169392e-01 1.28828287e-01
      1.38956532e-01 1.22971989e-01 9.12514850e-02 8.41611400e-02
      1.24531001e-01 2.13889167e-01 2.04858795e-01 2.13889167e-01
      1.73454970e-01 1.78014025e-01 2.13889167e-01 2.13889167e-01
      1.48330748e-01 1.40680060e-01 2.06890568e-01 2.13889167e-01
      1.64461747e-01 1.23193972e-01 2.13889167e-01 2.13889167e-01
      2.09089383e-01 1.53872117e-01 1.37678608e-01 2.11824760e-01
      2.13889167e-01 1.69426993e-01 1.08336702e-01 1.47290438e-01
      2.46552929e-01 7.16904178e-02 8.88156518e-02 1.75911725e-01
      2.59983450e-01 1.26739874e-01 1.73803031e-01 1.19116455e-01
      2.58749098e-01 2.47343794e-01 3.73041220e-02 9.42739025e-02
      1.26011565e-01 2.59983450e-01 5.16907573e-02 1.00339137e-01
      5.51695712e-02 2.27291033e-01 1.32678315e-01 1.35024667e-01
      1.67893767e-01 1.63535655e-01 2.59983450e-01 2.57645756e-01
      1.33624390e-01 8.55017751e-02 1.15035817e-01 1.68419167e-01
      6.92707449e-02 1.51054949e-01 1.46784827e-01 2.59983450e-01
      1.82729289e-01 7.60653690e-02 4.92202938e-02 1.59404442e-01
      2.18550131e-01 1.63921386e-01 2.18550131e-01 2.18550131e-01
      1.76193476e-01 1.27779558e-01 1.56050831e-01 1.19164482e-01
      2.18550131e-01 2.18550131e-01 2.18550131e-01 1.69125304e-01
      1.19879261e-01 1.04862735e-01 9.61551890e-02 9.99411792e-02
      9.81308147e-02 2.18550131e-01 2.11029932e-01 1.31135628e-01
      1.74086958e-01 1.49617016e-01 1.60101816e-01 1.40175074e-01
      1.75675169e-01 9.93275121e-02 2.09300533e-01 2.18550131e-01
      2.15490431e-01 1.31618008e-01 1.10451005e-01 1.44417644e-01
      9.84288678e-02 1.25203311e-01 7.67633095e-02 2.18550131e-01
      2.48004347e-01 2.16852561e-01 1.15831658e-01 9.34011415e-02
      9.19973925e-02 1.05715670e-01 9.23809931e-02 1.36984885e-01
      2.48004347e-01 2.17163056e-01 1.22363053e-01 7.85010308e-02
      7.24620372e-02 1.02154531e-01 1.41887993e-01 1.53280035e-01
      2.29611471e-01 2.48004347e-01 2.48004347e-01 2.00173289e-01
      1.26053736e-01 1.07195631e-01 1.32698864e-01 9.10157263e-02
      1.06711939e-01 1.60919428e-01 2.48004347e-01 2.43929148e-01
      1.36362210e-01 1.09574050e-01 9.18482020e-02 1.09513260e-01
      9.50176269e-02 1.42686307e-01 2.48004347e-01 2.48004347e-01
      1.39295951e-01 8.18418264e-02 9.70935002e-02 1.43766120e-01
      2.43541673e-01 1.75678834e-01 1.26640260e-01 1.69416979e-01
      2.43541673e-01 1.45921648e-01 5.05024418e-02 8.25299919e-02
      1.44058272e-01 2.43541673e-01 1.39550880e-01 8.65158290e-02
      1.21307917e-01 2.43541673e-01 2.43541673e-01 9.30945650e-02
      1.10357635e-01 1.22726165e-01 1.19449437e-01 8.68214816e-02
      1.20123483e-01 2.40908891e-01 2.43541673e-01 1.71718970e-01
      7.57261813e-02 9.49910730e-02 1.21334679e-01 1.79728776e-01
      1.40040234e-01 2.39001632e-01 2.43541673e-01 2.43541673e-01
      2.00337335e-01 1.25458598e-01 1.64923400e-01 1.45289555e-01
      1.82347819e-01 1.56524405e-01 2.27808967e-01 1.80083498e-01
      2.12385058e-01 2.35898882e-01 1.45795539e-01 1.40010059e-01
      1.19924612e-01 1.56124055e-01 1.21233799e-01 1.68280810e-01
      1.49984777e-01 2.32335210e-01 1.38846472e-01 9.24889222e-02
      8.77850056e-02 9.89336967e-02 1.70843467e-01 1.30951881e-01
      1.93665430e-01 2.35898882e-01 2.35898882e-01 2.35898882e-01
      1.01193726e-01 6.44550920e-02 5.44886254e-02 6.74397945e-02
      7.51148984e-02 1.28662780e-01 2.35898882e-01 2.35898882e-01
      2.06294924e-01 1.64034843e-01 1.57254264e-01 1.11289956e-01
      1.14349820e-01 7.81372637e-02 9.24117342e-02 1.02133773e-01
      1.83354050e-01 1.88313365e-01 2.16342956e-01 1.83583155e-01
      1.30594522e-01 1.40839428e-01 9.28421840e-02 1.41961366e-01
      1.74014702e-01 2.47211054e-01 2.47211054e-01 9.42491665e-02
      6.47011250e-02 4.56155948e-02 4.33741212e-02 4.58367206e-02
      9.47466120e-02 2.37870440e-01 2.47211054e-01 2.47211054e-01
      1.51895672e-01 1.34567276e-01 1.04532950e-01 1.14955381e-01
      1.71633393e-01 2.47211054e-01 2.47211054e-01 2.47211054e-01
      1.69332296e-01 1.50635839e-01 1.41811594e-01 1.22365154e-01
      1.22978970e-01 9.16665047e-02 1.13072932e-01 1.30615413e-01
      2.33699843e-01 1.22219808e-01 1.39383644e-01 2.33699843e-01
      1.77936554e-01 1.44120276e-01 1.35803178e-01 1.68939188e-01
      1.58197135e-01 2.08214700e-01 2.33699843e-01 2.24578112e-01
      1.77380681e-01 1.10452197e-01 1.40780136e-01 1.69590265e-01
      2.33699843e-01 1.46811888e-01 2.10468262e-01 2.33699843e-01
      2.33699843e-01 2.33699843e-01 1.94704920e-01 1.04318738e-01
      7.39424676e-02 5.61815277e-02 3.92376110e-02 7.67382011e-02</_>
    <_>
      7.56426603e-02 2.40286052e-01 2.48652533e-01 2.11117536e-01
      1.40074402e-01 7.70184621e-02 2.03502625e-01 1.70594528e-01
      8.02074596e-02 9.44676548e-02 1.37432665e-01 2.48652533e-01
      1.80098847e-01 1.18283167e-01 5.21980524e-02 1.22049704e-01
      1.05548412e-01 6.83418363e-02 9.72427949e-02 1.72066644e-01
      2.48652533e-01 1.96680948e-01 2.48652533e-01 2.08460659e-01
      2.48652533e-01 2.48652533e-01 2.46567264e-01 9.10853520e-02
      8.26964080e-02 1.12987638e-01 9.57902223e-02 1.47813931e-01
      1.18851602e-01 1.71375647e-01 1.16555363e-01 1.01687491e-01
      1.37696818e-01 1.21870130e-01 2.18390346e-01 1.61276028e-01
      1.66710496e-01 6.46940768e-02 7.94184208e-02 9.19416770e-02
      1.21126130e-01 2.29730323e-01 9.23012570e-02 1.70634285e-01
      1.25364169e-01 2.29730323e-01 1.61478624e-01 1.49697065e-01
      2.29730323e-01 2.29730323e-01 1.30182326e-01 9.79344174e-02
      1.18142955e-01 1.05322883e-01 1.64857671e-01 9.88581181e-02
      1.18566543e-01 1.08360261e-01 1.30261466e-01 2.29730323e-01
      1.02613769e-01 2.29730323e-01 1.61770567e-01 2.29730323e-01
      2.29730323e-01 1.76559031e-01 2.29730323e-01 2.29730323e-01
      1.17662124e-01 6.47022203e-02 8.46170783e-02 8.03926736e-02
      1.61789030e-01 1.24209411e-01 2.57236540e-01 1.72915459e-01
      1.58495173e-01 6.68068752e-02 7.50931799e-02 4.81128320e-02
      7.15372562e-02 1.41052514e-01 1.79100350e-01 2.57236540e-01
      1.62199736e-01 6.15079217e-02 1.66955143e-01 1.24709040e-01
      1.93237007e-01 1.39720306e-01 2.57236540e-01 1.59473494e-01
      1.42333835e-01 1.33756801e-01 1.59878716e-01 1.90559983e-01
      1.56611755e-01 1.94275454e-01 1.27004966e-01 2.57236540e-01
      2.57236540e-01 2.57236540e-01 1.75819844e-01 1.93573281e-01
      1.59817219e-01 7.67127350e-02 2.08963230e-01 1.26653686e-01
      2.43465930e-01 2.43465930e-01 2.43465930e-01 2.43465930e-01
      2.30765998e-01 9.51883718e-02 6.10951409e-02 9.52143222e-02
      9.06434730e-02 1.50734827e-01 1.33153662e-01 1.86629370e-01
      1.30064875e-01 1.13817975e-01 1.71139002e-01 9.87673476e-02
      3.72763276e-02 8.46485421e-02 2.43465930e-01 1.86472967e-01
      2.43465930e-01 2.43465930e-01 1.94977969e-01 8.57465342e-02
      6.37166649e-02 5.96989989e-02 5.48052415e-02 1.13115251e-01
      1.24699652e-01 2.43465930e-01 2.30951130e-01 1.53937414e-01
      9.57828909e-02 9.30241123e-02 1.47848725e-01 1.23920038e-01
      1.43255398e-01 1.13210179e-01 1.39773667e-01 1.27824232e-01
      1.17209405e-01 1.20345160e-01 9.88861471e-02 1.98322579e-01
      1.68689832e-01 2.09113181e-01 2.12276489e-01 1.89616382e-01
      1.82910442e-01 1.79830626e-01 1.24297328e-01 1.30755275e-01
      1.69079170e-01 1.40444994e-01 1.51432216e-01 1.56960487e-01
      2.12276489e-01 2.01550111e-01 1.46457404e-01 1.79256305e-01
      2.03428015e-01 2.12276489e-01 2.12276489e-01 2.12276489e-01
      1.63518235e-01 1.88513383e-01 1.60300210e-01 2.12276489e-01
      1.37282118e-01 1.22500122e-01 1.94991291e-01 1.41828880e-01
      2.38028362e-01 2.06727818e-01 1.54804885e-01 1.32986844e-01
      1.69630706e-01 2.38028362e-01 1.47584006e-01 2.38028362e-01
      1.57242522e-01 2.38028362e-01 2.38028362e-01 2.38028362e-01
      1.80378869e-01 2.38028362e-01 1.07376993e-01 9.89463180e-02
      1.63236037e-01 1.53941795e-01 1.79930553e-01 1.42175615e-01
      1.15086339e-01 1.08500168e-01 1.91886187e-01 7.55843073e-02
      6.03184029e-02 1.21775329e-01 1.78543031e-01 1.72273800e-01
      1.38345525e-01 9.03094932e-02 7.22359270e-02 1.11734711e-01
      1.04121074e-01 5.65946437e-02 4.33847420e-02 6.19662255e-02
      1.77268997e-01 1.61547765e-01 2.55445659e-01 2.55445659e-01
      1.81006417e-01 7.13489130e-02 5.03082089e-02 6.07658848e-02
      6.05529398e-02 1.02408804e-01 2.04947978e-01 2.55445659e-01
      2.55445659e-01 1.27649501e-01 7.40467459e-02 5.65379374e-02
      9.31887254e-02 1.18462443e-01 2.25470901e-01 2.45741904e-01
      2.55445659e-01 2.55445659e-01 1.43007606e-01 6.10651076e-02
      4.70504761e-02 8.59602094e-02 9.08029377e-02 1.00846410e-01
      2.55445659e-01 2.55445659e-01 2.55445659e-01 1.46750882e-01
      8.17150623e-02 7.95203522e-02 1.08951256e-01 1.03290968e-01
      1.20230630e-01 1.55516788e-01 1.86527073e-01 1.44825593e-01
      8.70425254e-02 1.59384698e-01 1.68756813e-01 2.18008637e-01
      2.18008637e-01 2.18008637e-01 1.45126924e-01 1.84299499e-01
      9.55761299e-02 1.91966027e-01 1.02303468e-01 8.25296566e-02
      1.05536766e-01 1.26913637e-01 1.44513860e-01 1.82627738e-01
      2.17114076e-01 1.89409241e-01 1.38188496e-01 1.85917258e-01
      1.67895988e-01 1.79307669e-01 2.18008637e-01 2.18008637e-01
      2.12873280e-01 2.18008637e-01 1.83778703e-01 2.12999955e-01
      1.50234833e-01 1.50175393e-01 2.21760377e-01 2.21760377e-01
      2.21760377e-01 1.49121821e-01 1.80192530e-01 1.14778876e-01
      2.08362713e-01 5.30409627e-02 7.26706907e-02 1.27183750e-01
      2.18216568e-01 1.63961619e-01 1.32771343e-01 1.00588717e-01
      6.64770454e-02 6.66125938e-02 1.62964299e-01 1.97464496e-01
      2.21760377e-01 2.21760377e-01 2.21760377e-01 1.74918607e-01
      2.20026150e-01 1.61590964e-01 1.83152840e-01 9.15580243e-02
      1.58600554e-01 2.21760377e-01 2.21760377e-01 1.71665832e-01
      1.15734883e-01 1.16174154e-01 9.62340534e-02 9.58969072e-02</_>
    <_>
      8.11166763e-02 1.26205772e-01 1.69066772e-01 1.95009425e-01
      2.09057093e-01 1.77355453e-01 1.79704577e-01 1.42972663e-01
      1.01870552e-01 2.09057093e-01 1.99671701e-01 1.12870038e-01
      1.04164757e-01 1.64964184e-01 2.09057093e-01 2.09057093e-01
      2.09057093e-01 1.88307628e-01 7.21625835e-02 1.03443980e-01
      2.09057093e-01 2.09057093e-01 2.04057619e-01 1.63234994e-01
      1.92810640e-01 7.97719285e-02 7.49074593e-02 1.17023259e-01
      1.16143517e-01 2.09057093e-01 1.70455664e-01 1.77992284e-01
      2.09057093e-01 2.09057093e-01 1.31237343e-01 1.12050712e-01
      2.09920391e-01 1.73332199e-01 6.87390640e-02 8.90522227e-02
      1.38671249e-01 1.91761240e-01 2.04773232e-01 2.05200717e-01
      1.86926156e-01 1.40470669e-01 1.08010791e-01 7.44331554e-02
      8.16792622e-02 1.78775638e-01 2.04053044e-01 2.09920391e-01
      1.92307487e-01 1.57299906e-01 1.21511087e-01 8.64905939e-02
      1.51825577e-01 1.83953136e-01 1.81760952e-01 2.02509925e-01
      1.74858645e-01 1.17686391e-01 1.10758513e-01 1.28533676e-01
      1.67652696e-01 1.98500022e-01 2.09920391e-01 2.09920391e-01
      1.75104991e-01 2.01615319e-01 1.64437860e-01 1.81005329e-01
      1.20389923e-01 9.42682996e-02 7.19623640e-02 4.94467877e-02
      1.22793086e-01 1.09575167e-01 2.19821259e-01 2.28950843e-01
      1.74714670e-01 1.31968096e-01 1.12853892e-01 1.37466013e-01
      5.43325432e-02 1.10897079e-01 7.45999441e-02 1.71608374e-01
      2.14269012e-01 1.73540682e-01 1.30649775e-01 2.20472157e-01
      1.69918850e-01 2.20804751e-01 2.12525308e-01 1.56187505e-01
      2.28950843e-01 2.28950843e-01 2.22509295e-01 8.75319391e-02
      1.43347248e-01 1.50470749e-01 1.06540255e-01 1.62315741e-01
      2.28950843e-01 2.28950843e-01 2.28950843e-01 1.41419053e-01
      5.81838340e-02 6.72523752e-02 1.79383218e-01 1.46300316e-01
      1.34157524e-01 1.82188094e-01 2.36716866e-01 1.02062620e-01
      5.22421077e-02 8.62252340e-02 9.15368572e-02 2.16606110e-01
      1.96279421e-01 1.48348778e-01 1.89647913e-01 2.36716866e-01
      1.09274335e-01 7.92774633e-02 7.02537671e-02 5.82893565e-02
      1.31007135e-01 1.87171966e-01 2.36716866e-01 2.36716866e-01
      2.36716866e-01 2.06980184e-01 9.60970521e-02 9.82185006e-02
      8.61065686e-02 1.59479484e-01 2.36716866e-01 2.36716866e-01
      2.36716866e-01 2.36716866e-01 1.58055171e-01 9.97741446e-02
      7.80013576e-02 8.18089321e-02 1.79267690e-01 2.15117097e-01
      1.94766104e-01 2.15117097e-01 1.85295269e-01 8.48252848e-02
      7.95206577e-02 1.16635017e-01 1.63188443e-01 2.11043000e-01
      2.15117097e-01 2.09668785e-01 1.82946742e-01 1.79336965e-01
      1.27211481e-01 1.81271717e-01 1.40669957e-01 1.25231981e-01
      1.55822039e-01 2.15117097e-01 2.15117097e-01 2.15117097e-01
      1.65132329e-01 1.00637533e-01 1.12849943e-01 1.26832798e-01
      1.09652966e-01 1.42131358e-01 2.04470754e-01 2.15117097e-01
      1.66190252e-01 1.94523737e-01 1.26530513e-01 1.35432288e-01
      1.34792745e-01 1.80424884e-01 1.63643479e-01 2.27574140e-01
      1.88407063e-01 1.91729665e-01 2.10008278e-01 1.58262089e-01
      2.01197952e-01 6.79712370e-02 1.12723649e-01 1.24501117e-01
      1.78912863e-01 2.34905764e-01 2.34905764e-01 2.34905764e-01
      1.12584449e-01 8.00962448e-02 1.22613601e-01 9.93508175e-02
      1.37716979e-01 1.65068164e-01 2.25407824e-01 1.40756041e-01
      1.76389366e-01 1.54218048e-01 1.38121367e-01 6.21087141e-02
      1.05663754e-01 1.94257244e-01 2.34905764e-01 2.34905764e-01
      1.77708313e-01 1.32721364e-01 7.52196908e-02 5.75904138e-02
      1.34425968e-01 1.27992496e-01 1.88344479e-01 2.16778770e-01
      2.22976431e-01 2.22976431e-01 2.22976431e-01 2.22976431e-01
      1.35530367e-01 7.41144419e-02 7.94798806e-02 1.38607308e-01
      2.22976431e-01 2.22976431e-01 2.22976431e-01 2.02580705e-01
      1.47709444e-01 7.92858303e-02 1.18984655e-01 1.34290189e-01
      1.58930346e-01 1.65752545e-01 2.07853258e-01 1.81256711e-01
      1.43620938e-01 1.45110756e-01 1.02914445e-01 5.20706140e-02
      6.22562431e-02 8.71828943e-02 1.69940338e-01 2.22976431e-01
      2.22976431e-01 1.72054961e-01 1.48547590e-01 8.28181207e-02
      1.39664456e-01 1.21841565e-01 1.75442770e-01 2.22886309e-01
      2.22886309e-01 1.90027222e-01 1.53193280e-01 1.25365749e-01
      1.27346918e-01 1.22943841e-01 9.10308063e-02 1.66140914e-01
      2.22886309e-01 2.22886309e-01 1.39685586e-01 1.84920758e-01
      1.09867476e-01 1.14433676e-01 6.05464503e-02 6.03064597e-02
      1.35849684e-01 1.78626850e-01 2.22886309e-01 2.22886309e-01
      2.22886309e-01 1.45767003e-01 1.02831215e-01 8.43611658e-02
      6.77442402e-02 1.97251141e-01 1.97188765e-01 2.22886309e-01
      1.94799200e-01 2.22886309e-01 1.83769286e-01 1.15941234e-01
      1.15364239e-01 1.15107149e-01 1.93432674e-01 2.14277625e-01
      2.50687808e-01 8.08520094e-02 1.41820461e-01 1.16454527e-01
      1.03586122e-01 7.44357854e-02 1.55024126e-01 2.50687808e-01
      2.50687808e-01 2.50687808e-01 8.33042935e-02 7.32631832e-02
      5.97525500e-02 5.66498712e-02 1.26386166e-01 1.38935417e-01
      2.42627427e-01 2.09184363e-01 2.37993985e-01 1.07609145e-01
      1.52691469e-01 1.54019997e-01 1.30364761e-01 1.22470513e-01
      1.83171377e-01 2.50687808e-01 2.50687808e-01 2.47002184e-01
      7.11979866e-02 8.22665691e-02 7.81474486e-02 1.15225494e-01</_>
    <_>
      1.79643884e-01 2.46963605e-01 2.46963605e-01 9.34264213e-02
      6.25928119e-02 2.95418501e-02 7.83799663e-02 7.75918588e-02
      1.28886774e-01 2.46963605e-01 2.46963605e-01 2.46963605e-01
      1.77182123e-01 1.17546916e-01 1.05321251e-01 1.03333898e-01
      1.09170742e-01 2.35028043e-01 1.51330486e-01 2.06403643e-01
      2.46963605e-01 1.41681537e-01 9.62398127e-02 6.37611449e-02
      4.80290875e-02 6.19777106e-02 8.45745131e-02 2.46963605e-01
      2.20070571e-01 2.09754705e-01 1.44644007e-01 1.74492359e-01
      1.36220455e-01 1.05171025e-01 1.49325728e-01 2.32319325e-01
      2.37734988e-01 2.37734988e-01 2.37734988e-01 1.38892397e-01
      1.18062086e-01 1.28722534e-01 9.80726406e-02 8.68591815e-02
      2.37734988e-01 2.37734988e-01 1.96863547e-01 1.03270784e-01
      7.52112567e-02 1.02027483e-01 9.95787606e-02 8.46714899e-02
      7.64765069e-02 2.01097801e-01 2.37734988e-01 1.80631429e-01
      1.56107008e-01 1.19890027e-01 1.49667948e-01 1.26411170e-01
      1.15830831e-01 1.36928588e-01 2.37734988e-01 2.24134684e-01
      2.35621572e-01 2.16529682e-01 1.31079882e-01 1.34988591e-01
      1.07709706e-01 1.22980975e-01 1.21463120e-01 1.86378002e-01
      2.02021450e-01 1.26676992e-01 8.95050541e-02 1.25804529e-01
      1.30415037e-01 8.86795744e-02 1.20106936e-01 1.55977428e-01
      1.95707411e-01 1.83552489e-01 1.70181319e-01 1.13477550e-01
      9.47103277e-02 1.09613925e-01 9.46781710e-02 2.26993188e-01
      2.26993188e-01 2.12379232e-01 2.00645074e-01 2.26993188e-01
      2.26993188e-01 2.04943031e-01 1.59740686e-01 1.15990639e-01
      1.22396044e-01 1.17650211e-01 1.62127525e-01 2.26993188e-01
      2.26993188e-01 2.11235091e-01 1.40377596e-01 1.37331054e-01
      1.37578294e-01 1.41893908e-01 1.64553031e-01 1.72341302e-01
      1.34872332e-01 1.78812981e-01 2.13082299e-01 2.13082299e-01
      1.57122463e-01 1.22246400e-01 7.58269057e-02 8.97184089e-02
      8.61803815e-02 2.13082299e-01 2.03587860e-01 1.92841545e-01
      1.45573661e-01 2.05634445e-01 1.73744306e-01 1.49657756e-01
      1.84919640e-01 2.13082299e-01 1.42222255e-01 1.37841672e-01
      1.65819526e-01 1.62872180e-01 1.69583991e-01 1.62957400e-01
      1.34331286e-01 1.09832749e-01 1.18205532e-01 1.52697757e-01
      1.49370208e-01 1.50567502e-01 1.38464227e-01 2.13082299e-01
      2.13082299e-01 2.13082299e-01 1.81515828e-01 1.64505288e-01
      2.19463855e-01 1.35215819e-01 9.97292474e-02 7.96354860e-02
      1.31695434e-01 1.07071899e-01 1.28505647e-01 1.53169051e-01
      2.19463855e-01 2.19463855e-01 2.19463855e-01 2.19092548e-01
      1.29447848e-01 1.46464542e-01 1.15120448e-01 1.73448667e-01
      1.89878166e-01 2.19463855e-01 1.89897329e-01 1.10653102e-01
      8.53340924e-02 7.57961646e-02 1.61871195e-01 1.94673449e-01
      2.19463855e-01 2.01649934e-01 2.19463855e-01 2.19463855e-01
      1.55959100e-01 1.09999873e-01 1.14815816e-01 1.51467040e-01
      1.12465993e-01 1.41106129e-01 1.55467227e-01 2.19463855e-01
      2.25934610e-01 2.25934610e-01 2.25934610e-01 1.85676694e-01
      1.51948601e-01 1.15246393e-01 1.63578346e-01 1.74519658e-01
      1.79578692e-01 1.71719700e-01 1.86075389e-01 1.48784027e-01
      1.20517984e-01 1.25720233e-01 1.42023742e-01 1.43508062e-01
      1.89597145e-01 1.50857970e-01 2.25934610e-01 2.25934610e-01
      1.26618803e-01 1.55969054e-01 1.25807896e-01 7.55952075e-02
      9.60298851e-02 1.27846017e-01 2.25934610e-01 2.25934610e-01
      2.25934610e-01 1.57273889e-01 1.27338171e-01 7.53681287e-02
      8.10736120e-02 8.91875401e-02 1.44398794e-01 2.08652392e-01
      1.67138070e-01 6.92611560e-02 1.15843058e-01 9.58326533e-02
      1.20317705e-01 1.28083229e-01 1.97349906e-01 1.41695976e-01
      1.60599843e-01 1.35653943e-01 9.66461226e-02 1.34550586e-01
      1.44376263e-01 1.72258332e-01 2.13859007e-01 2.23644018e-01
      1.81478605e-01 1.54593080e-01 2.23667383e-01 6.46301657e-02
      9.37434286e-02 7.79275075e-02 8.02881122e-02 1.25348404e-01
      2.23667383e-01 2.23667383e-01 2.23667383e-01 2.14809939e-01
      1.65564880e-01 2.23319963e-01 1.54756665e-01 1.32426426e-01
      1.46566063e-01 2.23667383e-01 2.23667383e-01 2.23667383e-01
      1.60364270e-01 9.07959342e-02 8.82631466e-02 7.28404075e-02
      1.14493862e-01 1.88885763e-01 2.15474129e-01 2.15474129e-01
      2.15474129e-01 2.15474129e-01 1.47766426e-01 1.10608928e-01
      1.26792029e-01 1.16951682e-01 1.41589403e-01 1.31290719e-01
      1.40225619e-01 2.15474129e-01 1.75284252e-01 1.39711127e-01
      1.77238405e-01 9.92769450e-02 1.14347793e-01 1.73476741e-01
      2.15474129e-01 2.15474129e-01 2.13451430e-01 2.15410635e-01
      1.06055625e-01 1.00597844e-01 1.11833535e-01 1.43207103e-01
      1.89504892e-01 2.15474129e-01 2.15474129e-01 2.15474129e-01
      2.30148390e-01 2.30148390e-01 1.27192155e-01 2.06589580e-01
      1.59475312e-01 1.20491162e-01 9.62492675e-02 9.25583467e-02
      2.30148390e-01 2.30148390e-01 2.30148390e-01 1.85810342e-01
      1.59406319e-01 1.00180857e-01 9.80802998e-02 7.05171227e-02
      7.31406733e-02 1.48174316e-01 2.30148390e-01 1.70620590e-01
      1.27584934e-01 1.66906565e-01 1.65029764e-01 1.51384726e-01
      1.51688576e-01 1.68087319e-01 2.28366554e-01 1.95292369e-01
      2.30148390e-01 2.30148390e-01 1.58183977e-01 1.23104915e-01
      1.04415178e-01 7.86853358e-02 7.94873759e-02 1.30015135e-01</_>
    <_>
      1.38950720e-01 2.26311073e-01 2.26311073e-01 2.26311073e-01
      1.28133073e-01 8.77647176e-02 8.50249976e-02 7.56144524e-02
      9.15831327e-02 2.26311073e-01 2.10115984e-01 1.74513876e-01
      1.39810234e-01 1.19048163e-01 1.26979634e-01 1.29998460e-01
      1.50649041e-01 2.26311073e-01 7.59381726e-02 8.32767338e-02
      2.11657614e-01 2.26311073e-01 2.26311073e-01 1.94635183e-01
      8.69505629e-02 5.71487024e-02 6.59055561e-02 1.48643911e-01
      1.48695961e-01 1.52864695e-01 2.02791452e-01 2.26311073e-01
      2.26311073e-01 1.78263009e-01 1.52762011e-01 1.83354989e-01
      1.56940952e-01 6.20198473e-02 5.82007617e-02 4.90062647e-02
      7.84575790e-02 1.72666952e-01 2.47088656e-01 2.47088656e-01
      2.47088656e-01 4.72363234e-02 3.28099206e-02 5.50165400e-02
      6.64099157e-02 1.43174782e-01 2.47088656e-01 2.47088656e-01
      2.28070825e-01 1.13045678e-01 9.72755253e-02 8.79694447e-02
      9.56100374e-02 1.34014100e-01 1.99961767e-01 2.47088656e-01
      2.17721015e-01 1.66769832e-01 1.39363930e-01 4.13806103e-02
      4.72334623e-02 1.24462299e-01 2.47088656e-01 2.47088656e-01
      2.47088656e-01 2.47088656e-01 1.32888675e-01 6.86316788e-02
      4.25936915e-02 8.90621617e-02 1.23186097e-01 1.45723447e-01
      2.51216173e-01 2.55951673e-01 2.55951673e-01 1.10225230e-01
      7.35299662e-02 5.46461493e-02 1.24471202e-01 1.33286089e-01
      1.34213492e-01 1.69774130e-01 1.82832986e-01 1.47521943e-01
      7.47577175e-02 6.63687885e-02 6.04033098e-02 1.21596120e-01
      1.57883704e-01 2.55951673e-01 2.55951673e-01 2.55951673e-01
      2.55951673e-01 1.44528389e-01 1.36292636e-01 7.32187927e-02
      1.16863862e-01 1.17776103e-01 1.39315888e-01 2.35452235e-01
      2.53552258e-01 1.86838537e-01 1.24890395e-01 1.54695228e-01
      1.13827832e-01 8.35836008e-02 1.20012291e-01 1.73100933e-01
      2.21538931e-01 2.21538931e-01 1.95894673e-01 1.02936894e-01
      1.04260787e-01 1.33577406e-01 1.22035317e-01 1.53163671e-01
      1.69071063e-01 2.21538931e-01 2.21538931e-01 1.46460414e-01
      1.25960231e-01 1.99980736e-01 1.63324133e-01 8.51804018e-02
      1.08989954e-01 1.08432449e-01 2.21538931e-01 2.21538931e-01
      2.21538931e-01 1.79198608e-01 1.76494315e-01 1.60332695e-01
      1.85822070e-01 1.80493638e-01 1.15016475e-01 1.68886870e-01
      1.67691723e-01 1.59802094e-01 1.41798705e-01 1.97054610e-01
      8.16834867e-02 9.18519720e-02 2.04883754e-01 2.07354814e-01
      1.92806289e-01 1.53757587e-01 8.75257328e-02 9.25772116e-02
      1.20329618e-01 5.09276539e-02 8.96526054e-02 2.66040742e-01
      2.66040742e-01 2.66040742e-01 2.00510263e-01 1.17647365e-01
      7.44921193e-02 7.29737058e-02 1.00811474e-01 2.60201603e-01
      2.66040742e-01 2.66040742e-01 1.13819271e-01 8.68426710e-02
      4.88800183e-02 5.55397570e-02 8.46321061e-02 7.46910423e-02
      1.87137589e-01 2.66040742e-01 2.66040742e-01 1.71457097e-01
      1.21709011e-01 1.43143162e-01 1.12727627e-01 7.56993219e-02
      8.09459463e-02 1.55358911e-01 2.06971079e-01 2.34375522e-01
      2.34375522e-01 2.34375522e-01 1.92973614e-01 1.07250094e-01
      1.48009166e-01 9.58820358e-02 1.41066730e-01 8.82302821e-02
      1.47731856e-01 2.34375522e-01 2.11709797e-01 1.53536513e-01
      8.59581605e-02 1.32684961e-01 9.27776694e-02 1.19352974e-01
      1.93964735e-01 2.34375522e-01 1.83453918e-01 1.53019950e-01
      2.34375522e-01 2.03274220e-01 1.35480881e-01 1.32003993e-01
      1.10858977e-01 8.52260888e-02 1.14589587e-01 1.75619602e-01
      1.56172842e-01 2.16504827e-01 1.52794853e-01 1.37907639e-01
      9.38801095e-02 6.99219927e-02 7.53659233e-02 9.94432867e-02
      2.18079254e-01 2.18079254e-01 2.18079254e-01 1.79046854e-01
      1.42880544e-01 1.77628621e-01 2.18079254e-01 2.03347191e-01
      1.56849384e-01 1.28505901e-01 1.16070651e-01 1.59738347e-01
      1.73136055e-01 1.86071113e-01 7.07734823e-02 6.35626540e-02
      4.78085056e-02 6.43254369e-02 1.33156016e-01 2.18079254e-01
      2.18079254e-01 1.30548894e-01 1.00507095e-01 1.82734087e-01
      2.18079254e-01 2.18079254e-01 2.18079254e-01 1.89361319e-01
      1.57039016e-01 1.81497484e-01 2.06456199e-01 2.01544717e-01
      1.20516300e-01 2.24744633e-01 2.24744633e-01 2.24744633e-01
      1.18111081e-01 7.26608559e-02 5.04872948e-02 5.02971672e-02
      6.87963665e-02 1.35568306e-01 2.03485832e-01 2.24744633e-01
      2.24744633e-01 1.53574526e-01 1.00270629e-01 1.21994711e-01
      1.14444695e-01 1.03555225e-01 1.38704464e-01 2.16957614e-01
      2.24744633e-01 2.24744633e-01 2.24744633e-01 1.57304257e-01
      1.37911484e-01 1.49750292e-01 1.44909352e-01 1.36961401e-01
      1.48180306e-01 1.77856341e-01 2.24744633e-01 2.24744633e-01
      1.48713455e-01 1.59815684e-01 1.49613902e-01 1.45156741e-01
      1.62928626e-01 1.13914862e-01 8.51701796e-02 8.26441199e-02
      7.09165856e-02 8.41988474e-02 2.37940416e-01 2.37940416e-01
      2.24376544e-01 1.64192736e-01 7.19301775e-02 3.44357751e-02
      3.96440476e-02 6.15523122e-02 9.08064246e-02 2.37940416e-01
      2.37940416e-01 2.37940416e-01 2.20627725e-01 1.30057037e-01
      8.03730190e-02 8.69965777e-02 1.17468096e-01 8.42642784e-02
      1.88746944e-01 2.37940416e-01 2.37940416e-01 2.22258985e-01
      1.35500371e-01 1.20645255e-01 1.66526854e-01 1.07002437e-01
      1.04071811e-01 2.37940416e-01 2.37940416e-01 2.37940416e-01</_>
    <_>
      1.50746718e-01 1.65238559e-01 2.48992682e-01 1.39970988e-01
      2.16397002e-01 5.67252785e-02 6.50250912e-02 7.76723996e-02
      1.47972539e-01 2.48992682e-01 2.23788738e-01 2.48992682e-01
      2.23753259e-01 2.48992682e-01 1.27517968e-01 9.76394638e-02
      7.90651962e-02 2.48992682e-01 1.76030517e-01 6.54190630e-02
      1.15853384e-01 1.68775812e-01 2.48992682e-01 1.02124974e-01
      7.38041550e-02 6.03814647e-02 1.73544958e-01 1.32479116e-01
      9.45581868e-02 1.41622812e-01 2.43543357e-01 2.48992682e-01
      1.62811354e-01 7.33880773e-02 4.47932035e-02 1.13748081e-01
      1.92545086e-01 2.32283592e-01 2.32283592e-01 2.01516747e-01
      2.32283592e-01 8.98524672e-02 4.76683900e-02 2.87906192e-02
      1.41798720e-01 2.13681474e-01 2.32283592e-01 1.45904139e-01
      1.84332192e-01 2.32283592e-01 1.04443543e-01 1.41806841e-01
      1.31561607e-01 2.32283592e-01 3.94321382e-02 1.02520630e-01
      1.50533900e-01 1.79980546e-01 2.08879679e-01 1.22420013e-01
      6.24939874e-02 2.34689452e-02 2.81204395e-02 1.39242873e-01
      1.16620824e-01 1.24807142e-01 1.95265189e-01 2.32283592e-01
      1.92801297e-01 2.32283592e-01 1.29142031e-01 1.90497786e-01
      1.03407070e-01 8.80761445e-02 5.10075539e-02 9.93687585e-02
      2.33328030e-01 1.41417593e-01 2.33328030e-01 2.18663424e-01
      2.33328030e-01 7.17878193e-02 4.96622995e-02 3.76645923e-02
      6.66157156e-02 1.20604761e-01 1.67236879e-01 2.33328030e-01
      1.90675199e-01 1.19203039e-01 1.39462069e-01 6.02953881e-02
      6.42617643e-02 1.25604287e-01 2.33328030e-01 1.85581416e-01
      2.33328030e-01 1.94534764e-01 2.00986937e-01 1.50699973e-01
      5.06803803e-02 5.09318858e-02 1.41593531e-01 2.22821966e-01
      2.33328030e-01 2.33328030e-01 2.33328030e-01 2.21703917e-01
      2.21009329e-01 1.06728874e-01 2.31348991e-01 2.46303871e-01
      2.60514885e-01 1.20165132e-01 6.18905202e-02 5.09631746e-02
      1.85264215e-01 1.56036332e-01 1.11600809e-01 2.60514885e-01
      2.60514885e-01 2.60514885e-01 1.76896945e-01 5.68575636e-02
      4.15636711e-02 1.22640863e-01 8.09853449e-02 1.61706418e-01
      2.60514885e-01 2.60514885e-01 1.76535204e-01 6.17916770e-02
      2.30895896e-02 3.51542085e-02 5.21922521e-02 5.81502616e-02
      9.29382741e-02 2.60514885e-01 2.60514885e-01 1.68562397e-01
      1.07636712e-01 6.18085787e-02 7.66734257e-02 5.33097312e-02
      1.25941083e-01 1.17319800e-01 2.08296329e-01 1.96246624e-01
      2.18061015e-01 1.49051607e-01 6.32289574e-02 2.78186649e-02
      8.88131782e-02 2.43405491e-01 1.40695795e-01 1.71206519e-01
      1.59977406e-01 2.43405491e-01 2.43405491e-01 1.67379826e-01
      9.35559720e-02 2.43405491e-01 2.03691825e-01 8.57493952e-02
      1.21300526e-01 1.29338905e-01 1.37947068e-01 1.37676582e-01
      8.05649459e-02 1.03865996e-01 1.87849671e-01 2.43405491e-01
      1.79228604e-01 1.29658207e-01 1.43052801e-01 2.23350346e-01
      1.63457826e-01 8.83277729e-02 1.09679721e-01 2.43405491e-01
      1.86410755e-01 6.73157349e-02 9.63655338e-02 1.02054492e-01
      2.22732455e-01 1.50734663e-01 2.08619580e-01 1.23604305e-01
      1.99660137e-01 1.68267757e-01 7.78857991e-02 1.58027977e-01
      2.22732455e-01 2.22732455e-01 2.11241037e-01 2.22732455e-01
      1.46844566e-01 2.13440567e-01 2.22732455e-01 2.22732455e-01
      1.42608657e-01 8.56858194e-02 9.52724442e-02 6.53728023e-02
      4.40737568e-02 4.81675975e-02 1.46780550e-01 2.13474393e-01
      2.22732455e-01 2.22732455e-01 2.22732455e-01 1.87594578e-01
      1.12067394e-01 5.30140921e-02 4.19151299e-02 1.87340915e-01
      6.56772628e-02 1.11413881e-01 2.30497003e-01 2.30497003e-01
      2.30497003e-01 1.35773137e-01 8.12842548e-02 7.24280924e-02
      6.33729398e-02 1.48053393e-01 1.01298288e-01 1.26994848e-01
      1.25222057e-01 1.26077473e-01 9.65404138e-02 1.13564342e-01
      1.48080811e-01 1.22361407e-01 1.38553888e-01 8.83640796e-02
      1.63114101e-01 9.86749530e-02 2.30497003e-01 1.98730811e-01
      2.30497003e-01 2.30497003e-01 1.52397901e-01 2.30497003e-01
      1.75288379e-01 2.11474225e-01 1.70089543e-01 2.30497003e-01
      9.48096365e-02 1.92201555e-01 2.30497003e-01 2.30497003e-01
      1.52121410e-01 8.92152563e-02 4.82138991e-02 4.92988080e-02
      7.29289055e-02 4.73376252e-02 5.00376076e-02 8.79285932e-02
      1.23340614e-01 2.42896065e-01 2.05504268e-01 8.73798802e-02
      1.63737342e-01 2.05737710e-01 8.41576606e-02 7.28844032e-02
      1.38217762e-01 2.42896065e-01 2.32022345e-01 1.57950133e-01
      1.08972326e-01 1.48857608e-01 2.22652704e-01 8.78614113e-02
      1.08966045e-01 1.85912728e-01 1.72582239e-01 2.42896065e-01
      2.42896065e-01 1.30864233e-01 2.42896065e-01 2.42896065e-01
      1.50467589e-01 1.41845509e-01 2.42896065e-01 2.42896065e-01
      2.38956213e-01 2.38956213e-01 1.14118315e-01 1.70804188e-01
      1.76739752e-01 1.06241770e-01 1.10652111e-01 9.34172124e-02
      2.38956213e-01 1.98531106e-01 2.08836570e-01 1.48716718e-01
      1.21597208e-01 1.37587711e-01 9.19988081e-02 8.96738619e-02
      5.06169647e-02 1.76345944e-01 2.38956213e-01 2.05832273e-01
      1.25333354e-01 2.38956213e-01 2.38956213e-01 1.58793226e-01
      1.79163903e-01 1.45484537e-01 2.38956213e-01 1.98060021e-01
      8.96520615e-02 1.02123752e-01 1.55115202e-01 1.47952646e-01
      1.06499046e-01 1.18657269e-01 5.89255281e-02 1.84658617e-01</_>
    <_>
      1.39579058e-01 2.07967028e-01 2.21853361e-01 2.20258757e-01
      1.68839633e-01 1.39840648e-01 7.96777830e-02 7.82509744e-02
      8.44256580e-02 1.65898114e-01 2.24642664e-01 2.24642664e-01
      1.76773995e-01 1.89817354e-01 1.30011812e-01 7.26236030e-02
      1.00524008e-01 1.27678588e-01 1.02216728e-01 9.67238471e-02
      1.38352603e-01 2.24642664e-01 2.24642664e-01 2.24642664e-01
      2.24642664e-01 1.40442804e-01 1.19570613e-01 1.67425647e-01
      7.73890987e-02 9.77113619e-02 1.42730951e-01 2.24642664e-01
      2.24642664e-01 1.78247362e-01 1.34822622e-01 1.88868448e-01
      1.41522512e-01 1.41540438e-01 1.36596724e-01 1.16848126e-01
      1.08093314e-01 1.02150261e-01 9.35126543e-02 1.31927460e-01
      1.64597899e-01 1.20834105e-01 5.63894734e-02 7.75387660e-02
      8.42778012e-02 8.70470330e-02 9.88457203e-02 1.85700223e-01
      2.24465355e-01 2.20380038e-01 1.93302020e-01 1.20265484e-01
      1.34902865e-01 1.67748377e-01 2.24465355e-01 2.05945358e-01
      1.48272723e-01 1.27106413e-01 1.85034767e-01 2.24465355e-01
      1.89945728e-01 2.24465355e-01 2.24465355e-01 2.24465355e-01
      2.24465355e-01 2.24465355e-01 1.69323117e-01 1.94779560e-01
      1.43608645e-01 4.18721884e-02 6.59013242e-02 5.87491915e-02
      7.81684592e-02 8.37699994e-02 2.08862633e-01 2.37294301e-01
      2.37294301e-01 1.99216440e-01 4.92448770e-02 4.09484915e-02
      5.38370088e-02 8.86554793e-02 1.72901154e-01 2.37294301e-01
      2.37294301e-01 2.37294301e-01 1.68248996e-01 1.24714524e-01
      1.55266449e-01 1.75296351e-01 2.37294301e-01 2.18457654e-01
      2.37294301e-01 1.89003944e-01 1.71030253e-01 7.19034448e-02
      4.92203236e-02 4.64728177e-02 9.65065435e-02 2.37294301e-01
      2.37294301e-01 2.37294301e-01 1.48481339e-01 1.03295706e-01
      9.03333053e-02 6.53962940e-02 9.00674462e-02 1.46132439e-01
      2.25015119e-01 2.25015119e-01 2.25015119e-01 2.25015119e-01
      2.01441154e-01 1.66302174e-01 5.35248332e-02 9.91021916e-02
      1.42035648e-01 2.25015119e-01 1.99902222e-01 2.25015119e-01
      2.00473577e-01 1.92079812e-01 1.00079745e-01 1.22770898e-01
      1.15117602e-01 9.61409062e-02 1.46037817e-01 1.12471730e-01
      1.85846999e-01 2.25015119e-01 1.94889590e-01 1.32148564e-01
      5.72530106e-02 1.14394620e-01 1.14539631e-01 1.94843620e-01
      1.03151202e-01 2.25015119e-01 2.25015119e-01 1.79967210e-01
      1.60660297e-01 7.11988434e-02 7.80201703e-02 1.23562545e-01
      2.21954852e-01 1.30245507e-01 1.90638512e-01 1.22981749e-01
      1.73851579e-01 1.89924717e-01 1.91708937e-01 1.71378285e-01
      1.67628899e-01 2.21954852e-01 2.21954852e-01 2.03374729e-01
      9.89577770e-02 1.63670734e-01 1.80625275e-01 4.72480245e-02
      4.03709300e-02 8.94786045e-02 2.21954852e-01 8.35516527e-02
      2.11194262e-01 1.36061117e-01 2.04319581e-01 2.21954852e-01
      1.76051155e-01 9.23726708e-02 1.42890528e-01 2.21954852e-01
      1.41934246e-01 1.97525993e-01 1.35511130e-01 2.21954852e-01
      1.41805574e-01 1.62116647e-01 1.28985375e-01 1.52891845e-01
      2.30265141e-01 1.83043301e-01 1.65577441e-01 8.00433010e-02
      1.03730872e-01 7.21187219e-02 4.97115217e-02 7.10428208e-02
      1.65966138e-01 2.30265141e-01 2.15744793e-01 1.20018117e-01
      5.45816571e-02 5.92753440e-02 2.30265141e-01 2.30265141e-01
      1.43727049e-01 2.23662540e-01 2.30265141e-01 1.43389359e-01
      1.39216661e-01 1.22326791e-01 1.86660916e-01 2.30265141e-01
      2.30265141e-01 2.30265141e-01 2.30265141e-01 2.30265141e-01
      1.03919663e-01 5.68351895e-02 6.53541237e-02 1.28641129e-01
      1.26722351e-01 1.46999493e-01 1.33459374e-01 1.20604217e-01
      1.50086090e-01 1.26686245e-01 1.60647720e-01 1.81004122e-01
      1.56071335e-01 1.83980137e-01 1.23889230e-01 1.38931170e-01
      1.13089740e-01 1.51488781e-01 9.42521617e-02 1.83159783e-01
      2.23580927e-01 2.36668333e-01 1.50552720e-01 1.06965020e-01
      8.97257850e-02 1.29762128e-01 1.62542209e-01 2.02923089e-01
      2.36698076e-01 2.36698076e-01 1.92327887e-01 2.36698076e-01
      1.64354756e-01 9.81204212e-02 1.54513046e-01 1.29219592e-01
      1.40126258e-01 1.38432652e-01 2.23021686e-01 2.36698076e-01
      2.13710591e-01 8.91761705e-02 4.91144024e-02 7.47695118e-02
      1.61400825e-01 1.06577702e-01 1.74413562e-01 1.97959542e-01
      2.24413499e-01 2.24413499e-01 2.24413499e-01 9.97283310e-02
      1.74597606e-01 2.24413499e-01 2.11481169e-01 2.24413499e-01
      2.24413499e-01 2.24413499e-01 1.79408029e-01 8.29227716e-02
      6.22920319e-02 9.67385247e-02 1.20176047e-01 1.74800590e-01
      1.14245765e-01 1.51985273e-01 2.24413499e-01 7.04806820e-02
      8.35692957e-02 1.02030799e-01 1.50983348e-01 2.24413499e-01
      2.24413499e-01 1.65259555e-01 1.31009370e-01 1.31382182e-01
      2.28023365e-01 2.28023365e-01 1.68826446e-01 2.14186907e-01
      2.28023365e-01 1.75978541e-01 1.66970626e-01 1.69994861e-01
      1.90750614e-01 2.28023365e-01 2.28023365e-01 2.28023365e-01
      2.28023365e-01 1.69656783e-01 1.00481011e-01 5.24753295e-02
      7.09663257e-02 1.63321316e-01 9.87762362e-02 1.32158533e-01
      9.80260298e-02 1.17849901e-01 2.28023365e-01 1.97037116e-01
      1.13677338e-01 8.17984343e-02 8.16924348e-02 1.73762754e-01
      2.28023365e-01 2.28023365e-01 1.19538151e-01 1.60421669e-01
      1.04577638e-01 5.36185466e-02 3.62899937e-02 6.88721985e-02</_>
    <_>
      2.11308390e-01 1.15202084e-01 8.54590833e-02 5.81880361e-02
      9.22663733e-02 1.05639145e-01 2.34564632e-01 2.58804172e-01
      2.58804172e-01 8.52178559e-02 6.19061813e-02 6.97694346e-02
      5.45329377e-02 1.52083874e-01 2.19629437e-01 2.58804172e-01
      2.58804172e-01 1.63412407e-01 1.27541676e-01 9.21360627e-02
      8.17090943e-02 9.23657045e-02 1.14635259e-01 1.84347019e-01
      2.11282790e-01 2.16560930e-01 1.26767904e-01 1.43104777e-01
      1.23231292e-01 9.00652260e-02 9.72466245e-02 1.25788614e-01
      2.29859903e-01 2.58804172e-01 2.58804172e-01 1.36509180e-01
      8.36001560e-02 6.57452196e-02 6.08373769e-02 4.91488390e-02
      1.79669112e-01 2.30261877e-01 2.39506885e-01 2.39506885e-01
      1.14579961e-01 1.61722392e-01 1.55064613e-01 1.40605524e-01
      1.22274727e-01 1.91763178e-01 2.24904522e-01 2.11776525e-01
      1.50089487e-01 1.81426823e-01 1.29503995e-01 1.22012883e-01
      1.05679221e-01 8.57886001e-02 1.14588641e-01 2.39506885e-01
      2.39506885e-01 2.39506885e-01 1.19475760e-01 1.62900239e-01
      2.00825140e-01 1.72973439e-01 1.07706621e-01 1.05250366e-01
      1.92287639e-01 2.21307427e-01 1.52760535e-01 1.26567125e-01
      1.52899310e-01 1.80016503e-01 1.72975868e-01 1.90667152e-01
      1.98782057e-01 2.23503843e-01 1.88265994e-01 1.17616765e-01
      1.58386141e-01 1.15701549e-01 9.46783721e-02 1.01484142e-01
      1.21985368e-01 1.89808130e-01 1.68203562e-01 2.29629561e-01
      1.78829670e-01 1.34497762e-01 1.85092583e-01 1.92794293e-01
      1.29642203e-01 9.39063206e-02 8.99238661e-02 1.08271182e-01
      1.68843359e-01 1.24125421e-01 1.36807039e-01 1.73044473e-01
      1.40554160e-01 1.17927887e-01 1.06033355e-01 1.98331401e-01
      2.29629561e-01 2.29629561e-01 2.29629561e-01 2.12827504e-01
      1.18759416e-01 1.08535506e-01 7.11784363e-02 1.33060262e-01
      1.39821395e-01 2.05598429e-01 1.84989795e-01 1.76339418e-01
      1.11717783e-01 1.15422599e-01 1.01038635e-01 1.04558200e-01
      1.51166454e-01 1.27775922e-01 1.96653321e-01 2.05598429e-01
      1.89796880e-01 1.25420958e-01 1.55133024e-01 1.52087852e-01
      1.55361652e-01 2.05598429e-01 2.05598429e-01 1.86299622e-01
      1.70747057e-01 1.92131981e-01 1.69459462e-01 1.42495885e-01
      1.28023073e-01 2.02309340e-01 2.05598429e-01 2.05598429e-01
      2.05598429e-01 1.82969570e-01 2.05598429e-01 1.94369927e-01
      1.33025154e-01 1.00801431e-01 1.31685421e-01 1.21277504e-01
      1.20827228e-01 2.18237206e-01 2.18237206e-01 1.80461407e-01
      1.25175968e-01 2.18237206e-01 1.66379690e-01 9.37135145e-02
      5.79633825e-02 8.63892138e-02 1.96346775e-01 2.06753328e-01
      1.55697390e-01 2.18237206e-01 1.59012347e-01 1.47403240e-01
      2.00481310e-01 2.15368196e-01 1.72907427e-01 2.18237206e-01
      1.56553939e-01 1.77911773e-01 1.71253130e-01 2.18237206e-01
      1.62570491e-01 9.91640389e-02 8.49365667e-02 9.42965448e-02
      1.45432591e-01 1.57346502e-01 2.03974053e-01 2.18237206e-01
      2.36717254e-01 1.32738635e-01 5.09700514e-02 3.20377126e-02
      6.24950491e-02 7.44529814e-02 1.50977060e-01 1.69407591e-01
      2.36717254e-01 1.79868743e-01 9.23041478e-02 8.52008611e-02
      8.49889219e-02 1.63865611e-01 2.36717254e-01 2.36717254e-01
      2.36717254e-01 2.36717254e-01 2.15931326e-01 9.03033987e-02
      4.07969542e-02 3.72660756e-02 7.60232732e-02 1.35780960e-01
      1.92045569e-01 2.36717254e-01 2.36717254e-01 1.04397818e-01
      5.03674783e-02 4.47715707e-02 7.27040991e-02 2.15776294e-01
      2.36717254e-01 2.36717254e-01 2.36717254e-01 1.75038248e-01
      1.55111775e-01 1.36272475e-01 1.56819165e-01 1.42553777e-01
      1.43442869e-01 1.05031617e-01 1.09096892e-01 1.53359994e-01
      1.45199195e-01 1.75024271e-01 1.22035451e-01 1.59556955e-01
      1.38386264e-01 1.50739178e-01 1.97559088e-01 1.83066785e-01
      2.11545512e-01 2.11545512e-01 1.84452310e-01 1.59346864e-01
      1.43478453e-01 1.27030432e-01 1.38246581e-01 1.60289198e-01
      1.97355419e-01 2.02453122e-01 2.01653764e-01 2.11545512e-01
      1.31994337e-01 1.28941000e-01 1.06925450e-01 1.28629670e-01
      2.11545512e-01 2.11545512e-01 2.11545512e-01 2.11545512e-01
      1.39720634e-01 1.23412289e-01 1.69875845e-01 1.62867576e-01
      1.81457058e-01 1.74099132e-01 1.41285241e-01 1.84569553e-01
      1.89058468e-01 1.33804590e-01 1.07027426e-01 1.11014806e-01
      1.08370684e-01 1.25376537e-01 1.16410404e-01 1.13513306e-01
      1.57955959e-01 1.72960430e-01 2.11237773e-01 1.41265377e-01
      1.90267816e-01 1.45068809e-01 2.11237773e-01 1.68701485e-01
      2.11237773e-01 2.11237773e-01 2.11237773e-01 1.93617806e-01
      1.93918347e-01 2.09677383e-01 1.61805958e-01 1.80225968e-01
      1.12122864e-01 1.32285058e-01 1.52035922e-01 2.11237773e-01
      1.09655686e-01 8.18398222e-02 8.63546431e-02 1.14261232e-01
      1.66369259e-01 2.05021724e-01 1.79630354e-01 2.02018559e-01
      1.67942151e-01 5.75617962e-02 8.31663460e-02 1.18213542e-01
      1.88552156e-01 2.28129908e-01 2.28129908e-01 1.97842091e-01
      1.46290794e-01 9.37621072e-02 1.71352819e-01 2.28129908e-01
      2.28129908e-01 1.98903516e-01 1.94264069e-01 1.64444953e-01
      1.08914688e-01 1.09681718e-01 1.27246961e-01 1.10883042e-01
      2.28129908e-01 2.28129908e-01 2.28129908e-01 2.28129908e-01
      1.44764006e-01 1.10569671e-01 1.18288800e-01 9.37778130e-02</_>
    <_>
      2.41857991e-01 2.41857991e-01 2.11496383e-01 1.99028313e-01
      2.12188527e-01 8.09990838e-02 4.45943736e-02 8.69683921e-02
      2.39856541e-01 2.41857991e-01 2.41857991e-01 2.41857991e-01
      2.41857991e-01 1.77208737e-01 6.44284859e-02 3.47793289e-02
      5.42816147e-02 1.96895972e-01 6.01885393e-02 5.40007576e-02
      1.65151626e-01 2.41857991e-01 2.28006989e-01 1.46072403e-01
      1.39195263e-01 6.99222758e-02 7.46676177e-02 4.42421138e-02
      8.75070244e-02 2.16066614e-01 2.41857991e-01 2.02208012e-01
      9.60763842e-02 4.71746475e-02 1.68354511e-02 4.71836142e-02
      2.41165981e-01 2.41165981e-01 1.79686114e-01 1.99459612e-01
      1.07852355e-01 6.72334358e-02 5.71881644e-02 7.89050385e-02
      1.98097378e-01 2.41165981e-01 2.41165981e-01 1.48472995e-01
      1.76325604e-01 2.41165981e-01 2.31536716e-01 2.41165981e-01
      2.41165981e-01 2.41165981e-01 1.41992107e-01 1.48547426e-01
      9.96931791e-02 1.60600156e-01 1.43513858e-01 8.27917159e-02
      6.09403178e-02 5.36927171e-02 8.42751786e-02 2.02699319e-01
      1.55136898e-01 9.29179713e-02 8.83462951e-02 1.50597319e-01
      1.28366232e-01 1.01813525e-01 1.38983279e-01 1.38031453e-01
      1.54734269e-01 6.53813258e-02 1.44204795e-01 1.63459897e-01
      3.59362572e-01 2.71129847e-01 2.24016875e-01 1.69725314e-01
      1.97962895e-01 3.66284400e-02 1.27445878e-02 8.12464729e-02
      8.17947239e-02 3.59362572e-01 1.46415338e-01 8.20081010e-02
      3.71110551e-02 3.93089540e-02 9.96199101e-02 3.94166484e-02
      8.88764635e-02 7.53957480e-02 3.59362572e-01 1.79202631e-01
      9.31348950e-02 9.15613845e-02 1.04122430e-01 1.44558132e-01
      9.52332001e-03 5.75730614e-02 5.13105318e-02 3.59362572e-01
      1.34078130e-01 5.91901131e-02 3.56541947e-02 1.78269163e-01
      7.22295716e-02 3.30682546e-02 6.18734062e-02 1.54887557e-01
      2.45432600e-01 2.45432600e-01 2.45432600e-01 1.58759505e-01
      8.37836489e-02 4.16272357e-02 4.05102894e-02 6.41772822e-02
      1.13844179e-01 2.06278026e-01 2.06173524e-01 2.36777097e-01
      1.32099256e-01 7.68112019e-02 8.18077624e-02 6.86253384e-02
      1.89322650e-01 1.20496675e-01 2.09756672e-01 2.03033462e-01
      2.45432600e-01 2.35944331e-01 1.21560082e-01 4.51544635e-02
      4.79620695e-02 9.53413770e-02 1.35332301e-01 2.45432600e-01
      2.33475909e-01 2.45432600e-01 2.45432600e-01 1.44645303e-01
      1.25081688e-01 9.18243229e-02 8.24000314e-02 1.49108544e-01
      2.49803856e-01 1.98981971e-01 1.90155804e-01 1.41828701e-01
      1.44627139e-01 1.51298776e-01 1.15960643e-01 1.35779917e-01
      1.19187027e-01 1.95673972e-01 1.23684004e-01 1.13393724e-01
      1.10479720e-01 1.35097742e-01 1.11711524e-01 8.84178206e-02
      8.56257156e-02 1.73689097e-01 2.49803856e-01 2.28517026e-01
      2.49803856e-01 2.49803856e-01 2.49803856e-01 1.89721942e-01
      9.66352597e-02 9.55362767e-02 9.80396494e-02 1.15837976e-01
      1.11090809e-01 1.58349469e-01 2.49803856e-01 2.49803856e-01
      1.74842447e-01 5.12990244e-02 6.89314902e-02 5.97105809e-02
      3.27268451e-01 8.61540660e-02 8.21160227e-02 5.52531555e-02
      1.96744770e-01 3.27268451e-01 3.83956730e-02 6.53952211e-02
      6.32170364e-02 3.27268451e-01 9.15063173e-02 9.26784351e-02
      4.20124456e-02 3.27268451e-01 1.69014320e-01 1.04635172e-01
      8.93773139e-02 5.81516474e-02 1.18887305e-01 3.96926887e-02
      5.45410961e-02 6.34084493e-02 1.74664840e-01 3.27268451e-01
      1.75512105e-01 2.10241452e-01 1.16550632e-01 1.64365187e-01
      5.95025383e-02 5.93799874e-02 3.75791490e-02 3.27268451e-01
      7.91182518e-02 6.93456605e-02 2.15796292e-01 1.49413347e-01
      1.80059835e-01 9.66405198e-02 1.48942456e-01 1.34631708e-01
      1.06922351e-01 7.70264715e-02 9.00345072e-02 2.23010466e-01
      2.23010466e-01 2.23010466e-01 1.06543571e-01 2.02555701e-01
      1.59857675e-01 9.32196528e-02 1.34951591e-01 6.46056235e-02
      1.30031332e-01 1.51235819e-01 2.23010466e-01 1.17194891e-01
      1.91841826e-01 2.04547241e-01 1.78823069e-01 1.99855670e-01
      8.80380794e-02 2.17572451e-01 2.23010466e-01 2.23010466e-01
      1.49924606e-01 2.17548564e-01 1.59545690e-01 2.20066994e-01
      1.46670341e-01 1.11076236e-01 1.63045406e-01 2.20552802e-01
      2.20552802e-01 1.06257163e-01 2.08888352e-01 2.20552802e-01
      1.66048452e-01 1.49085432e-01 6.30527809e-02 4.35478166e-02
      3.80626805e-02 4.85045873e-02 5.56299835e-02 9.44544896e-02
      1.99799567e-01 2.20552802e-01 2.20552802e-01 1.36963636e-01
      1.65637776e-01 2.20552802e-01 2.20552802e-01 1.50918812e-01
      1.81904525e-01 1.95046574e-01 2.20552802e-01 1.88514903e-01
      2.03943238e-01 1.83937907e-01 1.53450981e-01 1.51396215e-01
      9.56878811e-02 1.01329572e-01 1.27582073e-01 2.20552802e-01
      2.40285277e-01 2.40285277e-01 1.89311579e-01 1.26692399e-01
      7.66255334e-02 5.48870638e-02 6.58561587e-02 1.58196345e-01
      2.40285277e-01 2.07175821e-01 2.40285277e-01 2.40285277e-01
      1.85843244e-01 1.23508178e-01 9.77631211e-02 5.61875775e-02
      7.95951560e-02 1.18978947e-01 1.71548158e-01 2.40285277e-01
      2.40285277e-01 2.40285277e-01 2.11385772e-01 7.71980062e-02
      7.58090615e-02 8.08802620e-02 1.56240612e-01 1.22503839e-01
      1.59127235e-01 1.75621808e-01 1.64603010e-01 2.40285277e-01
      1.13440692e-01 8.53802189e-02 7.21792504e-02 1.46636590e-01</_>
    <_>
      1.36066794e-01 1.23766847e-01 2.22468764e-01 2.22468764e-01
      2.22468764e-01 1.81806684e-01 1.61198184e-01 1.43970042e-01
      1.44463152e-01 1.30082548e-01 1.41962841e-01 2.00634971e-01
      1.79184660e-01 1.89060271e-01 1.51366845e-01 1.37088135e-01
      1.56750232e-01 1.09341495e-01 9.01760980e-02 1.39936149e-01
      2.22468764e-01 1.81232706e-01 2.22468764e-01 1.92361876e-01
      1.22627340e-01 1.21215239e-01 9.59779620e-02 1.21915810e-01
      1.26437113e-01 1.95885643e-01 1.80189982e-01 2.22468764e-01
      2.22468764e-01 1.69578463e-01 1.35540038e-01 9.01595652e-02
      1.42742053e-01 1.45349950e-01 1.22007445e-01 1.28951401e-01
      1.43600494e-01 1.70210913e-01 1.26431614e-01 1.53102607e-01
      1.08822420e-01 1.59286126e-01 1.68290213e-01 1.59221172e-01
      1.51803255e-01 1.43980801e-01 1.31043285e-01 1.08126670e-01
      1.28767133e-01 1.05223455e-01 2.04400674e-01 1.79381415e-01
      1.98341340e-01 2.00626731e-01 2.14992076e-01 2.14992076e-01
      1.35444045e-01 1.62159309e-01 1.40555725e-01 2.14992076e-01
      2.11022258e-01 2.14203060e-01 1.80053458e-01 2.14992076e-01
      2.14992076e-01 1.30263329e-01 1.65962279e-01 1.68051049e-01
      1.39930129e-01 1.62387341e-01 2.19745785e-01 2.14911774e-01
      1.73860744e-01 1.02161743e-01 1.30867273e-01 1.14418291e-01
      1.01481095e-01 8.40172917e-02 1.02272779e-01 1.44414634e-01
      2.09910914e-01 1.66659653e-01 1.70245737e-01 1.90226719e-01
      1.56349853e-01 8.72861072e-02 1.95590600e-01 1.93744346e-01
      2.07021043e-01 2.19745785e-01 2.19745785e-01 2.19211400e-01
      1.45017102e-01 1.23830155e-01 1.40507102e-01 8.35222006e-02
      1.33050919e-01 2.17322350e-01 2.19745785e-01 2.19745785e-01
      2.19745785e-01 1.32769465e-01 8.89736861e-02 8.39574561e-02
      8.67158324e-02 1.09006718e-01 1.75862819e-01 1.29574999e-01
      2.20126003e-01 2.54142970e-01 2.46460930e-01 1.17453761e-01
      7.96545595e-02 9.01627317e-02 9.87548605e-02 1.35307565e-01
      1.30461559e-01 2.54142970e-01 2.54142970e-01 1.88197047e-01
      9.73691866e-02 6.30093366e-02 1.36976555e-01 7.47918859e-02
      8.00367445e-02 9.31301862e-02 1.68067545e-01 2.54142970e-01
      2.54142970e-01 2.54142970e-01 1.53304845e-01 5.88961132e-02
      4.47162800e-02 6.21145442e-02 6.77315295e-02 1.68363854e-01
      2.54142970e-01 2.54142970e-01 2.06216246e-01 7.90151954e-02
      1.98849022e-01 1.87872827e-01 1.88440219e-01 2.21547171e-01
      2.31415868e-01 2.31415868e-01 1.54198781e-01 1.59979194e-01
      1.75115868e-01 2.31415868e-01 2.31415868e-01 2.27860436e-01
      2.31415868e-01 2.31415868e-01 2.31415868e-01 1.19440958e-01
      1.64304122e-01 2.07763210e-01 7.04841539e-02 6.16742186e-02
      5.55352196e-02 9.34321657e-02 1.92313686e-01 1.66687295e-01
      1.39979690e-01 8.71521160e-02 6.71065450e-02 1.07045576e-01
      1.01959176e-01 9.95387807e-02 1.26057222e-01 2.26455882e-01
      1.21422589e-01 8.68965760e-02 6.11415580e-02 7.06000179e-02
      1.41483083e-01 1.56798199e-01 1.91707730e-01 2.33318001e-01
      2.57174104e-01 1.52190164e-01 7.70824775e-02 6.49043322e-02
      9.25142914e-02 5.72938472e-02 1.07210360e-01 2.57174104e-01
      2.57174104e-01 2.57174104e-01 1.35416716e-01 5.34146167e-02
      3.18394713e-02 4.04434837e-02 9.18503851e-02 1.72676712e-01
      2.57174104e-01 2.55226463e-01 2.57174104e-01 1.12671688e-01
      1.01397336e-01 4.54364344e-02 5.10582179e-02 7.02189133e-02
      1.89909071e-01 2.57174104e-01 2.57174104e-01 2.57174104e-01
      8.18032697e-02 6.52948916e-02 4.12646607e-02 3.46832201e-02
      1.66681290e-01 7.05898106e-02 4.18339260e-02 2.93806884e-02
      7.01717362e-02 1.74226001e-01 2.94794649e-01 2.94794649e-01
      2.01755479e-01 6.35839999e-02 2.23032329e-02 3.94441858e-02
      3.15195955e-02 8.74638408e-02 2.24514604e-01 2.94794649e-01
      2.94794649e-01 9.95412022e-02 9.29057896e-02 5.34660518e-02
      3.64000797e-02 4.30160053e-02 9.19866785e-02 9.32442620e-02
      2.94794649e-01 2.42565200e-01 1.17492571e-01 1.23838000e-01
      2.85996106e-02 3.68141904e-02 2.93756090e-02 7.60805160e-02
      1.27493814e-01 2.94794649e-01 2.94794649e-01 2.39646837e-01
      8.13274831e-02 5.84867373e-02 6.13335520e-02 6.02838136e-02
      1.02970861e-01 1.31460056e-01 2.31549531e-01 1.94920912e-01
      7.67771304e-02 1.51762336e-01 1.98788404e-01 2.42646635e-01
      1.26269877e-01 1.32130176e-01 8.72462168e-02 9.17523131e-02
      7.92278051e-02 8.17964897e-02 2.59474248e-01 1.68796107e-01
      6.77630901e-02 2.25401334e-02 4.42446060e-02 6.19307086e-02
      2.59474248e-01 2.59474248e-01 2.59474248e-01 2.59474248e-01
      2.59474248e-01 2.59474248e-01 1.59901425e-01 1.08492292e-01
      5.46720996e-02 9.97426808e-02 2.06116289e-01 2.59474248e-01
      8.95739123e-02 2.60035634e-01 2.60035634e-01 2.01882705e-01
      1.49783626e-01 7.63836280e-02 8.05494636e-02 3.89924347e-02
      5.48965447e-02 4.40185443e-02 1.95261702e-01 2.60035634e-01
      2.60035634e-01 2.14401379e-01 1.04965113e-01 7.09984377e-02
      2.71483511e-02 2.30597537e-02 1.44104391e-01 2.60035634e-01
      2.60035634e-01 2.36940652e-01 1.69320837e-01 7.58014172e-02
      9.02674645e-02 1.01339743e-01 1.15720026e-01 2.65796874e-02
      1.26466975e-01 2.60035634e-01 2.60035634e-01 2.60035634e-01
      1.69614032e-01 8.73807296e-02 2.55639311e-02 2.26468984e-02</_>
    <_>
      2.55587071e-01 2.55853146e-01 2.55853146e-01 1.12476282e-01
      1.25480518e-01 1.08386621e-01 7.11810216e-02 9.92608294e-02
      1.91803187e-01 1.82649419e-01 2.21582323e-01 2.55853146e-01
      1.18179664e-01 1.38845086e-01 1.15217753e-01 1.28875360e-01
      1.35579452e-01 1.68745041e-01 1.34456724e-01 1.07810877e-01
      1.08812869e-01 1.10026799e-01 1.14537373e-01 1.72636956e-01
      1.38953671e-01 1.67286515e-01 1.97989464e-01 2.11505398e-01
      1.69724494e-01 1.15252085e-01 1.68509826e-01 1.16747186e-01
      1.50889248e-01 1.29440963e-01 1.85859233e-01 2.55853146e-01
      1.80604503e-01 1.67789385e-01 2.01046944e-01 1.08501457e-01
      9.89759713e-02 1.25238523e-01 2.19842061e-01 1.90042436e-01
      1.33240134e-01 2.19842061e-01 1.97268590e-01 1.38605624e-01
      8.01734254e-02 8.28432813e-02 1.14753358e-01 1.65696278e-01
      1.73124343e-01 1.75702661e-01 2.19842061e-01 2.19842061e-01
      1.78593412e-01 1.74743146e-01 1.01014964e-01 1.03372529e-01
      1.47709101e-01 1.86034530e-01 2.19842061e-01 2.19842061e-01
      2.10359037e-01 1.42393410e-01 9.88885239e-02 9.70284864e-02
      9.82662886e-02 1.39449194e-01 2.04257369e-01 2.19842061e-01
      1.59174263e-01 1.72416031e-01 1.35192722e-01 9.88825634e-02
      9.66327041e-02 9.41872224e-02 1.02387883e-01 1.26879469e-01
      1.53786182e-01 1.22139432e-01 1.11321174e-01 1.32355690e-01
      1.88278377e-01 3.07241887e-01 1.69391528e-01 1.18412361e-01
      1.39419839e-01 1.55169457e-01 2.64266491e-01 1.66295975e-01
      1.12864934e-01 7.58882612e-02 8.53072256e-02 7.95083269e-02
      9.34649333e-02 1.38467699e-01 1.94303051e-01 2.63686568e-01
      1.66661277e-01 1.28293976e-01 1.19521260e-01 3.07241887e-01
      1.39779761e-01 2.02732354e-01 1.92503601e-01 2.62811035e-01
      1.23907752e-01 5.64663857e-02 3.34989466e-02 6.65920377e-02
      8.55223313e-02 1.10378288e-01 9.54450741e-02 1.16427690e-01
      1.82808146e-01 1.84128523e-01 9.83413309e-02 7.11329728e-02
      9.67488512e-02 1.10117786e-01 1.55866072e-01 1.30614519e-01
      1.41954273e-01 2.44605497e-01 2.44605497e-01 8.45038816e-02
      4.03676927e-02 1.08711258e-01 2.09678844e-01 1.64461836e-01
      1.80303529e-01 1.74312651e-01 2.44605497e-01 2.44605497e-01
      1.54102087e-01 1.50916845e-01 1.79239601e-01 2.44605497e-01
      2.44605497e-01 2.44605497e-01 2.33343124e-01 2.44605497e-01
      1.96949929e-01 1.27753392e-01 8.86540040e-02 8.77885818e-02
      1.01495132e-01 1.13683477e-01 1.01550929e-01 1.11248523e-01
      2.00479090e-01 1.67518258e-01 1.15557939e-01 7.12237731e-02
      6.41597807e-02 8.30278844e-02 8.88970047e-02 1.01819351e-01
      1.06107190e-01 1.38128132e-01 2.29763657e-01 1.89593077e-01
      1.77927539e-01 2.22465605e-01 2.29763657e-01 2.29763657e-01
      2.13618115e-01 2.00135216e-01 2.29763657e-01 2.29763657e-01
      1.50000915e-01 9.39650536e-02 1.51836798e-01 2.19345629e-01
      2.20870152e-01 1.99874207e-01 1.55095696e-01 2.29763657e-01
      2.04793558e-01 1.50138125e-01 9.56606418e-02 7.67998546e-02
      9.81855094e-02 1.06567800e-01 1.31101608e-01 1.30897343e-01
      1.62554115e-01 2.12690979e-01 1.63708001e-01 1.38323233e-01
      9.66629013e-02 1.66186005e-01 1.31311178e-01 1.58708230e-01
      2.03267768e-01 2.12690979e-01 2.12690979e-01 1.68135777e-01
      9.94532406e-02 1.27504900e-01 1.67018309e-01 2.02364698e-01
      2.12690979e-01 2.12690979e-01 2.12690979e-01 1.92924097e-01
      1.34590462e-01 1.39520034e-01 1.29243568e-01 1.41436622e-01
      1.79758221e-01 2.02412978e-01 2.12690979e-01 2.12690979e-01
      2.30023891e-01 6.14239350e-02 3.22945789e-02 7.78614655e-02
      1.24587886e-01 9.66695398e-02 2.30023891e-01 2.30023891e-01
      2.30023891e-01 2.30023891e-01 1.53350234e-01 1.63983911e-01
      2.02803403e-01 2.30023891e-01 1.73395067e-01 2.10705638e-01
      2.16218188e-01 2.30023891e-01 7.72740319e-02 1.59551613e-02
      9.18879174e-03 1.32937711e-02 3.01596206e-02 3.90278138e-02
      2.04079539e-01 2.30017066e-01 1.47222117e-01 1.37978524e-01
      6.56214282e-02 6.83941841e-02 8.91179517e-02 1.77315414e-01
      2.26097882e-01 2.30023891e-01 2.30023891e-01 1.71266019e-01
      2.25318298e-01 2.02454522e-01 2.25318298e-01 2.25318298e-01
      2.25318298e-01 1.70759857e-01 1.53727353e-01 1.42606765e-01
      2.25318298e-01 2.25318298e-01 1.35922760e-01 1.18483886e-01
      1.45548135e-01 1.59668013e-01 1.53514862e-01 1.50487959e-01
      1.52901858e-01 2.25318298e-01 1.26205653e-01 1.06881455e-01
      1.23464756e-01 1.20903604e-01 1.93996936e-01 1.83956727e-01
      2.25318298e-01 1.90296575e-01 1.49956465e-01 1.48949489e-01
      8.68302137e-02 1.05928652e-01 9.92874354e-02 1.45094395e-01
      7.98218921e-02 8.71534497e-02 1.13220207e-01 2.06571639e-01
      2.03009591e-01 9.10143927e-02 7.13171139e-02 8.47550929e-02
      7.92779475e-02 1.28404364e-01 2.10088506e-01 2.06217304e-01
      2.24809766e-01 1.52920306e-01 7.68815503e-02 6.87395707e-02
      7.74227157e-02 6.51066080e-02 1.70082986e-01 2.24809766e-01
      2.24809766e-01 2.24809766e-01 2.01481417e-01 1.02747098e-01
      1.54093236e-01 7.11262301e-02 1.73348352e-01 1.10953875e-01
      1.08467355e-01 1.47831216e-01 2.24809766e-01 1.80780083e-01
      1.46163553e-01 1.85739666e-01 1.28708169e-01 1.93570480e-01
      2.24809766e-01 2.24809766e-01 2.24809766e-01 2.24809766e-01</_>
    <_>
      2.78913826e-01 2.78913826e-01 2.78913826e-01 1.32631376e-01
      1.06838524e-01 4.18948643e-02 2.15953458e-02 3.22295837e-02
      1.25574678e-01 2.78913826e-01 2.78913826e-01 1.61881998e-01
      8.60029683e-02 1.24680616e-01 6.07262328e-02 3.45414318e-02
      8.15701336e-02 1.28507331e-01 2.78913826e-01 1.57465115e-01
      9.95090604e-02 1.18293367e-01 1.23371407e-01 3.64206843e-02
      2.05973275e-02 7.02490062e-02 2.47201413e-01 2.78913826e-01
      2.15371817e-01 1.46027789e-01 7.88454190e-02 1.25105590e-01
      9.01992545e-02 7.49058425e-02 1.46119341e-01 2.66554743e-01
      1.63034394e-01 1.48380011e-01 8.26814100e-02 4.87097129e-02
      1.46574035e-01 4.55442928e-02 2.36210003e-02 5.31030335e-02
      1.31850764e-01 1.88232422e-01 8.12310651e-02 6.90675005e-02
      8.50197747e-02 2.64911652e-01 7.15010092e-02 2.00127568e-02
      3.63139100e-02 1.74536467e-01 2.64911652e-01 2.64911652e-01
      2.64911652e-01 1.17618263e-01 2.21214756e-01 1.32151067e-01
      6.52457178e-02 9.01490673e-02 2.40992457e-01 2.64911652e-01
      2.30716348e-01 2.64617205e-01 1.59629911e-01 2.64911652e-01
      1.16370149e-01 6.07428998e-02 7.16668889e-02 2.47056678e-01
      1.76786497e-01 3.02506573e-02 2.31727194e-02 9.23853591e-02
      3.56592029e-01 7.74190798e-02 1.45372069e-02 2.24843789e-02
      1.53822169e-01 1.77353457e-01 6.34143502e-03 2.08365428e-03
      1.61865558e-02 2.08443016e-01 1.19395405e-02 2.75116367e-03
      6.23743702e-03 1.49335712e-01 3.56592029e-01 7.98546746e-02
      7.73103908e-02 1.34427831e-01 3.56592029e-01 5.37268259e-02
      4.83134985e-02 6.25614822e-02 3.20566952e-01 3.56592029e-01
      5.09254448e-02 5.33804707e-02 8.54554847e-02 1.76791698e-01
      3.98921408e-02 3.09219826e-02 4.96506765e-02 3.56592029e-01
      2.44110301e-01 1.74827725e-01 6.15938157e-02 1.13238350e-01
      2.44110301e-01 7.00257123e-02 4.62877862e-02 7.86959007e-02
      2.44110301e-01 2.44110301e-01 2.06081763e-01 1.25373527e-01
      8.06545690e-02 1.19478084e-01 9.04698148e-02 8.00864324e-02
      1.41067266e-01 2.44110301e-01 2.22326711e-01 8.76575634e-02
      9.23606083e-02 1.41291052e-01 2.44110301e-01 1.25546038e-01
      2.44110301e-01 2.44110301e-01 2.44110301e-01 1.69634938e-01
      1.27972990e-01 1.56876490e-01 1.46172553e-01 1.62739322e-01
      9.25388187e-02 7.92796239e-02 1.19629584e-01 1.98045418e-01
      2.39299253e-01 2.39299253e-01 2.39299253e-01 1.41719207e-01
      2.39299253e-01 1.69852182e-01 9.20102969e-02 1.26841336e-01
      2.39299253e-01 2.39299253e-01 2.39299253e-01 2.39299253e-01
      1.74964875e-01 2.39299253e-01 1.47943139e-01 8.82432535e-02
      1.20074213e-01 2.39299253e-01 1.54653296e-01 1.36040643e-01
      1.33559406e-01 9.05590430e-02 1.24152429e-01 7.71073028e-02
      5.84406927e-02 9.29727033e-02 1.57422110e-01 1.77660286e-01
      1.12445936e-01 1.05691314e-01 7.98450038e-02 1.57081917e-01
      8.99814293e-02 8.65009278e-02 1.16242558e-01 1.85985103e-01
      2.49098286e-01 1.00715540e-01 1.26922294e-01 1.39817700e-01
      2.49098286e-01 8.81368592e-02 9.23812613e-02 1.11753710e-01
      2.49098286e-01 2.49098286e-01 1.11932337e-01 1.68464214e-01
      1.31137073e-01 1.96274728e-01 1.18102610e-01 1.00140929e-01
      1.15000740e-01 2.49098286e-01 1.12151735e-01 6.80172145e-02
      7.19308928e-02 6.59839958e-02 1.11215279e-01 1.09959483e-01
      1.48164421e-01 1.57041728e-01 1.65108919e-01 2.12305143e-01
      1.37721017e-01 2.44677871e-01 9.12615359e-02 2.49098286e-01
      1.50233939e-01 1.80752426e-01 2.05402941e-01 2.49098286e-01
      6.56878352e-02 4.58004028e-02 8.84981751e-02 1.20224789e-01
      1.59765497e-01 1.17239781e-01 2.33222038e-01 2.33222038e-01
      1.66659892e-01 1.13804735e-01 1.21356495e-01 1.64277583e-01
      1.76149353e-01 1.74120635e-01 8.80461931e-02 6.70054629e-02
      8.61739516e-02 1.27231792e-01 3.92923281e-02 7.16766044e-02
      1.67235017e-01 1.69667050e-01 2.27593452e-01 1.81909189e-01
      2.33222038e-01 2.04298601e-01 5.85240126e-02 1.96759254e-01
      2.33222038e-01 2.33222038e-01 2.33222038e-01 2.33222038e-01
      1.43485248e-01 2.33222038e-01 2.02209249e-01 1.45728990e-01
      2.24380746e-01 1.60026863e-01 1.40550733e-01 9.32262093e-02
      1.69059515e-01 5.63121065e-02 5.46277761e-02 8.59332308e-02
      2.12794974e-01 2.35748753e-01 8.50976259e-02 6.40110523e-02
      5.32967150e-02 2.37714246e-01 8.52625594e-02 1.10344999e-01
      1.58375293e-01 2.37714246e-01 2.37714246e-01 2.37714246e-01
      1.66173145e-01 8.82290527e-02 1.26619980e-01 4.27869149e-02
      1.58800006e-01 2.37714246e-01 2.37714246e-01 2.37714246e-01
      1.00914851e-01 5.96325174e-02 5.87519631e-02 1.94539934e-01
      1.23126484e-01 1.85165718e-01 2.37714246e-01 2.37714246e-01
      1.32513091e-01 6.18019328e-02 4.15629633e-02 6.92342520e-02
      1.32750258e-01 1.07248396e-01 1.26427963e-01 1.44926026e-01
      1.95977196e-01 2.28252068e-01 1.31412581e-01 1.85942054e-01
      1.34794518e-01 2.29206130e-01 1.54270127e-01 1.38451666e-01
      1.56796947e-01 2.29206130e-01 2.14706644e-01 7.36519843e-02
      6.26939908e-02 1.29055589e-01 1.96666732e-01 1.54483467e-01
      1.71465710e-01 1.95875913e-01 1.89408407e-01 2.29206130e-01
      2.29206130e-01 2.29206130e-01 2.22171441e-01 2.29206130e-01
      1.60239175e-01 1.16221473e-01 9.44090262e-02 1.57029763e-01</_>
    <_>
      3.42687257e-02 2.04259336e-01 2.64083087e-01 2.64083087e-01
      1.55153275e-01 3.33612338e-02 1.30467424e-02 1.66790616e-02
      1.53570585e-02 9.21044946e-02 1.96485147e-01 2.64083087e-01
      2.64083087e-01 2.07040995e-01 1.38865635e-01 1.00160219e-01
      7.45576173e-02 9.47460383e-02 3.79032083e-02 9.63252857e-02
      2.64083087e-01 2.64083087e-01 2.64083087e-01 1.96089193e-01
      8.52982029e-02 4.70020287e-02 4.45927978e-02 1.06469415e-01
      9.52932015e-02 1.54818326e-01 2.38432765e-01 2.64083087e-01
      1.98868036e-01 1.00435205e-01 1.16011165e-01 1.09084979e-01
      1.58515945e-01 1.97873384e-01 2.02253103e-01 1.70393109e-01
      1.76326945e-01 1.62221625e-01 1.70188025e-01 1.32040292e-01
      1.34407818e-01 1.73845544e-01 1.17411397e-01 1.03966884e-01
      1.10813014e-01 1.66818216e-01 1.32380769e-01 1.61724642e-01
      1.58052668e-01 1.94553152e-01 2.02253103e-01 1.59242809e-01
      1.19575739e-01 1.35349676e-01 2.02253103e-01 1.94272235e-01
      1.46554425e-01 1.64094806e-01 1.70477256e-01 1.78146988e-01
      1.78342104e-01 1.62153363e-01 1.62569657e-01 2.02253103e-01
      1.61703318e-01 1.86107829e-01 2.02253103e-01 1.63065910e-01
      1.42033920e-01 7.05228299e-02 6.97884262e-02 9.89097357e-02
      1.41675547e-01 1.34543508e-01 1.95572093e-01 1.84598789e-01
      1.89647242e-01 7.80286565e-02 8.34020600e-02 8.66329968e-02
      1.13063283e-01 2.09779397e-01 2.51261055e-01 2.51261055e-01
      2.25592598e-01 1.05222709e-01 1.50985971e-01 1.33619070e-01
      1.41312897e-01 1.30055159e-01 1.40671745e-01 1.38135746e-01
      1.93379760e-01 2.08370015e-01 1.40043736e-01 1.05495058e-01
      1.07026979e-01 1.67397127e-01 1.73782319e-01 2.51261055e-01
      2.51261055e-01 2.51261055e-01 2.14184925e-01 1.12900920e-01
      6.11125492e-02 7.86842927e-02 2.50698775e-01 2.50698775e-01
      2.50698775e-01 2.50698775e-01 1.73797131e-01 7.49297366e-02
      8.79267305e-02 9.69061032e-02 1.25451848e-01 2.04622999e-01
      2.13294268e-01 2.01603249e-01 1.62337184e-01 9.29635689e-02
      1.39040485e-01 1.34319425e-01 5.07627018e-02 9.36554298e-02
      2.50698775e-01 2.50698775e-01 2.50698775e-01 1.97914571e-01
      9.87690538e-02 5.41438349e-02 5.89630455e-02 9.91214812e-02
      1.75213829e-01 2.50698775e-01 2.50698775e-01 1.48907185e-01
      8.44474807e-02 6.13822043e-02 7.80010968e-02 8.06097910e-02
      2.11728603e-01 1.52502775e-01 1.08389564e-01 1.11120269e-01
      1.64440781e-01 1.23455659e-01 7.89899155e-02 1.73082352e-01
      2.11728603e-01 2.11728603e-01 2.01199621e-01 1.66953593e-01
      1.79234922e-01 2.11728603e-01 1.50265500e-01 1.21960290e-01
      2.11728603e-01 2.11728603e-01 2.11728603e-01 1.62550747e-01
      1.96176916e-01 1.46466374e-01 1.05478853e-01 7.05444217e-02
      1.13508977e-01 1.21938996e-01 1.56190142e-01 2.11728603e-01
      1.46965027e-01 1.75599039e-01 1.83714882e-01 2.11728603e-01
      1.34107560e-01 1.44942313e-01 1.43208042e-01 1.74237505e-01
      1.71184435e-01 1.27287075e-01 1.22166462e-01 1.29267737e-01
      1.60599947e-01 1.27493128e-01 1.15195997e-01 1.56262800e-01
      1.39536411e-01 7.79617801e-02 5.85261695e-02 1.45893574e-01
      2.13502184e-01 2.35665038e-01 2.35665038e-01 2.35665038e-01
      1.22708514e-01 7.60411322e-02 2.15685397e-01 1.80030644e-01
      1.90647170e-01 1.76114544e-01 1.94262043e-01 1.39114901e-01
      9.21428055e-02 1.06893286e-01 1.52309835e-01 1.72106057e-01
      1.93939254e-01 2.35665038e-01 2.35665038e-01 2.35665038e-01
      2.04103574e-01 9.99915525e-02 8.65365267e-02 1.34096161e-01
      3.96991111e-02 5.12395240e-02 1.69052437e-01 2.56249130e-01
      2.56249130e-01 2.32206836e-01 1.71841294e-01 6.24651797e-02
      4.51276228e-02 8.39435086e-02 9.71699283e-02 1.77498907e-01
      2.08377898e-01 1.51408613e-01 1.03948191e-01 8.92578885e-02
      6.73376471e-02 5.99396266e-02 1.60165563e-01 6.12295680e-02
      3.80511507e-02 1.19571514e-01 2.56249130e-01 2.56249130e-01
      2.56249130e-01 2.56249130e-01 2.04258561e-01 1.77340195e-01
      8.02601054e-02 7.51017109e-02 7.66118392e-02 1.32511288e-01
      1.73470929e-01 2.53301650e-01 1.95833445e-01 2.31551588e-01
      1.57418922e-01 1.16807885e-01 1.67261034e-01 1.43009320e-01
      9.74279195e-02 7.55309537e-02 1.33371830e-01 9.38067660e-02
      1.02765113e-01 1.29135892e-01 1.34819299e-01 2.60672361e-01
      2.60672361e-01 1.95620492e-01 9.30395499e-02 1.18099436e-01
      7.30627924e-02 8.73948932e-02 2.60672361e-01 2.32914224e-01
      2.07682818e-01 7.41939694e-02 6.87823966e-02 7.73784891e-02
      1.00203924e-01 1.76418677e-01 2.60672361e-01 2.60672361e-01
      2.60672361e-01 2.60672361e-01 2.31932834e-01 8.39685947e-02
      4.64031659e-02 6.16565309e-02 9.95843038e-02 2.05821514e-01
      1.43046126e-01 1.67691767e-01 2.33586103e-01 2.33586103e-01
      1.76699862e-01 1.00590371e-01 5.49112260e-02 4.33927849e-02
      7.83277452e-02 1.72984838e-01 1.92757592e-01 2.33586103e-01
      1.80791751e-01 2.33586103e-01 1.98784471e-01 9.06322002e-02
      5.24485856e-02 1.27126470e-01 1.72193170e-01 2.33586103e-01
      2.33586103e-01 2.33586103e-01 1.54976204e-01 7.92356059e-02
      6.57519326e-02 7.85029382e-02 1.10944703e-01 1.22090384e-01
      1.31252274e-01 2.28104323e-01 2.33586103e-01 2.33586103e-01
      2.12771252e-01 1.19781293e-01 6.00683838e-02 9.54267979e-02</_>
    <_>
      1.04779243e-01 2.23723456e-01 2.23723456e-01 2.17818975e-01
      2.21757352e-01 1.02549694e-01 7.35195205e-02 6.56452626e-02
      8.27061906e-02 2.11994544e-01 2.19525605e-01 2.23723456e-01
      2.23723456e-01 2.23723456e-01 2.23723456e-01 1.84918419e-01
      1.24264695e-01 1.75637424e-01 9.31427851e-02 1.38464510e-01
      1.84667543e-01 1.56092599e-01 1.98110178e-01 1.45087972e-01
      7.75657073e-02 9.91240889e-02 1.26996681e-01 1.26547620e-01
      1.32846892e-01 1.89503491e-01 1.63812056e-01 2.23723456e-01
      1.54852137e-01 1.06567100e-01 1.07619032e-01 1.31147370e-01
      1.84686869e-01 1.92105070e-01 1.99027136e-01 2.11008400e-01
      2.37942934e-01 2.07165018e-01 1.58600032e-01 1.30422607e-01
      2.01737687e-01 9.67657641e-02 2.32512206e-01 2.37942934e-01
      1.64467216e-01 9.65170041e-02 9.05052274e-02 7.95216337e-02
      7.39251375e-02 1.25458524e-01 1.61837175e-01 2.37942934e-01
      2.37942934e-01 1.57533526e-01 1.91244602e-01 1.17377721e-01
      8.22694674e-02 9.04357359e-02 1.50260225e-01 1.21463217e-01
      2.37942934e-01 2.37942934e-01 2.37942934e-01 1.35199368e-01
      4.90032807e-02 4.43549827e-02 4.09263670e-02 8.30877200e-02
      1.39850050e-01 1.77914351e-01 1.90344736e-01 1.22003101e-01
      7.01114386e-02 5.42736240e-02 8.54323208e-02 1.38227627e-01
      1.54926360e-01 1.67131484e-01 8.84402543e-02 6.16925620e-02
      7.88007453e-02 1.02804229e-01 1.72618493e-01 2.50426620e-01
      2.50426620e-01 2.20141754e-01 1.78611919e-01 2.50426620e-01
      2.50426620e-01 2.21052691e-01 1.06494151e-01 3.89533229e-02
      5.42222522e-02 6.86468333e-02 1.13666728e-01 2.27271378e-01
      1.69739082e-01 1.16943412e-01 9.75758284e-02 1.33273810e-01
      1.66398227e-01 2.50426620e-01 2.50426620e-01 2.50426620e-01
      1.20402098e-01 1.46614179e-01 1.94848433e-01 2.16012880e-01
      1.54712871e-01 1.43848121e-01 6.31209463e-02 8.61452967e-02
      1.20364539e-01 1.87712505e-01 2.14719802e-01 2.16012880e-01
      2.02174395e-01 1.26732796e-01 1.43794686e-01 7.78196529e-02
      9.75961313e-02 1.18405737e-01 2.01221198e-01 2.16012880e-01
      2.16012880e-01 2.16012880e-01 1.80461392e-01 1.53500527e-01
      7.06943795e-02 1.04285084e-01 1.40888497e-01 2.16012880e-01
      2.16012880e-01 1.82451427e-01 1.95873961e-01 1.51353300e-01
      1.75220847e-01 1.22579031e-01 1.37414187e-01 2.16012880e-01
      1.69684365e-01 2.29197964e-01 2.47529089e-01 1.39194265e-01
      1.06945090e-01 8.74102041e-02 5.22753894e-02 6.36486560e-02
      1.02663867e-01 1.11638635e-01 2.24985406e-01 2.70686358e-01
      2.70686358e-01 2.70686358e-01 5.72876744e-02 2.92970892e-02
      2.99399123e-02 5.98440468e-02 1.99976414e-01 1.81417957e-01
      1.34333104e-01 1.58962429e-01 1.73729926e-01 1.64396986e-01
      1.16614185e-01 1.05305120e-01 1.90086290e-01 9.35153514e-02
      8.15887004e-02 1.47979185e-01 2.70686358e-01 2.70686358e-01
      2.70686358e-01 1.03004597e-01 4.81933691e-02 5.58387339e-02
      1.30744562e-01 2.50486344e-01 2.76800692e-01 2.76800692e-01
      2.76800692e-01 4.61882725e-02 2.23365445e-02 3.69135663e-02
      7.48132467e-02 1.48855031e-01 1.56031981e-01 1.27481416e-01
      1.15741871e-01 1.17475346e-01 1.67943478e-01 2.76800692e-01
      2.76800692e-01 2.32836068e-01 3.84954177e-02 4.35246900e-02
      1.07077934e-01 2.76800692e-01 2.76800692e-01 2.76800692e-01
      1.22134872e-01 3.59934643e-02 1.85273420e-02 1.78582519e-02
      2.36587618e-02 4.70817797e-02 1.01682991e-01 1.79158792e-01
      1.59257546e-01 1.30977690e-01 4.69398946e-02 2.88789179e-02
      1.92168325e-01 1.93342537e-01 1.44045755e-01 1.63643509e-01
      1.56512588e-01 1.66916519e-01 9.95103344e-02 1.57193854e-01
      1.85738683e-01 2.15163305e-01 1.90473050e-01 1.06089197e-01
      1.04724981e-01 1.46887273e-01 1.84973866e-01 1.65950850e-01
      1.83885202e-01 2.15163305e-01 1.32318348e-01 1.08431131e-01
      8.24897587e-02 1.16814457e-01 1.56603023e-01 1.31417528e-01
      1.34367391e-01 1.43813580e-01 1.36903897e-01 2.15163305e-01
      1.53588101e-01 1.20362677e-01 1.46516249e-01 2.15163305e-01
      2.15163305e-01 2.15163305e-01 2.15163305e-01 2.15163305e-01
      1.43229127e-01 1.43274963e-01 1.02425374e-01 9.73582342e-02
      1.61046490e-01 1.92507237e-01 1.63965136e-01 1.55497283e-01
      1.75004512e-01 9.49582458e-02 8.93849880e-02 8.87616873e-02
      1.46965042e-01 2.26303890e-01 2.26303890e-01 2.10457161e-01
      1.20368160e-01 8.16856623e-02 1.85036540e-01 1.32985920e-01
      9.42362919e-02 1.11506306e-01 2.26303890e-01 2.26303890e-01
      2.16500774e-01 2.26303890e-01 2.26303890e-01 1.35588825e-01
      1.07532442e-01 7.23024160e-02 8.34640190e-02 1.77152485e-01
      2.26303890e-01 2.26303890e-01 2.26303890e-01 1.59835145e-01
      4.30069603e-02 2.62061730e-02 3.35129015e-02 8.71086046e-02
      2.58065313e-01 2.58065313e-01 2.58065313e-01 1.62636951e-01
      3.73772830e-02 3.99940573e-02 4.34498638e-02 7.90601298e-02
      8.42630789e-02 1.19605295e-01 1.17602922e-01 1.80025205e-01
      1.42348781e-01 4.98416685e-02 1.24392264e-01 6.48977160e-02
      3.88989449e-02 5.19703589e-02 1.46810040e-01 2.58065313e-01
      2.58065313e-01 2.58065313e-01 1.39209643e-01 2.36263573e-01
      1.87007353e-01 2.17694640e-01 1.39266670e-01 1.47446364e-01
      2.12414384e-01 2.58065313e-01 2.58065313e-01 1.90113917e-01</_>
    <_>
      4.05056514e-02 8.37753937e-02 1.36574566e-01 5.19811064e-02
      1.14178345e-01 5.94454966e-02 6.02373034e-02 3.09727136e-02
      3.28515135e-02 3.18810254e-01 3.18810254e-01 3.18810254e-01
      8.31511989e-02 9.34743509e-02 4.91809994e-02 7.17811733e-02
      8.89985412e-02 1.60997942e-01 4.62441482e-02 2.18347743e-01
      3.18810254e-01 1.65395439e-01 8.13082904e-02 2.35521719e-02
      3.49412486e-02 3.04893833e-02 3.97862792e-02 3.18810254e-01
      3.18810254e-01 3.18810254e-01 2.37425849e-01 8.83103162e-02
      1.87478028e-02 1.50199831e-02 4.36813235e-02 1.45929471e-01
      2.51062334e-01 2.51062334e-01 1.50064707e-01 5.29163890e-02
      8.13879967e-02 3.54338996e-02 5.81497326e-02 1.77358225e-01
      2.23119542e-01 2.51062334e-01 2.51062334e-01 1.26775414e-01
      7.81077966e-02 1.32109150e-01 5.86390607e-02 9.75922644e-02
      2.51062334e-01 2.51062334e-01 2.51062334e-01 2.35680759e-01
      1.88222855e-01 7.72310123e-02 4.10039052e-02 9.33991745e-03
      2.12972797e-02 1.21984325e-01 2.33525962e-01 2.51062334e-01
      1.53926477e-01 4.92700189e-02 2.01046020e-02 1.51537312e-02
      3.73497643e-02 1.04719169e-01 2.28259906e-01 2.51062334e-01
      1.84869051e-01 1.69546217e-01 2.30157137e-01 1.47457838e-01
      1.15256146e-01 8.68504569e-02 1.08680978e-01 1.15943879e-01
      1.51091650e-01 1.25354901e-01 1.72921076e-01 2.44950995e-01
      2.44950995e-01 1.96725219e-01 1.45036221e-01 1.22211888e-01
      8.89636353e-02 1.13927670e-01 1.90415025e-01 1.54253289e-01
      1.77748084e-01 1.54426455e-01 1.17768511e-01 1.42411217e-01
      1.66381240e-01 1.30225778e-01 1.56908989e-01 8.25198218e-02
      1.77701145e-01 2.44950995e-01 2.44950995e-01 2.44950995e-01
      2.44950995e-01 1.50644705e-01 7.23935887e-02 6.77319020e-02
      2.61694212e-02 1.60822019e-01 3.22168350e-01 3.22168350e-01
      1.19268082e-01 1.97281372e-02 1.25277340e-02 1.41748842e-02
      1.72015857e-02 5.54228462e-02 2.22138256e-01 3.22168350e-01
      3.05686593e-01 1.11736856e-01 2.80440059e-02 5.29714720e-03
      1.86764244e-02 3.50919738e-02 2.34744530e-02 4.76329103e-02
      2.61084735e-01 3.22168350e-01 3.21003705e-01 3.47551368e-02
      1.13457562e-02 7.40942685e-03 1.61651317e-02 3.38901430e-02
      7.01133981e-02 2.40934178e-01 3.22168350e-01 1.77617759e-01
      5.22337779e-02 1.56746581e-02 1.54953524e-02 2.65280101e-02
      2.35881969e-01 2.27647811e-01 2.43815929e-01 2.43815929e-01
      1.75830424e-01 3.97070013e-02 6.03272133e-02 1.97094008e-01
      2.27596655e-01 2.43815929e-01 1.51232898e-01 8.40395540e-02
      3.89741287e-02 6.71161115e-02 1.27840385e-01 2.43815929e-01
      2.43815929e-01 2.43815929e-01 8.09964314e-02 1.04623780e-01
      2.43815929e-01 2.43815929e-01 1.95402503e-01 5.87910749e-02
      5.74787743e-02 6.24439418e-02 7.38386139e-02 8.95512253e-02
      5.02461679e-02 6.61636218e-02 5.68597950e-02 2.10124642e-01
      1.82034537e-01 2.05737397e-01 1.30906016e-01 9.34998766e-02
      7.42215514e-02 7.07955807e-02 5.51277734e-02 7.01247826e-02
      1.53021336e-01 2.19313174e-01 1.31051466e-01 9.09150243e-02
      6.79168180e-02 5.49415573e-02 1.03327096e-01 1.90710828e-01
      3.30060184e-01 3.30060184e-01 3.30060184e-01 2.45920554e-01
      5.53697608e-02 4.72151525e-02 2.20740829e-02 2.20372975e-02
      3.38746533e-02 5.78069575e-02 1.63592368e-01 1.90391108e-01
      9.72077325e-02 4.54341024e-02 1.78400800e-02 6.39257282e-02
      7.16388300e-02 9.75772515e-02 1.51025638e-01 3.30060184e-01
      3.30060184e-01 2.91618496e-01 8.19117874e-02 5.01717962e-02
      1.31674130e-02 1.08372811e-02 8.23269486e-02 2.97105134e-01
      2.97105134e-01 2.97105134e-01 1.08998582e-01 1.34820687e-02
      1.19388709e-02 2.70967241e-02 2.92214882e-02 9.23464820e-02
      1.80423841e-01 2.96798021e-01 2.29765072e-01 9.89453271e-02
      2.35113148e-02 2.88297646e-02 1.76095739e-02 2.79382262e-02
      2.80573219e-02 9.13381428e-02 2.97105134e-01 2.97105134e-01
      2.97105134e-01 4.48171161e-02 1.96851119e-02 9.74986181e-02
      2.79779993e-02 1.94179695e-02 1.85331553e-02 1.68875903e-01
      2.97105134e-01 2.97105134e-01 9.04323235e-02 1.28604025e-01
      9.21834260e-02 1.05511956e-01 1.55642480e-01 1.09650798e-01
      2.38344535e-01 1.74871176e-01 1.11016184e-01 6.54397011e-02
      8.76705498e-02 9.43411440e-02 1.06727608e-01 1.17139734e-01
      1.40431657e-01 2.46912822e-01 1.36643544e-01 1.47353292e-01
      9.57039073e-02 8.69377777e-02 2.46912822e-01 1.69133455e-01
      9.46952030e-02 1.85024459e-02 1.43928841e-01 2.00199962e-01
      2.45241702e-01 2.29041398e-01 2.46912822e-01 2.46912822e-01
      2.46912822e-01 2.30345517e-01 1.44671351e-01 1.82584718e-01
      7.04607889e-02 1.38070390e-01 1.74144074e-01 2.03254759e-01
      5.19817807e-02 8.38472545e-02 1.68545350e-01 2.49370769e-01
      2.49370769e-01 1.41014248e-01 9.63315144e-02 5.26372641e-02
      3.39342356e-02 8.74999166e-02 1.29245818e-01 2.49370769e-01
      2.49370769e-01 2.49370769e-01 2.49370769e-01 1.95107669e-01
      8.69235918e-02 6.81287572e-02 1.64159104e-01 2.49370769e-01
      2.49370769e-01 2.49370769e-01 2.26085901e-01 5.59342094e-02
      5.83956875e-02 3.99371982e-02 4.70079705e-02 7.71465003e-02
      1.27949327e-01 2.49370769e-01 2.49370769e-01 2.10510954e-01
      5.66314757e-02 6.90184459e-02 3.64130475e-02 5.71997128e-02</_>
    <_>
      2.30227664e-01 1.75569966e-01 2.30227664e-01 1.94348678e-01
      2.30227664e-01 1.47301674e-01 5.52703515e-02 5.68129048e-02
      2.30227664e-01 2.30227664e-01 1.93553463e-01 2.15349808e-01
      1.43126801e-01 1.85239300e-01 8.19458291e-02 4.94824350e-02
      9.51350927e-02 2.30227664e-01 1.38206869e-01 1.75604478e-01
      2.30227664e-01 1.81973383e-01 1.85160354e-01 6.07840605e-02
      4.08871770e-02 2.41721570e-02 6.36535063e-02 2.30227664e-01
      1.84216127e-01 1.94218293e-01 1.78130150e-01 2.30227664e-01
      6.30910471e-02 8.28608125e-02 4.69639488e-02 1.53133243e-01
      1.72094107e-01 7.99162537e-02 6.92125037e-02 5.81806265e-02
      1.06093645e-01 6.35944754e-02 6.10931553e-02 1.10287167e-01
      2.10033417e-01 2.44991407e-01 1.09361716e-01 2.20802963e-01
      2.05615446e-01 2.44991407e-01 2.44991407e-01 2.44991407e-01
      2.44991407e-01 2.44991407e-01 1.53831333e-01 7.53224865e-02
      6.17458820e-02 6.71927631e-02 1.28978357e-01 6.26500547e-02
      5.09702303e-02 5.43311201e-02 1.24917530e-01 2.44991407e-01
      8.85946006e-02 1.33519277e-01 1.29561588e-01 2.44991407e-01
      2.09192336e-01 2.15583339e-01 1.72795340e-01 2.30146512e-01
      2.48965055e-01 1.06063366e-01 1.79301471e-01 1.68841153e-01
      2.85302848e-01 2.69074231e-01 2.85302848e-01 2.04660177e-01
      1.96653560e-01 2.02036705e-02 2.13765968e-02 2.07109787e-02
      2.06474643e-02 2.65325487e-01 5.09196892e-02 3.20494100e-02
      2.27826554e-02 1.44252814e-02 2.20484912e-01 9.74163786e-02
      1.35079399e-01 1.20427795e-01 2.85302848e-01 2.52741277e-01
      2.75461882e-01 1.83250353e-01 1.77177802e-01 4.99472097e-02
      2.35215295e-02 2.28731371e-02 2.22131908e-02 2.85302848e-01
      5.57765588e-02 5.36221489e-02 2.91615743e-02 4.19523828e-02
      1.18923753e-01 1.38514861e-01 1.40392348e-01 1.78369939e-01
      2.25687861e-01 1.36856452e-01 1.21733248e-01 1.17170043e-01
      8.31690803e-02 2.25687861e-01 1.66145951e-01 1.76588923e-01
      1.94493294e-01 2.25687861e-01 1.36021420e-01 1.48779511e-01
      1.03805944e-01 1.69756308e-01 1.56859800e-01 1.19378515e-01
      6.83054924e-02 8.25379789e-02 1.94200099e-01 1.45599842e-01
      2.25687861e-01 2.25687861e-01 2.25687861e-01 1.46128073e-01
      9.99739692e-02 1.17810100e-01 1.16160966e-01 2.12462544e-01
      2.03634918e-01 2.25687861e-01 2.25687861e-01 1.40688092e-01
      2.07852140e-01 9.01626125e-02 7.47727081e-02 9.09355655e-02
      1.84336960e-01 8.09538290e-02 5.44087365e-02 5.21212146e-02
      1.46016434e-01 2.54633188e-01 1.35536343e-01 9.55149755e-02
      1.67209744e-01 2.54633188e-01 2.45799705e-01 1.77079245e-01
      1.62522808e-01 2.54633188e-01 1.40134767e-01 7.01486021e-02
      8.17581862e-02 1.05693281e-01 1.50375351e-01 1.14190705e-01
      1.19143128e-01 9.19475481e-02 9.16790739e-02 2.54633188e-01
      1.48983270e-01 1.09883972e-01 1.73622802e-01 2.54633188e-01
      2.50366449e-01 1.89129457e-01 1.73417509e-01 2.54633188e-01
      2.44128466e-01 8.79072100e-02 7.30919316e-02 9.11544934e-02
      2.44128466e-01 2.02495635e-01 1.91591248e-01 1.40293524e-01
      2.44128466e-01 2.41724506e-01 3.32478620e-02 1.97457559e-02
      2.07335316e-02 1.95384040e-01 7.56766051e-02 8.71272832e-02
      5.96387237e-02 2.44128466e-01 2.44128466e-01 1.14983246e-01
      8.72494653e-02 8.21751207e-02 2.44128466e-01 2.02903688e-01
      1.95387617e-01 1.58597991e-01 2.44128466e-01 2.44128466e-01
      6.70121312e-02 5.01727052e-02 5.07248268e-02 1.69367552e-01
      1.50801346e-01 1.46602303e-01 1.11388378e-01 2.44128466e-01
      1.62389323e-01 1.14705473e-01 5.15811332e-02 6.00064844e-02
      1.69266015e-01 1.09448969e-01 2.26642802e-01 2.27252632e-01
      2.27252632e-01 9.78913382e-02 8.52561593e-02 5.95625453e-02
      5.69756031e-02 1.12500727e-01 1.82078421e-01 2.27252632e-01
      2.27252632e-01 1.38818666e-01 1.14612371e-01 1.00563608e-01
      8.54601786e-02 1.00684300e-01 2.10032076e-01 2.07597852e-01
      2.27252632e-01 2.27252632e-01 1.94618165e-01 1.12929046e-01
      1.29838780e-01 1.16844878e-01 9.81541425e-02 2.27252632e-01
      2.27252632e-01 2.27252632e-01 2.27252632e-01 1.90015405e-01
      8.05191249e-02 6.32711276e-02 8.25432315e-02 1.14719406e-01
      1.33468136e-01 1.68394044e-01 2.18078613e-01 2.18078613e-01
      9.83874500e-02 2.18078613e-01 1.43714547e-01 1.24128170e-01
      1.62203282e-01 2.18078613e-01 2.17892736e-01 2.01725438e-01
      1.97719589e-01 1.81162462e-01 1.13971762e-01 1.34004921e-01
      1.02600895e-01 8.79563093e-02 1.83519349e-01 1.46843538e-01
      2.18078613e-01 2.18078613e-01 1.91040918e-01 2.18078613e-01
      1.61577806e-01 8.29388127e-02 8.51871893e-02 1.29462793e-01
      1.24574900e-01 2.18078613e-01 2.18078613e-01 2.18078613e-01
      2.07755715e-01 1.72715813e-01 1.35110751e-01 1.22785799e-01
      2.07755715e-01 1.70933038e-01 1.62469819e-01 1.60596579e-01
      2.02417195e-01 1.48234591e-01 1.54261157e-01 1.65406212e-01
      2.03444362e-01 2.07755715e-01 1.98041409e-01 1.64045364e-01
      1.22230254e-01 1.58792630e-01 2.07755715e-01 1.49870172e-01
      8.97667632e-02 1.00129679e-01 1.08014017e-01 8.71717706e-02
      1.27958745e-01 1.72302425e-01 2.07755715e-01 2.07755715e-01
      2.03068852e-01 2.07755715e-01 2.07755715e-01 1.68579414e-01
      1.00731000e-01 8.94550681e-02 1.07336015e-01 2.02681005e-01</_>
    <_>
      1.10182427e-01 7.30274841e-02 8.24724212e-02 1.35820031e-01
      2.21510753e-01 1.25986442e-01 2.24952221e-01 2.24952221e-01
      1.63613588e-01 4.37778234e-02 6.59770817e-02 1.69831157e-01
      2.23536760e-01 2.23590672e-01 1.81645706e-01 2.24952221e-01
      1.61368057e-01 5.19291200e-02 1.14913180e-01 1.04762599e-01
      1.20149754e-01 2.24952221e-01 2.24952221e-01 1.57855660e-01
      1.94143414e-01 1.57920003e-01 1.55509695e-01 4.17665094e-02
      8.91025215e-02 1.41271234e-01 2.24952221e-01 2.24952221e-01
      2.24952221e-01 2.24952221e-01 1.66192815e-01 5.89469597e-02
      5.09354137e-02 9.96643230e-02 2.17470363e-01 2.17470363e-01
      2.10477605e-01 1.74184456e-01 1.95100591e-01 9.40509737e-02
      4.60018218e-02 1.57048374e-01 2.07933977e-01 2.17470363e-01
      2.17470363e-01 2.15232939e-01 1.61289841e-01 1.53379500e-01
      1.79184243e-01 1.16293617e-01 6.45928979e-02 1.08775914e-01
      1.35457903e-01 1.22831427e-01 1.96407259e-01 2.17470363e-01
      2.17470363e-01 1.54604658e-01 8.65726769e-02 1.46401823e-01
      2.17470363e-01 2.17470363e-01 1.68919593e-01 1.59466252e-01
      1.48654252e-01 1.38029903e-01 1.30724236e-01 1.44354954e-01
      2.07703769e-01 1.80091783e-01 2.35988185e-01 2.32177645e-01
      2.35988185e-01 1.81511626e-01 1.16752401e-01 1.84292540e-01
      2.24598199e-01 2.35988185e-01 2.35988185e-01 2.13587239e-01
      2.35988185e-01 2.35988185e-01 2.01553047e-01 9.67380181e-02
      1.83401406e-01 2.35988185e-01 1.14061177e-01 1.25417024e-01
      1.49239242e-01 1.18560046e-01 1.00231797e-01 6.70590624e-02
      5.61667234e-02 9.72205326e-02 1.06108643e-01 1.22346692e-01
      1.41781777e-01 1.35489196e-01 1.06968209e-01 1.20046079e-01
      7.98671320e-02 7.15681314e-02 1.08685970e-01 1.09696038e-01
      8.94997343e-02 7.95222446e-02 1.14506900e-01 1.54908136e-01
      1.93163335e-01 1.66348964e-01 1.93007872e-01 1.42917469e-01
      1.03724502e-01 9.71531123e-02 1.12209938e-01 1.04238585e-01
      1.20785110e-01 1.24554276e-01 2.18339950e-01 2.18339950e-01
      2.16452211e-01 8.24816823e-02 2.14082673e-01 1.19978413e-01
      1.45132929e-01 1.78332746e-01 2.18339950e-01 1.77769020e-01
      2.18339950e-01 2.18339950e-01 2.18339950e-01 2.14549944e-01
      1.66496113e-01 1.11372575e-01 9.96227562e-02 1.60165623e-01
      1.64683133e-01 2.18339950e-01 1.91231281e-01 1.80214897e-01
      2.11941168e-01 2.21126720e-01 1.16212390e-01 6.14875183e-02
      9.07701775e-02 1.94641352e-01 2.31944844e-01 1.81828350e-01
      1.49650961e-01 2.31944844e-01 1.94213092e-01 1.11801244e-01
      7.08005652e-02 9.33562294e-02 1.03868373e-01 1.24850094e-01
      1.91083238e-01 2.31944844e-01 2.31944844e-01 2.31944844e-01
      1.37038544e-01 8.44682604e-02 8.63299817e-02 1.25778630e-01
      2.01799810e-01 1.55567661e-01 1.89199775e-01 2.31944844e-01
      1.81772158e-01 8.39559510e-02 4.65151593e-02 1.17220804e-01
      8.82433653e-02 1.59470543e-01 2.06042871e-01 2.31944844e-01
      2.31977329e-01 1.31678075e-01 8.82238224e-02 8.10678154e-02
      9.57746208e-02 9.45042223e-02 1.69525191e-01 2.31977329e-01
      2.31977329e-01 1.84211016e-01 1.40805036e-01 1.06125630e-01
      8.66241455e-02 9.43621174e-02 1.22096471e-01 2.31977329e-01
      2.25531399e-01 1.87509120e-01 1.62091196e-01 7.91762769e-02
      5.62472977e-02 6.39481843e-02 1.50386333e-01 2.31977329e-01
      2.31977329e-01 2.31977329e-01 2.31977329e-01 1.00656539e-01
      9.22072455e-02 1.09250776e-01 1.34783983e-01 1.79256812e-01
      2.31977329e-01 2.31977329e-01 1.95395723e-01 1.31099507e-01
      2.19805762e-01 9.61400345e-02 7.04445317e-02 1.29239321e-01
      2.19805762e-01 1.08451702e-01 1.75349221e-01 1.90598518e-01
      2.19805762e-01 1.39717534e-01 8.62689614e-02 8.00541788e-02
      7.97969773e-02 1.61695585e-01 1.00187212e-01 7.57700056e-02
      8.03057328e-02 1.33343890e-01 2.19805762e-01 2.18029812e-01
      2.19805762e-01 2.04101220e-01 2.19805762e-01 9.97287855e-02
      2.19805762e-01 2.00198889e-01 2.19805762e-01 2.19805762e-01
      2.00281322e-01 2.19805762e-01 1.56107575e-01 1.91132933e-01
      1.23603448e-01 8.54032412e-02 1.00128472e-01 1.61827698e-01
      1.81748122e-01 1.17942587e-01 1.07907616e-01 8.91857818e-02
      1.84557125e-01 1.65598974e-01 1.84477463e-01 1.30440995e-01
      1.71311796e-01 2.18220025e-01 1.52050361e-01 9.32791233e-02
      5.21249138e-02 2.18220025e-01 1.19855896e-01 1.70431733e-01
      1.08256139e-01 2.18220025e-01 2.18220025e-01 1.73404843e-01
      2.10729465e-01 1.05092414e-01 1.91505760e-01 1.75226167e-01
      1.82753906e-01 1.66168645e-01 2.18220025e-01 2.18220025e-01
      2.18220025e-01 1.96620584e-01 5.80795296e-02 1.55803010e-01
      7.57736936e-02 1.22749805e-01 1.33204475e-01 2.18220025e-01
      1.19189121e-01 1.75556213e-01 1.76211119e-01 1.23316087e-01
      2.34690607e-01 1.84675679e-01 1.73756689e-01 7.51313269e-02
      1.14091508e-01 4.09825817e-02 1.46182939e-01 2.40127310e-01
      2.40127310e-01 2.40127310e-01 2.40127310e-01 1.75232261e-01
      4.99140956e-02 3.93051729e-02 2.39020288e-01 2.40127310e-01
      2.40127310e-01 1.36171162e-01 1.31069437e-01 4.78369892e-02
      4.77866977e-02 7.42897391e-02 1.67503208e-01 1.33948475e-01
      2.40127310e-01 2.40127310e-01 2.40127310e-01 1.59463808e-01
      6.89001381e-02 4.15424705e-02 5.53107373e-02 8.73705968e-02</_>
    <_>
      1.99136198e-01 1.39163494e-01 1.63077831e-01 1.32709563e-01
      1.87568799e-01 1.05917297e-01 8.24106708e-02 1.11926027e-01
      1.91497236e-01 1.33233204e-01 1.00754507e-01 1.01104222e-01
      7.69389421e-02 6.35629371e-02 1.10093221e-01 1.33888036e-01
      1.84779331e-01 1.62564501e-01 2.14918554e-01 1.38540164e-01
      1.69156075e-01 2.17601851e-01 2.24937543e-01 2.24937543e-01
      1.67567894e-01 1.51435092e-01 1.95432961e-01 2.24937543e-01
      1.54057667e-01 1.47629246e-01 1.26148015e-01 1.52637124e-01
      1.85896158e-01 2.24937543e-01 2.24937543e-01 2.24937543e-01
      1.05879813e-01 1.13870688e-01 9.72123146e-02 7.90413097e-02
      5.97607270e-02 1.29519030e-01 1.69566199e-01 2.13050187e-01
      1.13256119e-01 1.59737170e-01 2.31045395e-01 1.89615130e-01
      1.42048985e-01 1.14267491e-01 1.14530385e-01 1.80921346e-01
      1.74122319e-01 1.62205309e-01 1.81064501e-01 1.27717301e-01
      9.59797427e-02 9.69162136e-02 1.23389371e-01 2.13802099e-01
      2.35814452e-01 2.35814452e-01 2.35814452e-01 1.49020553e-01
      1.54158369e-01 1.31193787e-01 1.18685171e-01 1.36927977e-01
      2.03909323e-01 2.35814452e-01 2.35814452e-01 2.35814452e-01
      2.10353598e-01 2.10115641e-01 1.87122464e-01 1.09337822e-01
      8.61748829e-02 9.40360427e-02 1.29235655e-01 1.57330453e-01
      1.72996834e-01 1.78440064e-01 1.26220360e-01 1.64420381e-01
      1.46769062e-01 1.20293364e-01 1.43984482e-01 2.26445183e-01
      1.90544754e-01 1.76419437e-01 1.37300074e-01 1.15687974e-01
      1.13714702e-01 7.48943388e-02 7.60102347e-02 1.16331898e-01
      2.26445183e-01 2.26445183e-01 2.26445183e-01 1.88132018e-01
      8.92071426e-02 9.51069742e-02 8.85032564e-02 1.87624335e-01
      2.26445183e-01 2.26445183e-01 2.26445183e-01 2.26445183e-01
      1.29172385e-01 8.92577991e-02 7.68973380e-02 9.32101682e-02
      2.02762052e-01 1.68107003e-01 1.31274387e-01 1.04229569e-01
      1.20952792e-01 2.68656701e-01 1.19572155e-01 9.11174119e-02
      8.70055631e-02 1.13553137e-01 1.12650201e-01 2.46274412e-01
      2.55722791e-01 2.68656701e-01 1.10407367e-01 5.94939590e-02
      6.75512925e-02 7.88199231e-02 1.59342468e-01 2.33085260e-01
      2.18208790e-01 1.26491845e-01 1.14119291e-01 2.68656701e-01
      9.56428871e-02 7.87650198e-02 6.57682940e-02 9.60590839e-02
      1.39061868e-01 2.68656701e-01 2.68656701e-01 2.68656701e-01
      2.04039708e-01 6.80695772e-02 4.76901270e-02 5.30545376e-02
      6.70731887e-02 1.00015372e-01 1.92941770e-01 2.83956677e-01
      2.83956677e-01 9.27491337e-02 4.67349626e-02 2.73511317e-02
      3.04777175e-02 5.41989990e-02 8.83452669e-02 1.23517089e-01
      2.19331175e-01 1.55937403e-01 2.83956677e-01 1.00077473e-01
      5.02337478e-02 3.53200510e-02 4.35012989e-02 8.09193403e-02
      2.49786049e-01 2.83956677e-01 2.83956677e-01 2.83956677e-01
      1.43091828e-01 5.34783080e-02 3.05809267e-02 5.16295992e-02
      6.90664276e-02 1.47705883e-01 2.83956677e-01 2.83956677e-01
      9.35310125e-02 6.92350119e-02 6.26426488e-02 7.56707937e-02
      9.88322049e-02 1.23062171e-01 2.08312586e-01 2.33973265e-01
      1.89040557e-01 1.38555408e-01 6.47479594e-02 7.08675161e-02
      1.43315271e-01 2.33973265e-01 2.33973265e-01 2.33973265e-01
      2.33973265e-01 2.20031142e-01 2.05660269e-01 1.69172779e-01
      1.47936314e-01 1.35991290e-01 1.39494419e-01 1.09284684e-01
      1.49538890e-01 2.07387671e-01 1.88406765e-01 7.20927045e-02
      1.09142594e-01 2.33973265e-01 2.33973265e-01 2.33973265e-01
      1.96084216e-01 1.56318694e-01 8.55204687e-02 6.51285872e-02
      9.35796052e-02 6.02214783e-02 6.72207773e-02 5.91777600e-02
      1.36355296e-01 2.33034953e-01 2.44636133e-01 2.03486845e-01
      1.01055160e-01 2.44636133e-01 6.83420971e-02 5.95132783e-02
      4.62849662e-02 8.11969116e-02 1.14680968e-01 2.44636133e-01
      2.44636133e-01 2.44636133e-01 1.70268953e-01 1.35975748e-01
      1.02485329e-01 5.08080237e-02 1.00787051e-01 1.40026107e-01
      2.36132503e-01 2.44636133e-01 2.44636133e-01 2.11052537e-01
      8.84799361e-02 6.88332841e-02 4.58130464e-02 6.08110428e-02
      1.22758575e-01 2.44636133e-01 2.44636133e-01 2.44636133e-01
      2.62935281e-01 9.82508659e-02 5.60304597e-02 3.07219978e-02
      4.67956066e-02 5.96287735e-02 1.83452025e-01 2.62935281e-01
      2.62935281e-01 2.62935281e-01 1.89664826e-01 1.01837978e-01
      4.27475944e-02 5.96049279e-02 4.67173830e-02 1.19027175e-01
      2.31526569e-01 2.62935281e-01 2.62935281e-01 8.77741799e-02
      6.54725060e-02 4.71931696e-02 6.03717715e-02 9.40109640e-02
      1.80309430e-01 2.39128739e-01 2.62935281e-01 2.62935281e-01
      2.11178407e-01 1.26509786e-01 6.11071624e-02 6.12336174e-02
      7.50458762e-02 1.16808534e-01 1.25868648e-01 2.23336354e-01
      1.86705321e-01 1.76845431e-01 1.73031285e-01 1.22521132e-01
      9.59067866e-02 5.53357452e-02 7.00643286e-02 1.06750332e-01
      1.27670288e-01 9.83452871e-02 1.70257792e-01 2.36771062e-01
      2.36771062e-01 1.39925703e-01 7.44014829e-02 6.14718199e-02
      5.30592613e-02 6.30633533e-02 2.36771062e-01 2.36771062e-01
      2.36771062e-01 1.20005891e-01 9.75770503e-02 8.71392563e-02
      1.51012555e-01 1.86092049e-01 2.15700492e-01 2.36771062e-01
      2.36771062e-01 2.36771062e-01 2.21323386e-01 1.53063357e-01
      8.83010104e-02 1.22391269e-01 1.79242149e-01 2.36771062e-01</_>
    <_>
      9.36873481e-02 1.00331493e-01 1.14081867e-01 1.58393174e-01
      1.54632702e-01 2.03446090e-01 1.99685425e-01 1.22431479e-01
      1.31838605e-01 2.21810251e-01 2.21810251e-01 2.21810251e-01
      2.21810251e-01 2.20112190e-01 2.21810251e-01 2.21810251e-01
      1.84025809e-01 2.21810251e-01 9.97736827e-02 6.30130321e-02
      8.41864198e-02 8.38182718e-02 1.45434380e-01 1.65440872e-01
      1.45308048e-01 8.98814052e-02 8.53542313e-02 1.97955430e-01
      1.22110374e-01 1.40443370e-01 1.19624041e-01 1.68631494e-01
      1.94924861e-01 2.21810251e-01 1.85410291e-01 1.59364209e-01
      1.30109459e-01 2.17423588e-01 2.17695341e-01 1.79506823e-01
      2.17695341e-01 1.82210445e-01 2.17695341e-01 1.60969466e-01
      1.03168227e-01 7.87519515e-02 1.08840562e-01 1.51842892e-01
      1.34180397e-01 2.17695341e-01 1.64964929e-01 2.17695341e-01
      1.50310785e-01 6.01261519e-02 8.00795034e-02 7.50927925e-02
      1.11917026e-01 1.09135881e-01 2.11582914e-01 1.72448963e-01
      2.17695341e-01 1.54272586e-01 6.00676127e-02 1.92019731e-01
      1.47552773e-01 1.76997766e-01 1.42189503e-01 2.17695341e-01
      2.10546508e-01 2.17695341e-01 1.93250641e-01 9.85742658e-02
      7.12072104e-02 7.68667012e-02 6.88322261e-02 7.34799877e-02
      1.49347126e-01 1.69434324e-01 1.40804887e-01 9.14143994e-02
      4.66041975e-02 1.04471207e-01 2.30810508e-01 2.09966063e-01
      1.16198130e-01 1.82963982e-01 2.45398119e-01 7.88943172e-02
      3.26722413e-02 4.04306352e-02 2.39913613e-01 1.70419887e-01
      2.00333998e-01 2.19890982e-01 2.45398119e-01 2.45398119e-01
      2.33726412e-01 1.46952599e-01 1.25340402e-01 1.01890430e-01
      1.30033970e-01 2.45398119e-01 2.45398119e-01 2.45398119e-01
      2.45398119e-01 1.03160031e-01 4.20909189e-02 5.11877835e-02
      1.12780601e-01 7.48466179e-02 8.83252025e-02 6.94592968e-02
      1.10495143e-01 1.58227950e-01 1.53796375e-01 1.03486605e-01
      1.07844137e-01 2.31032833e-01 1.45201012e-01 1.31544545e-01
      9.38632935e-02 1.27358243e-01 1.74869820e-01 2.31032833e-01
      2.31032833e-01 2.31032833e-01 9.65242237e-02 1.32653028e-01
      1.55598834e-01 1.33317307e-01 1.75210208e-01 1.34659916e-01
      1.33070543e-01 9.87765715e-02 1.04106151e-01 2.31032833e-01
      2.31032833e-01 2.31032833e-01 1.92564443e-01 2.31032833e-01
      1.36015549e-01 2.31032833e-01 2.10076407e-01 2.31032833e-01
      1.76693305e-01 1.03605717e-01 1.04280002e-01 8.59106928e-02
      1.45324096e-01 1.50070831e-01 2.20260784e-01 2.00197130e-01
      1.55446470e-01 2.20260784e-01 1.42291784e-01 1.79092631e-01
      1.27928510e-01 2.09279537e-01 1.61780030e-01 2.02645063e-01
      2.02408522e-01 1.73699751e-01 2.20260784e-01 2.20260784e-01
      2.10080639e-01 1.29280433e-01 1.85957462e-01 1.00409642e-01
      2.20260784e-01 1.73897102e-01 2.20260784e-01 1.27088308e-01
      2.20260784e-01 2.20260784e-01 1.36254489e-01 4.63062786e-02
      2.56214570e-02 5.14180586e-02 7.32806623e-02 9.71762761e-02
      1.91549599e-01 1.48472860e-01 2.59857267e-01 2.39936545e-01
