<?xml version="1.0"?>
<opencv_storage>
<opencv_ml_svm>
  <format>3</format>
  <svmType>C_SVC</svmType>
  <kernel>
    <type>RBF</type>
    <gamma>5.0000000000000000e-01</gamma></kernel>
  <C>4.</C>
  <term_criteria><iterations>10000000</iterations></term_criteria>
  <var_count>324</var_count>
  <class_count>2</class_count>
  <class_labels type_id="opencv-matrix">
    <rows>2</rows>
    <cols>1</cols>
    <dt>i</dt>
    <data>
      -1 1</data></class_labels>
  <sv_total>661</sv_total>
  <support_vectors>
    <_>
      8.23575482e-02 1.67883307e-01 2.18533784e-01 1.82889879e-01
      1.35586843e-01 1.38200626e-01 8.99391919e-02 6.15368858e-02
      5.83550222e-02 1.23087175e-01 1.45331383e-01 1.81765452e-01
      1.87923983e-01 1.40019581e-01 1.17178790e-01 1.07246794e-01
      1.17960624e-01 1.30381525e-01 1.72104627e-01 2.06513152e-01
      2.18533784e-01 2.18533784e-01 2.00808555e-01 1.50962189e-01
      1.21894300e-01 1.34104878e-01 1.84360206e-01 2.18533784e-01
      2.02101782e-01 2.08375633e-01 1.77429438e-01 1.92653894e-01
      1.96775973e-01 1.65497407e-01 1.90492108e-01 2.18533784e-01
      1.26197413e-01 9.81878787e-02 1.10754363e-01 1.18613832e-01
      1.38399228e-01 1.74200654e-01 1.56270429e-01 1.46728009e-01
      1.58109084e-01 1.20479733e-01 8.95266682e-02 9.34191719e-02
      1.14351496e-01 2.11655423e-01 2.11655423e-01 2.06102490e-01
      1.92350566e-01 1.73450112e-01 2.11655423e-01 1.94025189e-01
      1.57777488e-01 1.47945955e-01 1.89979210e-01 2.11655423e-01
      1.80732474e-01 1.57989860e-01 2.11655423e-01 2.11655423e-01
      1.75496995e-01 1.63940147e-01 1.46256432e-01 1.81792393e-01
      2.11655423e-01 1.54215261e-01 1.27673775e-01 1.66461423e-01
      2.41106689e-01 7.56785199e-02 1.01486385e-01 1.67844668e-01
      2.57568270e-01 1.37258053e-01 1.70366719e-01 1.39851049e-01
      2.45421410e-01 2.44314313e-01 3.53443176e-02 1.02025509e-01
      1.18072502e-01 2.57568270e-01 5.47839627e-02 9.82883498e-02
      5.74895367e-02 2.17141628e-01 1.34563133e-01 1.20184653e-01
      1.86195910e-01 1.71882018e-01 2.57568270e-01 2.57568270e-01
      1.25368506e-01 1.03390157e-01 1.27102748e-01 1.60909757e-01
      6.59521893e-02 1.63923368e-01 1.46111205e-01 2.57568270e-01
      1.87841058e-01 7.79101402e-02 5.23211025e-02 1.59525454e-01
      1.84566483e-01 1.61834970e-01 2.14486912e-01 2.14425653e-01
      1.82179436e-01 1.13315977e-01 1.53806821e-01 1.50638312e-01
      2.14486912e-01 2.14486912e-01 2.14486912e-01 1.59972996e-01
      1.27983004e-01 1.18364513e-01 9.34187397e-02 1.02920339e-01
      1.34300336e-01 2.14486912e-01 1.87010437e-01 1.40273720e-01
      1.60484582e-01 1.49048120e-01 1.62378654e-01 1.13619395e-01
      1.74843803e-01 1.59912094e-01 2.11333215e-01 2.14486912e-01
      1.96215466e-01 1.39272600e-01 1.25043437e-01 1.42551050e-01
      8.89662281e-02 1.38972998e-01 1.41744569e-01 2.14486912e-01
      2.42565662e-01 2.01191515e-01 1.22099258e-01 1.03071600e-01
      1.03986099e-01 1.07508034e-01 9.62256938e-02 1.57811299e-01
      2.42565662e-01 2.13970140e-01 1.08806610e-01 8.83052722e-02
      7.91019574e-02 1.00235477e-01 1.48192301e-01 1.41038239e-01
      2.16760114e-01 2.42565662e-01 2.42565662e-01 1.95890412e-01
      1.57364234e-01 1.25584349e-01 1.23632602e-01 9.84728038e-02
      1.31814614e-01 1.83701128e-01 2.42565662e-01 2.03921214e-01
      1.46767572e-01 1.48317739e-01 9.86754522e-02 1.02848768e-01
      1.03625819e-01 1.46340609e-01 2.42565662e-01 2.42565662e-01
      1.39773205e-01 6.76875934e-02 1.04618207e-01 1.41578943e-01
      2.40251541e-01 1.76785275e-01 1.21138096e-01 1.68269441e-01
      2.40251541e-01 1.44907340e-01 5.88755943e-02 9.09161642e-02
      1.48539647e-01 2.40251541e-01 1.32597089e-01 9.11702663e-02
      1.16652451e-01 2.40251541e-01 2.22941816e-01 1.04325630e-01
      1.29762113e-01 1.16549820e-01 1.22883387e-01 9.01535898e-02
      1.21023305e-01 2.40251541e-01 2.40251541e-01 1.99190870e-01
      9.03904289e-02 1.05990164e-01 1.26168817e-01 1.89599827e-01
      1.33362249e-01 2.33601034e-01 2.40251541e-01 2.40251541e-01
      1.88784316e-01 1.24286018e-01 1.49055466e-01 1.51705816e-01
      1.72373593e-01 1.51755273e-01 2.21546292e-01 1.97578162e-01
      2.23428592e-01 1.96307421e-01 1.49000704e-01 1.52645394e-01
      1.31915852e-01 1.59881026e-01 1.23068906e-01 1.74102366e-01
      1.91091955e-01 2.24693164e-01 1.39380515e-01 9.81286615e-02
      9.54114720e-02 1.05079077e-01 1.56457886e-01 1.38099164e-01
      1.99106336e-01 2.24693164e-01 2.24693164e-01 2.24693164e-01
      1.42327264e-01 8.02845731e-02 5.52071743e-02 8.15950409e-02
      8.26884136e-02 1.52034879e-01 2.24693164e-01 2.24693164e-01
      1.53524712e-01 1.67393848e-01 1.82080790e-01 1.20561026e-01
      1.04065791e-01 8.29161257e-02 1.13114871e-01 1.21910349e-01
      1.70224875e-01 1.48811102e-01 2.26640254e-01 2.26305470e-01
      1.56096876e-01 1.22270577e-01 9.49525908e-02 1.40826315e-01
      1.90870553e-01 2.21934095e-01 2.31847689e-01 1.20188408e-01
      9.59458277e-02 5.28990664e-02 4.66180481e-02 5.41596524e-02
      1.16746053e-01 2.31847689e-01 2.31847689e-01 2.31847689e-01
      1.91893101e-01 1.61232993e-01 1.50747433e-01 1.27321228e-01
      1.49254292e-01 2.31847689e-01 2.31847689e-01 2.31847689e-01
      1.48879796e-01 1.60655588e-01 1.70022801e-01 1.27024502e-01
      1.24729000e-01 8.97458941e-02 1.04627326e-01 1.63493842e-01
      2.22239524e-01 1.46946982e-01 1.29111946e-01 2.11430490e-01
      1.70682803e-01 1.61031112e-01 1.27361909e-01 1.58244550e-01
      1.58727854e-01 2.07519531e-01 2.22239524e-01 2.22239524e-01
      1.71794176e-01 1.38820499e-01 1.70613810e-01 1.45658344e-01
      2.15841398e-01 1.70795053e-01 2.22239524e-01 2.22239524e-01
      2.22239524e-01 2.22239524e-01 1.90090775e-01 1.24646246e-01
      7.17523545e-02 6.18208051e-02 4.17660885e-02 1.13726266e-01</_>
    <_>
      6.65129200e-02 2.45938420e-01 2.45938420e-01 2.09086016e-01
      1.55931056e-01 8.15635622e-02 2.03974709e-01 1.56014785e-01
      9.13072079e-02 9.42662433e-02 1.45398200e-01 2.45938420e-01
      1.74224928e-01 1.18641585e-01 6.29368052e-02 1.24544583e-01
      1.00155868e-01 7.04477057e-02 1.00150980e-01 1.77768111e-01
      2.45938420e-01 1.94040477e-01 2.45938420e-01 2.04492465e-01
      2.45938420e-01 2.45938420e-01 2.45938420e-01 9.17529762e-02
      8.61240625e-02 1.18859753e-01 9.55443680e-02 1.43981069e-01
      1.25562310e-01 1.75353751e-01 1.13535523e-01 1.04943685e-01
      1.36141017e-01 1.34833053e-01 2.15147257e-01 1.58242643e-01
      1.60657555e-01 7.69709572e-02 7.94277862e-02 8.95074606e-02
      1.24691397e-01 2.28767142e-01 1.11358576e-01 1.48815304e-01
      1.30543575e-01 2.28767142e-01 1.67407140e-01 1.56568259e-01
      2.28767142e-01 2.28767142e-01 1.30125433e-01 1.09057151e-01
      1.15724929e-01 1.11278251e-01 1.52857989e-01 1.10066034e-01
      1.16019249e-01 9.90637094e-02 1.32173285e-01 2.28767142e-01
      1.16225429e-01 2.19288290e-01 1.79958701e-01 2.28767142e-01
      2.28767142e-01 1.67701468e-01 2.28767142e-01 2.28767142e-01
      1.26487568e-01 7.35060647e-02 8.14378113e-02 8.32304582e-02
      1.62033394e-01 1.25601828e-01 2.56510586e-01 1.69544145e-01
      1.49740770e-01 6.20516017e-02 8.10050964e-02 5.29028885e-02
      7.85186440e-02 1.37577474e-01 1.69583812e-01 2.56510586e-01
      1.59942955e-01 6.49756566e-02 1.78156614e-01 1.25068277e-01
      1.80476338e-01 1.49381757e-01 2.56510586e-01 1.58189714e-01
      1.39460027e-01 1.42434686e-01 1.51004344e-01 1.89878330e-01
      1.67121083e-01 1.87637880e-01 1.37246281e-01 2.56510586e-01
      2.56510586e-01 2.56510586e-01 1.81233272e-01 1.92145720e-01
      1.62823126e-01 8.29965323e-02 2.05956995e-01 1.16004966e-01
      2.42808983e-01 2.42808983e-01 2.42808983e-01 2.42808983e-01
      2.27634221e-01 9.30301473e-02 7.52274543e-02 9.43285376e-02
      8.39237571e-02 1.40486926e-01 1.40387550e-01 1.84802622e-01
      1.31611124e-01 1.16132557e-01 1.69196874e-01 1.04922853e-01
      3.86318751e-02 8.08202028e-02 2.42808983e-01 2.01901585e-01
      2.42808983e-01 2.42808983e-01 1.96306989e-01 8.35880190e-02
      7.50818923e-02 5.09688072e-02 5.65780029e-02 1.06192343e-01
      1.38828188e-01 2.42808983e-01 2.19658136e-01 1.61203161e-01
      9.86813977e-02 1.15509935e-01 1.38237447e-01 1.32578313e-01
      1.22692972e-01 1.28555357e-01 1.36989474e-01 1.20805115e-01
      1.17679812e-01 1.31834403e-01 1.05647191e-01 1.88786179e-01
      1.79564521e-01 2.04633191e-01 2.10854322e-01 1.83543161e-01
      1.80990309e-01 1.67074248e-01 1.34598836e-01 1.49840310e-01
      1.52196914e-01 1.46218359e-01 1.43315852e-01 1.64630622e-01
      2.10854322e-01 1.91755816e-01 1.43438175e-01 1.93644837e-01
      2.10854322e-01 2.10854322e-01 2.10854322e-01 2.10854322e-01
      1.60358146e-01 1.81692436e-01 1.70690820e-01 2.10854322e-01
      1.49914026e-01 1.16186358e-01 1.88294783e-01 1.44913942e-01
      2.36621723e-01 2.03384653e-01 1.42063528e-01 1.37334168e-01
      1.59842730e-01 2.36621723e-01 1.73522860e-01 2.36621723e-01
      1.61893487e-01 2.36621723e-01 2.36621723e-01 2.36621723e-01
      1.88257515e-01 2.36621723e-01 1.16692372e-01 1.04172163e-01
      1.57800049e-01 1.52130380e-01 1.75903127e-01 1.49451584e-01
      1.02984995e-01 1.13656670e-01 1.89266920e-01 7.42124096e-02
      6.77297413e-02 1.22472763e-01 1.65998831e-01 1.61551163e-01
      1.55266866e-01 8.88338462e-02 7.84085542e-02 1.16304539e-01
      1.03396326e-01 6.52625486e-02 3.85472476e-02 6.61046654e-02
      1.78887963e-01 1.73543707e-01 2.53970355e-01 2.53970355e-01
      1.75147265e-01 7.21356720e-02 5.96397892e-02 5.33657782e-02
      6.43101335e-02 1.08305253e-01 2.08640918e-01 2.53970355e-01
      2.53970355e-01 1.33045182e-01 7.55201355e-02 7.00528771e-02
      7.66530633e-02 1.23722248e-01 2.25418270e-01 2.42969245e-01
      2.53970355e-01 2.53970355e-01 1.34890109e-01 6.84086606e-02
      5.54503724e-02 7.87370205e-02 9.34322551e-02 1.08415656e-01
      2.53970355e-01 2.53970355e-01 2.53970355e-01 1.42732620e-01
      8.69286284e-02 9.42546055e-02 9.63698700e-02 1.05052009e-01
      1.26383409e-01 1.52024686e-01 1.85399950e-01 1.42297357e-01
      8.40716064e-02 1.69610858e-01 1.82664961e-01 2.15055034e-01
      2.15055034e-01 2.15055034e-01 1.35375291e-01 1.82531312e-01
      1.00500196e-01 1.82092726e-01 1.01997465e-01 9.12447497e-02
      1.03429765e-01 1.28121868e-01 1.43491447e-01 1.85513377e-01
      2.07187325e-01 1.92930356e-01 1.33301750e-01 1.94712654e-01
      1.68834597e-01 1.88487887e-01 2.15055034e-01 2.15055034e-01
      2.13849202e-01 2.15055034e-01 1.87467277e-01 2.10233465e-01
      1.59241736e-01 1.59993798e-01 2.20110580e-01 2.20110580e-01
      2.20110580e-01 1.49009973e-01 1.67501464e-01 1.20661318e-01
      2.09626988e-01 5.95705211e-02 7.08805993e-02 1.26386195e-01
      2.03435391e-01 1.65342793e-01 1.40288666e-01 9.24011916e-02
      7.19733909e-02 7.78179765e-02 1.80341199e-01 1.93137169e-01
      2.20110580e-01 2.20110580e-01 2.20110580e-01 1.93181813e-01
      2.02112332e-01 1.58374384e-01 1.91862389e-01 1.08364902e-01
      1.46831840e-01 2.20110580e-01 2.20110580e-01 1.68015346e-01
      1.28169015e-01 1.00088760e-01 9.08516124e-02 1.07928328e-01</_>
    <_>
      1.31202787e-01 1.42457917e-01 1.51242390e-01 1.85806111e-01
      1.74225673e-01 1.43404379e-01 1.60318524e-01 1.39687642e-01
      1.34077281e-01 2.06638172e-01 1.70303687e-01 1.27406850e-01
      1.07363567e-01 1.81034073e-01 1.66847929e-01 2.01060221e-01
      2.06638172e-01 1.98865160e-01 1.35606632e-01 1.40692100e-01
      1.44228101e-01 1.85350925e-01 1.90362751e-01 1.71281561e-01
      1.87094256e-01 1.16059914e-01 1.11089274e-01 1.90504581e-01
      1.88667253e-01 1.50224254e-01 1.39085561e-01 2.06638172e-01
      1.85860977e-01 2.06638172e-01 1.86145678e-01 1.34344667e-01
      2.08756432e-01 1.44053519e-01 9.98996124e-02 7.38533288e-02
      1.55711129e-01 1.45013660e-01 1.56377167e-01 1.93266168e-01
      2.00333461e-01 1.43842503e-01 1.14517525e-01 8.29639658e-02
      6.69618845e-02 1.63390800e-01 1.63387984e-01 1.80469573e-01
      1.93432763e-01 1.65070921e-01 1.50424987e-01 1.55410200e-01
      1.39072955e-01 1.40294433e-01 1.79126710e-01 1.71229109e-01
      1.60556614e-01 1.62176877e-01 1.41066372e-01 2.08756432e-01
      2.08756432e-01 2.08756432e-01 2.08756432e-01 2.08756432e-01
      1.77142948e-01 1.75586432e-01 1.79615512e-01 2.08756432e-01
      1.12006001e-01 8.33558962e-02 7.27285817e-02 5.02494983e-02
      1.14720769e-01 1.25193641e-01 1.94959402e-01 2.15219587e-01
      1.43915117e-01 8.33336264e-02 9.34730768e-02 9.59854349e-02
      5.80372773e-02 1.08173899e-01 1.11891694e-01 1.72437102e-01
      1.81463420e-01 1.34399191e-01 2.23732308e-01 2.23732308e-01
      2.18540803e-01 2.01079011e-01 2.21271887e-01 2.23732308e-01
      2.23732308e-01 2.23732308e-01 2.23732308e-01 1.52695820e-01
      1.32698491e-01 1.31448537e-01 1.02382138e-01 1.57262459e-01
      2.23732308e-01 2.23732308e-01 2.23732308e-01 1.49310604e-01
      1.01399034e-01 1.01463698e-01 1.11482501e-01 1.20510943e-01
      1.66636333e-01 1.93498567e-01 2.19551817e-01 1.28940314e-01
      9.66993049e-02 1.61410391e-01 1.50994897e-01 1.65579736e-01
      1.78894401e-01 1.77750617e-01 1.90257475e-01 1.98309585e-01
      1.44565850e-01 1.09071560e-01 9.62408185e-02 6.73262328e-02
      1.13423489e-01 1.71139374e-01 2.23056078e-01 2.23056078e-01
      2.23056078e-01 2.14226440e-01 1.24142438e-01 1.48867369e-01
      1.15323655e-01 1.52253240e-01 2.23056078e-01 2.23056078e-01
      2.23056078e-01 2.23056078e-01 1.63464814e-01 1.08497396e-01
      1.22399218e-01 1.38159126e-01 1.35519743e-01 1.96263894e-01
      1.52183890e-01 1.80647478e-01 1.47833049e-01 1.34993985e-01
      1.15921594e-01 2.02078462e-01 2.06135020e-01 2.06135020e-01
      2.06135020e-01 1.65959179e-01 1.62332162e-01 1.62855715e-01
      1.65003791e-01 2.06135020e-01 1.35448486e-01 1.77533209e-01
      1.38698310e-01 2.06135020e-01 1.84122905e-01 1.71765983e-01
      1.52120396e-01 1.34826571e-01 1.15845159e-01 1.59968749e-01
      1.72023103e-01 1.34372950e-01 1.88626125e-01 1.59323484e-01
      1.85006022e-01 1.63820952e-01 1.67879120e-01 1.61382511e-01
      2.15536863e-01 2.15536863e-01 1.90596119e-01 1.96173087e-01
      1.75108239e-01 2.15536863e-01 2.01481938e-01 1.34241015e-01
      2.02893138e-01 1.22509189e-01 1.45429850e-01 1.12561688e-01
      1.22976743e-01 2.02839002e-01 2.15536863e-01 2.15536863e-01
      9.61031541e-02 9.58529711e-02 1.74799979e-01 1.34197131e-01
      1.02522537e-01 1.38839260e-01 1.76674515e-01 1.87075034e-01
      1.77605987e-01 1.26670122e-01 1.75464198e-01 1.16590776e-01
      1.60061628e-01 1.18634410e-01 2.15536863e-01 2.15536863e-01
      1.76858246e-01 1.50830001e-01 6.64673746e-02 9.59483013e-02
      1.39418826e-01 1.15829557e-01 1.63319573e-01 2.23565131e-01
      2.23565131e-01 2.23565131e-01 2.23565131e-01 2.23368853e-01
      1.63675174e-01 1.02259830e-01 1.29552990e-01 1.19535133e-01
      1.80042282e-01 2.23565131e-01 2.23565131e-01 2.23565131e-01
      1.69217542e-01 8.67599472e-02 1.04393102e-01 1.16199896e-01
      1.30772263e-01 1.71867564e-01 1.98871493e-01 2.22913429e-01
      1.31090939e-01 1.16822027e-01 1.14792958e-01 6.60823882e-02
      9.11507681e-02 8.08026716e-02 1.16103522e-01 2.20983103e-01
      2.23565131e-01 1.74155846e-01 1.66584387e-01 8.77992511e-02
      1.50461242e-01 2.00300649e-01 1.47018984e-01 1.78405598e-01
      2.13195160e-01 1.91186070e-01 1.73374444e-01 1.80780709e-01
      1.32963881e-01 1.31111726e-01 1.54961258e-01 1.26930237e-01
      1.89563543e-01 2.13195160e-01 2.13195160e-01 1.24372847e-01
      1.71593428e-01 1.63147032e-01 9.08021182e-02 1.09502383e-01
      1.02799721e-01 1.30174786e-01 2.13195160e-01 2.13195160e-01
      1.88784391e-01 1.93372354e-01 1.10238753e-01 1.07854746e-01
      1.11276932e-01 1.12281628e-01 1.75418049e-01 2.13195160e-01
      2.13195160e-01 1.57310694e-01 1.87116161e-01 1.47187755e-01
      1.52222812e-01 1.35055020e-01 1.21980727e-01 1.80154607e-01
      2.26675257e-01 1.85392350e-01 1.30032226e-01 1.41692668e-01
      1.69037879e-01 1.45490512e-01 2.06775978e-01 2.26675257e-01
      2.26675257e-01 2.26675257e-01 1.39544785e-01 1.05752185e-01
      7.34497309e-02 1.03969447e-01 1.46942407e-01 1.77263901e-01
      1.66376695e-01 1.89812168e-01 2.17362136e-01 1.43576786e-01
      1.13808684e-01 1.48226291e-01 1.27071068e-01 1.57483175e-01
      2.26675257e-01 2.26675257e-01 2.26675257e-01 2.26675257e-01
      8.64711925e-02 8.74825865e-02 7.60568082e-02 7.64793307e-02</_>
    <_>
      1.58512607e-01 2.12369129e-01 2.06061289e-01 2.12369129e-01
      1.59509778e-01 8.52156058e-02 9.74289328e-02 1.04227409e-01
      1.03665859e-01 2.12369129e-01 2.12369129e-01 1.33448541e-01
      1.54064372e-01 1.35560378e-01 1.27008468e-01 1.63759619e-01
      1.60723701e-01 2.12369129e-01 9.46459919e-02 1.27688810e-01
      1.54237598e-01 2.12369129e-01 2.12369129e-01 1.55692920e-01
      1.03745811e-01 1.10791542e-01 8.98575783e-02 1.54548794e-01
      1.71648979e-01 1.52934417e-01 2.12369129e-01 2.12369129e-01
      2.12369129e-01 1.83936417e-01 2.03681573e-01 1.74109012e-01
      1.66911691e-01 1.25554234e-01 8.12670216e-02 7.71872923e-02
      1.01915359e-01 1.71131179e-01 2.24841118e-01 2.24841118e-01
      2.24841118e-01 5.82734980e-02 6.78276047e-02 6.96128756e-02
      8.71148184e-02 1.50274962e-01 2.24841118e-01 2.24841118e-01
      2.20348820e-01 1.33954868e-01 1.39224589e-01 1.36478230e-01
      1.25006914e-01 1.52387887e-01 2.00635880e-01 2.24841118e-01
      2.13241503e-01 1.78227618e-01 1.44659847e-01 7.72948712e-02
      1.06762923e-01 1.44004092e-01 2.24841118e-01 2.24841118e-01
      2.24841118e-01 2.24841118e-01 1.58791929e-01 9.08081010e-02
      5.78791983e-02 8.63255784e-02 1.10059418e-01 1.61329880e-01
      2.01782584e-01 2.07791254e-01 2.09399119e-01 1.30856439e-01
      9.29616392e-02 9.01496410e-02 9.47225839e-02 9.85131860e-02
      1.37187988e-01 1.66790426e-01 1.48721397e-01 1.31711438e-01
      1.04828104e-01 9.73257497e-02 1.64286181e-01 1.36646807e-01
      2.00957760e-01 2.38793015e-01 2.38793015e-01 2.38793015e-01
      2.38793015e-01 1.78806052e-01 1.85175195e-01 1.89932659e-01
      1.08958401e-01 1.40183091e-01 1.64089471e-01 2.38793015e-01
      1.91959903e-01 1.62201285e-01 1.63759962e-01 1.99691951e-01
      1.46172702e-01 1.44883841e-01 1.21446580e-01 1.84562758e-01
      2.08131671e-01 2.08131671e-01 1.37170270e-01 1.54854149e-01
      1.10003397e-01 1.30079687e-01 1.49294287e-01 1.29797041e-01
      1.77403167e-01 2.08131671e-01 2.06630036e-01 1.43864870e-01
      1.74202308e-01 1.59322321e-01 1.93930402e-01 1.32154211e-01
      1.14515796e-01 1.44848287e-01 2.08131671e-01 2.08131671e-01
      2.08131671e-01 2.08131671e-01 1.63913786e-01 1.70696214e-01
      1.69024944e-01 1.20490938e-01 1.48733512e-01 1.65252522e-01
      1.45657659e-01 1.56115457e-01 1.72274083e-01 1.70328900e-01
      1.13198020e-01 1.25161335e-01 1.77652240e-01 2.01125801e-01
      1.87527999e-01 1.51727334e-01 1.09433964e-01 1.31008118e-01
      1.37246564e-01 9.15167704e-02 1.42060027e-01 2.41051659e-01
      2.41051659e-01 2.41051659e-01 1.85373351e-01 1.39763698e-01
      1.08380854e-01 9.58890393e-02 1.39002562e-01 2.27367267e-01
      2.41051659e-01 2.41051659e-01 1.48614407e-01 9.08698216e-02
      7.21582547e-02 9.67544690e-02 1.15035005e-01 9.44868699e-02
      1.89741120e-01 2.41051659e-01 2.41051659e-01 2.01945782e-01
      1.29802778e-01 1.44041568e-01 1.27937675e-01 1.09368585e-01
      1.73167542e-01 1.62649602e-01 2.16992646e-01 2.16992646e-01
      2.16992646e-01 2.16992646e-01 2.02485010e-01 1.09844878e-01
      1.47755384e-01 1.82638764e-01 1.45413935e-01 1.38758153e-01
      1.65706009e-01 2.16992646e-01 1.70029685e-01 1.58950821e-01
      9.66405198e-02 1.43682763e-01 1.31634369e-01 1.31750494e-01
      1.91962913e-01 2.06036106e-01 1.66920900e-01 1.49306670e-01
      2.16992646e-01 1.47508010e-01 1.28857955e-01 1.77795395e-01
      1.46676823e-01 1.28685057e-01 1.55255377e-01 1.52530864e-01
      1.45601556e-01 1.62012205e-01 1.06218681e-01 1.42523915e-01
      1.08424842e-01 1.05661765e-01 8.84568766e-02 1.16446249e-01
      1.62126645e-01 2.12608382e-01 2.12608382e-01 1.85283750e-01
      1.27000481e-01 2.12608382e-01 2.12608382e-01 1.84746981e-01
      1.57913998e-01 1.56149164e-01 1.34443134e-01 1.47424102e-01
      1.84859231e-01 1.63992628e-01 9.14860219e-02 8.34806487e-02
      5.92792220e-02 8.13664943e-02 1.23855032e-01 2.12608382e-01
      2.12608382e-01 1.10332213e-01 7.94210285e-02 2.12608382e-01
      2.12608382e-01 2.12608382e-01 2.01748416e-01 2.06986696e-01
      2.05967396e-01 1.98302269e-01 1.92162141e-01 1.55455112e-01
      1.65557548e-01 2.13673279e-01 2.09515020e-01 1.75866202e-01
      1.57343060e-01 1.00216955e-01 5.26864976e-02 7.10780472e-02
      9.82145369e-02 1.34917825e-01 1.53885022e-01 1.79525271e-01
      1.81089878e-01 1.54443100e-01 1.33505002e-01 1.10801257e-01
      9.95030552e-02 1.27457857e-01 2.13673279e-01 2.13673279e-01
      2.13673279e-01 2.13673279e-01 2.13673279e-01 2.13673279e-01
      1.49447843e-01 1.23305209e-01 1.48856580e-01 2.13673279e-01
      1.45146668e-01 1.75130039e-01 1.79589510e-01 2.13673279e-01
      1.94269061e-01 1.59211770e-01 1.12694062e-01 1.61141977e-01
      1.62232295e-01 1.21471368e-01 8.74307007e-02 9.36453044e-02
      8.47499818e-02 1.30181760e-01 2.30002329e-01 2.30002329e-01
      2.30002329e-01 1.85426846e-01 8.74709859e-02 5.54749966e-02
      7.07926601e-02 7.68710449e-02 1.26350313e-01 2.09086522e-01
      2.30002329e-01 2.30002329e-01 2.07081124e-01 1.34745702e-01
      9.39981565e-02 1.09907575e-01 1.28405333e-01 1.10722542e-01
      1.93621948e-01 2.30002329e-01 2.30002329e-01 1.83511987e-01
      1.54916301e-01 1.34170130e-01 1.47891775e-01 1.22726195e-01
      1.33989289e-01 2.13316843e-01 2.30002329e-01 2.30002329e-01</_>
    <_>
      2.13909775e-01 1.39260560e-01 2.60277778e-01 2.60277778e-01
      2.52189428e-01 1.08622082e-01 5.71772344e-02 4.51201797e-02
      1.73503384e-01 2.60277778e-01 1.26683086e-01 1.15298472e-01
      1.40121281e-01 1.60931781e-01 1.14347100e-01 1.19304240e-01
      1.04654446e-01 2.60277778e-01 4.59684357e-02 4.38896790e-02
      1.44530728e-01 2.60277778e-01 2.60277778e-01 2.04731271e-01
      6.72643483e-02 3.61824110e-02 4.36344482e-02 1.93366081e-01
      1.52421042e-01 1.37250230e-01 1.51529133e-01 1.73438534e-01
      1.91547960e-01 1.24171086e-01 1.51101992e-01 1.40759364e-01
      2.44378611e-01 1.25601441e-01 1.04093462e-01 8.77115577e-02
      1.17810711e-01 1.00372389e-01 1.76292658e-01 1.74969345e-01
      2.44378611e-01 2.44378611e-01 1.37329683e-01 1.08155154e-01
      1.08945362e-01 1.43188924e-01 1.22556366e-01 1.28279492e-01
      1.55674592e-01 2.44378611e-01 2.44378611e-01 2.12611035e-01
      1.46805286e-01 1.20491073e-01 1.23069100e-01 1.51637033e-01
      1.49119347e-01 2.13755250e-01 1.86084330e-01 2.44378611e-01
      1.86875001e-01 1.33933723e-01 1.08988360e-01 1.21356264e-01
      1.36416361e-01 1.43889651e-01 1.68081194e-01 1.77880287e-01
      3.14146250e-01 1.22130066e-01 1.21418424e-01 1.60055920e-01
      2.21216232e-01 1.81924880e-01 1.12383500e-01 1.11329481e-01
      3.14146250e-01 3.14146250e-01 6.96979016e-02 7.04868734e-02
      1.17522635e-01 1.32890582e-01 1.29313350e-01 9.66377333e-02
      9.30199698e-02 3.14146250e-01 2.30037197e-01 1.62117496e-01
      1.47469431e-01 1.33195698e-01 1.74927533e-01 1.78257853e-01
      1.47331029e-01 1.29108936e-01 1.78206891e-01 1.28241226e-01
      7.57840201e-02 1.00465380e-01 1.14017956e-01 1.15923323e-01
      1.30362302e-01 1.22387104e-01 1.03965551e-01 1.05194986e-01
      4.59469371e-02 3.20429876e-02 7.09341466e-02 1.42647296e-01
      2.61483759e-01 2.61483759e-01 1.55429125e-01 6.16060235e-02
      4.75738905e-02 2.46658444e-01 1.58860087e-01 1.75994709e-01
      1.91832930e-01 2.31940106e-01 2.06572637e-01 1.25971094e-01
      1.40889972e-01 1.32395312e-01 3.96539643e-02 2.83208396e-02
      4.86501157e-02 9.55239534e-02 2.61483759e-01 2.61483759e-01
      2.61483759e-01 1.95117027e-01 6.97203726e-02 1.84155777e-01
      7.86698833e-02 9.70820412e-02 1.42762616e-01 2.20783636e-01
      1.89643607e-01 2.05134451e-01 1.53023615e-01 1.27689004e-01
      2.22967222e-01 2.22967222e-01 2.19434991e-01 2.06579134e-01
      2.22200274e-01 2.22967222e-01 1.67796329e-01 2.22967222e-01
      2.22967222e-01 2.22967222e-01 2.01160729e-01 1.27981946e-01
      1.08751908e-01 1.11534670e-01 1.42033160e-01 1.61621898e-01
      2.08009288e-01 2.22967222e-01 1.88661799e-01 1.13629997e-01
      1.14307091e-01 1.45374179e-01 2.02627480e-01 1.29735529e-01
      1.42957017e-01 1.20697238e-01 1.62169874e-01 9.54985544e-02
      8.74778628e-02 7.90814981e-02 9.29381847e-02 1.05554141e-01
      8.87445584e-02 1.21320672e-01 1.38857916e-01 1.55441552e-01
      2.07574472e-01 1.74700320e-01 1.53108999e-01 1.53238252e-01
      1.78709954e-01 1.75673157e-01 1.94703773e-01 1.80508971e-01
      2.07574472e-01 1.37883797e-01 9.46024731e-02 1.59968257e-01
      2.00524822e-01 2.07574472e-01 1.58412412e-01 1.60875365e-01
      1.09842651e-01 1.49131507e-01 1.36363447e-01 1.23764321e-01
      1.16402075e-01 1.47842884e-01 1.52092218e-01 1.36593014e-01
      1.97264671e-01 2.07574472e-01 2.07574472e-01 1.24568813e-01
      1.21181726e-01 1.33065462e-01 1.90257311e-01 2.07574472e-01
      1.98835328e-01 1.84609324e-01 1.43214732e-01 1.46177843e-01
      3.99170779e-02 4.03965302e-02 3.15076299e-02 7.05046207e-02
      2.77906984e-01 2.77906984e-01 2.77906984e-01 1.82883784e-01
      6.19836859e-02 7.20216706e-02 3.53894234e-02 4.09023874e-02
      6.37147054e-02 1.68398902e-01 1.99190855e-01 2.77906984e-01
      1.54124156e-01 9.60602984e-02 7.28552192e-02 8.98674428e-02
      1.52200162e-01 1.19858086e-01 2.16506064e-01 1.84916526e-01
      2.77906984e-01 1.98733702e-01 7.26530924e-02 5.78832105e-02
      6.51345477e-02 1.65325060e-01 1.62066668e-01 1.72992274e-01
      1.85827821e-01 2.77906984e-01 2.52796173e-01 8.85998532e-02
      1.55943021e-01 9.52854529e-02 1.09202340e-01 1.26462772e-01
      2.03505188e-01 1.78956509e-01 2.09718347e-01 1.90022141e-01
      2.09718347e-01 1.25498027e-01 1.54634714e-01 1.34099334e-01
      1.37419209e-01 1.89295352e-01 1.48450717e-01 1.77372932e-01
      1.79863870e-01 2.09718347e-01 1.44931570e-01 1.07332043e-01
      1.30181253e-01 1.50463611e-01 1.79222330e-01 2.09718347e-01
      2.09718347e-01 2.09718347e-01 1.85566127e-01 1.69079930e-01
      1.64997563e-01 1.33764878e-01 1.14655443e-01 1.62678882e-01
      1.74367473e-01 1.48999691e-01 1.27941996e-01 2.09718347e-01
      1.33730203e-01 1.65359333e-01 1.32526562e-01 1.24098778e-01
      1.83032021e-01 1.60600483e-01 2.04516485e-01 2.04516485e-01
      2.04516485e-01 1.56658202e-01 1.83107242e-01 1.31067023e-01
      1.49738953e-01 1.66990951e-01 1.96211383e-01 1.70110404e-01
      1.59826428e-01 1.77907631e-01 1.54273897e-01 1.80797637e-01
      1.68986022e-01 1.06829718e-01 1.59012452e-01 1.73518419e-01
      1.52935579e-01 1.66103676e-01 2.04516485e-01 1.94031641e-01
      1.79081708e-01 1.57111675e-01 1.00782581e-01 1.34065852e-01
      1.40439168e-01 1.62546977e-01 1.87145963e-01 1.90900430e-01</_>
    <_>
      1.66550785e-01 1.78429455e-01 2.44535431e-01 1.27189025e-01
      2.42482856e-01 6.45840392e-02 8.67462009e-02 6.12134598e-02
      1.64521977e-01 2.44535431e-01 2.29253501e-01 2.42821470e-01
      2.07969368e-01 2.44535431e-01 1.40328437e-01 9.92546231e-02
      7.55775198e-02 2.44535431e-01 1.98823109e-01 7.45399371e-02
      1.00204580e-01 1.50268644e-01 2.44535431e-01 9.99529213e-02
      1.00914098e-01 5.52745499e-02 1.85370073e-01 1.42402917e-01
      9.62062776e-02 1.19207628e-01 2.11456746e-01 2.44535431e-01
      1.50314763e-01 8.30047801e-02 3.63790579e-02 1.30829006e-01
      1.98698521e-01 2.30088592e-01 2.30088592e-01 1.97745070e-01
      2.30088592e-01 1.26927510e-01 4.05209996e-02 4.30989191e-02
      2.03359947e-01 1.88255787e-01 2.24978715e-01 1.81026563e-01
      1.66080639e-01 2.30088592e-01 1.23059779e-01 1.28452852e-01
      1.44712374e-01 2.30088592e-01 5.04162684e-02 9.18296799e-02
      1.39906153e-01 1.68357402e-01 1.92954555e-01 1.16030283e-01
      6.51300773e-02 2.44857781e-02 3.73791866e-02 1.29409283e-01
      1.04424000e-01 1.41472220e-01 1.82750076e-01 2.30088592e-01
      1.79326847e-01 2.30088592e-01 1.43522948e-01 1.97295323e-01
      9.28904563e-02 8.10934529e-02 7.85528272e-02 1.03449807e-01
      2.29161069e-01 1.26647353e-01 2.29161069e-01 2.17866004e-01
      2.29161069e-01 8.82788673e-02 5.22949360e-02 5.47998957e-02
      8.65624845e-02 1.53287649e-01 1.39275968e-01 2.29161069e-01
      1.85953632e-01 1.37121871e-01 1.25261664e-01 5.95963113e-02
      8.19067210e-02 1.30995929e-01 2.29161069e-01 1.67668551e-01
      2.29161069e-01 2.01964483e-01 2.01679394e-01 1.66927084e-01
      5.63584901e-02 6.11983947e-02 1.51535705e-01 2.29161069e-01
      2.29161069e-01 2.29161069e-01 2.29161069e-01 2.21905947e-01
      2.49975011e-01 1.06920384e-01 2.20647961e-01 2.37049356e-01
      2.53998429e-01 1.29509002e-01 8.41366127e-02 4.97209318e-02
      2.13157222e-01 1.75046578e-01 1.09350048e-01 2.53998429e-01
      2.53998429e-01 2.53998429e-01 1.78772599e-01 7.19810948e-02
      4.15523164e-02 1.53133541e-01 7.78833702e-02 1.61868349e-01
      2.53998429e-01 2.53998429e-01 1.54028520e-01 7.17402548e-02
      3.36919688e-02 3.17240432e-02 6.42403737e-02 5.79320267e-02
      9.16035771e-02 2.53998429e-01 2.53998429e-01 1.51684180e-01
      9.85385999e-02 6.99537173e-02 6.70842081e-02 6.78278431e-02
      1.30326614e-01 1.04117423e-01 2.00174257e-01 1.89944923e-01
      2.00525388e-01 1.38910905e-01 7.08298460e-02 3.42513807e-02
      9.44687352e-02 2.38591105e-01 1.18745461e-01 1.98815450e-01
      1.61792234e-01 2.38591105e-01 2.24857822e-01 1.81536660e-01
      1.20740883e-01 2.38591105e-01 1.93989888e-01 8.71825814e-02
      1.31915659e-01 1.30845413e-01 1.31899223e-01 1.28383458e-01
      8.76750797e-02 1.07189737e-01 1.89984217e-01 2.38591105e-01
      1.66579708e-01 1.66937009e-01 1.39790967e-01 2.38591105e-01
      1.60051793e-01 1.04213297e-01 1.37933284e-01 2.38591105e-01
      1.68665498e-01 6.18760325e-02 9.87050533e-02 1.04091108e-01
      2.21299842e-01 1.32662371e-01 2.11649135e-01 1.26050249e-01
      1.90171733e-01 1.67453825e-01 8.28297883e-02 1.42132998e-01
      2.21299842e-01 2.21299842e-01 1.94956169e-01 2.11958945e-01
      1.57735869e-01 1.90992311e-01 2.21299842e-01 2.21299842e-01
      1.37086570e-01 8.25998336e-02 1.20550498e-01 6.37494624e-02
      5.95493913e-02 5.82892187e-02 1.49202809e-01 2.21299842e-01
      2.21299842e-01 2.21299842e-01 2.21299842e-01 2.21299842e-01
      1.15173891e-01 6.34168535e-02 8.11053514e-02 2.09930286e-01
      5.52582666e-02 1.11121565e-01 2.26239473e-01 2.26239473e-01
      2.26239473e-01 1.35221452e-01 8.94195586e-02 6.11729883e-02
      6.44369945e-02 1.14098005e-01 1.03728101e-01 1.19913630e-01
      1.27891064e-01 1.20700553e-01 9.75707099e-02 1.21228062e-01
      1.09178238e-01 1.22879513e-01 1.48123622e-01 9.47122201e-02
      1.46512628e-01 1.06820337e-01 2.26239473e-01 1.97307006e-01
      2.26239473e-01 1.96480542e-01 1.58534184e-01 2.26239473e-01
      2.09262595e-01 1.92092314e-01 2.26239473e-01 2.26239473e-01
      1.61290050e-01 2.26239473e-01 2.06983253e-01 2.26239473e-01
      1.28539026e-01 8.63552317e-02 5.73371239e-02 5.38040400e-02
      8.04077238e-02 5.04150242e-02 5.48782237e-02 9.40023139e-02
      1.24882810e-01 2.35860258e-01 1.68374643e-01 1.01275444e-01
      1.37527317e-01 2.09848568e-01 9.66427475e-02 9.31192264e-02
      1.49301291e-01 2.35860258e-01 2.18173772e-01 1.70152634e-01
      1.07747234e-01 1.86609551e-01 2.22604334e-01 9.32278931e-02
      1.57558277e-01 1.59904405e-01 1.90089554e-01 2.35860258e-01
      2.35860258e-01 1.44658223e-01 2.35860258e-01 2.35860258e-01
      1.38510883e-01 2.02174962e-01 2.25872412e-01 2.35860258e-01
      2.32240438e-01 2.32240438e-01 1.10242866e-01 1.37678891e-01
      1.90130711e-01 1.32161766e-01 1.16819307e-01 1.01852499e-01
      2.32240438e-01 2.32240438e-01 2.01595739e-01 1.33590326e-01
      1.12640239e-01 1.79255918e-01 1.13043457e-01 8.07234570e-02
      7.47181401e-02 1.78368956e-01 2.32240438e-01 1.69678494e-01
      1.26535967e-01 2.32240438e-01 2.32240438e-01 1.79420754e-01
      1.89371780e-01 1.37332067e-01 2.32240438e-01 2.23561078e-01
      7.93079212e-02 8.84256214e-02 1.27296105e-01 1.64902583e-01
      1.28291428e-01 1.03657022e-01 6.85415044e-02 1.62308499e-01</_>
    <_>
      1.49531841e-01 1.99452356e-01 1.80992022e-01 1.96742743e-01
      1.60853550e-01 1.31092682e-01 1.01171210e-01 8.84552225e-02
      1.02438070e-01 1.86580867e-01 2.15658709e-01 2.05939621e-01
      1.75390407e-01 1.67061448e-01 1.33761242e-01 9.32052284e-02
      1.18806221e-01 1.24484792e-01 1.09571680e-01 1.12483650e-01
      1.53712511e-01 2.15658709e-01 2.15658709e-01 2.15658709e-01
      2.15658709e-01 1.72185123e-01 1.28393620e-01 1.90050557e-01
      8.75336677e-02 1.36248931e-01 1.65220425e-01 2.15658709e-01
      2.11569265e-01 1.60502195e-01 1.68828040e-01 1.95960492e-01
      1.51466891e-01 1.40174806e-01 1.43326968e-01 1.22870803e-01
      1.01967394e-01 1.17231429e-01 8.53735805e-02 1.59190685e-01
      1.42832816e-01 1.25162780e-01 8.01861659e-02 9.59354565e-02
      9.14208889e-02 8.33003372e-02 1.03673831e-01 1.50779948e-01
      2.18745902e-01 1.97696343e-01 2.00462922e-01 1.13671310e-01
      1.72561169e-01 1.80166632e-01 2.18745902e-01 1.92862615e-01
      1.38816819e-01 1.53999373e-01 1.96227059e-01 2.18745902e-01
      1.87389672e-01 2.18745902e-01 2.18745902e-01 2.18745902e-01
      2.18745902e-01 2.13970408e-01 1.59751877e-01 2.18745902e-01
      1.61054537e-01 5.59200868e-02 6.73523620e-02 7.56478533e-02
      8.83754492e-02 9.68427658e-02 1.81304559e-01 2.28629991e-01
      2.28629991e-01 2.07598016e-01 4.21169214e-02 4.49427813e-02
      6.65324852e-02 1.02923334e-01 1.80930793e-01 2.28629991e-01
      2.08984107e-01 2.28629991e-01 1.88835964e-01 1.46168962e-01
      1.69054121e-01 1.72766238e-01 2.28629991e-01 2.20954269e-01
      2.21145660e-01 1.70174375e-01 1.96433812e-01 1.16004236e-01
      6.06434084e-02 6.36323839e-02 1.07191168e-01 2.28629991e-01
      2.28629991e-01 2.28629991e-01 1.52515650e-01 1.23199590e-01
      1.08805753e-01 8.58907998e-02 1.17593512e-01 1.51589930e-01
      2.17954472e-01 2.17954472e-01 2.17954472e-01 2.17954472e-01
      1.92596972e-01 1.90010250e-01 6.26666099e-02 1.22540779e-01
      1.66591883e-01 2.17954472e-01 1.95395261e-01 2.17954472e-01
      2.17954472e-01 2.06556574e-01 1.14854954e-01 1.34977996e-01
      1.09043531e-01 1.05626874e-01 1.26257345e-01 1.11814901e-01
      1.69719338e-01 2.17954472e-01 1.74571902e-01 1.39321059e-01
      6.04747124e-02 1.02930948e-01 1.35178149e-01 1.76797688e-01
      1.19345725e-01 2.17954472e-01 2.17954472e-01 1.62480220e-01
      1.68733120e-01 7.02467114e-02 9.89543349e-02 1.39458284e-01
      2.20723152e-01 1.28721580e-01 1.80819988e-01 1.33927241e-01
      1.73982546e-01 1.86360300e-01 1.73419088e-01 1.87873349e-01
      1.66231975e-01 2.20723152e-01 2.20723152e-01 1.96587011e-01
      1.08963482e-01 1.83143109e-01 1.82058915e-01 4.99875695e-02
      4.84188795e-02 1.02596201e-01 2.14949653e-01 1.01860516e-01
      1.99403107e-01 1.37317270e-01 1.86670452e-01 2.20723152e-01
      1.55934080e-01 9.59071815e-02 1.47730336e-01 2.20723152e-01
      1.73843428e-01 1.62323117e-01 1.52000651e-01 2.20723152e-01
      1.55666366e-01 1.53708309e-01 1.27964884e-01 1.51377812e-01
      2.25648150e-01 1.84571609e-01 1.49524227e-01 8.92093331e-02
      1.25593692e-01 9.35682505e-02 7.09286034e-02 7.93325678e-02
      1.65341273e-01 2.25648150e-01 1.94301963e-01 1.20910026e-01
      7.23271742e-02 6.74586892e-02 2.25648150e-01 2.25648150e-01
      1.52971655e-01 2.10805967e-01 2.25648150e-01 1.62609696e-01
      1.06776707e-01 1.48393735e-01 2.25648150e-01 2.03742296e-01
      2.25648150e-01 2.25648150e-01 2.25648150e-01 2.25648150e-01
      1.03069611e-01 7.42148384e-02 8.82789344e-02 1.36230856e-01
      1.38817772e-01 1.64029926e-01 1.43977076e-01 1.12389557e-01
      1.57825053e-01 1.11369982e-01 1.57768577e-01 1.76594049e-01
      1.36553019e-01 1.96335047e-01 1.23843625e-01 1.24575935e-01
      1.20259531e-01 1.63238093e-01 9.74860415e-02 1.73110172e-01
      2.29741335e-01 1.98499396e-01 1.67054579e-01 1.27455026e-01
      1.00860842e-01 1.26584783e-01 1.91593200e-01 1.95267141e-01
      2.29741335e-01 2.29741335e-01 1.87617809e-01 2.29741335e-01
      1.69069320e-01 9.03078541e-02 1.42123193e-01 1.80472210e-01
      1.45954266e-01 1.40989915e-01 2.04363853e-01 2.29741335e-01
      2.25502893e-01 7.71955550e-02 5.21772988e-02 8.37914944e-02
      1.74909160e-01 1.10100336e-01 1.65418848e-01 1.90035716e-01
      2.25502893e-01 2.25502893e-01 1.94428861e-01 1.07187927e-01
      1.78524986e-01 2.25502893e-01 2.25502893e-01 2.23883361e-01
      2.25502893e-01 2.25502893e-01 1.88547432e-01 8.05782452e-02
      5.42610250e-02 9.08493474e-02 1.74780801e-01 1.41831830e-01
      1.21470399e-01 1.47244066e-01 2.06757233e-01 9.57570076e-02
      1.00717612e-01 1.00468516e-01 1.43018737e-01 2.24758744e-01
      2.25502893e-01 1.48178354e-01 1.32352188e-01 1.21696383e-01
      2.25665286e-01 2.25665286e-01 1.96706995e-01 1.96840808e-01
      2.25665286e-01 1.95609331e-01 1.30006522e-01 1.98671892e-01
      2.25665286e-01 2.20799863e-01 2.25665286e-01 2.25665286e-01
      2.11315155e-01 1.74706385e-01 8.71448740e-02 6.78807348e-02
      7.67652094e-02 1.75791979e-01 1.03365451e-01 1.32893443e-01
      9.88639221e-02 1.19060844e-01 2.25665286e-01 1.90170124e-01
      1.09173976e-01 7.99120143e-02 8.40487853e-02 1.63139448e-01
      2.25665286e-01 2.23441824e-01 1.21238776e-01 1.50600910e-01
      8.95499438e-02 6.15354441e-02 2.94505563e-02 7.01597780e-02</_>
    <_>
      1.62187070e-01 1.74596772e-01 9.46606323e-02 6.78636432e-02
      8.68243054e-02 1.07913107e-01 2.25230947e-01 2.41837859e-01
      2.41786942e-01 8.59128386e-02 1.06836505e-01 8.99917632e-02
      6.30221739e-02 1.35496274e-01 2.41837859e-01 2.41837859e-01
      2.41837859e-01 1.59556478e-01 1.58586696e-01 1.23516947e-01
      1.03069685e-01 1.01076268e-01 1.38264835e-01 1.79528296e-01
      1.80330276e-01 1.93241775e-01 1.21370696e-01 1.60043031e-01
      1.27572402e-01 1.23104200e-01 1.20138817e-01 1.46864280e-01
      2.38588765e-01 2.41837859e-01 2.41837859e-01 1.61562696e-01
      1.10393092e-01 7.66253173e-02 5.90987280e-02 5.91470115e-02
      2.13780060e-01 2.27480397e-01 2.27480397e-01 2.27480397e-01
      1.40115052e-01 2.11566746e-01 1.53230131e-01 1.01028681e-01
      1.12074368e-01 2.27480397e-01 2.11699426e-01 1.76489234e-01
      1.42565623e-01 2.27480397e-01 1.17707916e-01 1.21330582e-01
      1.04645014e-01 1.25354066e-01 1.42215878e-01 2.27480397e-01
      2.27480397e-01 2.27480397e-01 1.37152269e-01 1.59614161e-01
      1.91524163e-01 1.35956556e-01 1.44858837e-01 1.23882905e-01
      1.55976698e-01 1.87026739e-01 1.40994534e-01 1.25019103e-01
      1.80526301e-01 1.71553373e-01 1.37373105e-01 1.41228378e-01
      2.20587417e-01 2.05783129e-01 1.49172112e-01 1.05676867e-01
      2.02145815e-01 1.30498037e-01 8.80840570e-02 1.18634783e-01
      1.30360901e-01 1.85075834e-01 2.10378602e-01 2.09775731e-01
      1.47466630e-01 1.87284365e-01 1.68365106e-01 1.73869371e-01
      1.14814341e-01 9.18568149e-02 8.83771852e-02 1.23226307e-01
      1.39326051e-01 1.29675582e-01 1.31398037e-01 2.13400349e-01
      1.60492390e-01 1.59351408e-01 1.15449399e-01 2.07393110e-01
      2.20587417e-01 2.20587417e-01 2.20587417e-01 2.01941416e-01
      1.43010348e-01 1.14610106e-01 9.15246755e-02 1.14789441e-01
      1.72907487e-01 1.88382223e-01 1.61171705e-01 1.64511725e-01
      9.74486619e-02 1.38862878e-01 1.02539785e-01 1.14855498e-01
      1.56701177e-01 1.52936026e-01 1.84100971e-01 1.89330190e-01
      1.85896978e-01 1.24345578e-01 1.56236500e-01 1.95252061e-01
      1.63433626e-01 1.85396865e-01 1.99049443e-01 1.81925371e-01
      1.68258935e-01 1.81461513e-01 1.51435807e-01 1.41309381e-01
      1.72990456e-01 1.90993831e-01 2.04010531e-01 2.04010531e-01
      1.88424990e-01 2.04010531e-01 2.04010531e-01 1.87996998e-01
      1.37141287e-01 1.15732901e-01 1.34200931e-01 1.67898938e-01
      1.41013414e-01 2.10407063e-01 2.10407063e-01 1.75929442e-01
      1.29828379e-01 2.10407063e-01 1.79038629e-01 9.15454626e-02
      1.08431861e-01 1.06488973e-01 1.70482814e-01 1.75073087e-01
      1.46513000e-01 1.84068024e-01 1.76239520e-01 1.41002193e-01
      1.93654045e-01 2.10407063e-01 1.80858731e-01 1.87173560e-01
      1.91999629e-01 1.73347682e-01 1.68953106e-01 2.10407063e-01
      1.74487963e-01 1.09685071e-01 1.19503148e-01 1.41326636e-01
      1.51451930e-01 1.64362743e-01 1.71033010e-01 2.10407063e-01
      2.22340599e-01 1.59674108e-01 5.33611663e-02 5.49136028e-02
      7.96426386e-02 1.17004015e-01 1.28187791e-01 1.70962870e-01
      2.01974437e-01 1.97551340e-01 1.54927164e-01 1.02390595e-01
      9.42825750e-02 1.85883552e-01 2.29161024e-01 2.29161024e-01
      2.29161024e-01 2.18481123e-01 2.15335444e-01 1.37478441e-01
      5.87103590e-02 7.02212974e-02 1.48876250e-01 1.52804360e-01
      1.67655841e-01 1.97994724e-01 2.29161024e-01 1.07569188e-01
      7.52025470e-02 4.76097316e-02 8.59859139e-02 2.00153708e-01
      2.29161024e-01 2.29161024e-01 2.29161024e-01 1.57216355e-01
      1.48994192e-01 1.75976649e-01 1.53314292e-01 1.37131199e-01
      1.33275867e-01 1.15873426e-01 1.16821103e-01 1.32131979e-01
      1.37090683e-01 1.58171967e-01 1.65660247e-01 1.59645066e-01
      1.47764713e-01 2.04191044e-01 1.46501988e-01 1.88100621e-01
      2.05818534e-01 2.07867026e-01 1.95326492e-01 1.59341425e-01
      1.31810233e-01 1.28422856e-01 1.53097093e-01 1.43911585e-01
      1.79155841e-01 2.02810526e-01 1.97080150e-01 2.07867026e-01
      1.29269555e-01 1.37134701e-01 1.16880506e-01 1.70767799e-01
      1.80730805e-01 2.07867026e-01 2.07867026e-01 2.07867026e-01
      1.39580056e-01 1.18679635e-01 1.58178642e-01 1.51836976e-01
      2.10392714e-01 1.21163502e-01 1.52134195e-01 1.82933435e-01
      1.94891229e-01 1.56721666e-01 1.19894251e-01 1.25282675e-01
      1.13753818e-01 1.44337580e-01 1.12994805e-01 1.46152765e-01
      1.38736174e-01 1.74690977e-01 2.10392714e-01 1.13761142e-01
      1.96584076e-01 1.30162537e-01 2.10392714e-01 1.33744121e-01
      2.10392714e-01 2.10392714e-01 2.10392714e-01 2.10392714e-01
      1.90859392e-01 2.10392714e-01 1.42863393e-01 1.99580774e-01
      1.04358949e-01 1.50760964e-01 1.39970288e-01 2.10392714e-01
      1.55349568e-01 1.28797725e-01 1.07045524e-01 1.41090840e-01
      1.91934913e-01 1.75390303e-01 1.81066528e-01 1.39857709e-01
      1.81203842e-01 8.12471956e-02 1.02939002e-01 8.72417986e-02
      1.77494466e-01 2.18868420e-01 2.18868420e-01 1.86734304e-01
      1.22728266e-01 8.62211511e-02 2.03220814e-01 2.18868420e-01
      2.18868420e-01 1.99402928e-01 2.18868420e-01 1.46643087e-01
      1.26805544e-01 1.04241759e-01 1.69643193e-01 1.32216290e-01
      2.18868420e-01 2.18868420e-01 2.18868420e-01 2.18868420e-01
      1.30094603e-01 1.19577236e-01 1.09990858e-01 9.50941294e-02</_>
    <_>
      2.39800617e-01 2.39800617e-01 1.57955661e-01 1.67552933e-01
      2.39800617e-01 1.07978605e-01 7.88288191e-02 1.37251794e-01
      2.39800617e-01 2.39800617e-01 2.39800617e-01 2.36962333e-01
      2.39800617e-01 2.39800617e-01 1.10046856e-01 6.83092922e-02
      9.70556363e-02 2.39800617e-01 5.16810603e-02 7.33644366e-02
      1.41448498e-01 2.21374601e-01 2.06178278e-01 1.33369774e-01
      1.07706793e-01 7.08421245e-02 8.33097398e-02 6.77110627e-02
      8.33137557e-02 1.74981773e-01 2.24392399e-01 1.99523181e-01
      8.47155824e-02 4.68533486e-02 2.23591235e-02 6.98505044e-02
      2.39191338e-01 2.39191338e-01 1.38502941e-01 1.96212769e-01
      2.24159390e-01 8.84668678e-02 7.32012689e-02 7.70386234e-02
      2.39191338e-01 2.39191338e-01 2.39191338e-01 1.31703019e-01
      1.68756008e-01 2.39191338e-01 1.75261557e-01 2.39191338e-01
      2.39191338e-01 2.39191338e-01 1.57578364e-01 1.36458993e-01
      9.77906361e-02 1.48864120e-01 1.48504183e-01 6.91812783e-02
      6.73216060e-02 5.18728010e-02 9.73314419e-02 1.81923449e-01
      1.45954728e-01 8.08622539e-02 9.28953812e-02 1.52416870e-01
      1.23518765e-01 1.11815244e-01 1.36815861e-01 1.45322621e-01
      1.61872298e-01 5.00400215e-02 1.53432459e-01 1.64695010e-01
      3.52186531e-01 2.38541365e-01 2.62786150e-01 1.79456577e-01
      2.03927651e-01 4.09210250e-02 6.95215492e-03 8.59818384e-02
      7.75225982e-02 3.52186531e-01 1.39111161e-01 9.02843922e-02
      3.70065458e-02 3.61536741e-02 9.66755226e-02 4.16546054e-02
      8.93453509e-02 7.58392289e-02 3.52186531e-01 1.87664703e-01
      1.11441575e-01 9.94693711e-02 1.15444757e-01 1.40432790e-01
      1.19935982e-02 6.20746389e-02 4.64340448e-02 3.52186531e-01
      1.35947287e-01 6.51424527e-02 3.51328775e-02 1.74367517e-01
      6.89559728e-02 7.65103474e-02 7.54632428e-02 1.71841830e-01
      2.29096040e-01 2.29096040e-01 2.29096040e-01 1.62540138e-01
      1.24317229e-01 6.51497617e-02 5.54115325e-02 6.10515065e-02
      1.29184559e-01 2.16190711e-01 1.72117040e-01 2.06466690e-01
      1.28126085e-01 1.02974966e-01 1.01682611e-01 9.78875086e-02
      1.63758010e-01 1.55022919e-01 2.26871610e-01 2.09627941e-01
      2.29096040e-01 2.29096040e-01 1.57009646e-01 5.43843731e-02
      5.78127913e-02 8.11517388e-02 1.65915012e-01 2.29096040e-01
      2.29096040e-01 2.29096040e-01 2.29096040e-01 1.80681497e-01
      1.69150889e-01 1.10496886e-01 8.49058926e-02 1.79691985e-01
      2.34680802e-01 1.52834594e-01 1.96272269e-01 1.32755980e-01
      1.73152611e-01 1.56501710e-01 1.11099415e-01 1.20091692e-01
      1.38295129e-01 1.82167172e-01 1.23320639e-01 1.34157375e-01
      1.11800648e-01 1.34358108e-01 1.36399135e-01 9.69915912e-02
      8.67030025e-02 2.06435859e-01 2.34680802e-01 2.34680802e-01
      2.34680802e-01 2.34680802e-01 2.34680802e-01 1.91223323e-01
      1.16709583e-01 9.62962657e-02 1.11958981e-01 1.19674392e-01
      1.05711833e-01 1.55831829e-01 2.34680802e-01 2.34680802e-01
      1.85090646e-01 5.86909950e-02 6.84216246e-02 8.10177922e-02
      3.17901909e-01 9.93817076e-02 9.30478722e-02 6.69989064e-02
      1.95661128e-01 3.17901909e-01 4.86482456e-02 7.06227943e-02
      6.82153776e-02 3.17901909e-01 9.63980183e-02 9.85556096e-02
      5.49487397e-02 3.17901909e-01 1.63997576e-01 1.27572119e-01
      9.20924321e-02 7.82594159e-02 1.26107216e-01 4.10128981e-02
      6.42488152e-02 8.29368234e-02 1.64282039e-01 3.16694707e-01
      1.92370668e-01 2.00013727e-01 1.29613578e-01 1.64005399e-01
      6.48908466e-02 7.55592585e-02 5.42860031e-02 3.17901909e-01
      9.40051749e-02 8.15186501e-02 1.79800242e-01 1.46012723e-01
      1.87979341e-01 9.58305523e-02 1.35672227e-01 1.29978821e-01
      1.16582252e-01 9.36095342e-02 9.48821753e-02 2.25223154e-01
      2.28138521e-01 2.28138521e-01 1.20810725e-01 1.50046840e-01
      1.35537401e-01 1.30162805e-01 1.73972040e-01 7.16179609e-02
      1.30587548e-01 1.42070681e-01 2.28138521e-01 1.20038316e-01
      1.82252020e-01 1.80004284e-01 2.03046143e-01 2.28138521e-01
      8.92913863e-02 2.22966701e-01 2.28138521e-01 2.28138521e-01
      1.62569001e-01 1.86509177e-01 1.30941659e-01 2.28138521e-01
      1.62425354e-01 1.06726475e-01 1.85887039e-01 2.21693546e-01
      2.31377244e-01 1.30829692e-01 1.42763570e-01 1.80250734e-01
      1.92890972e-01 1.46067560e-01 6.48654103e-02 5.46711646e-02
      4.40514460e-02 6.13305494e-02 5.91124520e-02 7.91573003e-02
      1.62451372e-01 1.86769947e-01 2.31377244e-01 1.34128466e-01
      2.08989084e-01 2.31377244e-01 2.31377244e-01 1.73131391e-01
      1.48341507e-01 1.50230840e-01 2.31377244e-01 2.31377244e-01
      1.79169342e-01 1.99363947e-01 1.33885190e-01 2.00947538e-01
      1.01266541e-01 8.56177062e-02 1.07659578e-01 2.16778904e-01
      2.32706189e-01 2.32706189e-01 1.56561509e-01 1.21032111e-01
      1.06345639e-01 5.34147173e-02 8.30445513e-02 1.58715501e-01
      2.32706189e-01 1.61859259e-01 2.32706189e-01 2.32706189e-01
      1.80080205e-01 1.23573899e-01 1.02604464e-01 7.30680749e-02
      7.72640780e-02 1.41922310e-01 2.27783576e-01 2.32706189e-01
      2.32706189e-01 2.32706189e-01 2.32706189e-01 8.93816277e-02
      6.75044134e-02 8.35207626e-02 1.78757921e-01 1.49395287e-01
      1.50669962e-01 1.37280270e-01 1.50033236e-01 2.32706189e-01
      1.28964677e-01 7.42125213e-02 8.07757005e-02 1.90958038e-01</_>
    <_>
      1.54336005e-01 1.19370461e-01 2.12155923e-01 2.12155923e-01
      2.12155923e-01 2.12155923e-01 1.60831049e-01 1.31973237e-01
      1.81761861e-01 1.19220570e-01 1.11972600e-01 1.60568237e-01
      1.79899216e-01 1.69066235e-01 1.83443844e-01 1.68026119e-01
      1.81566089e-01 1.29483119e-01 8.61706957e-02 1.14509150e-01
      1.89128950e-01 2.12155923e-01 1.51864424e-01 1.31156817e-01
      1.09215826e-01 8.43136534e-02 1.15715556e-01 1.06417455e-01
      1.33939087e-01 1.70954108e-01 2.12155923e-01 2.05056638e-01
      2.12155923e-01 1.97025090e-01 1.95604771e-01 1.91583008e-01
      1.09235905e-01 1.17797926e-01 1.12037815e-01 1.48133770e-01
      1.13732532e-01 1.48584947e-01 1.39853776e-01 1.70903623e-01
      1.42422825e-01 1.30494326e-01 1.35037750e-01 1.24543302e-01
      1.48218140e-01 1.21641062e-01 1.11980475e-01 1.17816254e-01
      1.35564134e-01 1.40294269e-01 2.05949888e-01 1.82672471e-01
      2.03118771e-01 2.05949888e-01 1.98540300e-01 2.05949888e-01
      1.79005191e-01 1.83413044e-01 2.04961136e-01 2.05949888e-01
      1.89782754e-01 2.05949888e-01 2.05949888e-01 2.02040106e-01
      1.88710943e-01 1.84915602e-01 1.52680993e-01 1.88064024e-01
      1.72605231e-01 1.97140306e-01 1.71738431e-01 1.59972563e-01
      1.68545038e-01 1.39726087e-01 1.57799110e-01 1.37955815e-01
      1.56851888e-01 9.39983502e-02 1.10010952e-01 9.92462486e-02
      1.03843771e-01 1.55634493e-01 1.67648509e-01 1.82085589e-01
      1.33748084e-01 9.17711258e-02 2.14106962e-01 2.14106962e-01
      2.14106962e-01 2.14106962e-01 2.14106962e-01 1.90724239e-01
      2.11277410e-01 1.86248377e-01 2.07163259e-01 1.05986618e-01
      1.56410754e-01 1.55584961e-01 2.14106962e-01 2.14106962e-01
      1.68336302e-01 1.21463299e-01 1.14388600e-01 9.32531357e-02
      1.13655865e-01 1.25219002e-01 1.32169172e-01 1.93924934e-01
      2.25213483e-01 2.22390056e-01 2.23389283e-01 1.11064143e-01
      8.66155028e-02 1.00965209e-01 1.29066229e-01 1.41021699e-01
      1.89858600e-01 2.26219252e-01 2.26219252e-01 2.18901038e-01
      1.70537800e-01 1.65088207e-01 1.35542154e-01 8.89240429e-02
      7.83764869e-02 1.18001357e-01 2.12668628e-01 2.26219252e-01
      2.26219252e-01 2.26219252e-01 1.58388704e-01 5.91843538e-02
      5.93340695e-02 5.64312935e-02 7.33062699e-02 1.40802875e-01
      2.26219252e-01 2.26219252e-01 1.73780143e-01 1.28891304e-01
      2.15414792e-01 2.03614116e-01 1.71988711e-01 2.15414792e-01
      2.15414792e-01 2.15414792e-01 1.66215241e-01 2.05474347e-01
      2.15414792e-01 2.15414792e-01 2.15414792e-01 2.15414792e-01
      2.15414792e-01 2.15414792e-01 2.15414792e-01 1.79160804e-01
      1.97672665e-01 2.15414792e-01 6.94604889e-02 6.66020587e-02
      4.09540050e-02 6.98390827e-02 1.33075714e-01 1.77615538e-01
      1.23257071e-01 1.17966764e-01 1.09365299e-01 1.09039173e-01
      1.06977008e-01 9.14766490e-02 1.17600165e-01 1.43983945e-01
      1.47539288e-01 9.71943289e-02 1.07231654e-01 1.17594585e-01
      1.92211181e-01 1.83881387e-01 2.15422466e-01 2.09927380e-01
      2.23629236e-01 1.45851314e-01 1.82400107e-01 1.56573907e-01
      1.55006170e-01 8.83529186e-02 1.37027487e-01 1.91078350e-01
      2.16282591e-01 2.23629236e-01 1.15020104e-01 9.41355303e-02
      7.79058114e-02 6.33936077e-02 1.78664103e-01 1.75462738e-01
      2.23629236e-01 2.23629236e-01 1.99594021e-01 1.25177473e-01
      1.42374679e-01 1.12966731e-01 1.28643468e-01 1.21193446e-01
      1.78926468e-01 2.23629236e-01 2.23629236e-01 2.23629236e-01
      9.28462818e-02 9.04810876e-02 6.86661229e-02 7.28278235e-02
      1.70366839e-01 8.61684605e-02 6.44029155e-02 6.02589808e-02
      1.01363420e-01 2.14814380e-01 2.59244174e-01 2.59244174e-01
      2.29136914e-01 7.57203475e-02 6.33580759e-02 4.80796881e-02
      4.41295020e-02 9.62443724e-02 2.59244174e-01 2.59244174e-01
      2.59244174e-01 1.54803798e-01 8.00684169e-02 7.10284784e-02
      6.01869896e-02 4.18180078e-02 1.05770491e-01 1.49258330e-01
      2.59244174e-01 2.05017120e-01 1.29720658e-01 1.21376649e-01
      7.68772736e-02 5.89415431e-02 4.44244258e-02 9.54249576e-02
      2.18647987e-01 2.59244174e-01 2.59244174e-01 2.59244174e-01
      9.81153026e-02 6.21269904e-02 5.87567911e-02 7.81715810e-02
      9.31059718e-02 1.98353872e-01 2.18505099e-01 1.46731004e-01
      1.01998381e-01 1.76872805e-01 1.76285222e-01 1.95688963e-01
      1.85113445e-01 1.18273966e-01 1.60184368e-01 1.36998862e-01
      1.17435150e-01 1.19438551e-01 2.30032235e-01 1.30476639e-01
      8.85057747e-02 5.51115386e-02 4.90122661e-02 1.20836347e-01
      2.30032235e-01 2.30032235e-01 2.30032235e-01 2.30032235e-01
      2.30032235e-01 2.30032235e-01 2.11287096e-01 1.10919729e-01
      1.57250598e-01 1.97172597e-01 1.91829532e-01 2.30032235e-01
      1.43872038e-01 2.41432056e-01 2.41432056e-01 2.41432056e-01
      1.25503629e-01 1.04457058e-01 1.02252133e-01 9.29013118e-02
      1.09047964e-01 8.78583342e-02 2.09684044e-01 2.41432056e-01
      2.41432056e-01 1.70894906e-01 8.68729949e-02 7.37997368e-02
      6.46289214e-02 5.49881719e-02 1.57655343e-01 2.41432056e-01
      2.41432056e-01 2.41432056e-01 1.30926222e-01 1.63249910e-01
      1.71474531e-01 1.23930432e-01 1.30346581e-01 3.89642417e-02
      1.42490834e-01 2.41432056e-01 2.41432056e-01 2.09354416e-01
      1.53064921e-01 1.01956941e-01 6.32877946e-02 3.72513905e-02</_>
    <_>
      2.32527241e-01 2.41681024e-01 2.41681024e-01 1.39760196e-01
      1.22664846e-01 1.13406405e-01 8.79507735e-02 1.04166359e-01
      2.28243366e-01 1.78122699e-01 2.01536819e-01 2.29459599e-01
      1.31626427e-01 1.48133457e-01 1.25245392e-01 1.34029612e-01
      1.32335126e-01 1.68117493e-01 1.35741100e-01 8.11259151e-02
      1.43791884e-01 1.11175090e-01 1.24429494e-01 1.78347483e-01
      1.40446618e-01 1.77534491e-01 1.97677255e-01 2.08062306e-01
      1.44681081e-01 1.47195876e-01 1.66232705e-01 1.32450223e-01
      1.54462293e-01 1.35020956e-01 1.94073528e-01 2.41681024e-01
      1.76690206e-01 1.62611648e-01 1.94527283e-01 1.10595509e-01
      1.19173661e-01 1.34340510e-01 2.15091631e-01 1.78873822e-01
      1.25261098e-01 2.15278015e-01 1.70457765e-01 1.64925575e-01
      8.23638216e-02 1.09716348e-01 1.19662963e-01 1.50356576e-01
      1.53547153e-01 1.82059169e-01 2.15278015e-01 2.15278015e-01
      1.90280542e-01 1.90844789e-01 1.23620383e-01 1.26647845e-01
      1.29552230e-01 1.85691029e-01 2.15278015e-01 2.15278015e-01
      1.97772771e-01 1.43804416e-01 1.33471698e-01 1.33139953e-01
      1.18212387e-01 1.11415438e-01 2.00455666e-01 2.15278015e-01
      1.61885485e-01 1.63055465e-01 1.54477134e-01 9.84403491e-02
      1.12505935e-01 1.01416402e-01 9.15945768e-02 1.17926925e-01
      1.48363695e-01 1.40942007e-01 1.17260918e-01 1.36073276e-01
      2.02199161e-01 2.97814310e-01 1.62153363e-01 1.05155513e-01
      1.21145770e-01 1.62815347e-01 2.55177110e-01 1.56573489e-01
      1.28159910e-01 9.87749398e-02 1.04600109e-01 8.51579756e-02
      7.49172643e-02 1.40460357e-01 1.93020910e-01 2.70411074e-01
      1.56586111e-01 1.38727278e-01 1.56485513e-01 2.97814310e-01
      1.54102772e-01 1.37654394e-01 1.58489913e-01 2.97814310e-01
      1.28129423e-01 5.01826778e-02 6.00564033e-02 6.65766448e-02
      9.48304012e-02 1.09854952e-01 9.60400477e-02 1.21770032e-01
      1.70917481e-01 1.81819290e-01 8.10330585e-02 8.95743743e-02
      1.02945179e-01 1.26646429e-01 1.45495594e-01 1.39634520e-01
      1.50937825e-01 2.39568219e-01 2.39568219e-01 8.69588926e-02
      6.96616620e-02 1.16544001e-01 1.86300248e-01 1.66607305e-01
      1.88804299e-01 1.71983555e-01 2.39568219e-01 2.39568219e-01
      1.27579466e-01 1.75908968e-01 2.02796176e-01 2.39568219e-01
      2.39568219e-01 2.39568219e-01 2.39568219e-01 2.39568219e-01
      1.80943176e-01 1.06386147e-01 9.14381519e-02 1.07268363e-01
      1.17497563e-01 1.17965810e-01 9.61597636e-02 1.07554592e-01
      2.02570736e-01 1.57146811e-01 9.86332670e-02 6.55764863e-02
      9.03472230e-02 1.03472941e-01 9.57762375e-02 9.35015902e-02
      1.00673303e-01 1.43226489e-01 2.29932413e-01 1.57391816e-01
      1.83319971e-01 2.29932413e-01 2.29932413e-01 2.29891881e-01
      2.29932413e-01 1.90004900e-01 2.29932413e-01 2.29932413e-01
      1.30483270e-01 1.00707315e-01 2.02184856e-01 2.29325205e-01
      2.03299075e-01 2.03166410e-01 1.31873488e-01 2.29932413e-01
      2.02456117e-01 1.34503230e-01 1.02550447e-01 1.05608046e-01
      1.13299936e-01 1.06040604e-01 1.20734602e-01 1.30492717e-01
      1.58499092e-01 2.10274801e-01 1.41816229e-01 1.29421383e-01
      1.37458563e-01 1.80237159e-01 1.39384732e-01 1.26995623e-01
      1.81906790e-01 2.10274801e-01 2.10274801e-01 1.56446502e-01
      1.12130418e-01 1.56548977e-01 1.74845055e-01 1.99077517e-01
      2.10274801e-01 2.10274801e-01 2.10274801e-01 2.10274801e-01
      1.23674728e-01 1.44107148e-01 1.69906512e-01 1.64982468e-01
      1.72391385e-01 1.88409433e-01 2.07880914e-01 1.93917185e-01
      2.29233548e-01 7.53475875e-02 4.92944382e-02 9.35365409e-02
      1.14421606e-01 1.10105827e-01 2.29233548e-01 2.29233548e-01
      2.29233548e-01 2.29233548e-01 1.50576368e-01 1.78703904e-01
      2.29233548e-01 2.09449708e-01 1.81273028e-01 2.29233548e-01
      2.21665114e-01 2.29233548e-01 6.91834316e-02 2.80277822e-02
      9.49335005e-03 1.49770938e-02 2.82441415e-02 3.92191559e-02
      2.07796142e-01 2.07958013e-01 1.35833040e-01 1.38577566e-01
      7.13498294e-02 6.14663661e-02 9.62731391e-02 1.66807577e-01
      2.14426100e-01 2.29233548e-01 2.29233548e-01 1.59502178e-01
      2.25587279e-01 1.85013905e-01 2.25587279e-01 2.25587279e-01
      2.25587279e-01 1.57620102e-01 1.85190022e-01 1.47030398e-01
      2.25587279e-01 2.25587279e-01 1.30425990e-01 1.35463566e-01
      1.88489437e-01 1.66391328e-01 1.60375565e-01 1.53945386e-01
      1.37491465e-01 2.25587279e-01 1.24974497e-01 1.00958079e-01
      1.14545792e-01 1.26416445e-01 1.72757044e-01 1.72046691e-01
      2.25587279e-01 1.91390842e-01 1.44960791e-01 1.41623586e-01
      8.89247805e-02 1.08282275e-01 9.94946435e-02 1.38795570e-01
      9.00182799e-02 9.32289585e-02 1.11499749e-01 1.96619928e-01
      1.94324106e-01 9.63853523e-02 8.85758996e-02 9.90957618e-02
      9.12562460e-02 1.45637825e-01 2.01173484e-01 1.93391815e-01
      2.18421772e-01 1.69014618e-01 8.30169171e-02 9.16470364e-02
      9.21167955e-02 8.47757906e-02 1.82668880e-01 2.18421772e-01
      2.18421772e-01 2.18421772e-01 1.87879950e-01 1.10099539e-01
      1.56183913e-01 7.28089884e-02 1.80753857e-01 1.22862920e-01
      1.11459084e-01 1.40195727e-01 2.18421772e-01 1.87252909e-01
      1.39823318e-01 1.92315713e-01 1.21180110e-01 2.04283670e-01
      2.18421772e-01 2.18421772e-01 2.14829385e-01 2.18421772e-01</_>
    <_>
      2.65937179e-01 2.65937179e-01 2.65937179e-01 1.35022432e-01
      1.05466135e-01 6.88448325e-02 2.43205354e-02 3.41956504e-02
      1.64628401e-01 2.65937179e-01 2.56504208e-01 1.82588980e-01
      9.72626805e-02 1.40826136e-01 7.11406544e-02 3.96077894e-02
      7.36078247e-02 1.89725682e-01 2.65937179e-01 1.56965882e-01
      1.03814535e-01 1.17785431e-01 1.38497174e-01 5.19161597e-02
      2.47152019e-02 7.18481764e-02 2.47493833e-01 2.65937179e-01
      2.06012204e-01 1.57358676e-01 5.96996099e-02 1.37738332e-01
      1.11569613e-01 6.80247322e-02 1.33613154e-01 2.65937179e-01
      1.69069469e-01 1.08609013e-01 9.55071673e-02 5.15545905e-02
      1.61006615e-01 4.85565215e-02 2.55273152e-02 5.03055118e-02
      1.58425555e-01 1.66593969e-01 7.82318711e-02 6.68395534e-02
      8.61298516e-02 2.59364843e-01 8.49839151e-02 1.87618379e-02
      3.60006168e-02 1.92803040e-01 2.59364843e-01 2.59364843e-01
      2.59364843e-01 9.37588662e-02 2.52996683e-01 1.38470694e-01
      5.04382998e-02 8.23213756e-02 2.57214695e-01 2.59364843e-01
      2.32118264e-01 2.46564105e-01 1.48416847e-01 2.59364843e-01
      1.24659732e-01 3.95104699e-02 6.88377842e-02 2.59364843e-01
      1.66426018e-01 3.36991027e-02 2.30471436e-02 1.06599927e-01
      3.51747572e-01 9.32124257e-02 1.52784856e-02 2.14826111e-02
      1.71767190e-01 1.75798595e-01 6.51657488e-03 2.50485120e-03
      1.85639560e-02 2.02304557e-01 1.34257069e-02 2.65274895e-03
      6.91606337e-03 1.45787939e-01 3.51747572e-01 9.14596319e-02
      7.47405887e-02 1.33002028e-01 3.51747572e-01 6.16348200e-02
      4.49634381e-02 6.64056838e-02 3.29817563e-01 3.51747572e-01
      6.43342137e-02 4.86902371e-02 8.32934007e-02 1.83198571e-01
      4.54861261e-02 3.07936221e-02 6.20218478e-02 3.51747572e-01
      2.38265082e-01 1.82965100e-01 7.82543868e-02 1.25319391e-01
      2.38265082e-01 7.47525841e-02 4.74928580e-02 9.43821296e-02
      2.38265082e-01 2.38265082e-01 2.10477859e-01 1.36170849e-01
      6.93620220e-02 1.31022796e-01 1.06867552e-01 7.19542280e-02
      1.45354360e-01 2.38265082e-01 2.18635723e-01 1.00860193e-01
      9.70426053e-02 1.38196066e-01 2.38265082e-01 1.18650302e-01
      2.38265082e-01 2.38265082e-01 2.38265082e-01 1.62480265e-01
      1.32837266e-01 1.59841314e-01 1.46304756e-01 1.75706536e-01
      9.96713713e-02 7.29161799e-02 1.34465843e-01 1.90552190e-01
      2.42484257e-01 2.42484257e-01 2.42484257e-01 1.19351782e-01
      2.42484257e-01 1.76042169e-01 7.11030439e-02 1.10109910e-01
      2.42484257e-01 2.42484257e-01 2.42484257e-01 2.42484257e-01
      1.65112510e-01 2.42484257e-01 1.53643981e-01 5.72197735e-02
      1.05536960e-01 2.42484257e-01 1.45561352e-01 1.34665608e-01
      1.26834124e-01 9.01098624e-02 1.41137555e-01 9.22761559e-02
      4.60955016e-02 9.16593447e-02 1.64000109e-01 1.62477061e-01
      1.18122250e-01 9.37579945e-02 8.02679211e-02 1.70057967e-01
      9.99730378e-02 7.09137172e-02 1.01081848e-01 2.06789136e-01
      2.47415185e-01 1.12574644e-01 1.09424554e-01 1.32271335e-01
      2.47415185e-01 9.33150426e-02 8.46652463e-02 1.17337681e-01
      2.47415185e-01 2.47415185e-01 1.30436689e-01 1.65581375e-01
      1.22471742e-01 1.99730024e-01 1.17252186e-01 1.00199714e-01
      1.19776547e-01 2.47415185e-01 1.14902638e-01 7.28035644e-02
      6.68521151e-02 7.24194199e-02 1.21152036e-01 1.14440210e-01
      1.37683362e-01 1.58608168e-01 1.76746666e-01 2.21363559e-01
      1.33477256e-01 2.43096009e-01 9.08750072e-02 2.47415185e-01
      1.36394396e-01 1.88907310e-01 1.99947610e-01 2.47415185e-01
      6.60380349e-02 5.50018921e-02 9.03461725e-02 1.20965421e-01
      1.54379383e-01 1.13137633e-01 2.30843470e-01 2.30843470e-01
      1.62554920e-01 1.13660902e-01 1.16975509e-01 1.76867247e-01
      1.79110169e-01 1.77149877e-01 9.14312303e-02 6.73208535e-02
      9.41676050e-02 1.32064015e-01 4.21926938e-02 6.99907988e-02
      1.69074431e-01 1.79612488e-01 2.13918075e-01 1.84638694e-01
      2.30843470e-01 2.08163962e-01 6.04854822e-02 1.88472196e-01
      2.30843470e-01 2.30843470e-01 2.30843470e-01 2.30843470e-01
      1.46308720e-01 2.30843470e-01 2.08301395e-01 1.51365519e-01
      2.11860031e-01 1.47924200e-01 1.56881958e-01 9.99867469e-02
      1.85017377e-01 7.50822872e-02 4.65499014e-02 9.11870673e-02
      2.34685212e-01 2.11471125e-01 9.10677463e-02 7.14784414e-02
      6.36617392e-02 2.35464454e-01 1.02169462e-01 9.51528996e-02
      1.50550693e-01 2.35464454e-01 2.35464454e-01 2.35464454e-01
      1.65454298e-01 9.68989879e-02 1.23706482e-01 4.96890247e-02
      1.57750368e-01 2.35464454e-01 2.35464454e-01 2.35464454e-01
      1.15646377e-01 6.60569519e-02 7.02938959e-02 1.90994203e-01
      1.32618353e-01 1.77061886e-01 2.35464454e-01 2.35464454e-01
      1.33492783e-01 6.93884864e-02 4.76120450e-02 8.12395066e-02
      1.35773405e-01 1.07833944e-01 1.18603341e-01 1.52017251e-01
      1.96689323e-01 2.29349047e-01 1.21146873e-01 1.82870522e-01
      1.50582448e-01 2.29349047e-01 1.45444915e-01 1.45608261e-01
      1.78889558e-01 2.29349047e-01 1.89957067e-01 9.24472585e-02
      7.76900724e-02 1.25151247e-01 1.81782424e-01 1.61554217e-01
      1.69636145e-01 1.89469352e-01 1.87673658e-01 2.28303075e-01
      2.29349047e-01 2.29349047e-01 2.02261716e-01 2.29349047e-01
      1.69764161e-01 1.23021871e-01 1.03436872e-01 1.62692264e-01</_>
    <_>
      3.76021937e-02 2.24551722e-01 2.41446733e-01 2.41446733e-01
      1.57118097e-01 4.86061797e-02 4.13518697e-02 2.73167938e-02
      2.48558782e-02 9.13147405e-02 2.13824868e-01 2.41446733e-01
      2.41446733e-01 2.41446733e-01 1.98062390e-01 1.83544964e-01
      1.09947316e-01 6.25558347e-02 7.60660022e-02 1.12054683e-01
      2.35207528e-01 2.41446733e-01 2.41446733e-01 1.83223724e-01
      9.12689716e-02 6.11039363e-02 8.97859633e-02 9.88860503e-02
      1.22401752e-01 1.28449336e-01 2.26604223e-01 2.41446733e-01
      1.85064703e-01 1.45168632e-01 1.27319917e-01 1.21542506e-01
      1.40180215e-01 2.05068305e-01 1.39207244e-01 1.73321158e-01
      2.00794592e-01 2.05068305e-01 2.05068305e-01 1.38835505e-01
      1.11755386e-01 1.78939983e-01 1.28110364e-01 9.43786949e-02
      1.19964786e-01 1.63747281e-01 1.53490707e-01 1.80140987e-01
      1.51501119e-01 1.71050668e-01 1.83479846e-01 1.60482287e-01
      9.15660411e-02 1.33433670e-01 2.05068305e-01 1.90964192e-01
      2.05068305e-01 1.50994271e-01 1.90683737e-01 1.61054567e-01
      1.47005409e-01 1.41178757e-01 1.10387780e-01 2.05068305e-01
      1.73332542e-01 2.05068305e-01 1.81459159e-01 1.78294793e-01
      1.67030692e-01 8.94968286e-02 9.66071114e-02 1.25352904e-01
      1.46803290e-01 1.33956909e-01 1.89293399e-01 1.89338639e-01
      1.82159245e-01 8.08189437e-02 9.19015557e-02 9.13810804e-02
      1.19549297e-01 1.86676100e-01 2.42434502e-01 2.42434502e-01
      2.33146280e-01 1.04621649e-01 1.49507821e-01 1.17157951e-01
      1.31869465e-01 9.86669660e-02 1.47584870e-01 1.84794635e-01
      2.23988086e-01 1.85105473e-01 1.69837177e-01 1.06206208e-01
      1.12430938e-01 1.38577223e-01 1.65693581e-01 2.42434502e-01
      2.42434502e-01 2.42434502e-01 2.00424939e-01 1.32128805e-01
      1.16872959e-01 8.84745121e-02 2.42687106e-01 2.42687106e-01
      2.42687106e-01 2.42687106e-01 1.56014085e-01 1.03326157e-01
      1.56775758e-01 1.10014781e-01 1.36308119e-01 1.98583499e-01
      2.01370195e-01 1.93709984e-01 1.49933696e-01 1.15706280e-01
      1.19339272e-01 1.52501598e-01 6.55559525e-02 9.82200131e-02
      2.42687106e-01 2.42687106e-01 2.42687106e-01 2.05496475e-01
      9.47333127e-02 7.84871206e-02 6.92990944e-02 1.21315934e-01
      1.58669412e-01 2.42687106e-01 2.42687106e-01 1.48732603e-01
      1.08391710e-01 6.56863078e-02 5.91091514e-02 8.47191215e-02
      2.07193971e-01 1.56486243e-01 1.10063195e-01 1.12938844e-01
      1.69632509e-01 1.15608871e-01 1.39013886e-01 1.50679365e-01
      2.07193971e-01 2.07193971e-01 1.86915696e-01 1.67526260e-01
      1.32538527e-01 1.99172482e-01 1.83155581e-01 1.89355180e-01
      1.95927963e-01 2.07193971e-01 2.07193971e-01 1.67320773e-01
      1.82922706e-01 1.44147888e-01 9.51143503e-02 1.20406270e-01
      1.28588483e-01 1.01222262e-01 1.39883697e-01 2.07193971e-01
      1.61434993e-01 1.62905797e-01 1.66653305e-01 1.74498484e-01
      2.07193971e-01 1.76962286e-01 1.14195473e-01 1.69003040e-01
      1.55507669e-01 1.28616750e-01 1.16612159e-01 9.48762074e-02
      1.47690684e-01 1.92234203e-01 1.44281909e-01 1.48857832e-01
      1.59714416e-01 7.75809437e-02 7.46031627e-02 1.25028938e-01
      1.91493630e-01 2.29418471e-01 2.29418471e-01 2.29418471e-01
      1.16429009e-01 9.15620849e-02 2.12652057e-01 1.84040964e-01
      1.81984961e-01 1.59424141e-01 1.76811785e-01 1.79138795e-01
      1.27614796e-01 1.00462243e-01 1.59406260e-01 1.64590538e-01
      1.99430436e-01 2.29418471e-01 2.29418471e-01 2.29418471e-01
      2.01246455e-01 1.09103687e-01 9.59229097e-02 1.55796766e-01
      5.38488366e-02 5.19426912e-02 1.72604173e-01 2.49204949e-01
      2.49204949e-01 2.24026278e-01 1.80307806e-01 7.70708099e-02
      4.38657850e-02 1.01748869e-01 9.11899731e-02 1.74560249e-01
      2.02749401e-01 1.46064386e-01 1.26496077e-01 7.55583718e-02
      5.54193929e-02 6.54742271e-02 2.11751118e-01 6.35145530e-02
      5.51930256e-02 1.42359987e-01 2.49204949e-01 2.49204949e-01
      2.49204949e-01 2.49204949e-01 1.97313488e-01 1.81112006e-01
      9.59758982e-02 8.65884945e-02 9.08405185e-02 1.45509183e-01
      2.01814651e-01 2.23851338e-01 1.72411859e-01 2.18334645e-01
      1.62562951e-01 1.26932710e-01 1.54004097e-01 1.47251099e-01
      8.75001550e-02 1.40455425e-01 1.27128422e-01 9.17199552e-02
      9.95847806e-02 1.32492274e-01 1.47819221e-01 2.49215364e-01
      2.49215364e-01 1.65322855e-01 1.63161635e-01 1.39211386e-01
      7.01920763e-02 8.57453421e-02 2.49215364e-01 2.42036372e-01
      2.05411449e-01 8.39407220e-02 7.52584934e-02 1.13806851e-01
      1.00687660e-01 1.74045324e-01 2.49215364e-01 2.49215364e-01
      2.49215364e-01 2.49215364e-01 2.14052126e-01 9.59766731e-02
      7.13694021e-02 7.54356682e-02 1.02051705e-01 2.11718068e-01
      1.37421444e-01 1.61756054e-01 2.28068903e-01 2.28068903e-01
      1.75823241e-01 1.10350490e-01 6.89895228e-02 4.23373394e-02
      8.98652226e-02 1.66080147e-01 1.81851134e-01 2.28068903e-01
      1.76996037e-01 2.28068903e-01 2.05734953e-01 7.63398856e-02
      6.30127639e-02 1.75275341e-01 1.60725147e-01 2.28068903e-01
      2.28068903e-01 2.28068903e-01 1.81533977e-01 9.30541083e-02
      6.82999566e-02 8.17436352e-02 1.29668519e-01 1.27672866e-01
      1.33381471e-01 2.02494293e-01 2.24772185e-01 2.28068903e-01
      2.28068903e-01 1.01720043e-01 7.47291818e-02 1.21780857e-01</_>
    <_>
      1.09468542e-01 1.66607231e-01 1.63965210e-01 1.90103427e-01
      1.24972470e-01 1.65732652e-01 1.99224472e-01 1.18800141e-01
      1.41318396e-01 1.09227963e-01 1.25851691e-01 1.38227746e-01
      1.97302312e-01 1.44155607e-01 2.21952558e-01 2.21952558e-01
      1.32899478e-01 1.46130711e-01 1.90505862e-01 2.21952558e-01
      2.21942171e-01 1.88536257e-01 1.15659349e-01 1.04672968e-01
      1.21520422e-01 9.33546424e-02 1.44777775e-01 2.21952558e-01
      2.21952558e-01 2.21952558e-01 2.21952558e-01 1.16739020e-01
      1.47328362e-01 1.79031447e-01 9.63344499e-02 1.45513967e-01
      1.24505788e-01 1.50762990e-01 2.21259430e-01 1.84653670e-01
      1.37450039e-01 2.21259430e-01 1.48229674e-01 1.33046821e-01
      1.69963121e-01 2.03882396e-01 2.21259430e-01 2.21259430e-01
      1.85233817e-01 1.54542223e-01 1.98125809e-01 9.24767703e-02
      1.48913100e-01 1.94077849e-01 2.21259430e-01 2.21259430e-01
      2.21259430e-01 2.14705169e-01 8.87032896e-02 9.70422179e-02
      1.03031524e-01 7.52990097e-02 1.21834435e-01 1.26980036e-01
      2.13114515e-01 2.21259430e-01 2.09327117e-01 1.30899459e-01
      8.76059905e-02 6.18898720e-02 6.18962385e-02 8.12883824e-02
      2.26141095e-01 1.95806593e-01 1.68978587e-01 9.86278951e-02
      1.72424108e-01 1.44264475e-01 1.55171320e-01 1.32490188e-01
      2.10730523e-01 2.26141095e-01 9.51279104e-02 9.26147848e-02
      1.03649691e-01 2.26141095e-01 2.26141095e-01 2.26141095e-01
      1.38909340e-01 2.23445371e-01 1.28315344e-01 1.64745897e-01
      2.10063949e-01 1.42018557e-01 1.67664096e-01 1.12309813e-01
      1.11016348e-01 6.47785664e-02 9.17681307e-02 1.38112783e-01
      1.19543739e-01 1.61549583e-01 1.80659115e-01 2.26141095e-01
      2.26141095e-01 2.15932950e-01 8.71007070e-02 9.52895805e-02
      2.23521188e-01 2.23521188e-01 2.23521188e-01 2.23521188e-01
      1.44472048e-01 1.14840455e-01 9.36405584e-02 8.31687525e-02
      1.15362622e-01 2.23521188e-01 2.23521188e-01 2.23521188e-01
      2.23521188e-01 1.48700893e-01 1.28233135e-01 1.19051315e-01
      1.06467031e-01 1.52581438e-01 1.92099378e-01 1.68740317e-01
      2.23521188e-01 2.05189794e-01 1.55832440e-01 1.39722362e-01
      9.92715508e-02 9.15048271e-02 1.32812515e-01 1.89629108e-01
      1.60689220e-01 2.23521188e-01 1.76095724e-01 1.23531811e-01
      1.28243074e-01 1.07475102e-01 9.98574719e-02 1.20741993e-01
      2.28969127e-01 2.27371916e-01 2.23118931e-01 1.86287805e-01
      1.14424326e-01 1.04188904e-01 1.06846899e-01 1.08504213e-01
      1.37326390e-01 1.78944319e-01 2.28969127e-01 2.28969127e-01
      2.11115673e-01 1.86021030e-01 1.42797858e-01 8.97644609e-02
      9.20819789e-02 1.23313233e-01 1.61808237e-01 2.12672785e-01
      2.23331928e-01 1.23918362e-01 1.13277689e-01 1.06721669e-01
      8.77263024e-02 9.38330367e-02 1.05662443e-01 2.28969127e-01
      2.28969127e-01 2.28969127e-01 1.40149087e-01 1.89972237e-01
      1.41264156e-01 7.57325292e-02 1.17248341e-01 1.84233025e-01
      1.43301398e-01 2.48549238e-01 2.63775676e-01 1.78377897e-01
      1.94176242e-01 1.00654215e-01 4.67476062e-02 4.38801758e-02
      8.06361884e-02 9.59810019e-02 1.62843063e-01 2.63775676e-01
      2.63775676e-01 2.63775676e-01 1.75457641e-01 5.55720776e-02
      3.40380706e-02 4.57521491e-02 2.00999215e-01 2.63775676e-01
      2.63775676e-01 1.44634917e-01 1.19084716e-01 6.66731298e-02
      3.28761674e-02 5.56500405e-02 1.06605053e-01 8.47260579e-02
      2.43935242e-01 2.63775676e-01 2.63775676e-01 1.69379041e-01
      3.56581584e-02 4.08593491e-02 2.05710512e-02 3.29060219e-02
      2.18218282e-01 1.99300334e-01 1.76591948e-01 1.64457485e-01
      2.18218282e-01 1.57583237e-01 9.92998928e-02 1.14801534e-01
      2.18218282e-01 2.18218282e-01 1.79613546e-01 2.15765104e-01
      1.79116800e-01 1.28262326e-01 1.11630321e-01 8.83088037e-02
      9.60749164e-02 1.23276353e-01 2.18218282e-01 2.18218282e-01
      1.81268916e-01 1.34618178e-01 2.02082664e-01 9.10088867e-02
      6.46318346e-02 1.15399547e-01 2.18218282e-01 2.02459425e-01
      1.77282214e-01 2.09533498e-01 1.96587011e-01 1.60839602e-01
      1.17443509e-01 8.05531889e-02 9.81685519e-02 1.35170504e-01
      2.30507821e-01 2.34261557e-01 2.38392219e-01 1.29741639e-01
      1.04553431e-01 1.03700392e-01 8.93407762e-02 1.08961172e-01
      1.16652921e-01 2.38392219e-01 2.38392219e-01 2.38392219e-01
      1.42802507e-01 1.34438142e-01 7.96591267e-02 6.05415106e-02
      1.14942849e-01 1.52788013e-01 2.14087307e-01 2.02117354e-01
      1.93895981e-01 1.66507453e-01 1.72344714e-01 1.22520410e-01
      9.98073816e-02 1.15030289e-01 1.50099322e-01 2.27563307e-01
      2.38392219e-01 2.38392219e-01 1.99862346e-01 1.62333041e-01
      7.23876283e-02 7.88754299e-02 8.47868472e-02 1.11500233e-01
      2.04699680e-01 3.07391047e-01 3.07391047e-01 1.97727755e-01
      7.54677951e-02 3.36571671e-02 2.17929352e-02 4.95788231e-02
      9.76335108e-02 9.10714045e-02 3.07391047e-01 3.07391047e-01
      3.07391047e-01 7.47506917e-02 1.73375998e-02 2.66163535e-02
      1.50618106e-02 3.54744941e-02 1.44999787e-01 3.07391047e-01
      3.07391047e-01 1.92769855e-01 5.12183942e-02 2.50799302e-02
      2.56804526e-02 2.04226635e-02 3.32133546e-02 4.86995019e-02
      2.07799286e-01 3.07391047e-01 1.20718956e-01 2.03095805e-02
      3.81491380e-03 3.25130601e-03 1.85077067e-03 1.27739310e-02</_>
    <_>
      1.00699872e-01 2.07879707e-01 2.19157100e-01 1.76154554e-01
      1.89232513e-01 1.12571910e-01 9.63657722e-02 6.00370876e-02
      1.22917444e-01 1.93333641e-01 2.19157100e-01 2.19157100e-01
      2.19157100e-01 2.19157100e-01 2.19157100e-01 2.19157100e-01
      1.35845482e-01 2.19157100e-01 1.16464324e-01 1.40705198e-01
      1.56197816e-01 1.24666065e-01 2.00796157e-01 1.61095887e-01
      9.78915244e-02 9.82052311e-02 1.50881127e-01 1.31072760e-01
      1.63995296e-01 1.66926429e-01 1.62552848e-01 2.19157100e-01
      1.46823078e-01 1.09021716e-01 1.20272368e-01 1.44943431e-01
      2.06017256e-01 2.08999246e-01 2.24588856e-01 2.24588856e-01
      2.24588856e-01 1.96760491e-01 1.76241934e-01 1.65321186e-01
      2.24588856e-01 1.19427495e-01 1.86145172e-01 2.24588856e-01
      1.51227430e-01 1.17935181e-01 7.72181824e-02 7.78305680e-02
      6.31960183e-02 1.21534221e-01 1.57321230e-01 2.24588856e-01
      2.24588856e-01 1.84546188e-01 1.87544167e-01 1.03946254e-01
      8.24981183e-02 1.19773544e-01 1.56943053e-01 1.22598894e-01
      2.24588856e-01 2.24588856e-01 2.24588856e-01 1.17971107e-01
      5.80080450e-02 4.06760164e-02 5.09562157e-02 8.07200074e-02
      1.54463172e-01 1.68352515e-01 1.72032639e-01 1.07174091e-01
      1.04724251e-01 4.31181304e-02 1.00851446e-01 1.15525886e-01
      1.45154223e-01 1.80293441e-01 7.22774491e-02 7.44215995e-02
      7.25684986e-02 1.48789540e-01 1.85421839e-01 2.41929129e-01
      2.41929129e-01 2.34967425e-01 1.77759975e-01 2.41929129e-01
      2.41929129e-01 1.85018823e-01 1.19581670e-01 4.83148135e-02
      6.67512417e-02 6.54755235e-02 1.15905814e-01 2.34253198e-01
      1.50145128e-01 1.26937091e-01 8.31860825e-02 1.84677854e-01
      1.94204926e-01 2.41929129e-01 2.41929129e-01 2.41929129e-01
      1.21554002e-01 1.49125248e-01 1.76898032e-01 1.81086197e-01
      1.65383905e-01 1.65529400e-01 1.00072518e-01 9.83875841e-02
      1.48132205e-01 1.48806840e-01 2.11802483e-01 2.11802483e-01
      1.63289934e-01 1.25060245e-01 1.57171741e-01 9.62864831e-02
      1.05143838e-01 1.44456521e-01 1.73288777e-01 2.11802483e-01
      2.11802483e-01 1.95011422e-01 1.69274077e-01 2.06181735e-01
      9.49537754e-02 1.34747446e-01 1.68120086e-01 2.11802483e-01
      2.11802483e-01 2.11802483e-01 1.28899321e-01 1.32344976e-01
      2.11802483e-01 1.23965718e-01 1.48827165e-01 2.11802483e-01
      1.51315495e-01 2.51048744e-01 2.61069268e-01 1.49670139e-01
      1.06920026e-01 9.18108746e-02 5.73457889e-02 7.49103054e-02
      1.11334637e-01 1.07968435e-01 2.27646306e-01 2.61069268e-01
      2.61069268e-01 2.61069268e-01 7.66635239e-02 3.29287089e-02
      3.88939045e-02 6.23519756e-02 1.68991446e-01 2.01097280e-01
      1.86755598e-01 1.33357182e-01 1.63931295e-01 1.65675864e-01
      1.18592709e-01 1.19690977e-01 1.83126599e-01 9.16983336e-02
      8.98643509e-02 1.42937049e-01 2.61069268e-01 2.61069268e-01
      2.61069268e-01 1.07437737e-01 5.46456091e-02 7.49498084e-02
      1.31023020e-01 2.42002577e-01 2.69894332e-01 2.69894332e-01
      2.69894332e-01 7.65246302e-02 3.47297639e-02 4.06914018e-02
      7.67968521e-02 1.53883964e-01 1.49881124e-01 1.40817389e-01
      1.01976424e-01 1.45533815e-01 1.73976257e-01 2.69894332e-01
      2.69894332e-01 2.69894332e-01 4.63515446e-02 4.60401773e-02
      1.20558754e-01 2.69894332e-01 2.69894332e-01 2.69894332e-01
      1.29363537e-01 4.13797423e-02 3.00335176e-02 2.22671926e-02
      2.46933401e-02 5.41532785e-02 9.06395614e-02 1.73826620e-01
      1.51702821e-01 1.26377881e-01 5.25516607e-02 3.43403816e-02
      1.66490555e-01 1.95106253e-01 1.48347929e-01 1.28031984e-01
      1.38602287e-01 2.00297505e-01 1.17832780e-01 1.84362039e-01
      1.96275711e-01 2.10832000e-01 1.77342430e-01 1.24701478e-01
      7.89026022e-02 1.33768097e-01 1.65447995e-01 1.55054122e-01
      1.83549240e-01 2.10832000e-01 1.62072748e-01 1.10255428e-01
      8.19835886e-02 1.26691505e-01 1.49873108e-01 1.48609981e-01
      1.44875363e-01 1.32702589e-01 1.45956114e-01 2.10832000e-01
      1.93219781e-01 1.33313552e-01 1.48770571e-01 2.10832000e-01
      2.10832000e-01 2.10832000e-01 2.10832000e-01 1.94216222e-01
      1.32354423e-01 1.45117551e-01 9.23463926e-02 8.49817544e-02
      1.63412750e-01 1.57020733e-01 1.77199170e-01 1.53811783e-01
      1.59769252e-01 1.02363236e-01 9.41666812e-02 6.96672425e-02
      1.52189642e-01 2.24383041e-01 2.24383041e-01 2.12141573e-01
      1.09173924e-01 9.63336751e-02 1.81510404e-01 1.79251283e-01
      9.93088186e-02 1.24568038e-01 2.24383041e-01 2.11799100e-01
      2.24383041e-01 2.24383041e-01 2.08776891e-01 1.38243750e-01
      1.29356593e-01 7.03190863e-02 8.27612504e-02 2.04294115e-01
      2.24383041e-01 2.24383041e-01 2.24383041e-01 1.63902238e-01
      5.00106625e-02 3.24219763e-02 3.35059874e-02 1.06688388e-01
      2.50167876e-01 2.50167876e-01 2.50167876e-01 1.61002353e-01
      5.29713072e-02 4.03744355e-02 4.22843844e-02 7.49127269e-02
      7.80600980e-02 1.15923680e-01 1.20645210e-01 1.58577114e-01
      1.40040219e-01 5.29813804e-02 1.30278677e-01 9.09766853e-02
      4.20911461e-02 6.21005520e-02 1.79022729e-01 2.50167876e-01
      2.50167876e-01 2.50167876e-01 1.59987912e-01 2.21052811e-01
      1.86020479e-01 2.07197487e-01 1.43579409e-01 1.82511061e-01
      2.11718872e-01 2.50167876e-01 2.50167876e-01 2.18379870e-01</_>
    <_>
      1.20212369e-01 1.24783538e-01 1.48724258e-01 1.30273551e-01
      8.76689181e-02 1.00699723e-01 6.60829693e-02 6.71793371e-02
      1.02887161e-01 2.75486559e-01 2.75486559e-01 2.75486559e-01
      1.83186576e-01 7.89519921e-02 6.71332777e-02 9.63663235e-02
      1.03409342e-01 1.91675141e-01 9.37961936e-02 2.64327258e-01
      2.75486559e-01 2.12073281e-01 6.55733347e-02 5.25003113e-02
      8.29846188e-02 7.32524469e-02 4.60241064e-02 2.75486559e-01
      2.75486559e-01 2.75486559e-01 2.75486559e-01 1.09327137e-01
      4.76886779e-02 6.35696650e-02 7.51923323e-02 1.17017195e-01
      2.48507380e-01 2.48507380e-01 1.55872926e-01 8.76632407e-02
      5.56393862e-02 3.49391997e-02 8.94561708e-02 2.34249964e-01
      2.34243780e-01 2.48507380e-01 2.48507380e-01 1.97911814e-01
      1.21351436e-01 1.01577312e-01 5.52840903e-02 1.58798650e-01
      2.48507380e-01 2.48507380e-01 2.48507380e-01 2.04158232e-01
      9.71895456e-02 6.77070171e-02 4.81911525e-02 2.11088248e-02
      5.27631007e-02 1.16953567e-01 1.51751474e-01 2.46156886e-01
      1.70638561e-01 6.17763139e-02 5.25061488e-02 4.63529527e-02
      4.51770760e-02 9.57900584e-02 2.34048560e-01 2.37272426e-01
      1.71856165e-01 1.85610771e-01 1.65220022e-01 1.06339306e-01
      1.10176906e-01 7.41591081e-02 1.17233083e-01 1.95575327e-01
      1.82224795e-01 1.95623577e-01 1.81170866e-01 1.86234504e-01
      2.06211507e-01 2.07009837e-01 1.43620059e-01 1.82389885e-01
      1.86635137e-01 1.83027267e-01 1.77037686e-01 1.41633779e-01
      1.22651570e-01 9.88239124e-02 1.09057173e-01 1.09307200e-01
      1.08801551e-01 1.41836077e-01 1.40767902e-01 1.71087563e-01
      2.00367928e-01 2.07009837e-01 2.07009837e-01 2.07009837e-01
      2.07009837e-01 1.73896208e-01 1.89085156e-01 1.43101647e-01
      8.46856162e-02 2.33505487e-01 2.81662941e-01 2.81662941e-01
      1.76963374e-01 3.16851400e-02 5.67799918e-02 5.20818159e-02
      3.78443636e-02 1.03344642e-01 2.46450245e-01 2.81662941e-01
      2.81662941e-01 1.72968075e-01 6.30171299e-02 7.12221041e-02
      7.37104639e-02 6.39867038e-02 4.01237123e-02 8.05294290e-02
      2.77125448e-01 2.81662941e-01 2.81662941e-01 6.08133897e-02
      3.86711024e-02 3.23286690e-02 2.88498383e-02 5.47357574e-02
      9.56648216e-02 2.05411881e-01 2.74290174e-01 2.36027971e-01
      1.05862811e-01 7.53214136e-02 6.09393455e-02 4.52181064e-02
      2.14558557e-01 2.12175041e-01 2.12601900e-01 2.07678512e-01
      2.18924686e-01 8.86653066e-02 1.23803921e-01 1.67869270e-01
      1.70839325e-01 2.18924686e-01 2.18924686e-01 9.54001844e-02
      7.51027614e-02 1.67516455e-01 1.48169234e-01 1.88522846e-01
      2.18924686e-01 2.18924686e-01 1.21319190e-01 1.25117362e-01
      1.88890800e-01 1.81530908e-01 2.18924686e-01 1.42612651e-01
      1.06684253e-01 8.17380175e-02 9.04750153e-02 1.48153856e-01
      1.34603664e-01 1.36858419e-01 1.17536105e-01 2.18924686e-01
      1.48930654e-01 1.82004750e-01 1.08724691e-01 1.29407600e-01
      1.02732070e-01 8.50998387e-02 7.15652928e-02 6.94658160e-02
      1.33075669e-01 1.71882853e-01 9.38997567e-02 6.32559359e-02
      6.78274184e-02 1.73408017e-01 2.11610988e-01 2.63648868e-01
      2.63648868e-01 2.63648868e-01 2.63648868e-01 2.48872936e-01
      2.11914003e-01 1.72539696e-01 3.81112285e-02 4.87795733e-02
      5.73406406e-02 4.59251329e-02 1.00200109e-01 1.40640676e-01
      9.69130769e-02 4.49668206e-02 4.33505960e-02 1.07437409e-01
      1.13607645e-01 1.39446512e-01 2.02438846e-01 2.63648868e-01
      2.63648868e-01 2.63648868e-01 2.05200985e-01 1.66085660e-01
      2.38116775e-02 3.72722410e-02 1.53649554e-01 2.82422274e-01
      2.82422274e-01 2.82422274e-01 1.34672582e-01 4.74312529e-02
      2.81276908e-02 3.02303340e-02 5.19182347e-02 1.04170233e-01
      2.00664341e-01 2.82422274e-01 2.09453210e-01 1.27251908e-01
      7.00990111e-02 4.31128927e-02 5.74472509e-02 1.75396968e-02
      4.57692333e-02 1.25647023e-01 2.82422274e-01 2.82422274e-01
      2.82422274e-01 1.32891640e-01 4.86352891e-02 9.16637629e-02
      3.68218161e-02 6.05570748e-02 9.50846300e-02 2.46497363e-01
      2.25163028e-01 2.19584048e-01 1.60370976e-01 1.45461410e-01
      7.03722537e-02 8.77403691e-02 1.38325289e-01 1.41474649e-01
      2.21700415e-01 1.92859307e-01 1.32110253e-01 9.24303606e-02
      8.42585787e-02 1.12971865e-01 1.38614476e-01 1.96404219e-01
      1.79572731e-01 2.21700415e-01 1.59439698e-01 1.94352493e-01
      1.19532682e-01 1.12056270e-01 1.97551861e-01 1.42922670e-01
      1.47313341e-01 1.01745650e-01 1.99611917e-01 1.70802236e-01
      1.86472580e-01 1.81434542e-01 2.17174843e-01 2.21700415e-01
      2.21700415e-01 2.21700415e-01 1.56060606e-01 2.10501701e-01
      1.57335475e-01 1.68040559e-01 1.26266554e-01 1.55307159e-01
      7.71299005e-02 1.52933419e-01 2.20763639e-01 1.93555489e-01
      2.22990081e-01 1.28468499e-01 1.29403234e-01 7.89770260e-02
      6.64020851e-02 1.41012296e-01 1.86368808e-01 2.22990081e-01
      2.22990081e-01 2.22990081e-01 2.22990081e-01 2.22990081e-01
      2.16641381e-01 1.74364954e-01 1.47450179e-01 2.22990081e-01
      2.22990081e-01 1.98847517e-01 1.72064587e-01 8.33653063e-02
      6.29854873e-02 4.32886593e-02 5.18684760e-02 8.72038305e-02
      1.47954628e-01 2.22990081e-01 2.22990081e-01 2.22990081e-01
      1.16192997e-01 8.23533088e-02 4.31984067e-02 3.74050103e-02</_>
    <_>
      2.36165792e-01 1.43700793e-01 2.29035676e-01 1.99731126e-01
      2.36165792e-01 1.63082629e-01 1.25097811e-01 1.06332213e-01
      2.36165792e-01 2.23439619e-01 1.54064164e-01 1.57308057e-01
      1.58664748e-01 2.36165792e-01 1.73604354e-01 6.07636608e-02
      1.51927665e-01 2.36165792e-01 1.35738015e-01 1.38192147e-01
      1.98402733e-01 1.42451912e-01 1.93636134e-01 7.08787218e-02
      6.36343285e-02 2.86773723e-02 7.27689490e-02 2.19807148e-01
      1.46740317e-01 1.66153699e-01 1.61961511e-01 2.23658025e-01
      9.13172141e-02 8.56385231e-02 6.08646758e-02 1.69623390e-01
      1.70109585e-01 6.82208166e-02 5.72296679e-02 5.82028553e-02
      1.81147084e-01 8.06381255e-02 5.95997758e-02 1.10259958e-01
      2.15925351e-01 2.44567871e-01 1.15937717e-01 1.79109186e-01
      2.11432770e-01 2.44567871e-01 1.97128728e-01 2.44567871e-01
      2.44567871e-01 2.44567871e-01 1.67226017e-01 6.64544329e-02
      7.24568814e-02 7.23206848e-02 1.63170710e-01 6.67209774e-02
      5.23262806e-02 5.07152975e-02 1.48256987e-01 2.44567871e-01
      1.14318117e-01 1.37187079e-01 1.43333405e-01 2.44567871e-01
      1.84174612e-01 1.73323154e-01 1.79126292e-01 2.41171986e-01
      2.77388185e-01 1.24642499e-01 1.43238753e-01 2.04523996e-01
      2.77388185e-01 2.34430969e-01 2.59180516e-01 2.37934977e-01
      1.98491871e-01 2.53171977e-02 2.81242877e-02 1.19422423e-02
      2.88563520e-02 2.45153606e-01 4.70533557e-02 3.12486365e-02
      3.38170603e-02 1.53982136e-02 2.42152870e-01 1.47394106e-01
      1.28341809e-01 1.78533882e-01 2.77388185e-01 2.08309263e-01
      2.15544909e-01 2.41923347e-01 1.90078527e-01 4.74483259e-02
      3.97834331e-02 1.73531380e-02 3.97021733e-02 2.76466072e-01
      3.83562818e-02 4.37886901e-02 5.25963344e-02 4.20829020e-02
      1.20942995e-01 1.19347006e-01 1.27651006e-01 1.41575158e-01
      1.98940799e-01 1.36001676e-01 1.36066601e-01 1.09388657e-01
      9.36785042e-02 2.16828585e-01 1.68112352e-01 1.67943016e-01
      1.87995151e-01 2.16828585e-01 1.63200617e-01 1.55779392e-01
      1.24819249e-01 2.12652698e-01 1.78752452e-01 1.08552970e-01
      6.69447705e-02 1.18044682e-01 1.65062353e-01 1.37635514e-01
      2.16828585e-01 2.16828585e-01 2.16828585e-01 1.94415733e-01
      1.17172547e-01 9.49268714e-02 1.12153284e-01 2.16828585e-01
      2.13418365e-01 2.16828585e-01 2.16828585e-01 1.69293806e-01
      2.12921947e-01 7.59701729e-02 7.91195855e-02 1.08757295e-01
      1.88886538e-01 7.01640621e-02 5.43882176e-02 6.01009913e-02
      1.54210135e-01 2.44840249e-01 1.28967986e-01 9.13894549e-02
      2.01673314e-01 2.44840249e-01 2.19770998e-01 1.48627385e-01
      1.66742131e-01 2.44840249e-01 1.81796238e-01 6.26734197e-02
      7.48204738e-02 1.14470579e-01 1.76965594e-01 1.15808591e-01
      9.03310850e-02 1.08166881e-01 1.06773525e-01 2.44840249e-01
      1.31237209e-01 1.19029164e-01 2.07581520e-01 2.44840249e-01
      2.44840249e-01 1.85824946e-01 1.82342738e-01 2.44840249e-01
      2.38799199e-01 1.28901675e-01 6.08231723e-02 1.38317809e-01
      2.38799199e-01 1.92339286e-01 1.70738369e-01 1.68905556e-01
      2.38799199e-01 2.17993259e-01 5.64026348e-02 1.55380815e-02
      3.49076912e-02 1.91182882e-01 6.40067533e-02 7.44961575e-02
      7.09482655e-02 2.38799199e-01 2.38799199e-01 1.37269869e-01
      9.42821503e-02 1.27643198e-01 2.38799199e-01 2.06413731e-01
      1.99066475e-01 1.58610910e-01 2.38799199e-01 2.38799199e-01
      8.63376334e-02 5.53868227e-02 6.75561130e-02 1.71337530e-01
      1.42746925e-01 1.31516740e-01 1.15501605e-01 2.38799199e-01
      2.05926627e-01 1.11463673e-01 5.68729192e-02 1.02392733e-01
      1.68195337e-01 1.10851496e-01 2.14042515e-01 2.15690896e-01
      2.15690896e-01 1.18620440e-01 9.03059691e-02 6.34227395e-02
      6.38316646e-02 1.19259238e-01 1.78681657e-01 2.15690896e-01
      2.15690896e-01 1.57370165e-01 1.44537702e-01 9.23485532e-02
      9.80968028e-02 1.15823433e-01 2.00553060e-01 1.75415710e-01
      2.15690896e-01 2.14680046e-01 2.07306027e-01 1.39349833e-01
      1.30360723e-01 1.26517892e-01 1.07273743e-01 2.15690896e-01
      2.15690896e-01 2.15690896e-01 2.15690896e-01 2.15690896e-01
      1.18557326e-01 6.22280277e-02 9.83494297e-02 1.18089408e-01
      1.23519510e-01 1.66102365e-01 1.98752612e-01 2.08037764e-01
      1.11796528e-01 2.09402904e-01 1.26913548e-01 1.53189704e-01
      1.78192809e-01 2.07921237e-01 2.07772210e-01 2.09402904e-01
      2.09402904e-01 2.07673669e-01 1.24511488e-01 1.33440718e-01
      1.14354633e-01 9.03501213e-02 1.68575972e-01 1.48565680e-01
      1.87633425e-01 1.96765438e-01 2.08871379e-01 2.00623065e-01
      1.52042598e-01 9.81195122e-02 9.94925871e-02 1.56233355e-01
      1.56170130e-01 2.09402904e-01 2.09402904e-01 2.09402904e-01
      2.04302475e-01 1.59080476e-01 1.50613889e-01 1.39561862e-01
      1.64928913e-01 1.68621778e-01 2.04302475e-01 1.61074638e-01
      2.04302475e-01 1.64850771e-01 1.50106430e-01 1.70769647e-01
      1.78567454e-01 2.04302475e-01 1.90408096e-01 1.57616362e-01
      1.30528986e-01 1.51806146e-01 1.68801472e-01 1.33322924e-01
      1.07750721e-01 1.21917255e-01 1.25594348e-01 1.12548545e-01
      1.91197008e-01 1.71394482e-01 2.04302475e-01 1.65490344e-01
      1.89710423e-01 2.04302475e-01 2.04302475e-01 1.86992913e-01
      9.27037969e-02 1.31097019e-01 1.33520812e-01 1.89016834e-01</_>
    <_>
      1.17041685e-01 7.44361505e-02 7.73675740e-02 1.45417035e-01
      1.95850402e-01 1.54805332e-01 2.18046576e-01 2.18046576e-01
      1.83762237e-01 4.47333790e-02 6.86890706e-02 1.61168754e-01
      2.06308305e-01 1.99524224e-01 1.90394267e-01 2.18046576e-01
      1.58525065e-01 5.63635677e-02 1.24442980e-01 1.14230096e-01
      1.28413856e-01 2.18046576e-01 2.18046576e-01 1.85731038e-01
      1.94940075e-01 1.69539183e-01 1.90926433e-01 3.51839438e-02
      9.79241729e-02 1.49551600e-01 2.18046576e-01 2.18046576e-01
      2.18046576e-01 2.18046576e-01 1.63533121e-01 7.19772130e-02
      5.26924320e-02 9.92352217e-02 2.17267260e-01 2.17267260e-01
      1.87563553e-01 1.75571829e-01 1.93467811e-01 1.08221985e-01
      5.64182959e-02 1.42526254e-01 1.98850557e-01 2.17267260e-01
      2.17267260e-01 2.17267260e-01 1.48592964e-01 1.78746670e-01
      1.48240700e-01 1.68356597e-01 5.01479506e-02 1.05816998e-01
      1.47124842e-01 1.42434016e-01 1.50359511e-01 2.17267260e-01
      2.17267260e-01 1.67769790e-01 9.84986499e-02 1.40833333e-01
      2.05758199e-01 2.17267260e-01 1.83295816e-01 1.55135185e-01
      1.54456496e-01 1.52089134e-01 1.39463127e-01 1.50512889e-01
      2.03748256e-01 1.85322613e-01 2.29611844e-01 2.35794216e-01
      2.35794216e-01 1.64044589e-01 1.51487648e-01 1.27610460e-01
      2.35794216e-01 2.35794216e-01 2.34496638e-01 2.29035765e-01
      2.35794216e-01 2.35794216e-01 1.83079049e-01 1.69398397e-01
      1.45094380e-01 2.35794216e-01 1.20862953e-01 1.29251242e-01
      1.35872871e-01 1.23606354e-01 1.15345307e-01 7.03107491e-02
      7.05359280e-02 9.00176689e-02 1.06051005e-01 1.29863203e-01
      1.38168201e-01 1.28668681e-01 1.13523506e-01 1.24268509e-01
      7.53842816e-02 8.82837102e-02 9.62193757e-02 1.08687356e-01
      1.16523698e-01 1.09592371e-01 1.29759595e-01 1.35080636e-01
      1.89402997e-01 1.74076155e-01 1.91118404e-01 1.23281159e-01
      1.23285152e-01 8.58137682e-02 1.29141092e-01 1.08503826e-01
      1.08282447e-01 1.11997552e-01 1.97573215e-01 2.15521693e-01
      1.84094191e-01 8.17119181e-02 2.15521693e-01 1.56424865e-01
      1.55103818e-01 1.81771353e-01 2.15521693e-01 2.15521693e-01
      2.15521693e-01 2.15521693e-01 2.15521693e-01 2.04927206e-01
      1.93412840e-01 1.16089001e-01 1.05515480e-01 1.48532063e-01
      1.56257898e-01 2.12188110e-01 1.93888113e-01 1.56733483e-01
      1.73007175e-01 2.13034809e-01 1.32009014e-01 7.89794698e-02
      8.35109130e-02 1.90428689e-01 2.22864106e-01 1.80085093e-01
      1.53093666e-01 2.22864106e-01 1.97744682e-01 1.32328734e-01
      8.49298164e-02 9.03913751e-02 1.05363742e-01 1.28283769e-01
      1.95685983e-01 2.22864106e-01 2.22864106e-01 2.22864106e-01
      1.47160128e-01 8.48325938e-02 1.02649204e-01 1.31038889e-01
      2.10062370e-01 1.73880741e-01 1.66928336e-01 2.22864106e-01
      1.99121460e-01 9.82072577e-02 6.30991831e-02 1.29587471e-01
      9.52226445e-02 1.63000762e-01 2.22864106e-01 2.22864106e-01
      2.17358798e-01 1.62104592e-01 9.29079577e-02 8.99413228e-02
      1.01329997e-01 1.04183219e-01 1.79589316e-01 2.27367401e-01
      2.27367401e-01 1.75572768e-01 1.65388972e-01 1.05671726e-01
      8.49902183e-02 9.95173827e-02 1.32643074e-01 2.27367401e-01
      1.99064642e-01 1.94685116e-01 1.58502340e-01 1.02892444e-01
      5.41398004e-02 8.08412433e-02 1.56568408e-01 2.26182431e-01
      2.27367401e-01 2.27367401e-01 2.27367401e-01 1.12637669e-01
      1.03075817e-01 1.10783383e-01 1.40962973e-01 1.80637300e-01
      2.27367401e-01 2.27367401e-01 1.78967908e-01 1.34099260e-01
      2.18131661e-01 9.74040926e-02 7.94267058e-02 1.39922410e-01
      2.18131661e-01 1.22556686e-01 1.63986728e-01 1.95942849e-01
      2.18131661e-01 1.66450560e-01 7.61155710e-02 9.89692956e-02
      1.00919299e-01 1.83164984e-01 1.10994622e-01 8.91175568e-02
      1.20142907e-01 1.25747561e-01 2.18131661e-01 1.63195759e-01
      1.91574380e-01 2.10447341e-01 2.18131661e-01 8.46132934e-02
      2.13912517e-01 1.83868766e-01 2.14526340e-01 2.18131661e-01
      1.32850572e-01 2.10213855e-01 1.86284468e-01 2.18131661e-01
      1.27302617e-01 1.04018353e-01 1.28017128e-01 1.76660866e-01
      1.81964740e-01 1.17877610e-01 1.24665931e-01 9.53707695e-02
      2.10417375e-01 1.68773025e-01 1.75022453e-01 1.77452996e-01
      1.38374820e-01 2.10516095e-01 1.35873958e-01 9.26808864e-02
      8.76606777e-02 2.10516095e-01 1.25648290e-01 1.43477097e-01
      1.36380702e-01 2.08122909e-01 2.10516095e-01 1.48948565e-01
      2.10516095e-01 1.35040537e-01 2.10516095e-01 1.65742040e-01
      1.83720902e-01 2.03929782e-01 2.10516095e-01 2.10516095e-01
      2.10516095e-01 1.81655109e-01 8.61825943e-02 1.43520251e-01
      8.12480897e-02 1.11004889e-01 1.31016403e-01 2.10516095e-01
      1.37005001e-01 1.70223668e-01 1.55082762e-01 1.60547569e-01
      2.28328139e-01 1.86247453e-01 1.71723410e-01 1.00095488e-01
      1.35238543e-01 5.71951047e-02 1.64736763e-01 2.31869131e-01
      2.31869131e-01 2.31869131e-01 2.20562026e-01 1.79064855e-01
      5.48492782e-02 4.45734523e-02 2.31869131e-01 2.31869131e-01
      2.31869131e-01 1.58478200e-01 1.27788261e-01 6.21412396e-02
      5.77942394e-02 8.46683159e-02 1.71355516e-01 1.43982023e-01
      2.31869131e-01 2.31869131e-01 2.31869131e-01 1.72025055e-01
      7.49136358e-02 4.97555435e-02 6.08199798e-02 9.06408057e-02</_>
    <_>
      1.81261823e-01 1.28815562e-01 1.30692035e-01 1.46806583e-01
      1.65769011e-01 9.32755694e-02 1.24302648e-01 1.28686786e-01
      1.94708586e-01 1.15110375e-01 1.01663888e-01 9.72662121e-02
      9.14759561e-02 9.02368650e-02 1.10402420e-01 1.22575045e-01
      1.88742802e-01 1.59190044e-01 2.23612547e-01 1.36231139e-01
      1.32925600e-01 2.23612547e-01 2.23612547e-01 1.86182559e-01
      1.83099404e-01 1.83156699e-01 2.14543954e-01 2.23612547e-01
      1.71517432e-01 1.17578141e-01 1.35005981e-01 1.95392460e-01
      1.79405242e-01 2.23612547e-01 2.23612547e-01 2.23612547e-01
      1.09249294e-01 1.05204239e-01 1.05661862e-01 1.10021397e-01
      1.04720466e-01 1.35530964e-01 1.28373802e-01 1.97733462e-01
      1.28675088e-01 1.80314183e-01 2.04788670e-01 1.63686439e-01
      1.48063630e-01 1.41294122e-01 1.56607434e-01 1.31405413e-01
      1.56767115e-01 1.70844808e-01 1.95534393e-01 1.00516781e-01
      9.39448029e-02 1.16328225e-01 1.74400747e-01 2.19503924e-01
      2.23991275e-01 2.23991275e-01 2.23991275e-01 1.82560131e-01
      1.13620706e-01 1.22198522e-01 1.17770813e-01 1.89186558e-01
      2.23991275e-01 2.23991275e-01 2.23991275e-01 2.23991275e-01
      1.77756250e-01 2.12123483e-01 1.65893838e-01 1.01046249e-01
      9.46381390e-02 1.29623383e-01 1.23736084e-01 1.37905344e-01
      1.81087121e-01 1.59698188e-01 1.53002173e-01 1.60682186e-01
      1.26062199e-01 1.22465678e-01 1.62371695e-01 2.20061690e-01
      1.79490477e-01 1.79944456e-01 1.36213988e-01 1.24189347e-01
      1.12605661e-01 8.35528299e-02 1.02294490e-01 1.70699611e-01
      2.20061690e-01 2.20061690e-01 2.20061690e-01 2.04145014e-01
      1.04986906e-01 1.11823939e-01 1.03236280e-01 1.93637162e-01
      2.20061690e-01 2.20061690e-01 2.20061690e-01 2.20061690e-01
      1.55809656e-01 8.32074955e-02 5.45517467e-02 1.00179054e-01
      2.21403241e-01 1.50697112e-01 1.19061746e-01 1.21592462e-01
      1.41437188e-01 2.62187302e-01 1.23184197e-01 6.46508485e-02
      9.93684456e-02 1.32413641e-01 1.27572030e-01 2.12414756e-01
      2.62187302e-01 2.62187302e-01 1.35228515e-01 7.43825287e-02
      6.53596371e-02 7.00363070e-02 1.75129771e-01 2.14875028e-01
      1.63602933e-01 1.39732108e-01 1.36029094e-01 2.62187302e-01
      1.54204667e-01 7.61644542e-02 6.95420951e-02 1.41702667e-01
      1.55809283e-01 2.41783381e-01 2.62187302e-01 2.62187302e-01
      2.01072440e-01 5.25108390e-02 5.19133881e-02 7.24136531e-02
      7.05401599e-02 1.04109630e-01 2.05177143e-01 2.80247301e-01
      2.80247301e-01 1.00139216e-01 3.28982584e-02 4.19038571e-02
      4.02493961e-02 6.65644631e-02 9.40298811e-02 1.37217224e-01
      2.05950335e-01 1.62995920e-01 2.80247301e-01 1.18962675e-01
      5.23030646e-02 5.19128144e-02 5.43705896e-02 7.67493770e-02
      2.40907103e-01 2.80247301e-01 2.80247301e-01 2.80247301e-01
      1.45318627e-01 5.56271262e-02 4.52489033e-02 5.50650656e-02
      6.36621714e-02 1.56436428e-01 2.80247301e-01 2.80247301e-01
      1.17150418e-01 6.55893832e-02 8.11594203e-02 9.01743919e-02
